648 100 451
rant 0.002759979572147131 -0.0014201959129422903 0.002466014586389065 0.0039653480052948 -0.0015969661762937903 -0.004203437827527523 4.37980197602883E-4 -0.004916806239634752 0.001738973893225193 0.002316879341378808 0.0017593727679923177 -0.002043218584731221 0.0013382286997511983 -0.0047478629276156425 -0.004442950244992971 -8.743549697101116E-4 -0.003119552042335272 3.6592460674000904E-5 -0.0019401202443987131 -0.0031812265515327454 -0.0028168524149805307 -0.001999440835788846 0.0037298898678272963 5.384795367717743E-4 0.0037392794620245695 5.28806122019887E-4 0.004313658457249403 -9.464527247473598E-4 -6.110158283263445E-4 1.8852278299164027E-4 0.0049307988956570625 0.0030527447815984488 -2.6451866142451763E-4 -0.004127442836761475 -0.004469757899641991 0.0012988457456231117 0.0023811368737369776 0.0011019057128578424 -0.004912571050226688 -0.00245654652826488 -0.0013003598432987928 0.004520484711974859 -0.001906949677504599 -0.001786941895261407 -0.0019881906919181347 -0.004157713148742914 -3.4425666672177613E-4 -0.001611781306564808 -0.002371193142607808 -0.0015820373082533479 0.0013991526793688536 -0.0017542713321745396 -0.0013335716212168336 -0.0034003874752670527 0.0032082556281238794 -4.59175615105778E-4 -0.003952660597860813 0.0020554845687001944 0.003058610949665308 -0.0010243828874081373 -0.0026492371689528227 0.0017686093924567103 -0.002768690465018153 0.004615712445229292 -0.002158816670998931 -0.004402043763548136 3.0674683512188494E-4 -0.0017205997137352824 -5.346877878764644E-5 -0.001615047105588019 -0.0038656305987387896 -0.0016361108282580972 6.888387724757195E-4 -0.0018555604619905353 7.727136253379285E-4 9.700715891085565E-4 0.0011977035319432616 -0.004530265927314758 -6.922657485119998E-4 0.003556854324415326 0.002562011359259486 0.004613272845745087 0.003221503458917141 0.0028151930309832096 -0.004025388043373823 0.002093616407364607 -0.00438643479719758 9.919863659888506E-4 -0.001957187196239829 -0.002614042954519391 0.004087464883923531 0.0014914434868842363 -0.004351519513875246 0.0015884144231677055 -0.0034369712229818106 0.004261881113052368 -0.0036358104553073645 0.0022704899311065674 -0.0040217237547039986 -0.0015138353919610381
-yo 9.81672084890306E-4 0.004901187494397163 0.00190559565089643 0.0028352600056678057 -2.1494043176062405E-4 -0.004140647128224373 -0.001926266122609377 -0.002287964802235365 0.0025371741503477097 -0.0038254556711763144 2.581827575340867E-4 -2.264671347802505E-4 -0.001438457635231316 0.0041682240553200245 -0.003185716923326254 0.0022524353116750717 -8.305772789753973E-4 -0.0019197921501472592 0.0034236928913742304 -0.004553685896098614 0.003921455703675747 -0.0047907656989991665 -0.0010597970103845 0.0033525347243994474 0.004409315995872021 0.0012072157114744186 -2.779388159979135E-4 -0.004383212886750698 -0.003606963437050581 9.055883856490254E-4 -0.004372997209429741 -0.001369521371088922 0.0028749043121933937 1.1973996151937172E-4 -0.0038112937472760677 -0.0022323497105389833 -0.0018704660469666123 -0.0030204011127352715 -4.886178066954017E-4 -4.241555870976299E-4 0.0043344516307115555 -0.003833136288449168 -0.003538205288350582 0.003228714456781745 3.8910715375095606E-4 0.0029780538752675056 0.003820114303380251 -0.001079029985703528 3.530907561071217E-4 0.0015369533794000745 0.002684160368517041 -0.0019284519366919994 8.805455872789025E-4 0.003986823372542858 -0.004580764099955559 0.00204201671294868 0.0030515273101627827 -8.909985772334039E-4 -0.002732133259996772 8.500961703248322E-4 0.0026564726140350103 -0.0010266456520184875 5.7581273722462356E-5 0.004544063005596399 0.0024881362915039062 -9.936151327565312E-4 0.0018076247069984674 0.004847945645451546 0.004484217148274183 0.0048522441647946835 -0.0037480273749679327 -0.0021053480450063944 0.0032775343861430883 0.0036507914774119854 0.0022065213415771723 -0.0019290948985144496 0.001824823790229857 -0.0034495017025619745 0.0043046423234045506 -0.004063381347805262 -0.001416779705323279 -0.003064857330173254 -0.002492993837222457 0.0020923383999615908 -9.249067516066134E-4 0.0016209521563723683 0.002620203420519829 0.0019738611299544573 -0.0043725003488361835 -0.004423168953508139 5.15532388817519E-4 -1.2125484499847516E-4 0.0028712644707411528 9.154419531114399E-4 -0.0041402908973395824 -2.4274138559121639E-4 -0.002750690095126629 0.004406832158565521 0.0048202513717114925 1.5305339184124023E-4
year 0.00406867079436779 0.002340889535844326 0.0029479728545993567 -0.0041822707280516624 -0.0026882581878453493 0.0032911135349422693 0.0011726348893716931 -0.002642587060108781 -0.001441159169189632 -5.765653913840652E-4 -0.0011262649204581976 0.0017077765660360456 -0.0012210543500259519 0.0032220655120909214 0.0016731573268771172 -6.040911539457738E-4 0.00395760964602232 5.220008315518498E-4 0.0016456200974062085 -2.847372379619628E-4 -0.0024180642794817686 0.002046025125309825 -0.0035729538649320602 -1.7934830975718796E-4 -0.0010399072198197246 -0.003330020932480693 -0.0044468482956290245 5.6125689297914505E-5 0.0018414519727230072 0.0024108027573674917 0.0038715810514986515 0.0018834816291928291 -0.003966578282415867 -0.002194141736254096 0.003873536828905344 0.003139721229672432 5.305353552103043E-4 -0.0018254119204357266 0.0026008845306932926 0.002495281398296356 5.551771755563095E-5 -5.646623321808875E-4 9.962656768038869E-4 -0.0013439453905448318 0.002651212504133582 0.0013520477805286646 -0.002544261747971177 8.479364914819598E-4 -4.893113509751856E-4 0.0034304955042898655 -0.003003478981554508 0.0026172238867729902 -0.002452932531014085 -0.0027969127986580133 0.0025679515674710274 -0.0011768846306949854 -0.0013009384274482727 0.0037245466373860836 -9.399239206686616E-4 -0.0027398476377129555 0.0018214881420135498 0.003330970648676157 4.6645989641547203E-4 -6.556283333338797E-4 -0.002424111356958747 0.003860450815409422 -0.003740219399333 0.0018642734503373504 0.001926077762618661 -0.004715270828455687 0.0037129817064851522 -4.606464062817395E-4 0.0037168445996940136 -0.0011809734860435128 -0.0046721575781702995 -0.003111917758360505 -0.0035982842091470957 -0.0023265224881470203 0.004429246764630079 -0.002310381270945072 -7.908476982265711E-5 0.003665017196908593 -0.002660397905856371 -0.0015256035840138793 0.0028484566137194633 0.0014621554873883724 0.004363425076007843 -0.0045508723706007 -0.0031441282480955124 0.0031058508902788162 4.6154213487170637E-4 0.002780884737148881 1.80445407750085E-4 0.00497768959030509 0.0021213917061686516 -0.004883399233222008 -8.996921824291348E-4 -0.0033116976264864206 0.004367363639175892 2.842539397533983E-4
shooting 0.0040397243574261665 -0.002226652344688773 0.0036319424398243427 -0.0030004356522113085 0.0014220202574506402 0.005030148662626743 0.0027565250638872385 -0.0017296865116804838 0.0030902817379683256 -0.003632213221862912 -0.0014388634590432048 -6.323641864582896E-4 0.003076055319979787 0.0012922949390485883 0.004490344785153866 -8.871173486113548E-4 -0.004760310985147953 -0.004478846210986376 -0.0051739998161792755 9.481703746132553E-4 -0.0024458791594952345 -0.00372166745364666 0.0012651047436520457 -3.897149581462145E-4 0.0015301117673516273 -0.0018307843711227179 -0.004372267052531242 -0.0024577011354267597 0.0048569077625870705 -0.002983661135658622 0.003026052610948682 0.0010996332857757807 -0.004009695257991552 0.0017655905103310943 6.35569856967777E-4 -0.0011836198391392827 0.0013366451021283865 -0.0017942349659278989 0.0043901302851736546 0.0011605836916714907 -0.0029172487556934357 -0.005288926884531975 3.579063049983233E-4 -0.0022065986413508654 0.0036773423198610544 0.0024395890068262815 0.0024338054936379194 -0.00383450323715806 0.002223620191216469 -0.0041587199084460735 -7.0420146221295E-4 0.0011183090973645449 -0.0014253963017836213 -4.249109188094735E-4 8.272539125755429E-4 0.004036139231175184 -4.156477370997891E-5 0.0010375783313065767 -0.001526428502984345 -5.514776785275899E-5 0.003544479375705123 0.00274070561863482 0.0031841956079006195 5.043998826295137E-4 1.489588903496042E-4 -0.0018732124008238316 -3.3340509980916977E-4 -0.00242288107983768 0.004786916542798281 -0.004331654869019985 5.383740062825382E-4 -5.5008684284985065E-5 -0.0024765937123447657 0.0012540934840217233 0.004186640959233046 -0.0013744885800406337 0.002639769110828638 0.003946305252611637 0.004172839689999819 -3.537734446581453E-4 0.004683354403823614 0.004599908832460642 -5.026364815421402E-4 3.1148933339864016E-4 -0.004517766181379557 -4.0460904710926116E-4 0.0012761021498590708 -0.001053429557941854 7.598859956488013E-4 0.0010363118490204215 0.003142923815175891 -0.002213725820183754 0.004989515990018845 0.0027062303852289915 0.0035454798489809036 0.004254533909261227 0.004080458544194698 0.0017997052054852247 0.0049480958841741085 0.002537601161748171
boys -0.0016364750918000937 -0.004859425593167543 2.965591265819967E-4 -0.0044847759418189526 0.004535372834652662 -5.290632252581418E-4 -0.0027659214101731777 -0.0030546661000698805 0.001437746686860919 0.0021676067262887955 -4.601648834068328E-4 0.003842720063403249 -0.003328488441184163 -0.0024372702464461327 0.0033856285735964775 0.004697220399975777 4.943649400956929E-4 2.550095086917281E-4 -0.005293481983244419 0.0012795673683285713 0.004472106695175171 -0.00421682046726346 0.001035060966387391 -0.002497629728168249 0.0035349251702427864 0.001648298348300159 2.98173981718719E-5 -0.0040589869022369385 0.00298644183203578 0.004088901914656162 -0.0028338911943137646 0.001974108163267374 4.215760272927582E-4 -0.003879246534779668 -0.003948696423321962 -0.0023388692643493414 -0.002169479848816991 -0.00329193496145308 0.0021541411988437176 0.0026073737535625696 -0.004219562280923128 -0.004774019122123718 0.001080155372619629 -0.004140185192227364 -0.004857765045017004 -0.00249008578248322 -0.003531485330313444 0.00320446421392262 7.901244098320603E-4 -0.002132108900696039 8.693292620591819E-4 7.517709163948894E-4 -8.306203526444733E-4 -5.831654416397214E-4 -8.016698411665857E-4 5.056825466454029E-4 -0.0034116581082344055 -0.003565744496881962 -0.003928326070308685 -6.828548503108323E-4 -0.0014042190741747618 -2.2907819948159158E-4 0.004367987159639597 5.648459191434085E-4 0.0027566393837332726 0.0029758913442492485 0.0037318887189030647 -4.095432232134044E-4 0.0018411499913781881 0.005097619723528624 -9.245253750123084E-4 -0.003527700435370207 0.002893888857215643 5.769702256657183E-4 0.00382475508376956 -5.638789152726531E-4 -0.0027790525928139687 0.0020095801446586847 -6.494965055026114E-4 0.0029413015581667423 -7.244614971568808E-5 7.999266963452101E-4 -0.0013996281195431948 -0.003665309166535735 8.85612447746098E-4 -0.002140964614227414 0.001391132245771587 -0.0019202749244868755 7.318719872273505E-4 -0.0031307977624237537 6.151957204565406E-4 0.0027924180030822754 -0.001468100119382143 0.0035237777046859264 0.002876607934013009 -0.001569921849295497 0.001453278586268425 0.0018012019572779536 -0.0027983076870441437 -3.5571574699133635E-4
texas 0.004247218370437622 0.0036001421976834536 -0.00150644953828305 0.0026395698077976704 -0.003204727079719305 0.0029210099019110203 0.0024721436202526093 6.086539942771196E-4 9.106815559789538E-4 -0.0017667179927229881 0.004140576347708702 0.0011374731548130512 2.176133857574314E-4 -0.002373291878029704 0.0029368854593485594 0.0030058524571359158 -9.851929498836398E-4 -0.004452546592801809 7.175281643867493E-5 -0.0021215102169662714 -0.002639077603816986 0.0026045881677418947 9.974964195862412E-4 6.088538211770356E-4 -7.713447557762265E-4 -0.004398454446345568 0.004373360425233841 0.0038768220692873 3.9090507198125124E-4 -0.0023944475688040257 0.0044280486181378365 -5.704695358872414E-4 -0.0043864441104233265 -5.704493960365653E-4 -0.0017455103807151318 -0.00115600333083421 -0.0033282150980085135 0.004684920888394117 -0.0029448133427649736 -4.996219649910927E-4 -9.212966542690992E-4 3.846323234029114E-4 0.004490275401622057 -0.004973102360963821 -0.002647202927619219 -0.003942760638892651 0.003849143162369728 -9.193242294713855E-4 6.809457554481924E-4 0.002858976600691676 -6.871465593576431E-4 0.0026276474818587303 0.0041116527281701565 -0.004758896771818399 -0.0016087362309917808 0.003835489274933934 0.0038445438258349895 0.003885965794324875 -0.0039346832782030106 -0.0010713569354265928 0.004575609695166349 -0.00412583164870739 -0.003678087377920747 6.849627243354917E-4 0.0014045702992007136 -0.0038292091339826584 0.0037302535492926836 -0.003134083468466997 0.0019655455835163593 -0.002450287574902177 -0.004676331300288439 0.0035205979365855455 0.004143272992223501 0.0031721917912364006 -0.0028551716823130846 -0.004666136112064123 -0.004418485797941685 -0.002032951219007373 -0.0027941646985709667 0.0031803178135305643 0.0024877535179257393 -0.0030352117028087378 -0.004418624099344015 1.667203614488244E-4 0.0028055054135620594 0.0010629744501784444 -1.9218047964386642E-4 0.003531443187966943 0.0037663879338651896 -0.001091055921278894 -0.0018169222166761756 -0.003852163441479206 -0.002822822891175747 -0.004616599064320326 -0.0019526741234585643 -6.827771430835128E-4 -0.003616057801991701 0.002431778470054269 0.0014285192592069507 -0.0017328850226476789
your 0.002058063866570592 0.0021720652002841234 -0.003743021748960018 -0.004833218175917864 0.0010333762038499117 -0.0022713972721248865 0.002143263351172209 8.755519520491362E-4 0.0036004704888910055 -0.0014034080086275935 0.002121184952557087 -0.0014632176607847214 -0.0017852048622444272 -4.3519059545360506E-4 -0.0013457733439281583 -0.0028308499604463577 -0.001446442911401391 7.486201939173043E-4 -0.003508985973894596 -0.00471853744238615 2.443097182549536E-4 4.79290378279984E-4 0.0027391051407903433 0.0021024267189204693 0.003423485206440091 9.300868841819465E-4 0.0030783391557633877 0.003484683344140649 -0.0016740728169679642 0.001510565634816885 8.974659722298384E-4 -0.0026117591187357903 -0.0015630333218723536 -0.0010071336291730404 -0.0016768567729741335 -0.0033941897563636303 0.004025053698569536 -0.0038653057999908924 0.005035141948610544 0.002798785688355565 -0.0026029583532363176 9.932478424161673E-4 0.0029785060323774815 -0.0014796629548072815 -0.002711295383051038 -0.00390285043977201 0.001788142486475408 -6.544120842590928E-4 0.0031186705455183983 0.0016316211549565196 0.0017484265845268965 -7.776280399411917E-4 -4.873982979916036E-4 -5.698665627278388E-4 3.0447932658717036E-5 -6.413501687347889E-4 0.00399450957775116 -0.004869931377470493 -0.0032653212547302246 -0.0031691286712884903 0.0017956189112737775 -0.0023361872881650925 -0.0037016570568084717 0.004064392298460007 -0.00424333568662405 -0.0030756767373532057 0.001864211168140173 0.00378789147362113 -0.0037213109899312258 0.005259943660348654 0.002356304321438074 0.00450156582519412 -0.004391362890601158 9.117679437622428E-4 0.005056882277131081 -6.942129111848772E-4 0.0012742463732138276 0.004264973569661379 7.540269871242344E-5 0.0021503258030861616 -0.004546130541712046 -0.0056664966978132725 0.0010746927000582218 0.0035258319694548845 -5.650046659866348E-5 0.004240725189447403 -0.003613256150856614 0.004161378368735313 -0.0015727932332083583 -0.004707050044089556 -0.0022421707399189472 0.0010399678722023964 0.0026005988474935293 0.0018262327648699284 5.760285785072483E-5 -0.0031608687713742256 3.341218689456582E-4 0.0038329639937728643 0.0014620068250223994 0.003534689312800765
salary 0.0035084644332528114 -0.002610784722492099 0.0016790437512099743 6.566243882843992E-6 -0.0030492243822664022 -8.092659991234541E-4 8.626191411167383E-4 0.002111646579578519 0.00236328411847353 -0.004008571617305279 -0.004477590788155794 -0.003878146642819047 0.002022787230089307 -0.004296834114938974 7.824859931133687E-4 -0.002568409778177738 0.002204553922638297 0.002533360617235303 0.004714430775493383 -0.0025907831732183695 -0.0016859351890161633 0.0031438530422747135 0.001630541286431253 2.53643054747954E-4 5.399803631007671E-4 -0.002224598778411746 4.197825910523534E-4 -0.004908263683319092 -0.0018879298586398363 5.263800267130136E-4 -0.0035750647075474262 1.3930388377048075E-4 -4.056582401972264E-4 -0.002741955453529954 -5.192971439100802E-4 -0.0024127329234033823 -0.0023176483809947968 -0.002497398294508457 8.931392221711576E-4 -0.002948288805782795 0.003984280861914158 -0.002625553635880351 -0.0015810227487236261 0.0020637689158320427 -0.002765964949503541 -0.003071096260100603 -0.002089374465867877 0.004974161274731159 0.0013722686562687159 0.001174621400423348 0.004633958451449871 -0.0026594928931444883 0.004694042261689901 0.003455555532127619 -0.0019850567914545536 -0.00420678686350584 8.008995209820569E-4 -0.0034608386922627687 0.00299112219363451 0.002958989003673196 0.004105375614017248 -9.563659550622106E-4 -0.0030422150157392025 0.004041040316224098 -0.0032492324244230986 -0.0010242981370538473 9.288258152082562E-4 -0.004507074598222971 0.004664358217269182 -1.2622844951692969E-4 0.002340617123991251 0.0012018382549285889 0.0031043733470141888 0.0031333640217781067 8.404276450164616E-4 0.0012136175064370036 -0.0037212087772786617 -0.001114814542233944 -0.003608127124607563 0.004070914350450039 6.386496825143695E-4 8.945404551923275E-4 -0.0010659077670425177 0.0040040528401732445 -0.0021227779798209667 0.0025437837466597557 -0.001521831494756043 -0.0022239419631659985 0.002277968917042017 0.004894015844911337 0.0025391592644155025 0.0036034889053553343 0.002377841854467988 -0.003544856095686555 0.004632831551134586 0.0015001248102635145 -4.1598387178964913E-4 0.004096369259059429 0.0048747677356004715 0.004481960088014603
dem -0.0010236587841063738 0.002628202782943845 -0.002159039257094264 0.001635369611904025 -0.004666853230446577 -0.002617349848151207 -0.004225449170917273 0.004958482459187508 -0.0046974592842161655 -0.004315683152526617 -0.0014045500429347157 -0.004493886139243841 -0.0013940759235993028 0.003468796843662858 -6.694240728393197E-4 0.0038226586766541004 -0.0030522814486175776 0.003471862059086561 0.0025405557826161385 -0.0020528584718704224 -1.9822125614155084E-4 0.001013054745271802 -2.821711532305926E-4 0.004160277079790831 -3.570269327610731E-4 -0.0012079804437234998 -1.837420859374106E-4 0.0022359516005963087 0.0015722323441877961 -0.001456178491935134 -5.853728507645428E-4 0.0028961878269910812 0.0017611411167308688 0.0026190527714788914 -9.267503628507257E-4 0.003355833701789379 -0.004139850381761789 0.002632878487929702 0.0016897557070478797 -5.0565937272040173E-5 0.002101835561916232 -4.998225631425157E-5 0.0015378871466964483 0.004334932658821344 -0.0022276558447629213 0.0017510468605905771 0.004645817913115025 1.873732835520059E-4 -0.002193474443629384 0.00238117016851902 -0.0019237304804846644 -0.0013273662189021707 -0.0049358862452209 8.001613896340132E-4 0.0011809534626081586 -0.004545428790152073 0.0019058554898947477 6.554673309437931E-4 0.002398357493802905 0.0018924092873930931 0.0037190429866313934 0.0014610453508794308 0.003073795000091195 0.004340671934187412 -0.0025632507167756557 6.501082680188119E-4 0.0017130495980381966 -0.0031073172576725483 -0.0020310927648097277 0.004026697017252445 -0.002197523834183812 0.0012700873194262385 9.867256740108132E-4 6.684026448056102E-4 -0.002814337145537138 0.0028574615716934204 8.081185515038669E-4 -0.0010634759673848748 0.0011468582088127732 0.004982332699000835 0.00369273335672915 0.0010587978176772594 -0.004171927459537983 -0.004895102232694626 -0.003217606572434306 -0.0039462498389184475 -0.002815704559907317 -0.0029301343020051718 0.002516750246286392 0.004761507268995047 0.004202171694487333 -7.560279918834567E-4 -0.0016853564884513617 -0.0010220122057944536 2.8973264852538705E-4 -8.097535464912653E-4 0.004586451221257448 0.002956615760922432 0.00358674768358469 0.004942248109728098
asylum -0.0018232727888971567 -0.0026019057258963585 0.003053357359021902 -0.00413576140999794 -0.0038873888552188873 -0.004119899123907089 0.0038853262085467577 0.0034691307228058577 -0.0045680878683924675 -0.0026010568253695965 0.004350723698735237 0.002734134905040264 0.001910132821649313 -0.0031420590821653605 -0.0025402652099728584 -0.001939229085110128 0.0047415150329470634 -3.1612312886863947E-4 0.0010376544669270515 -8.009214798221365E-5 -0.00441338773816824 0.0015015210956335068 -0.001096195075660944 -0.004001149442046881 -0.0012450445210561156 -0.0024121906608343124 0.0034741635899990797 0.0028531309217214584 0.0016828486695885658 0.0018067467026412487 -0.003391948062926531 4.068776033818722E-4 0.003326321952044964 -0.001430411939509213 0.004340138752013445 0.004442610312253237 -0.003528608474880457 0.004491704050451517 -0.0037509151734411716 -0.0018444063607603312 0.004763113800436258 0.002280980348587036 4.4982563122175634E-4 -9.603411890566349E-4 -0.004518330562859774 0.00378114334307611 0.0022584516555070877 -0.004932780284434557 -1.5282019739970565E-4 0.003396029584109783 -0.003774788696318865 -0.0020365742966532707 9.042678866535425E-4 0.0029193884693086147 0.0015520933084189892 -0.0015856173122301698 -0.0028090353589504957 1.0754114191513509E-4 0.0015272926539182663 -0.004850209690630436 -0.0012714806944131851 6.514797569252551E-4 -3.2579642720520496E-4 -7.934982422739267E-4 0.004121091216802597 -0.0020600969437509775 -2.314997254870832E-4 1.3813369150739163E-4 -0.0017271011602133512 0.0024555055424571037 6.46421976853162E-4 0.004571545869112015 -0.00207901350222528 -0.0025918458122760057 0.001084889518097043 -0.004816582892090082 -0.003800222184509039 -0.002680747536942363 -0.0033963448368012905 0.003927108831703663 0.0016259271651506424 8.162312442436814E-4 -0.005027424078434706 -1.5994376735761762E-4 0.0020775566808879375 0.004337173420935869 -0.0016264107543975115 0.0023181699216365814 -3.1485091312788427E-4 2.674207826203201E-5 -0.0010029029799625278 0.003543199971318245 -0.003343030344694853 1.716174665489234E-5 0.0010134745389223099 -0.001823732629418373 0.0027007637545466423 0.00363307842053473 0.0019200047245249152 -0.0028650518506765366
building 0.0015148461097851396 -0.0020855613984167576 -0.002514685969799757 0.0016486640088260174 -0.0018300439696758986 -0.00446786405518651 -0.002059447579085827 -6.13240641541779E-4 0.003995930310338736 0.004397970624268055 -0.0016514351591467857 0.0021352735348045826 0.001990414224565029 -9.423453011550009E-4 -0.0035243150778114796 0.004365298897027969 0.003965055104345083 5.623176693916321E-4 -0.001890902640298009 -4.6781793935224414E-4 -0.0013703496661037207 0.0035772433038800955 8.082668064162135E-4 0.003357590176165104 0.0012128691887483 -0.002164999023079872 -0.0036289270501583815 0.0025519225746393204 0.0019478268222883344 6.078770384192467E-4 -0.0036970647051930428 3.060903982259333E-4 0.004728240892291069 -0.002515357919037342 0.003577453549951315 -0.0013921194477006793 0.004532933700829744 0.004907062277197838 0.0030117309652268887 -0.003071938408538699 0.0037663194816559553 0.001911898492835462 5.526666063815355E-4 0.0022657362278550863 0.004082932602614164 8.22835077997297E-4 5.34796912688762E-4 -9.032256639329717E-5 -0.0025196282658725977 -0.0019384468905627728 -0.0024663659278303385 -0.0014431364834308624 0.001131676253862679 -0.0014836597256362438 0.0016338839195668697 0.001968239899724722 0.0027768227737396955 -0.002100945683196187 -0.004620642866939306 0.002238974906504154 -0.004302374552935362 0.0038873632438480854 0.004788280464708805 -4.161273827776313E-4 8.518117829225957E-4 -5.533840740099549E-4 -0.0012976041762158275 0.0026551238261163235 -0.0029817232862114906 0.0012116667348891497 0.0014046337455511093 -0.003758082864806056 -9.327425505034626E-5 -2.7806003345176578E-5 -0.002973402850329876 0.0034151836298406124 -0.002753138542175293 0.004694917239248753 0.0032640472054481506 -0.0031162952072918415 0.002196161774918437 0.0046752928756177425 0.00219715922139585 7.401685579679906E-4 7.536268676631153E-4 4.804668133147061E-4 0.0020083829294890165 -0.003633280750364065 -0.002102045575156808 0.0016793608665466309 3.1444226624444127E-4 -0.00394780607894063 0.0015983748016878963 0.004918532446026802 -0.0029854129534214735 0.0010235687950626016 -0.0018087978241965175 -0.0038686199113726616 0.0032151455525308847 -0.0029900074005126953
these 0.0035182496067136526 1.839623146224767E-4 0.0015533730620518327 0.0012428679037839174 -0.0012187047395855188 0.001091051148250699 -0.0026980594266206026 0.0015611425042152405 -0.004046407528221607 5.342991789802909E-4 -0.0043904888443648815 0.0018769099842756987 -0.004356407094746828 -9.240990621037781E-4 -0.001277194358408451 0.0041710627265274525 8.463880512863398E-4 0.004260214511305094 -0.00408523716032505 -0.0015757209621369839 -0.003300683805719018 -0.0027007462922483683 -0.0024032590445131063 -0.0026404790114611387 0.004956421442329884 8.803620003163815E-4 -0.0034886207431554794 0.002313147997483611 -0.003328592050820589 0.004507069475948811 -0.001207786495797336 8.55484395287931E-4 -7.94448540546E-4 0.0031586813274770975 -0.002710496075451374 -0.0041372086852788925 0.0012935188133269548 0.003943327814340591 0.0018166099907830358 -0.0015815106453374028 0.0026288654189556837 -0.004567917436361313 0.0029139406979084015 0.0034778821282088757 -0.0021597177255898714 -0.0035973943304270506 0.003207878675311804 -8.900002285372466E-5 0.001580135547555983 -0.002274476457387209 0.0010875400621443987 -0.0038287753704935312 -0.0038031465373933315 8.544325828552246E-4 0.004667392931878567 7.270659552887082E-4 -0.0021828024182468653 0.003906363621354103 0.0011008232831954956 0.004840733017772436 -0.003709639422595501 -7.557179778814316E-4 -0.004779593553394079 -0.0020436032209545374 0.003995928913354874 0.0046521080657839775 -0.0026698762085288763 0.002436585258692503 0.004017804749310017 -7.012898568063974E-4 -2.69772281171754E-5 -0.003697943640872836 -9.70538763795048E-4 -0.001017760019749403 -7.129857549443841E-4 -0.004607153590768576 -0.0017820852808654308 0.0030851184856146574 0.0013180570676922798 0.00441127922385931 -0.0026219419669359922 -8.501132251694798E-4 0.003369532758370042 -0.003494003787636757 5.104435840621591E-4 8.133970550261438E-4 0.002993113361299038 -0.0020793715957552195 -0.0018741663079708815 0.003568704705685377 0.0016078389016911387 -0.003197084181010723 7.945962133817375E-4 0.00469007296487689 -8.816707413643599E-4 -0.003591392422094941 0.003527263877913356 0.0024665393866598606 -0.0012671194272115827 -0.0015257169725373387
twins -0.002395450370386243 -0.0014868444995954633 -4.081200750079006E-4 -0.0036992556415498257 0.0036023762077093124 0.0016687141032889485 -0.002472812542691827 0.0018885619938373566 0.0021760151721537113 -0.003827861975878477 0.001290907384827733 0.0024187408853322268 -0.002591898664832115 -0.0011333953589200974 0.0044288020581007 0.003928688820451498 -0.003535982221364975 -0.004376284312456846 0.002722216537222266 -0.0010384683264419436 0.0023349211551249027 0.0030603462364524603 -0.0022066154051572084 0.002276356564834714 0.0012783632846549153 0.004912325646728277 0.0014420755906030536 -0.003038369119167328 0.003818127326667309 0.002056862460449338 -5.221040337346494E-4 -6.727922591380775E-4 0.0012764547718688846 -0.0022557873744517565 1.646718883421272E-4 0.002614040160551667 0.003689343808218837 0.002247709082439542 0.0038630408234894276 6.08482223469764E-4 -0.003787292866036296 -6.001744768582284E-4 0.004715031012892723 -0.002112304326146841 -0.001001468626782298 2.546578471083194E-4 -0.0017297054873779416 0.0023118113167583942 -0.0013186847791075706 -0.0040418729186058044 0.0032542459666728973 0.004410330206155777 8.508228929713368E-4 0.004964026156812906 0.0017713353736326098 0.0013886522501707077 0.0030093216337263584 -0.0020547332242131233 -3.059518348891288E-6 0.0021210573613643646 -0.004146234598010778 0.003679786343127489 -0.003342658281326294 -0.004920959006994963 0.0011797212064266205 -0.0023345539811998606 0.0011786558898165822 -0.003926622681319714 0.001020928262732923 -3.906912461388856E-4 -2.4961947929114103E-4 -7.587578729726374E-4 -0.0023394604213535786 0.003915552515536547 -0.004451950546354055 0.0013907657703384757 -0.0028124500531703234 3.2240847940556705E-4 0.0012200024211779237 -2.057034544122871E-5 0.0028515798039734364 0.001464555156417191 -0.004622038919478655 -0.0017446898855268955 -0.0026837193872779608 -0.0028292848728597164 0.003545543644577265 -0.0030524269677698612 7.558577926829457E-4 -0.004883661866188049 -3.098969682469033E-5 -0.004595278296619654 -0.0018920166185125709 0.0020151555072516203 0.0024957528803497553 -0.0016988898860290647 0.002105886349454522 0.0026958435773849487 0.003328080289065838 0.004512988030910492
grasshoppers 0.004315066616982222 0.0021953636314719915 0.004214968532323837 -0.0026767910458147526 -0.002019123639911413 -0.0013499875785782933 -0.004492913838475943 -7.248629117384553E-4 0.002393578877672553 0.004683359060436487 0.002806911012157798 -0.0047446186654269695 -1.026520476443693E-4 -0.0012982956832274795 0.0034848609939217567 0.0032340073958039284 -0.002579139079898596 -0.002014703117311001 0.0034698201343417168 -4.366421781014651E-4 0.002722463570535183 -0.0044875368475914 -0.0022565568797290325 0.001002092962153256 -0.004651684779673815 -0.0014163876185193658 -0.0016320092836394906 0.00493074394762516 -8.378357742913067E-4 0.0012923527974635363 -0.002855102065950632 0.0012293299660086632 -7.664379081688821E-4 -0.001531626214273274 -0.00462929904460907 0.004741183016449213 -0.0026991465128958225 -0.0013385452330112457 -0.0017008398426696658 9.04809741768986E-4 -0.0013931398279964924 0.0034658133517950773 -0.0030803761910647154 -0.0018992479890584946 -0.003967186436057091 -0.0010270100319758058 -0.00382576254196465 0.0037404282484203577 0.002543445909395814 0.0015657913172617555 -0.001540977624244988 0.003253178671002388 0.001889862585812807 0.004304367583245039 -0.002077132696285844 4.5460840919986367E-4 0.003160713240504265 0.0011287997476756573 1.2672932643909007E-4 -0.004769731312990189 0.004417951684445143 -0.0010131752351298928 0.0028024374041706324 0.00100598088465631 -0.0031128309201449156 -0.0017249364173039794 0.0035674050450325012 -0.0031905912328511477 0.0015580904437229037 0.002598121529445052 0.0025639845989644527 -2.1812331397086382E-5 -1.7788413970265538E-4 0.00458007724955678 0.0016324393218383193 0.0038459610659629107 -0.0019831855315715075 -0.0032003887463361025 0.004210831131786108 -0.004711370449513197 -0.003279849886894226 0.0045326510444283485 0.002242839662358165 -0.0012854719534516335 6.602712674066424E-4 -0.004349376540631056 -3.465976333245635E-4 -0.002273585181683302 -0.003153169061988592 -0.0018644368974491954 0.00357644516043365 0.003717271378263831 -0.0035323447082191706 -0.0020953258499503136 0.0016639186069369316 0.004546067211776972 0.00289960578083992 -0.00458968710154295 0.0017318225000053644 0.0044691781513392925
finds -0.002807499375194311 -0.001586930244229734 -0.003143956884741783 0.0015064658364281058 0.0032830475829541683 0.0035070814192295074 -0.004784955643117428 9.29167668800801E-4 -0.0012051789090037346 0.0036515535321086645 -2.696628507692367E-4 -6.2639667885378E-4 -0.004050528630614281 0.0013797912979498506 -0.0010285255266353488 -5.092410719953477E-4 0.002757180016487837 -0.003410309785977006 9.900380973704159E-5 -0.0036943284794688225 -2.318328624824062E-4 0.0012487978674471378 -0.004519169218838215 -0.004930675495415926 5.61766151804477E-4 3.521314647514373E-4 -0.0035654364619404078 -0.0015125301433727145 0.0013915147865191102 0.0017159762792289257 4.7131202882155776E-4 -0.002761950483545661 9.182217763736844E-5 0.0033777779899537563 4.276737745385617E-4 -0.003813468385487795 -0.004417191259562969 0.003123841481283307 -7.902378565631807E-4 -0.0029297550208866596 -0.004916382022202015 1.2348921154625714E-4 -0.002974011702463031 -0.001328621874563396 -0.0011446468997746706 9.855865500867367E-4 -0.0016081559006124735 -0.0010846330551430583 -0.0010922221699729562 2.3248129582498223E-4 -0.0014945821603760123 0.0022646586876362562 -0.004852984566241503 -0.004718587268143892 -0.0013542853994295 0.0038603879511356354 0.0018575657159090042 9.072290267795324E-4 0.0024044543970376253 -4.828322562389076E-4 0.003322452073916793 -0.0013231741031631827 0.003393055871129036 0.004092451184988022 -7.809833041392267E-4 -4.232439969200641E-4 -0.0036447325255721807 0.0011601705336943269 6.827723700553179E-4 -0.0037575974129140377 -0.001248853513970971 -0.0018440790008753538 0.0029164080042392015 3.1609588768333197E-4 0.00294077442958951 -3.0191807309165597E-4 -0.0023243152536451817 0.0022813023533672094 7.60372553486377E-4 -7.877348107285798E-4 0.004362585488706827 -0.0013358781579881907 -0.00385288312099874 0.0022154964972287416 -0.0031770500354468822 -0.0044862693175673485 -0.003853254020214081 8.436915813945234E-4 -0.0012656573671847582 7.171461475081742E-4 0.0038283909671008587 -0.0021029291674494743 -4.8654372221790254E-4 -1.895366731332615E-4 0.004972836002707481 -4.029989358969033E-4 0.004478550516068935 -7.187241571955383E-4 -0.0020620119757950306 4.0893335244618356E-4
would -0.0048215012066066265 -0.0014485217398032546 -0.003183458698913455 -9.694033651612699E-4 -0.0037058249581605196 -0.0020828358829021454 0.0013056518509984016 0.004103014711290598 0.0031642112880945206 -0.0016561169177293777 0.002972674323245883 0.0047148652374744415 -0.0035413324367254972 -2.4416938686044887E-5 -0.0022951574064791203 -1.1737763998098671E-5 -8.447489817626774E-4 -9.00117913261056E-4 0.0028766521718353033 -9.176862076856196E-4 0.0023493824992328882 -1.6880147450137883E-4 0.003917916212230921 0.00217855884693563 -0.0020501301623880863 0.004542081616818905 -0.002431774279102683 -0.0041538989171385765 -0.001012409687973559 0.0011673783883452415 0.004761135671287775 -0.0017446872079744935 -0.0016685993177816272 -0.0021312746684998274 -4.053257289342582E-4 0.004418144002556801 0.0026659085415303707 0.003872794797644019 -0.005014615133404732 0.002582440385594964 0.005054144654422998 -0.003579170210286975 0.00320432148873806 -0.004444028250873089 -8.592501399107277E-4 -0.004772479180246592 -0.002138853305950761 0.0035391412675380707 -0.0030710871797055006 0.0021335664205253124 0.003455579746514559 -0.0028827430214732885 0.004669530782848597 -0.002620889339596033 -0.0013750771759077907 0.004906876012682915 -0.002805632073432207 -0.0020742251072078943 5.344452802091837E-4 -8.914823993109167E-4 -0.0022493668366223574 -4.4916552724316716E-4 0.004148094914853573 0.0030139079317450523 -0.001856131013482809 -0.0012337487423792481 0.003909204620867968 0.0017857281491160393 0.0024347638245671988 0.002485010540112853 0.0017950525507330894 0.002746866550296545 -0.0016604269621893764 -0.002756674075499177 6.21156650595367E-4 0.0035781196784228086 -0.005291225388646126 -0.003300705924630165 -0.0014962137211114168 0.005165039096027613 -0.004180092830210924 -0.005434288643300533 -6.922872271388769E-4 -0.0022361294832080603 0.002493320032954216 -0.001782838604412973 2.8540825587697327E-4 -0.001904767588712275 0.003839811310172081 -0.0024328427389264107 -1.1275317228864878E-4 0.0040569300763309 -0.0017254954436793923 0.004544494673609734 -0.0037765204906463623 -0.00357252499088645 -5.586650222539902E-4 -0.0010371797252446413 0.003601793898269534 -0.0024666758254170418
pick 0.0042312536388635635 1.906958787003532E-4 0.0016059494810178876 -0.003528802888467908 0.002851028461009264 -0.002658149227499962 3.5603210562840104E-4 0.004433081019669771 -0.0011763270013034344 0.0042900387197732925 -0.004871888551861048 0.0016199597157537937 -0.0028522065840661526 0.0017698247684165835 -0.004603742156177759 -0.0012815390946343541 0.0049779764376580715 0.003926328383386135 0.0022580805234611034 -0.002211344661191106 0.002161625772714615 0.0040156226605176926 0.002169886603951454 0.004959907382726669 0.002543021459132433 -0.002026500180363655 -0.004623874090611935 -0.004424728453159332 -5.651957471854985E-4 0.0044661713764071465 -0.001602323492988944 0.004266378469765186 -0.0029758133459836245 -8.460874669253826E-4 0.004419588949531317 -0.003208194626495242 0.002244215691462159 0.0014064053539186716 0.001706761890091002 -0.0016253002686426044 -6.039681611582637E-4 5.147479823790491E-4 -0.00246805464848876 -0.0018647800898179412 6.947488291189075E-4 2.888125891331583E-4 -0.0027481538709253073 0.0028474286664277315 -5.145629984326661E-4 -9.284566040150821E-4 0.0020026720594614744 0.0029168077744543552 -3.1966945971362293E-4 -0.002696254989132285 2.371496957493946E-4 0.0036689569242298603 0.0020997310057282448 2.3471102758776397E-4 -0.002854424063116312 -0.0019420471508055925 -0.0018160464242100716 -0.0038445754908025265 -0.00408198731020093 -0.003669676836580038 2.4075813416857272E-4 -0.004922382067888975 -4.546400159597397E-4 0.001731952535919845 0.004813451319932938 -0.002802798058837652 -0.004129620734602213 -0.004188815131783485 0.0035925002302974463 -0.0020297286100685596 0.001341552473604679 9.61658515734598E-5 -0.0021013247314840555 5.092305946163833E-4 0.004429647698998451 -0.004608906805515289 0.00201465655118227 -0.0018465342000126839 0.0038097435608506203 0.003564425278455019 -0.002356520388275385 -0.001978412503376603 9.417792316526175E-4 -0.004076610319316387 0.0013024038635194302 -0.003972550388425589 0.0019740944262593985 -0.002979743992909789 0.003029162297025323 -0.002251564059406519 -0.004420398268848658 0.0032255304977297783 -4.7038806951604784E-4 0.004468971863389015 -0.002919980091974139 0.002819946501404047
mueller 0.0036782764364033937 0.0018347414443269372 0.0033040144480764866 0.00302848475985229 -0.001847094506956637 -6.34009251371026E-4 -0.0037554651498794556 -0.003911781590431929 -0.0014819842763245106 -0.002097739838063717 0.0010846974328160286 -0.004023704677820206 -0.001780330203473568 0.0027774565387517214 -0.003102291375398636 0.004121777601540089 2.2552916198037565E-4 -0.002860790817067027 0.002741487231105566 0.0017274146666750312 0.004115273244678974 -0.0022244462743401527 -1.6839089221321046E-4 -0.0028759862761944532 0.004176428075879812 -0.0031897900626063347 -0.001386572839692235 -0.0018522192258387804 -0.0019053268479183316 -0.0037587538827210665 0.0028477755840867758 0.0014146523317322135 0.002783818170428276 -0.006817263551056385 0.004731881432235241 -0.0024924930185079575 -0.0025979795027524233 -0.0017624209867790341 0.0034416948910802603 -3.024065517820418E-4 -0.001226286985911429 0.0014318326720967889 0.003912320826202631 0.004066599998623133 -0.004272293299436569 -0.0031206076964735985 -7.972664316184819E-4 9.788393508642912E-4 0.005627625156193972 -0.0019581757951527834 0.001881403150036931 0.0021946572232991457 -9.96242742985487E-4 -1.3813386613037437E-4 0.0011615593684837222 -0.0019043833017349243 5.878148949705064E-4 -0.0018140398897230625 0.004565543029457331 0.0031458090525120497 -0.0012643064837902784 0.001745627960190177 0.004446707665920258 0.002077364129945636 -0.003588198684155941 0.0026147665921598673 -0.00562399672344327 0.0022456019651144743 -0.0036590525414794683 -2.938824181910604E-4 0.0014531199121847749 -0.004077850375324488 -0.0017535819206386805 0.0019192206673324108 -4.95718908496201E-4 -0.0012913328828290105 -6.930686649866402E-4 0.00328553793951869 0.0017593411030247808 2.897862286772579E-4 0.001772071118466556 -0.005971733946353197 -0.004503895994275808 0.0044493284076452255 8.745327359065413E-4 8.08460870757699E-4 0.00505845807492733 -0.00368771655485034 -0.0034900985192507505 9.69963613897562E-4 -0.0048891580663621426 -1.4435246703214943E-4 0.002903247717767954 0.0031672101467847824 0.002750790910795331 -0.003611981635913253 7.769607473164797E-4 0.005159115884453058 -0.004305751994252205 0.002265302464365959
prison 4.444578371476382E-4 0.003909138962626457 0.0037547480314970016 0.003167258808389306 -0.0014630837831646204 -0.0044890814460814 0.001229151850566268 -2.8293572540860623E-5 0.004154880065470934 0.0011184264440089464 -0.0010849558748304844 -0.003414133097976446 0.0015537672443315387 0.0046208626590669155 0.001129613257944584 -0.0017176778055727482 -0.0038835604209452868 -0.004233010578900576 0.004246539436280727 0.0031015872955322266 -2.1965328778605908E-4 6.775407237000763E-4 0.003593957284465432 0.004060243256390095 -0.0014283651253208518 -0.004769874736666679 0.0032787411473691463 0.003735350677743554 -0.0010178209049627185 3.0668778344988823E-4 -0.0018357299268245697 0.0011759401531890035 -0.001778933103196323 -0.0011470452882349491 3.8589886389672756E-4 -0.0012107654474675655 2.012361364904791E-4 -0.0018267394043505192 0.0036073268856853247 -0.0013584991684183478 0.002084357663989067 -5.007169093005359E-4 -0.003907905425876379 4.96934459079057E-4 0.0029103450942784548 -0.0042764670215547085 0.0013625627616420388 -0.0030716347973793745 -0.004587654955685139 0.0026023860555142164 -0.0023779915645718575 0.004887616727501154 -0.004902716726064682 -0.003275166265666485 -0.0023695079144090414 -0.0016041594790294766 -0.0033721355721354485 0.0034167019184678793 8.615637198090553E-4 -0.002871413016691804 0.002408950123935938 0.0036327079869806767 0.0026267138309776783 3.4755002707242966E-4 0.003976799082010984 -0.0011101949494332075 0.0023109684698283672 -0.004926526453346014 4.6364241279661655E-4 -0.0037785267923027277 0.001854836125858128 -0.0013218724634498358 -5.919910618104041E-4 -0.0035495285410434008 0.004835876170545816 -5.943619180470705E-4 0.0012932305689901114 -0.0017898317892104387 -0.0025184720288962126 -7.816718425601721E-4 -0.0031291949562728405 -0.0012267271522432566 -0.003240553429350257 0.0029041504021734 0.003271623747423291 0.002735127229243517 -6.24480249825865E-4 0.0017341473139822483 -1.2171088019385934E-4 -0.002531589474529028 -3.577259776648134E-4 0.0010964932153001428 0.002816935535520315 -3.8509094156324863E-4 0.0028160489164292812 -0.0022217589430510998 -0.004936882760375738 1.1377927876310423E-4 -0.004181294701993465 -0.003861119970679283
fortnite 6.329300813376904E-4 -0.004954470321536064 3.303522535134107E-4 -0.004936716984957457 -0.0026200793217867613 0.002445922000333667 -0.0017174510285258293 -0.003268194617703557 -0.002261488465592265 0.002170091262087226 -0.002728594234213233 0.004628482740372419 0.003248264780268073 -9.805596200749278E-4 -0.004586239345371723 0.0024014052469283342 0.0033296719193458557 0.0038981549441814423 -0.0032056961208581924 -0.0015055773546919227 0.00387768168002367 0.002417205832898617 0.002662403741851449 6.085502100177109E-4 -0.0010195702780038118 -0.001945145195350051 0.004202497191727161 -0.003961161710321903 -6.293450715020299E-4 0.0025503102224320173 -0.0036568373907357454 9.811666095629334E-4 8.438066288363189E-5 0.0017329169204458594 -0.0029729478992521763 0.003386897034943104 -0.004200926516205072 -0.004086718894541264 -0.0045108189806342125 -5.178259452804923E-4 0.002038487233221531 -0.002694250550121069 0.003195703960955143 0.004772278480231762 0.0034526207018643618 0.0031143955420702696 0.00119750143494457 0.0028761753346771 0.002975805662572384 6.567895179614425E-4 0.003643595613539219 0.003107949625700712 -6.169971311464906E-4 0.0011112757492810488 0.0047135669738054276 6.952204421395436E-5 0.004929281771183014 0.002851093653589487 0.003466591238975525 -0.0017665571067482233 2.433391782687977E-4 -9.386932943016291E-4 -0.002789672464132309 5.545250605791807E-4 0.003679803339764476 0.003402006346732378 0.0030169812962412834 -0.004145101178437471 -5.017865260015242E-5 -7.47106212656945E-4 -0.0022001180332154036 -0.004670928698033094 -0.004515375010669231 -0.00287395971827209 -6.277345237322152E-4 4.813713312614709E-4 0.004379290621727705 3.240061632823199E-4 -0.004421605728566647 0.0031893833074718714 -0.0029671029187738895 0.0039901891723275185 -0.0020418567582964897 0.0024983633775264025 -0.0016191276954486966 0.0021498878486454487 2.4871738787624054E-5 6.150783156044781E-4 -0.005035358015447855 0.003219681791961193 0.002000419655814767 -0.0039182608015835285 -2.537521068006754E-4 -0.0014272574335336685 0.0046371640637516975 -3.2920530065894127E-4 -0.0018507655477151275 5.443468689918518E-4 0.002884927438572049 0.0029399956110864878
you -0.0029774855356663465 6.760094547644258E-4 0.00234922394156456 0.0014636076521128416 0.002073712181299925 -1.612357737030834E-4 9.080608724616468E-4 5.978543777018785E-4 0.004307903349399567 0.003047297475859523 1.3385529746301472E-4 4.3683164403773844E-4 -0.004689269699156284 -9.387116297148168E-4 -0.001257229712791741 -0.001822610734961927 -6.42883765976876E-4 0.0037574144080281258 -4.5090122148394585E-4 5.30329009052366E-4 -0.00394221069291234 -0.005005333106964827 0.0028110165148973465 -0.0038371074479073286 0.003920267801731825 -0.002629230497404933 -0.00440506124868989 -0.00266044563613832 -0.0028343680314719677 2.4218534235842526E-4 -0.0013028493849560618 -0.001761639374308288 0.004447359591722488 0.0016163538675755262 9.244015673175454E-4 0.004613278899341822 0.004416144918650389 0.005437210202217102 0.001406670082360506 0.0018960862653329968 -0.002626223023980856 -0.0016272133216261864 0.0016862438060343266 0.0025915412697941065 -0.005277995951473713 0.0038060948718339205 -0.004843688569962978 0.0036664465442299843 0.003778966376557946 0.0021757178474217653 -0.0035067512653768063 -0.003319632029160857 8.157585398294032E-4 0.0012318531516939402 0.0015708712162449956 6.005418254062533E-4 -0.002045091474428773 3.0991973471827805E-4 0.0012138020247220993 -0.0031482165213674307 2.8270806069485843E-4 0.003948908299207687 -0.004870797973126173 0.0031792819499969482 -8.604226168245077E-4 -0.004081674385815859 -0.005563090089708567 0.0013133537722751498 0.0014422130770981312 0.0017705191858112812 -0.0012214293237775564 0.003937477711588144 -0.0016281864373013377 0.004866956267505884 -0.0018020567949861288 7.046561222523451E-4 1.872227294370532E-4 0.0014193309471011162 -0.003896820591762662 -0.0030933336820453405 -5.417094798758626E-4 6.474342662841082E-4 0.005071170628070831 -0.0028070765547454357 -0.0036508357152342796 -0.003227866953238845 0.0026344486977905035 -0.003957644570618868 -0.004630877636373043 -0.0058241053484380245 -9.871548973023891E-4 -0.0010555424960330129 -0.0030066382605582476 -0.0025320188142359257 -7.439446053467691E-4 0.001392240053974092 0.003215924371033907 -7.987890858203173E-4 0.0011018491350114346 -0.003921454772353172
wins -0.004639788996428251 0.002466467907652259 -0.0018646945245563984 -0.002315957797691226 -0.003290009219199419 0.001882422249764204 -0.001271557528525591 0.002871645847335458 0.0015385033329948783 0.0010625184513628483 -0.001464503351598978 0.0022422547917813063 -9.874540846794844E-4 -0.003106569405645132 -0.0022109735291451216 0.00263883825391531 0.0035466558765619993 3.517145523801446E-4 0.0024316804483532906 0.004169720225036144 0.0032164938747882843 -0.004549094010144472 0.0029621939174830914 -0.0034973162692040205 -0.004928522277623415 -4.7753940452821553E-4 0.003673732979223132 -0.003723918227478862 -0.002733770525082946 0.00415666401386261 0.004127384163439274 0.003724097041413188 0.0022989551071077585 0.003936734516173601 0.0033112068194895983 0.004195816814899445 1.1233077384531498E-4 -0.004764839541167021 0.0029073404148221016 -8.812737069092691E-4 -0.0038499387446790934 -0.003944365307688713 0.0026607320178300142 -5.341708310879767E-4 -0.003685976844280958 7.376485882559791E-5 -0.0012966503854840994 -0.0047052218578755856 0.0015153022250160575 0.002580689499154687 -6.890048971399665E-4 0.0024624380748718977 -0.0024456060491502285 -0.003794990014284849 -5.464112618938088E-4 -3.861941222567111E-4 -0.002991905901581049 2.990241046063602E-4 -3.031308588106185E-4 0.0016375461127609015 -0.0038723403122276068 -0.0018525747582316399 -0.00461589964106679 -5.763615481555462E-4 0.0019373770337551832 0.002820788649842143 -0.002436552895233035 -0.0030744553077965975 -0.0049412548542022705 -0.00474055390805006 0.002149490872398019 0.0018775996286422014 4.249714547768235E-4 -6.176228052936494E-4 -0.0032536385115236044 7.933701272122562E-4 -6.432866211980581E-4 -0.004657439887523651 0.0045916312374174595 -6.730944151058793E-4 -0.0029005673713982105 0.001968131400644779 -0.003300934564322233 0.0019521855283528566 5.628717481158674E-4 -0.0029119402170181274 -0.002057670848444104 0.0036864676512777805 -9.771838085725904E-4 0.002386967884376645 -0.00444080401211977 0.001856728456914425 0.002048368100076914 -0.003786242101341486 0.002188541227951646 -0.001218795427121222 0.003662335453554988 2.942379214800894E-4 0.0012416690587997437 -0.002768738893792033
amazons 0.0014439388178288937 -0.004340443294495344 0.004134439863264561 -0.0020094765350222588 -0.0037395567633211613 -0.004140639677643776 0.004659837577491999 0.0016861214535310864 -0.0010596072534099221 0.004496516659855843 -9.885389590635896E-4 0.003102260874584317 0.0031150521244853735 -0.004410110879689455 -5.205245688557625E-4 -0.002348145702853799 0.003329064231365919 -0.004202777519822121 5.939379916526377E-4 -0.004798526410013437 0.0012729662703350186 6.769781466573477E-4 0.0041930414736270905 0.004608580376952887 0.0029366787057369947 -2.546724281273782E-4 -0.001945975236594677 -0.0012013902887701988 -0.003807289758697152 2.1947160712443292E-4 0.0013762544840574265 0.003649987978860736 -0.0044443425722420216 -8.62404762301594E-4 -0.004786488134413958 0.004070930182933807 -4.8011846956796944E-4 0.005183354485780001 -0.0041542816907167435 -0.00421160040423274 0.0019068889087066054 -0.005018588155508041 0.002108523854985833 0.0010734302923083305 0.0010918923653662205 -0.0030595886055380106 -2.1302663662936538E-4 0.004208898637443781 0.00489791389554739 0.0033803025726228952 9.925857884809375E-4 -0.0026912435423582792 0.002126741921529174 -9.089125669561327E-4 -0.0024873274378478527 8.39801097754389E-4 0.0010081622749567032 0.004588526673614979 0.0023982590064406395 0.0020862864330410957 0.001278351410292089 -0.004061434883624315 -0.004559908993542194 0.003910027910023928 -0.004702567122876644 -0.0030629851389676332 0.0019285958260297775 -0.0024916434194892645 -0.003411240875720978 3.600635682232678E-4 1.6349325596820563E-4 0.003181592095643282 0.003813381539657712 -0.0033696864265948534 0.0021737206261605024 0.0012317036744207144 0.0029447940178215504 0.004787032026797533 1.7612914962228388E-4 0.0037893648259341717 0.001140750478953123 -8.711936534382403E-4 -0.0014698347076773643 -3.1433405820280313E-4 -0.004381611943244934 -0.005420200526714325 0.001747715286910534 0.004354120697826147 -0.004261204041540623 -0.0023909572046250105 0.0034294873476028442 5.654763663187623E-4 0.0014068279415369034 6.452695815823972E-4 0.001106332172639668 0.0021227411925792694 7.095455075614154E-4 -0.003988603129982948 -0.004936215002089739 -4.726782499346882E-4
agreement 8.13427206594497E-4 -0.0011190639343112707 0.0028719352558255196 4.436769522726536E-4 -2.330055576749146E-5 0.0027956273406744003 -0.0013298486592248082 -0.004018290434032679 4.541822418104857E-4 -0.002666896441951394 -0.0031396031845360994 3.491446259431541E-4 0.004874648060649633 0.004279241431504488 7.150718593038619E-4 0.003524585859850049 -9.736046195030212E-4 -0.0047121900133788586 0.0017634693067520857 -0.0023070492316037416 -0.002339219208806753 0.002010677009820938 0.0038571180775761604 -0.00270581035874784 4.1789928218349814E-4 -0.001788560999557376 -5.460904212668538E-4 0.0017955233342945576 -0.004901853855699301 0.0028694954235106707 -6.399237900041044E-4 0.0037307729944586754 0.003085024654865265 -7.540699443779886E-4 4.3480718159116805E-4 -0.003410418052226305 0.003264825325459242 -0.0011921008117496967 -0.0020092104095965624 0.0024449171032756567 -0.004403666593134403 -0.0014051292091608047 -0.0021190792322158813 -0.0024514112155884504 -0.0037246672436594963 0.00317415501922369 -0.004804136231541634 -0.0048489877954125404 -3.487519279588014E-4 -3.580759512260556E-4 -0.0038280165754258633 0.0036579957231879234 0.0036464801523834467 0.0015159944305196404 -0.0026166250463575125 -0.0029215537942945957 -0.0035640180576592684 -0.0016496966127306223 6.308149895630777E-4 0.0018879412673413754 0.0021686828695237637 -0.003430859884247184 -0.004779676906764507 -0.0020614166278392076 0.002694854512810707 -0.001999861327931285 -0.003821883350610733 0.0028887835796922445 -0.002502220217138529 -0.002010141499340534 -5.490280454978347E-4 0.004550250247120857 -5.339401541277766E-4 -6.173189030960202E-4 -0.0032091012690216303 0.004110794514417648 0.0012594840954989195 0.004376080818474293 6.735564675182104E-4 -0.0039046797901391983 0.0038413596339523792 0.004044156521558762 -0.004546911455690861 0.0037343348376452923 -0.0031653970945626497 -0.0023145510349422693 0.003329385770484805 -0.004758625291287899 -0.002657044678926468 -0.004134515766054392 0.002131157787516713 -0.003478745464235544 -0.003851301036775112 -0.0019484201911836863 -0.0018696764018386602 0.0050682988949120045 0.0013552299933508039 -0.0022921885829418898 -0.004968389868736267 4.2843184201046824E-4
$ -0.004343888256698847 -0.0031504067592322826 5.462808767333627E-4 -0.004537099506705999 0.0021360917016863823 8.208651561290026E-4 -0.004012091085314751 4.883169895038009E-4 7.775177364237607E-4 0.0014738504542037845 -0.005073312669992447 0.0048470525071024895 0.0021384248975664377 0.001642406452447176 0.003179845865815878 -5.343421944417059E-4 0.004929851740598679 5.289469263516366E-4 0.0017031343886628747 0.002667350461706519 -0.002776126377284527 6.179806659929454E-4 4.4475251343101263E-4 0.0022298286203294992 -0.0011622433084994555 -0.004112452734261751 -0.0025331645738333464 -0.0016644136048853397 0.001461744774132967 0.0017667299835011363 -0.0016333729727193713 1.2812472959922161E-5 -0.0018483081366866827 -0.00448088301345706 -0.0017497144872322679 -0.003687794553115964 0.004478445276618004 0.001256341696716845 -6.776220398023725E-4 -8.812150917947292E-5 9.590225527063012E-4 -0.006140718702226877 0.0015757447108626366 -0.002336353063583374 -0.002490529092028737 -0.0017702007899060845 0.0035215180832892656 2.940181875601411E-4 0.0037670282181352377 -0.0019306809408590198 0.00261074211448431 0.002396677155047655 0.0025279882829636335 -0.004413112998008728 -0.004553848411887884 0.004693764727562666 0.003961198031902313 -0.004113844595849514 -5.237298901192844E-4 0.002355376025661826 -0.004178671166300774 0.0044065555557608604 0.0015609113033860922 -0.002089369809255004 0.0024341668467968702 0.0011510879267007113 -0.002319087041541934 -0.0038995426148176193 -3.704914706759155E-4 -0.003446475137025118 0.0019787242636084557 0.0056226374581456184 -0.004653879441320896 0.001778447418473661 0.004289173521101475 -0.0024862608406692743 -0.005233817733824253 -0.0022132094018161297 0.001992595847696066 0.004113554023206234 -6.861582514829934E-4 -0.0029118971433490515 0.0024888876359909773 -0.0032976060174405575 -0.0014051388716325164 -0.005477077327668667 -0.00417263014242053 -0.0017298641614615917 -0.005032172426581383 -0.004798902198672295 -0.004707128740847111 -0.0025677026715129614 0.0040915054269135 -6.202044896781445E-4 -7.704083691351116E-4 -7.267101900652051E-4 0.005033526569604874 0.003989608958363533 -0.0027700222562998533 -0.0023287194781005383
going -7.959959912113845E-4 -0.004056442528963089 0.0024979799054563046 -0.001591184874996543 0.0013526384718716145 -1.9971677102148533E-4 0.004419019911438227 3.2195987296290696E-4 0.0012298326473683119 -0.004786449950188398 -5.429019802249968E-4 -0.004496404435485601 -0.0046850815415382385 -0.004586696624755859 6.848574266768992E-4 -0.00372100155800581 -0.0017835712060332298 0.0032101653050631285 -0.0045507303439080715 0.0038934466429054737 -0.0010391406249254942 0.003704797476530075 0.00130975223146379 0.002968953689560294 0.004137563984841108 0.004872109275311232 0.002917203586548567 0.004778419621288776 -0.0020823399536311626 -0.0028625179547816515 2.4456859682686627E-4 -0.002955747302621603 -2.9920059023424983E-4 -0.0039037298411130905 -0.0029832501895725727 0.0015759761445224285 0.0012007566401734948 0.004823003429919481 8.304543443955481E-4 -0.002769824815914035 -0.0020924657583236694 -0.0021852143108844757 -0.001542696263641119 0.004196460358798504 -0.0030144499614834785 0.0044525060802698135 0.0027380529791116714 0.0038698252756148577 -0.002095533534884453 8.648637449368834E-4 0.004760008305311203 -0.0017318020109087229 0.0021972362883388996 -0.0021914024837315083 0.0036669138353317976 -0.0027913672383874655 0.002522304654121399 -0.004642765503376722 0.0014112204080447555 -0.005283069331198931 -0.00393127603456378 -3.1797096016816795E-4 -0.001382459420710802 -0.0013259329134598374 -0.0030554174445569515 -0.0020653530955314636 -0.003716208739206195 0.003954011481255293 -0.0017936589429154992 -0.0010345118353143334 -0.0023887231945991516 -0.003696986474096775 -0.004648087080568075 1.8541474128142E-4 0.0038246307522058487 0.004046469461172819 -0.004212017171084881 0.004834374878555536 -0.0010118631180375814 -0.004018531180918217 0.0050805723294615746 6.10945513471961E-4 4.097069540875964E-5 0.004147509578615427 -0.004255874548107386 0.0022644205018877983 0.0029372205026447773 0.0020400257781147957 0.0017686234787106514 0.0039306036196649075 0.002723260084167123 0.004602359142154455 0.003933252301067114 -0.0011701359180733562 0.0016533378511667252 -0.001818056683987379 -0.0026692652609199286 0.0012486627092584968 -0.001161270192824304 0.004208471160382032
% -8.787487167865038E-4 -0.0032163322903215885 -0.0036466463934630156 -0.004714141134172678 0.003368241712450981 0.004642443731427193 -6.70481997076422E-4 0.0032796624582260847 -0.0044708834029734135 0.0024023137520998716 0.002114246366545558 0.0012267816346138716 -0.0032485262490808964 0.005126308649778366 0.00377572700381279 -0.003409226657822728 0.003372726496309042 -0.004700867924839258 -0.004569982178509235 8.269469253718853E-4 0.004733019042760134 0.0024310138542205095 -0.0011226482456550002 -0.0033487481996417046 -0.00300713162869215 0.0028553777374327183 8.887518779374659E-4 -0.0024208230897784233 0.0028868205845355988 -0.003361728508025408 0.0014814058085903525 0.0012395258527249098 0.002091869479045272 -0.0043444219045341015 -8.101744460873306E-4 -0.0013779265573248267 -0.0017337972531095147 -0.00417987909168005 0.002393216360360384 -0.002561796922236681 0.004202803131192923 -8.38148349430412E-4 -8.028104202821851E-4 -0.0036192394327372313 3.829283232335001E-4 -0.001422151573933661 0.0011290735565125942 0.0019274922087788582 0.0032697648275643587 -2.1570590615738183E-4 -0.0034670396707952023 -0.00418769521638751 0.002035705605521798 -0.0020553856156766415 0.003446301445364952 -4.0354515658691525E-4 0.0018381174886599183 -0.0013660978293046355 0.004689129535108805 -5.266901644063182E-5 0.00224336632527411 -2.8842041501775384E-4 0.004228485748171806 0.0027965570334345102 -0.0012339663226157427 -0.004068972077220678 0.004155001137405634 -0.003998513333499432 -2.3736644652672112E-4 -0.0020477152429521084 1.0629421012708917E-4 2.262295165564865E-4 4.1578031959943473E-4 4.0305816219188273E-4 0.0025846844073385 5.619332659989595E-4 -0.0025597186759114265 0.0026936931535601616 0.003852616995573044 0.001497809775173664 -0.0016423399792984128 -9.046922787092626E-4 8.514448418281972E-4 -0.0022484937217086554 -0.0041186087764799595 0.004221816547214985 0.001974513754248619 -0.0016765177715569735 -0.002670718589797616 -0.003687844378873706 0.0014691927935928106 4.4783769408240914E-4 0.005048335529863834 0.0017565821763128042 -0.0036547286435961723 0.003995752427726984 -0.003960218280553818 0.002955232746899128 -0.004321579821407795 0.0010856962762773037
& -0.0036213917192071676 -0.004939268343150616 -0.00313446088694036 -0.0026451623998582363 0.0013640964170917869 -0.004422733560204506 -0.0017774311127141118 0.0017563661094754934 0.0035438539925962687 -0.0026215347461402416 -0.00322351255454123 0.00443847943097353 -0.002154422225430608 -0.0041254316456615925 -0.002859255997464061 -0.0033003133721649647 -0.0012112075928598642 0.0018906323239207268 -0.0017628041096031666 -0.0028467278461903334 1.199272956000641E-4 -0.004475058522075415 9.907829808071256E-4 -0.004051298834383488 -0.0036566632334142923 -6.061982712708414E-4 0.0036744042299687862 0.0019632261246442795 0.0019414619309827685 -0.0028065252117812634 0.0033631830010563135 -0.0030242986977100372 0.003366988617926836 -0.005014421418309212 -4.7134680789895356E-4 7.946364348754287E-4 0.004154656548053026 -7.296180119737983E-4 0.004345807246863842 0.002065871609374881 0.004454649519175291 -0.003430288750678301 0.00195328239351511 -0.0018783272244036198 2.392940514255315E-4 4.929006681777537E-4 7.170882308855653E-4 0.001823018305003643 0.0011639787117019296 3.222909872420132E-4 0.004537905100733042 -0.004569151438772678 8.171910303644836E-4 0.004096896853297949 -0.004196693655103445 9.823979053180665E-5 -0.003249231493100524 0.0020087650045752525 -0.002350098919123411 -0.002433819230645895 3.2376672606915236E-4 0.002654837444424629 9.545288630761206E-4 -0.003650022204965353 -6.389575719367713E-5 -0.002796783810481429 0.0016919160261750221 -0.0032246592454612255 0.004212276078760624 -0.004475174471735954 1.4170592476148158E-4 0.00169309601187706 -4.98043023981154E-4 6.911249365657568E-4 0.004698397591710091 -1.1691459803842008E-4 0.0027074296958744526 -1.2396767851896584E-4 -0.0029125080909579992 0.002444732002913952 -0.0029037785716354847 -0.005043786484748125 0.004723269026726484 0.0021709573920816183 -0.0010202382691204548 0.001875030342489481 -0.002742287702858448 -7.433113059960306E-4 -0.002902075881138444 -0.0039803278632462025 0.0028236787766218185 -0.0021417811512947083 0.002644872758537531 -0.0017355700256302953 -0.005060215480625629 -0.0016362116439267993 0.00446383748203516 -0.004195627756416798 -0.0015637229662388563 -2.279875916428864E-4
festival 0.002501817885786295 0.0017816437175497413 -0.0019722762517631054 -8.988573681563139E-4 0.0013329534558579326 -0.0029610164929181337 0.004810635931789875 -1.6306510951835662E-4 -0.004249857272952795 -0.002070842543616891 0.002357680583372712 -0.0019385784398764372 -0.004615360870957375 -0.00374182709492743 0.0018445489695295691 0.004677589982748032 2.0536653755698353E-4 -0.0010906548704952002 -0.0025601638481020927 -0.002568252617493272 -0.003306054975837469 -0.005446447525173426 0.0029732396360486746 0.002890097675845027 -0.0037663872353732586 -0.004197463393211365 -0.0019477637251839042 -0.002427009167149663 0.003280423115938902 0.0015555756399407983 -7.891491986811161E-4 -2.732658467721194E-4 0.001999425934627652 -0.005913700442761183 -0.002336968434974551 -0.00520288897678256 -0.00182464683894068 -0.0038160369731485844 -0.001517013763077557 -0.002848857082426548 0.003374570980668068 -0.003211283590644598 0.004286992363631725 0.004408020060509443 -9.346022852696478E-4 -0.0038645779713988304 0.0021820771507918835 -0.003998958971351385 0.0026087870355695486 -0.004377223085612059 -0.00213387468829751 -0.0032306115608662367 -8.419877849519253E-4 -0.002027661306783557 -0.0013520694337785244 7.773631950840354E-4 0.004225241485983133 -0.0031687309965491295 0.004113872069865465 9.613517904654145E-4 4.369783273432404E-4 0.0016263757133856416 6.346515729092062E-4 0.004468649625778198 0.0037735498044639826 -0.0017156897811219096 -0.0036897752434015274 0.004133526235818863 0.0010332115925848484 0.0045541138388216496 -5.977188120596111E-4 -0.004105633124709129 3.8801648770458996E-4 0.004600738640874624 -0.0026123567949980497 -0.003548006759956479 0.001584239536896348 -4.743135068565607E-4 0.004539415705949068 0.003684709081426263 0.002030731411650777 0.0024696614127606153 0.0030214148573577404 -0.001041022245772183 -0.0015282684471458197 -0.0021484701428562403 -0.002599186496809125 -0.0018293174216523767 -0.00535240164026618 -0.002958558266982436 0.004520274233072996 3.640680806711316E-4 0.0018350663594901562 -0.0027999759186059237 -0.002116556977853179 -0.0017178307753056288 6.548014789586887E-5 -0.0029979790560901165 0.004212015774101019 -3.8556248182430863E-4
loyal -0.0019791736267507076 -0.0031789634376764297 0.003066852455958724 0.0026865992695093155 0.0033360086381435394 0.004058507736772299 -8.496857481077313E-4 0.0046177636831998825 -8.387052803300321E-4 0.0017939311219379306 0.004661074373871088 -0.0014052215265110135 -9.066294296644628E-4 9.474602848058566E-5 0.002954324008896947 0.0019734278321266174 -7.135287742130458E-4 -7.059138151817024E-4 -0.0010597320506349206 3.561210760381073E-4 0.002567548770457506 0.003150021657347679 -0.004163743928074837 6.91975699737668E-4 0.0014819374773651361 -8.076939848251641E-4 0.0026672775857150555 0.0013730456121265888 0.003180707572028041 0.002656731754541397 -4.3963114148937166E-4 0.00486750015988946 0.0035725634079426527 0.0029594050720334053 0.0037925869692116976 0.003509867936372757 -0.0036231873091310263 8.971414063125849E-4 0.0031840400770306587 0.0038014801684767008 0.0031266079749912024 -0.0031860515009611845 -0.004451302345842123 -0.004715234041213989 7.482561632059515E-4 3.3644645009189844E-4 0.003730276832357049 -0.0039727455005049706 -0.002264135517179966 0.004420141223818064 5.6231816415674984E-5 -7.436320302076638E-4 -2.6527585578151047E-4 -0.0010899354238063097 0.002520423848181963 -0.0012326459400355816 -0.0019251136109232903 0.0013057736214250326 -0.0025224837008863688 0.004338936414569616 4.8479376710020006E-4 -0.0035476109478622675 0.004587736912071705 0.0036141732707619667 -0.004373765550553799 -0.003275967435911298 -0.0031407519709318876 8.690928370924667E-5 6.928077200427651E-4 -0.0021354621276259422 -0.0036883412394672632 0.002837427658960223 0.001281768549233675 1.8646939133759588E-4 0.004967301152646542 0.0036039750557392836 -4.986391868442297E-4 6.698599318042397E-4 0.0024015384260565042 -0.001047784462571144 0.0016658210661262274 0.0033829468302428722 -0.0030708236154168844 5.665419739671052E-4 0.0022757851984351873 -4.604156129062176E-4 0.004230672959238291 -0.004098244942724705 -0.001612251391634345 0.0010426080552861094 0.004821576178073883 -4.424556973390281E-4 -0.002071814378723502 0.004090312868356705 9.357398375868797E-4 -0.0011584850726649165 0.0023981905542314053 0.005057626403868198 -0.0025505300145596266 -0.003461373271420598
pool -0.0034583909437060356 0.0027467545587569475 -0.0031920946203172207 0.003605360398069024 -0.002609055023640394 -0.004986293148249388 -3.355066291987896E-4 1.2719607184408233E-5 -6.746009457856417E-4 0.0042991628870368 -0.0020279872696846724 -1.463613734813407E-4 0.0020454521290957928 -0.0035196617245674133 0.004039295017719269 9.411326609551907E-4 -0.0023909707088023424 0.00483677489683032 -0.0024331738241016865 -0.0033179933670908213 -0.004339555278420448 -0.0022213768679648638 0.004824528936296701 0.0045044939033687115 -0.003801479237154126 0.0027444767765700817 -0.0019470008555799723 0.0027764623519033194 -0.003257204545661807 0.002000682055950165 0.004220024682581425 -0.0014549903571605682 0.003340689931064844 0.0018435560632497072 0.0036286062095314264 0.0010070560965687037 0.0023508663289248943 9.026341722346842E-4 0.0030799745582044125 -2.768948324956E-4 -0.002453584223985672 0.004858746659010649 -0.0038878105115145445 0.002417788142338395 -0.003975349478423595 0.002522597089409828 0.004528239835053682 0.0019725700840353966 0.0038824051152914762 -0.004905036650598049 -0.0021879931446164846 3.1290031620301306E-4 0.0015461035072803497 -0.004533227067440748 0.0043876138515770435 -0.0010668064933270216 -0.003879714524373412 -0.0018094596453011036 0.004928530193865299 -0.00388735206797719 0.0021220757625997066 -0.004061311949044466 -0.002190226223319769 8.776830509305E-4 -0.0031713161151856184 -9.013496310217306E-6 -0.0024396523367613554 0.004880066495388746 -0.002340099308639765 8.468536543659866E-4 -0.0045540002174675465 0.0038081312086433172 0.0024436756502836943 -0.0026835130993276834 -0.00273232813924551 -0.003936356864869595 -3.9650892722420394E-4 0.004102177452296019 0.004168967250734568 -0.0032559745013713837 -0.004259010776877403 0.0015960747841745615 -1.5789171357027953E-6 -0.002871181583032012 -0.0029476613271981478 -0.0017047661822289228 -0.0020145056769251823 -0.0014006156707182527 -0.003775237128138542 0.0018001991556957364 0.0020933044143021107 0.002572533907368779 0.0018000261625275016 0.0020462628453969955 -9.324679849669337E-4 -2.4493533419445157E-4 0.004707968793809414 -0.002335942815989256 -3.728819137904793E-4 0.0035884517710655928
newport -0.0050142910331487656 0.00500445207580924 9.386652964167297E-4 0.0015776834916323423 -0.0015647895634174347 -0.0014159162528812885 0.0012046403717249632 0.0038444760721176863 -0.004189813043922186 0.003794789547100663 -2.910847251769155E-4 -0.0028409878723323345 -0.002001214539632201 0.0012800520053133368 -7.888551335781813E-4 -0.0013129054568707943 6.273092585615814E-4 0.0022536690812557936 0.0013186056166887283 -0.00249019218608737 0.0032734537962824106 -0.0032481946982443333 -0.0015654594171792269 0.0027054178062826395 -0.0023776008747518063 7.146899588406086E-4 -0.005344005301594734 -0.004703341983258724 -0.0032240853179246187 -0.001552748610265553 -0.002287148265168071 0.001961118308827281 0.0027130916714668274 0.0014070559991523623 0.0045788181014359 -0.0033114138059318066 -0.004303062334656715 -9.557590237818658E-4 -0.0042905318550765514 0.001394443679600954 -0.002871860284358263 0.0030607120133936405 -0.0037279867101460695 -0.0050206733867526054 0.002576100407168269 -0.00367103167809546 -4.4638547115027905E-4 0.0012980623869225383 2.316233003512025E-4 -8.662321488372982E-4 0.002916463650763035 -1.9784850883297622E-4 -0.003729861229658127 -0.0024442370049655437 0.001370847225189209 0.0019789505749940872 0.0026871110312640667 -0.0031672478653490543 0.002285983879119158 0.0020947253797203302 0.003995025064796209 -0.0019558356143534184 -0.002919446909800172 0.002040261635556817 -0.002629196038469672 0.0029233149252831936 0.0010659535182639956 -0.0027352580800652504 0.0017664361512288451 -0.00236609042622149 -0.0020220151636749506 0.001262667472474277 -0.0020660683512687683 5.428810836747289E-4 0.0031983545050024986 0.0031814398244023323 -0.002068217843770981 0.0028249872848391533 0.002306073671206832 0.004560856614261866 -0.0023972024209797382 0.0011385264806449413 0.0030015662778168917 -0.00435640150681138 -8.629413787275553E-5 0.0011928330641239882 -0.0025894343852996826 -0.003909335006028414 -0.005105444695800543 -0.003918699454516172 -5.10997895617038E-4 -0.002737697446718812 0.001035681925714016 -0.003951001446694136 -0.003248050343245268 0.002365258289501071 0.0038394341245293617 -0.0044378661550581455 7.207565358839929E-4 4.660158301703632E-4
bill -1.0652441415004432E-4 0.00237217522226274 0.003712201490998268 0.004309371113777161 -0.002308950526639819 3.511706891003996E-4 0.002157582202926278 0.0018641474889591336 0.0036591028328984976 0.0021249367855489254 -0.0034103081561625004 -0.0015791485784575343 0.004990424495190382 -3.425319737289101E-4 0.0034357942640781403 -0.00427946075797081 0.001309388899244368 0.004065495915710926 -0.0032117743976414204 0.0034436900168657303 0.0015729053411632776 -0.0024005926679819822 -0.001143791014328599 -0.0026163244619965553 0.004420475102961063 -0.0023499473463743925 0.0022813102696090937 -0.0016455670120194554 0.003958927467465401 0.0033858728129416704 -0.003889739513397217 0.0012573865242302418 -0.003709077136591077 -0.0022448438685387373 0.0036449178587645292 3.6192743573337793E-4 8.169810171239078E-4 -0.002441692864522338 0.0013419812312349677 -0.004412096459418535 -0.0036954598035663366 -0.004363329615443945 0.001962438691407442 -2.743542136158794E-4 0.004004418384283781 0.002502014394849539 5.952322389930487E-4 -0.0032530389726161957 -0.0036802412942051888 0.004094542004168034 0.001227133092470467 -0.0025416165590286255 -0.0019156259950250387 -0.0032478999346494675 -0.002165595069527626 0.00319540873169899 0.0033509666100144386 0.0027892878279089928 -6.493114051409066E-4 -0.002835745457559824 -0.004265925846993923 -0.0035760574974119663 -0.0035144612193107605 0.0022981970105320215 4.6533995191566646E-4 0.004406682215631008 0.004546819720417261 0.004126713145524263 0.0037226236891001463 0.002831583609804511 0.004214002750813961 0.002068876987323165 -0.0027494216337800026 0.0010818513110280037 0.003791088704019785 0.0033872737549245358 3.869262582156807E-4 -1.8990800890605897E-4 -0.002369718858972192 0.0027184775099158287 0.0044298251159489155 3.8552324986085296E-4 -7.137453067116439E-4 -0.002240541623905301 0.0040299538522958755 -0.0014417606871575117 5.216535646468401E-4 -7.767073111608624E-4 -0.0016155890189111233 0.0028515488374978304 0.004908679518848658 0.0014136438257992268 -0.0024627037346363068 -1.8901281873695552E-4 -0.002698635682463646 -0.0025778517592698336 -4.6485025086440146E-4 -7.059912895783782E-4 0.002609861548990011 -5.9029105614172295E-5
analysis 0.00264946511015296 -0.0032984756398946047 0.003453377401456237 0.0010445110965520144 0.004808767698705196 -0.00142350431997329 -0.0037217987701296806 -0.004341484047472477 -0.0029583435971289873 -7.813586853444576E-4 -0.004279694054275751 0.005049233324825764 1.1288093810435385E-4 -5.73470548260957E-4 0.004476577043533325 0.003616990754380822 0.0027018997352570295 0.004741031676530838 -2.478341048117727E-5 0.0027785440906882286 0.004692177753895521 -0.004460375756025314 0.0032335836440324783 0.0051411911845207214 0.004373637028038502 0.004342183470726013 7.29715044144541E-4 0.0012268234277144074 0.004698312841355801 0.0035758758895099163 0.003118120366707444 0.004755951929837465 -0.0045248218812048435 0.003346506040543318 0.004104746505618095 0.0014962571440264583 0.003331264480948448 -0.003990288823843002 -0.0016233351780101657 0.003513047704473138 -7.944262470118701E-4 0.0035099764354526997 0.0012624802766367793 -0.004930688068270683 0.0013095663161948323 0.004561259411275387 -0.0018922361778095365 -0.0025969429407268763 0.0037250204477459192 -0.0014336572494357824 0.002068169880658388 0.004406821448355913 -0.0015987093793228269 3.06689616991207E-4 0.0040503512136638165 0.003244193270802498 0.0017338881734758615 -0.0022845962084829807 0.0037185593973845243 0.003447551978752017 0.0011026092106476426 0.004065884277224541 -0.0024620110634714365 0.005051196087151766 -0.003921226132661104 -9.981521870940924E-4 9.249485447071493E-4 0.0030436201486736536 -0.0012784083373844624 0.0013078399933874607 -0.0014503913698717952 -0.0031579763162881136 -0.0018461175495758653 -0.0038394571747630835 -0.0036310835275799036 0.001806293847039342 5.633239052258432E-4 0.0015186074888333678 -0.0017167660407721996 0.0035548550076782703 -8.962088613770902E-4 0.003492709482088685 1.228888868354261E-4 0.0029052405152469873 3.6754037137143314E-4 -0.003064982360228896 -0.004828406497836113 0.001792042632587254 -0.002469430211931467 -0.003629766870290041 0.003583050798624754 -0.0013997283531352878 -0.004012499935925007 4.3295123032294214E-4 9.091953397728503E-4 0.0022636009380221367 -0.0017017676727846265 -8.617573184892535E-4 -3.1099881744012237E-4 -0.0029291051905602217
an 0.003138968488201499 -0.003698402550071478 0.0016050920821726322 0.00387124833650887 0.006143775302916765 0.004419274162501097 -0.002239892492070794 -5.507615423994139E-5 -0.0024390537291765213 -0.005823991727083921 -8.027955191209912E-4 0.002340294886380434 0.0015410053310915828 -0.0025203344412148 -0.0027138188015669584 -0.0017917256336659193 0.0025438556913286448 0.0010836293222382665 6.96604314725846E-4 7.023165235295892E-4 6.103211781010032E-4 8.574652019888163E-4 -0.0015026971232146025 -0.0021545018535107374 -7.87477008998394E-4 0.0039205532521009445 -0.0070748357102274895 0.0012026141630485654 -0.002268447307869792 3.851557266898453E-4 -0.001125411014072597 -0.0030654105357825756 0.005196844227612019 0.002435394562780857 -0.004897787235677242 0.004072458948940039 -0.0028598164208233356 -0.00153776363003999 0.0024066725745797157 0.003599327290430665 -0.0034186667762696743 -0.0012981591280549765 0.0032888331916183233 0.0027504581958055496 -5.409026052802801E-4 -4.585519200190902E-4 0.001662042224779725 1.5323293337132782E-4 0.005981879774481058 0.0015941464807838202 -3.145149676129222E-4 0.003088798141106963 -0.002965780906379223 0.002175819594413042 -0.002208167687058449 -1.3598916120827198E-4 0.0020139601547271013 -0.001555995550006628 0.004526088479906321 -0.005059587303549051 0.004619368817657232 0.0033781647216528654 -2.277935273014009E-4 0.006225133314728737 0.001201469567604363 0.002938387682661414 -0.0029544285498559475 0.0035443450324237347 -0.00207353918813169 0.0013912665890529752 0.002245531417429447 0.005112392362207174 -0.004431004170328379 0.003757333615794778 0.005664425902068615 1.828750828281045E-4 -0.0024526691995561123 0.003906652331352234 0.003929582424461842 -0.0038301951717585325 -0.003230195725336671 0.0014953823992982507 0.0013779528671875596 0.0021817076485604048 0.002260706154629588 0.001239621196873486 0.0036094547249376774 0.0013268602779135108 -0.004496779292821884 0.001514305011369288 0.0012360264081507921 -0.004006549250334501 -0.002475984860211611 -4.073344825883396E-5 0.0038962855469435453 -0.0011595831019803882 -0.0029255806002765894 0.005517192650586367 -0.0034280470572412014 -0.0012463417369872332
authorities 0.003611596766859293 -0.002191588981077075 -0.002901527564972639 -0.0026084021665155888 0.003342172596603632 0.0037347155157476664 -0.004359454847872257 0.002100365236401558 -0.0038451331201940775 -7.929188432171941E-4 -0.0035842980723828077 -0.0015615924494341016 0.0028435364365577698 4.785795681527816E-5 -0.0032945885322988033 -0.0031355866231024265 8.878054795786738E-4 0.0022600500378757715 -9.037544368766248E-4 0.003254072042182088 -3.6364796687848866E-4 -0.004433740396052599 0.004321310669183731 9.422834264114499E-4 0.001187099376693368 0.0022956288885325193 -0.0024480405263602734 -0.00435321731492877 0.0017540940316393971 -0.0012943962356075644 0.002870874712243676 0.0022571547888219357 0.005143189337104559 -0.00279878918081522 -0.00515632564201951 9.734277846291661E-4 0.0031684499699622393 -0.002192750805988908 -0.001674872008152306 -0.002796678803861141 0.004214483313262463 0.001982443267479539 5.69560332223773E-4 0.0015518303262069821 0.0038833722937852144 0.0019009714014828205 0.004610093310475349 0.0045752269215881824 0.0022610921878367662 0.004695563577115536 0.0027320042718201876 0.0012870943173766136 0.0024921682197600603 0.00427072960883379 -0.0018277906347066164 0.0046495660208165646 0.003372157458215952 -0.00413719704374671 -0.001762503758072853 1.1782727233367041E-4 0.0030882512219250202 0.004233089741319418 0.003954848274588585 0.004219058435410261 0.004960207734256983 -0.004296463914215565 5.612998502328992E-4 -0.0010512731969356537 0.0034774101804941893 -0.0013172494946047664 0.003953882027417421 -0.0037954412400722504 -2.4207253591157496E-4 -0.001259655226022005 -0.0021716381888836622 -0.00537577411159873 -9.009112836793065E-4 -0.003883850062265992 0.004042371176183224 0.0021596490405499935 0.003378628520295024 -0.0035188281908631325 7.843697676435113E-4 0.0032089415472000837 6.647056579822674E-5 -0.001551238470710814 1.655378146097064E-4 -0.0024972890969365835 -6.090932874940336E-4 0.002270739059895277 -0.0049062916077673435 0.003883529454469681 0.0036454908549785614 -3.4208287252113223E-4 0.002682673279196024 -5.95686084125191E-4 -0.003976832143962383 0.002106410451233387 0.0027073880191892385 -5.292357527650893E-4
former 0.0020865744445472956 -0.002083615632727742 6.463343743234873E-4 0.004925964865833521 0.001049266429618001 -0.0010742226149886847 0.004800210706889629 -0.002409221138805151 4.485611279960722E-4 -0.0011916832299903035 0.0024148328229784966 0.003913463093340397 -0.0017409921856597066 0.0032519435044378042 -0.0021144209895282984 5.870282766409218E-4 0.0038426395040005445 0.0010593989863991737 0.00167750078253448 0.0012537530856207013 0.0018067528726533055 -0.0012764885323122144 6.912436219863594E-4 0.0023395870812237263 -6.283522234298289E-4 -0.003438857151195407 -8.9816876425175E-6 0.004422607831656933 7.673944346606731E-4 0.0035894436296075583 0.004356191027909517 -0.003481239080429077 -0.001883066724985838 8.022323017939925E-4 -0.0017583139706403017 8.169659995473921E-4 0.00466920668259263 0.0024364576674997807 0.004580388776957989 4.4823542702943087E-4 -1.2910716759506613E-4 -0.0012382669374346733 4.867984098382294E-4 -0.005099743604660034 -0.0032758417073637247 -0.0032616108655929565 -0.004802362062036991 -0.0024011186324059963 0.005278798285871744 0.0022974617313593626 0.004370817914605141 -0.0047148154117167 0.0016105070244520903 0.004545990377664566 0.002197899855673313 0.0050996458157896996 6.782842101529241E-4 -0.004220793955028057 0.001713962177745998 0.0028706404846161604 0.003936329390853643 5.989447236061096E-4 0.003846722189337015 -0.001548590837046504 -0.0012894277460873127 0.0019204657291993499 -0.00493421358987689 -0.004609099589288235 4.605197755154222E-4 -9.303796105086803E-4 0.00126454618293792 -6.935389246791601E-4 0.004373829811811447 -0.0027104655746370554 0.0023164781741797924 -0.003300535725429654 5.550178320845589E-5 0.0012716393684968352 -0.004351165611296892 -0.0035983938723802567 0.001972910715267062 -0.0016863683704286814 0.003176481928676367 0.001156751299276948 0.002499849069863558 -0.005270829424262047 0.004051633644849062 1.4445905981119722E-4 -0.0016397928120568395 8.749793050810695E-4 -0.001423685229383409 -0.0015935597475618124 -0.0014656202401965857 5.53852878510952E-4 0.002697082469239831 -0.002924203872680664 0.0011070668697357178 2.168313367292285E-4 -0.003725630696862936 0.0046990783885121346
warren -0.004599403589963913 0.0036882758140563965 -0.004871489014476538 0.004922742489725351 -0.0023831515572965145 -0.0018939916044473648 -0.001691244076937437 -0.0034461815375834703 0.004910946357995272 -0.0026617366820573807 0.0020701454486697912 0.001849000109359622 0.00478440010920167 0.002288838615640998 4.686371248681098E-4 -0.003803827101364732 -0.003767712041735649 0.004364995751529932 -8.50032374728471E-4 0.00409046933054924 6.41054764855653E-4 5.4454074415843934E-5 -0.004204432480037212 0.0041254437528550625 -0.0010748357744887471 -0.0014297791058197618 -0.0022912914864718914 0.004878920037299395 -0.003209946444258094 -0.002391926711425185 9.389141341671348E-4 -0.003691038116812706 -0.004684282932430506 0.002294192323461175 -0.0020682846661657095 5.849514855071902E-4 -6.588389514945447E-4 -0.004276962950825691 0.00410748366266489 -2.009551681112498E-4 0.0026984685100615025 -0.0024717391934245825 -0.002175751607865095 0.0038214426022022963 0.004577178042382002 9.075379057321697E-5 0.003602247918024659 -7.830188842490315E-4 -3.8001383654773235E-4 -0.0016277401009574533 0.0021594425197690725 -3.1811403459869325E-4 0.0012118620797991753 -0.0011375857284292579 -0.001460126368328929 0.005039503797888756 0.004291929770261049 -0.001622674404643476 0.0015246688853949308 0.001643283641897142 -9.682250674813986E-4 -0.004130233079195023 -0.0047973752953112125 0.003205705201253295 0.004478855989873409 0.0015756494831293821 0.004163332749158144 -0.004619613755494356 -0.001157569233328104 -6.683828542008996E-4 -0.002873632125556469 0.0018213422736153007 -0.001092371647246182 0.003110901452600956 0.004574114922434092 7.644154829904437E-4 0.0026488760486245155 -0.0034899250604212284 8.828620193526149E-4 -0.0025322644505649805 -4.5464348659152165E-5 -0.0014255106216296554 -0.0028218557126820087 0.0031616794876754284 -0.0020746951922774315 0.0033312926534563303 0.0012258596252650023 3.017962444573641E-4 0.0045325555838644505 0.0022975269239395857 0.0031002163887023926 -0.00175661058165133 -0.0023119552060961723 -0.0038278475403785706 0.0012812771601602435 -0.0010975864715874195 0.002920700702816248 0.003805666696280241 -0.0028149245772510767 0.0034203215036541224
airport -0.0019063767977058887 0.0017214762046933174 0.004289684817194939 0.0029895545449107885 0.004326059482991695 -0.0023969702888280153 -0.0019343906315043569 0.0037912093102931976 0.004209096543490887 -4.3814480886794627E-4 -0.0030886163003742695 -0.0021510093938559294 0.003772038035094738 0.004321764688938856 -0.0016961183864623308 0.0014303192729130387 0.004039396066218615 -0.0021156566217541695 -0.004694796167314053 -0.0041820895858109 -5.379305803216994E-4 0.004327316768467426 -0.003316931426525116 -0.002940039150416851 -0.0012098569422960281 -0.003220941638574004 0.003596032503992319 0.004707763437181711 -0.0011892608599737287 -0.003974210005253553 -4.4315250124782324E-4 8.695311844348907E-4 -0.003543631639331579 -0.0016537621850147843 -0.004302889108657837 5.1194863772252575E-5 -7.383761694654822E-4 -0.004660442471504211 -0.002051025163382292 0.0030823347624391317 -0.0017810092540457845 0.0034533697180449963 3.915168344974518E-4 0.0016099305357784033 0.0012294106418266892 0.001959735993295908 -0.002061043633148074 7.111727027222514E-4 -0.002664947183802724 0.0022634502965956926 -0.0027367493603378534 9.863838786259294E-4 -0.0031102646607905626 -3.082923940382898E-4 -0.001973837846890092 0.004297364503145218 0.0020579372067004442 -0.002498780144378543 0.0026391472201794386 -8.184450562112033E-4 -0.0033021573908627033 1.347340876236558E-4 0.002966734580695629 -0.002922804793342948 0.0014782764483243227 -0.005143025889992714 -6.387774483300745E-4 -9.122802293859422E-4 0.005197240971028805 -0.0010793500114232302 -2.0490997121669352E-4 0.004792184568941593 0.00347618549130857 -9.792896889848635E-5 0.0038309756200760603 -1.579349918756634E-4 9.605652885511518E-4 6.23971049208194E-4 0.0041114408522844315 0.0033940300345420837 -0.0034524668008089066 -0.002455600071698427 -2.52141326200217E-4 4.874795558862388E-5 0.001276085153222084 4.955705371685326E-4 -0.0044312793761491776 -0.0017972938949242234 -0.0038500165101140738 3.5838288022205234E-4 5.715157603845E-4 -0.0033986622001975775 -0.003595866495743394 -0.002619441831484437 0.004837374202907085 0.0019860430620610714 -0.0024711578153073788 -0.0015740544768050313 -0.0021994863636791706 -7.830610848031938E-4
as -0.001109074684791267 0.004850615747272968 -0.0023032405879348516 0.003165201051160693 0.0040829479694366455 -3.291640314273536E-4 -0.0029227789491415024 -0.005099107977002859 -8.112767827697098E-4 0.0035402406938374043 -0.00221264804713428 -0.0021218901965767145 0.001953228609636426 -0.0021053426899015903 -0.003818703116849065 -0.0011807105038315058 7.846559747122228E-4 0.0044227177277207375 6.726834690198302E-4 -0.003307877341285348 0.0023158665280789137 0.004034229554235935 0.0038824635557830334 -9.484213078394532E-4 7.406788063235581E-4 7.14111898560077E-4 -9.618483600206673E-4 0.0012229257263243198 0.003924206830561161 -0.0037274714559316635 0.0036989913787692785 0.004973845090717077 0.005291422829031944 -0.005911211483180523 0.00417263014242053 5.306605016812682E-4 -0.002118087140843272 -0.003993721678853035 0.004488066304475069 0.0036167954094707966 2.182111784350127E-4 0.0032224911265075207 -8.291615813504905E-5 -0.001029973034746945 2.6513918419368565E-4 0.0046492875553667545 0.003893473418429494 -0.002819543704390526 -0.004134807735681534 -5.802416708320379E-4 0.00234666233882308 0.003770270850509405 0.004223410505801439 1.5291832096409053E-4 1.8420925698592328E-5 -0.002818603301420808 0.0044154878705739975 0.002271872479468584 0.0017636338016018271 -0.0018285128753632307 -0.0017623200546950102 -3.2175375963561237E-4 0.002660189988091588 -0.00395234813913703 -0.0023704024497419596 0.0039915163069963455 -0.0016864308854565024 0.0011542210122570395 0.00395783968269825 8.170455694198608E-4 3.903347533196211E-4 -0.001218823716044426 -0.005376574117690325 0.00498088588938117 -0.0030582554172724485 0.0011853505857288837 0.0027617141604423523 6.155664450488985E-4 0.0023215515539050102 0.005102143157273531 0.00495724705979228 -1.157356018666178E-5 0.0019087838008999825 -0.0027490342035889626 -8.432830218225718E-4 -0.002974283415824175 0.004965470638126135 0.0026578877586871386 0.0013669811887666583 -0.004055429250001907 1.6428879462182522E-5 0.0010798972798511386 0.002740924246609211 -0.0015722309472039342 -0.0016280960990116 1.781111059244722E-4 9.579330217093229E-4 -0.0011655321577563882 -8.183996542356908E-4 -0.0015088579384610057
charges 2.4578217562520877E-5 0.00237250211648643 -7.125338306650519E-4 0.0016627321019768715 -0.004521426744759083 -0.0042616683058440685 0.0014941918198019266 9.584254585206509E-4 2.873607736546546E-4 0.0025328672491014004 0.002096813404932618 -7.729648496024311E-4 -8.900151588022709E-4 0.002891366835683584 -0.0016238323878496885 -4.6537857269868255E-4 -0.003987155854701996 0.001070427126251161 0.004099510610103607 -0.003294565249234438 -0.0023478101938962936 0.0022374200634658337 -0.005019611679017544 0.004062918946146965 0.0020194940734654665 -3.7188336136750877E-4 -0.0016618556110188365 -0.004098201636224985 0.0010388907976448536 0.003804044798016548 -0.004653239157050848 0.004139517899602652 0.0028527481481432915 -0.0024097010027617216 -9.531243704259396E-4 -0.002938671503216028 0.004704785533249378 -3.7647836143150926E-4 0.001594589906744659 7.831240654923022E-4 0.0035710379015654325 -0.001808682456612587 0.0034366673789918423 0.0021170449908822775 0.0014297005254775286 0.001734510762616992 -0.0036250222474336624 -0.002720767632126808 0.002494859043508768 -0.0037048852536827326 9.975261054933071E-4 1.9245325529482216E-4 -0.0027064320165663958 1.2792597772204317E-5 -0.00473971338942647 0.0019925637170672417 -0.002320039551705122 -5.985103780403733E-4 0.0019183078547939658 -0.002960503799840808 0.002125619677826762 -0.0046981219202280045 -0.0027789808809757233 -8.318391628563404E-4 0.004884762689471245 -0.0011370062129572034 -6.096239667385817E-4 -1.4083142741583288E-4 7.917019538581371E-4 0.002237699693068862 -0.0024503320455551147 0.0015212773578241467 -2.610704395920038E-4 -0.003585861762985587 -0.003365171840414405 1.795000134734437E-4 -3.1101840431801975E-4 -5.372307496145368E-4 -0.0022926342207938433 0.003997451160103083 -0.0014686931390315294 -0.0016442796913906932 -0.0032983713317662477 -8.407725836150348E-4 -0.004298822022974491 -0.003983041737228632 0.003625329816713929 -0.004475806374102831 -0.0018964605405926704 -0.002382987644523382 -4.995441995561123E-4 0.002705568913370371 0.001950615318492055 -6.832237122580409E-4 -0.001939831767231226 0.0035975894425064325 -0.004481958225369453 -2.98170605674386E-4 0.003595797810703516 0.0013765677576884627
at -0.001186208100989461 0.005045434460043907 -0.006650787778198719 0.00349514395929873 0.003940350376069546 9.026994230225682E-4 0.0027343593537807465 -0.00482770474627614 8.642794273328036E-5 -0.005900873336941004 -0.007354375906288624 -0.0015948680229485035 -3.5481186932884157E-4 0.006210446823388338 0.0014434343902394176 -0.0024963701143860817 0.0023008373100310564 -8.87784524820745E-4 -0.0029780373442918062 9.661714429967105E-4 -0.002591930329799652 -0.0015622538048774004 -0.002850893186405301 4.782387113664299E-4 0.004744654521346092 0.003931317012757063 -0.009469950571656227 2.7673147269524634E-4 -0.0040215360932052135 0.004848945885896683 0.003124203998595476 0.006674744188785553 0.0032839681953191757 -0.008422179147601128 -3.3104508929682197E-6 -0.0016041696071624756 0.005717604421079159 -0.002932891482487321 0.0049950056709349155 0.001488640671595931 3.892691747751087E-4 -0.0031309928745031357 0.0012391831260174513 -0.005532482638955116 -0.0020288038067519665 0.0019854228012263775 0.0031531103886663914 0.004626203328371048 0.006808670703321695 0.004851269535720348 0.0011880940292030573 -0.0024653736036270857 0.0040558273904025555 -0.004450667183846235 0.0024963950272649527 -4.342562169767916E-4 -0.0051265740767121315 0.00454719876870513 0.004901908338069916 -0.002021814463660121 -0.0049165417440235615 0.003348079975694418 -0.005249419715255499 0.0058517614379525185 -0.004136360250413418 -4.824248026125133E-4 -0.005637818481773138 -9.314888156950474E-4 0.0026861592195928097 -3.8655856042169034E-4 -0.0018828687025234103 0.005439698230475187 0.003100084373727441 0.0034069246612489223 0.003929664380848408 -0.002120964229106903 -0.0013786546187475324 3.815975214820355E-4 -0.004147855099290609 5.246350192464888E-4 7.524667889811099E-4 8.239232120104134E-4 -0.003923807293176651 -6.356747471727431E-4 6.412492803065106E-5 -0.003030469175428152 0.003713815240189433 -0.006194147281348705 -0.006220890674740076 -0.0065078758634626865 -0.003137127263471484 0.006311324890702963 0.00981956161558628 0.002192822052165866 -0.004376945551484823 -0.005070999730378389 -2.1344500055420212E-5 -0.0023100702092051506 0.001142235822044313 0.0011102950666099787
protesters 0.0018219401827082038 0.003925657831132412 -0.0043606748804450035 -0.003252159571275115 -0.0030849529430270195 0.0028607873246073723 -0.004702386911958456 0.00404299097135663 0.0034630910959094763 0.002955457428470254 -9.837460675043985E-5 -9.850476635619998E-4 -3.7443707697093487E-4 0.0013405665522441268 -0.0030992012470960617 -0.0027496875263750553 0.0013774257386103272 -0.0027209881227463484 4.128368163947016E-5 -0.002666520420461893 0.004757987335324287 6.74103619530797E-4 0.004594293422996998 0.0018353747436776757 0.0043395813554525375 0.002053219126537442 -0.004830378573387861 -0.00216830987483263 -4.3383137381169945E-5 0.0015170304104685783 -0.004948505200445652 0.0030632626730948687 0.001407905831001699 -0.004104871768504381 0.004945314489305019 0.004914796445518732 -0.003126969560980797 0.001967538380995393 0.0015294034965336323 -0.0020142700523138046 -0.004339228849858046 0.004100027494132519 0.002347479807212949 -0.0033422615379095078 0.004103834740817547 -0.004411464091390371 -0.0038442914374172688 0.005017457529902458 0.004164112266153097 0.004205315839499235 -0.0025872173719108105 -0.0021581731270998716 -0.0033995029516518116 -0.0036347745917737484 0.0034604272805154324 -0.003900674870237708 -2.539508859626949E-4 0.0017887111753225327 -0.003910229075700045 -0.0022422862239181995 9.22911858651787E-4 4.8507732572034E-4 -0.003775370307266712 0.002560417866334319 0.00359357800334692 9.298431104980409E-4 9.395199012942612E-4 -0.0019356434931978583 -0.001198571757413447 -0.003688335884362459 -0.0022005687933415174 -0.0047346074134111404 0.0013209872413426638 0.004103135317564011 0.0036388218868523836 0.0029480261728167534 0.0027388164307922125 0.0030573068652302027 -0.0033275713212788105 -0.0011870351154357195 -0.004922682885080576 -0.0037688645534217358 0.0020666890777647495 -0.0014991742791607976 0.004103493876755238 0.0021738726645708084 -0.0025223081465810537 -9.316241485066712E-4 -0.002374308416619897 0.0036229577381163836 -0.0016063390066847205 -0.001605785801075399 0.002202078700065613 -0.002645116997882724 -0.0028053242713212967 0.0022431015968322754 -1.1280440230621025E-4 -0.0016105871181935072 -0.0024213367141783237 0.004902961198240519
unveils -0.004523277282714844 -0.00438641058281064 0.0015148274833336473 8.434305200353265E-4 0.0035185974556952715 -0.001704276422969997 -0.0023904910776764154 -0.0035217779222875834 -0.0014900827081874013 0.001556554576382041 -0.0033399327658116817 0.0017107956809923053 0.0031643875408917665 -0.00382940168492496 -0.0011841688537970185 -0.0035195339005440474 0.0024500193540006876 -0.001363492221571505 0.003905121237039566 -7.170367553044343E-7 -9.732043254189193E-4 -9.375907829962671E-4 -8.959205588325858E-4 0.0012510224478319287 0.004296329338103533 -0.0027304377872496843 -0.004335574805736542 3.829431952908635E-4 -0.004680145066231489 0.002231261692941189 -5.095580709166825E-4 -0.00359045690856874 0.0017881053499877453 0.001993955112993717 -6.121097248978913E-4 0.0023849725257605314 9.413069928996265E-4 -5.6351127568632364E-6 0.00230954447761178 0.0035963640548288822 -9.967087535187602E-4 -9.771971963346004E-4 0.004786900710314512 2.85109446849674E-4 0.0016156848287209868 -0.0033587198704481125 0.004979427438229322 -4.982551326975226E-4 0.002356956945732236 0.0016169934533536434 0.0028753194492310286 -0.0020685933995991945 -0.004789637867361307 3.724235575646162E-4 0.0021043303422629833 -0.0012652627192437649 1.4036070206202567E-4 -1.1255515710217878E-4 -0.0031121408101171255 -9.192955330945551E-4 0.0016371974488720298 8.566020987927914E-4 0.002965034916996956 -0.0012899796711280942 0.004392314702272415 -0.0018269472056999803 -0.0017771993298083544 -0.002180743496865034 -0.0049362643621861935 -8.458720403723419E-4 -0.0037119886837899685 -0.0030271061696112156 -0.0029414109885692596 -0.0010934368474408984 0.004737272392958403 0.004998475778847933 -0.0012118277372792363 0.0033534932881593704 0.002109579276293516 0.003573731053620577 -0.0045487722381949425 0.0022882677149027586 -0.0012784667778760195 0.0020050324965268373 -0.0012842058204114437 -0.0021794100757688284 -0.004007405135780573 -0.004897064529359341 -0.004998963326215744 0.0027040333952754736 3.78739699954167E-4 -0.003339372342452407 -0.003282841993495822 0.0017483329866081476 -0.0037069825921207666 -0.0026384990196675062 0.001570494961924851 0.0010450022527948022 -4.5930282794870436E-5 -0.003510530572384596
left 0.0038932799361646175 0.0011502610286697745 -7.380683673545718E-4 -0.001820628298446536 0.0018249501008540392 0.0042419228702783585 -0.00236830348148942 -0.0014633919345214963 0.0011099472176283598 -0.00494407070800662 0.00190780870616436 -4.5503623550757766E-4 -0.002479993272572756 -0.002189782215282321 0.0021940760780125856 -7.598334923386574E-4 0.001615554909221828 -0.004324296023696661 0.0016345471376553178 -0.0014809883432462811 -2.0252473768778145E-4 -0.0034800877328962088 0.003937132656574249 0.0013104667887091637 5.786384572274983E-4 0.003332076594233513 -5.071757477708161E-4 -0.0026004549581557512 0.0014133108779788017 -0.0035325551871210337 -4.084864049218595E-4 0.004510116763412952 0.001978000160306692 -0.004075730685144663 -0.001478522433899343 0.0038195850793272257 -0.0024932408705353737 -0.003834371455013752 -0.003620685776695609 -0.003210880793631077 -0.0018615314038470387 -0.0016266839811578393 -0.0038912727031856775 -0.00166473095305264 -9.864233434200287E-4 0.004536955617368221 0.002071917289867997 2.7210728148929775E-4 -0.0030485158786177635 -0.0030293758027255535 7.673159707337618E-4 -4.986308631487191E-4 0.005077104549854994 0.00436326814815402 0.003524497151374817 0.0031476877629756927 -0.0017989549087360501 0.003194035729393363 0.003637546207755804 8.990540518425405E-4 0.004043998196721077 0.005129092372953892 2.4080189177766442E-4 0.003166487440466881 0.0016431633848696947 8.947240421548486E-4 0.002951880916953087 0.0021656432654708624 0.0015825445298105478 5.086038800072856E-5 0.0010660896077752113 -0.0047125546261668205 0.002452465007081628 -0.0034449005033820868 0.001385877258144319 0.0031145517714321613 0.004236950539052486 -0.001373414066620171 0.0017411235021427274 0.002796204062178731 -0.00328455469571054 7.000846380833536E-5 -0.0010564677650108933 5.498065147548914E-4 0.001080106943845749 0.004626004956662655 -2.5237106456188485E-5 0.0020801119972020388 0.0027979575097560883 0.001200291677378118 -9.858452249318361E-4 0.0029865510296076536 -0.002014479599893093 0.0031431950628757477 0.00400876859202981 -0.0012091703247278929 -0.0024564708583056927 0.003916837275028229 -0.004301946144551039 -6.160365883260965E-4
