rant 0.00276541686616838 -0.001411978155374527 0.0024684355594217777 0.0039706784300506115 -0.0016016634181141853 -0.004201824311167002 4.335216945037246E-4 -0.004907080437988043 0.0017397437477484345 0.002317513106390834 0.0017677631694823503 -0.002045941771939397 0.0013326264452189207 -0.0047498722560703754 -0.004438275005668402 -8.791835862211883E-4 -0.003118614200502634 3.681842645164579E-5 -0.0019338546553626657 -0.0031860079616308212 -0.0028214179910719395 -0.0019979327917099 0.00372712523676455 5.353624001145363E-4 0.0037349392659962177 5.35203143954277E-4 0.004321001470088959 -9.559895261190832E-4 -6.085342029109597E-4 1.8492189701646566E-4 0.00493376050144434 0.003050524275749922 -2.6462451205588877E-4 -0.004120449535548687 -0.004475124180316925 0.001305267564021051 0.0023829105775803328 0.001101956469938159 -0.004914743825793266 -0.0024504277389496565 -0.001299623865634203 0.004517102148383856 -0.0019062117207795382 -0.0017818062333390117 -0.001986992545425892 -0.00415315106511116 -3.4004758344963193E-4 -0.0016133638564497232 -0.0023754453286528587 -0.0015790073666721582 0.0014003751566633582 -0.0017556268721818924 -0.0013266586465761065 -0.0033941513393074274 0.0032093049958348274 -4.628529422916472E-4 -0.003948346711695194 0.0020490509923547506 0.003058775793761015 -0.0010141838574782014 -0.0026533035561442375 0.001765031716786325 -0.002772123785689473 0.0046125417575240135 -0.0021600888576358557 -0.004399020224809647 3.075010608881712E-4 -0.0017183931777253747 -5.921113915974274E-5 -0.001622537150979042 -0.003871857188642025 -0.0016328181372955441 6.91403285600245E-4 -0.001848810468800366 7.737161358818412E-4 9.730170131660998E-4 0.0011984067969024181 -0.004522457718849182 -6.926851929165423E-4 0.00355506781488657 0.0025630793534219265 0.004621616564691067 0.003217034973204136 0.00281950319185853 -0.004019269719719887 0.002097515156492591 -0.004382958635687828 9.914332767948508E-4 -0.0019524946110323071 -0.0026116741355508566 0.004086360801011324 0.0014880525413900614 -0.004348099697381258 0.0015857401303946972 -0.0034435568377375603 0.004263881128281355 -0.003634733147919178 0.002275295089930296 -0.004020784515887499 -0.0015150441322475672
-yo 9.838606929406524E-4 0.004901890177279711 0.0019053545547649264 0.002835894003510475 -2.1576843573711812E-4 -0.004138183780014515 -0.001921663642860949 -0.0022805575281381607 0.002536088228225708 -0.0038238121196627617 2.668097731657326E-4 -2.241917245555669E-4 -0.0014394257450476289 0.004161330871284008 -0.003186300862580538 0.002259317087009549 -8.24393646325916E-4 -0.0019190177554264665 0.003429068485274911 -0.004549951758235693 0.003923644777387381 -0.004793858155608177 -0.001064150594174862 0.0033528765197843313 0.00441439263522625 0.0012059675063937902 -2.7726832195185125E-4 -0.004384132102131844 -0.0036084733437746763 9.01395280379802E-4 -0.004373389296233654 -0.001372711849398911 0.0028776044491678476 1.2157195305917412E-4 -0.00380813074298203 -0.002232960192486644 -0.0018720501102507114 -0.0030230542179197073 -4.92699327878654E-4 -4.2850611498579383E-4 0.004335808102041483 -0.003838404081761837 -0.0035417876206338406 0.0032237786799669266 3.903815522789955E-4 0.0029786238446831703 0.003818522673100233 -0.0010788112413138151 3.4949302789755166E-4 0.0015379554824903607 0.0026845685206353664 -0.0019337937701493502 8.780743228271604E-4 0.003991045989096165 -0.004581201821565628 0.0020427750423550606 0.003053032560274005 -8.926386362873018E-4 -0.002731207525357604 8.525917655788362E-4 0.0026601902209222317 -0.0010244075674563646 5.623181277769618E-5 0.004544881172478199 0.002483111573383212 -9.959331946447492E-4 0.001815742696635425 0.004855799023061991 0.0044817086309194565 0.0048520201817154884 -0.0037482946645468473 -0.0021024812012910843 0.0032812906429171562 0.0036525351461023092 0.002203613054007292 -0.00193519308231771 0.0018293842440471053 -0.003445901907980442 0.004308362957090139 -0.004065515007823706 -0.0014196913689374924 -0.0030612023547291756 -0.0024907418992370367 0.002094259485602379 -9.249352151528001E-4 0.0016297934344038367 0.002622484927996993 0.0019724201411008835 -0.004378284327685833 -0.0044227526523172855 5.171167431399226E-4 -1.2873599189333618E-4 0.0028726456221193075 9.120132890529931E-4 -0.004137570038437843 -2.4303812824655324E-4 -0.0027486656326800585 0.004405959974974394 0.00482046278193593 1.5188562974799424E-4
year 0.0040497370064258575 0.0023485880810767412 0.002959521021693945 -0.004189359489828348 -0.002687507774680853 0.00328712142072618 0.0011669365921989083 -0.0026481810491532087 -0.0014250469394028187 -5.588952917605639E-4 -0.0011195832630619407 0.00170845293905586 -0.001213032635860145 0.0032362083438783884 0.00167701649479568 -6.033414392732084E-4 0.0039490764029324055 5.226012435741723E-4 0.0016356990672647953 -2.834908664226532E-4 -0.0024105983320623636 0.0020468314178287983 -0.003577999770641327 -1.820541947381571E-4 -0.0010630518663674593 -0.0033319960348308086 -0.0044329664669930935 5.569448330788873E-5 0.0018353284103795886 0.0024083247408270836 0.003883966011926532 0.0018733827164396644 -0.00395550299435854 -0.0021703913807868958 0.003896916750818491 0.003137053921818733 5.449280724860728E-4 -0.0018114582635462284 0.002610346069559455 0.0024916320107877254 6.218439375516027E-5 -5.553303635679185E-4 0.0010114056058228016 -0.0013319430872797966 0.0026411511935293674 0.0013479623012244701 -0.002547973534092307 8.444852428510785E-4 -4.945396794937551E-4 0.0034419987350702286 -0.0030092932283878326 0.002609995426610112 -0.002447859151288867 -0.0028007132932543755 0.002561242086812854 -0.0011804613750427961 -0.0012866287725046277 0.0037262109108269215 -9.543128544464707E-4 -0.0027524558827281 0.001814994728192687 0.003318283474072814 4.538308712653816E-4 -6.527878576889634E-4 -0.002412979956716299 0.003855718532577157 -0.0037426273338496685 0.0018691119039431214 0.0019240191904827952 -0.004719964228570461 0.0037258679512888193 -4.706697363872081E-4 0.0037178494967520237 -0.0011756332824006677 -0.00466361315920949 -0.0031118476763367653 -0.003583115292713046 -0.002332389121875167 0.004428451880812645 -0.002304610563442111 -7.163872942328453E-5 0.003659086301922798 -0.002648147288709879 -0.001518188277259469 0.0028536226600408554 0.0014542409917339683 0.004359952174127102 -0.004545407835394144 -0.003141090739518404 0.0031019628513604403 4.4943689135834575E-4 0.0027885902673006058 1.751005183905363E-4 0.004967819899320602 0.0021256732288748026 -0.00488304253667593 -9.044565376825631E-4 -0.003321428783237934 0.004358165897428989 2.787499106489122E-4
shooting 0.0040266080759465694 -0.0021949484944343567 0.0036366917192935944 -0.0029751609545201063 0.0014177181292325258 0.004987471271306276 0.0027522381860762835 -0.0017665812047198415 0.003086646320298314 -0.0036163083277642727 -0.0014990863855928183 -6.324279820546508E-4 0.003089180216193199 0.001323031261563301 0.004478564951568842 -9.229750139638782E-4 -0.004783155396580696 -0.004471820779144764 -0.005197843071073294 9.365080040879548E-4 -0.002446794882416725 -0.0037206141278147697 0.0012936233542859554 -3.9195414865389466E-4 0.0015014179516583681 -0.0018185153603553772 -0.0043743378482759 -0.0024563742335885763 0.004858008120208979 -0.00294101913459599 0.0030340123921632767 0.0011286491062492132 -0.004003100097179413 0.0017652441747486591 6.259884685277939E-4 -0.0011952732456848025 0.0013345313491299748 -0.001793393399566412 0.004409044981002808 0.0011740014888346195 -0.002930775284767151 -0.005260928999632597 3.781227278523147E-4 -0.0021801628172397614 0.00366936600767076 0.002435557311400771 0.0024230664130300283 -0.0038311548996716738 0.0022379420697689056 -0.004155420698225498 -6.90504617523402E-4 0.00114135118201375 -0.0014146914472803473 -4.523676179815084E-4 8.385209948755801E-4 0.004047528840601444 -3.262238533352502E-5 0.001054076594300568 -0.0015157690504565835 -4.885697126155719E-5 0.003519532736390829 0.00271207420155406 0.00319477217271924 4.951552837155759E-4 1.557367213536054E-4 -0.0018660500645637512 -3.712437173817307E-4 -0.0024588205851614475 0.004812697879970074 -0.004331512376666069 5.221040337346494E-4 -8.656132558826357E-5 -0.0024970194790512323 0.0012412307551130652 0.004209526348859072 -0.001332645071670413 0.002605956047773361 0.003942237701267004 0.004149154759943485 -3.476263955235481E-4 0.004708001855760813 0.004592492710798979 -5.281703197397292E-4 2.9904820257797837E-4 -0.0045188358053565025 -4.3792405631393194E-4 0.0012514995178207755 -0.0010377165162935853 7.929342100396752E-4 0.0010518199997022748 0.0031378865242004395 -0.0021821006666868925 0.004988026339560747 0.002731328597292304 0.003542018588632345 0.004268776159733534 0.004075781442224979 0.001802559127099812 0.0049468399956822395 0.0025517321191728115
boys -0.0016437305603176355 -0.004858979023993015 2.873521880246699E-4 -0.004480430390685797 0.004535813815891743 -5.476363003253937E-4 -0.0027800099924206734 -0.003097160719335079 0.0014416561461985111 0.002156262518838048 -5.057259695604444E-4 0.0038263951428234577 -0.0033359050285071135 -0.0024157140869647264 0.00338326720520854 0.004655997268855572 4.654565127566457E-4 2.5401267339475453E-4 -0.005313098896294832 0.0012676399201154709 0.004462333861738443 -0.004207564052194357 0.001069313264451921 -0.00250791828148067 0.0035168458707630634 0.0016549431020393968 2.6026478735730052E-5 -0.004051024094223976 0.002991397399455309 0.004118346609175205 -0.0028289477340877056 0.001993108307942748 4.128042492084205E-4 -0.003889058018103242 -0.003965649753808975 -0.0023338128812611103 -0.002160116098821163 -0.0032767364755272865 0.0021788973826915026 0.0026290486566722393 -0.004224890377372503 -0.004750709515064955 0.0010928699048236012 -0.004117837641388178 -0.004868080373853445 -0.0024986974895000458 -0.0035269595682621002 0.00321215414442122 8.09095858130604E-4 -0.002132534747943282 8.699706522747874E-4 7.705259486101568E-4 -8.170346263796091E-4 -6.126331281848252E-4 -7.995532942004502E-4 4.988813307136297E-4 -0.0034248356241732836 -0.003556956071406603 -0.003931538201868534 -7.014407310634851E-4 -0.0014263787306845188 -2.3946960573084652E-4 0.004375525750219822 5.615715635940433E-4 0.0027789752930402756 0.002979436656460166 0.003673780942335725 -4.479431954678148E-4 0.0018610419938340783 0.005096795037388802 -9.397416142746806E-4 -0.003532722359523177 0.00287072267383337 5.656294524669647E-4 0.0038429165724664927 -5.313994479365647E-4 -0.0028109801933169365 0.001992012606933713 -6.69146771542728E-4 0.002949333982542157 -5.620223600999452E-5 7.875513401813805E-4 -0.0014121083077043295 -0.0036787432618439198 8.821987430565059E-4 -0.002189798979088664 0.00137581757735461 -0.0019078972982242703 7.521097431890666E-4 -0.003137746127322316 6.043172907084227E-4 0.0028263323474675417 -0.0014735112199559808 0.0035447729751467705 0.002864551730453968 -0.0015538911102339625 0.001438733539544046 0.001810739515349269 -0.0027974273543804884 -3.4626663546077907E-4
texas 0.004256112035363913 0.0036061485297977924 -0.00150324369315058 0.002645548665896058 -0.003207965288311243 0.0029042884707450867 0.002475542016327381 6.036799168214202E-4 9.167806711047888E-4 -0.0017554460791870952 0.004133423790335655 0.001132354256696999 2.1956332784611732E-4 -0.0023736150469630957 0.0029390621930360794 0.0029975944198668003 -9.910953231155872E-4 -0.004444832913577557 6.212035805219784E-5 -0.0021304271649569273 -0.0026319280732423067 0.002603887813165784 0.0010113819735124707 5.963255534879863E-4 -7.83089897595346E-4 -0.004387762397527695 0.004380484111607075 0.0038814889267086983 3.922637552022934E-4 -0.0023854661267250776 0.004435847047716379 -5.604878533631563E-4 -0.0043883007019758224 -5.640631425194442E-4 -0.0017439282964915037 -0.001156302634626627 -0.003328162245452404 0.0046850242651999 -0.002939895959571004 -5.000458913855255E-4 -9.29320405703038E-4 3.9049951010383666E-4 0.00449166027829051 -0.0049661328084766865 -0.0026499952655285597 -0.003939478658139706 0.0038492465391755104 -9.221687214449048E-4 6.778497481718659E-4 0.002861425746232271 -6.861313595436513E-4 0.00263431528583169 0.004119650926440954 -0.0047757262364029884 -0.0016008815728127956 0.0038308920338749886 0.003845623694360256 0.003892382839694619 -0.003936712630093098 -0.0010716567048802972 0.004567675292491913 -0.004135997965931892 -0.0036723276134580374 6.812329520471394E-4 0.0014116669772192836 -0.0038356813602149487 0.0037206087727099657 -0.003152338322252035 0.0019641704857349396 -0.0024470717180520296 -0.004684174433350563 0.0035190733615309 0.004145346581935883 0.0031712756026536226 -0.0028499264735728502 -0.004657154902815819 -0.00441924249753356 -0.0020380679052323103 -0.0028066509403288364 0.003187918569892645 0.002497132169082761 -0.0030352792236953974 -0.004427760373800993 1.617515808902681E-4 0.002804290037602186 0.0010631982004269958 -1.8946969066746533E-4 0.003542277030646801 0.0037727453745901585 -0.0010875863954424858 -0.0018143935594707727 -0.0038471310399472713 -0.0028298560064285994 -0.004614498000591993 -0.001954144099727273 -6.759244715794921E-4 -0.0036158983130007982 0.0024284792598336935 0.0014269028324633837 -0.0017370057757943869
your 0.0020795571617782116 0.0021266229450702667 -0.003780852537602186 -0.0048600961454212666 0.0010093356249853969 -0.002297824714332819 0.0020684509072452784 8.457379299215972E-4 0.003548757405951619 -0.0014364959206432104 0.002035773592069745 -0.0014723393833264709 -0.001775402924977243 -4.291854565963149E-4 -0.0013021522900089622 -0.0028961990028619766 -0.001473330776207149 7.810625247657299E-4 -0.0035027984995394945 -0.004723392892628908 2.2475578589364886E-4 5.270594847388566E-4 0.0027557385619729757 0.0020667838398367167 0.0033607985824346542 9.54754650592804E-4 0.0031462006736546755 0.0035264238249510527 -0.0016537609044462442 0.0015716423513367772 8.772913133725524E-4 -0.0025748410262167454 -0.0016112606972455978 -9.934830013662577E-4 -0.0016939342021942139 -0.003403786337003112 0.0040380642749369144 -0.0038573064375668764 0.005028362385928631 0.0028185229748487473 -0.002611985895782709 0.0010959238279610872 0.0030438038520514965 -0.001429248950444162 -0.0026710578240454197 -0.0039297970943152905 0.0018123378977179527 -6.92561618052423E-4 0.0031673398334532976 0.0016861879266798496 0.0017688204534351826 -6.526654469780624E-4 -5.054317880421877E-4 -6.533907144330442E-4 3.083991396124475E-5 -6.778251845389605E-4 0.0039725108072161674 -0.004857036285102367 -0.00325834471732378 -0.003175953170284629 0.0017391522414982319 -0.0023724865168333054 -0.003653924213722348 0.004071502946317196 -0.00427195243537426 -0.003043011762201786 0.0017964215949177742 0.003715663217008114 -0.003723202273249626 0.005270857829600573 0.0023132353089749813 0.0044487216509878635 -0.004420042037963867 8.98704573046416E-4 0.005025941878557205 -6.30099733825773E-4 0.0012949383817613125 0.00424197455868125 9.472334932070225E-5 0.0021745790727436543 -0.004495140630751848 -0.005646683741360903 0.0010632426710799336 0.003500560997053981 -5.9469748521223664E-5 0.004184878431260586 -0.0036369808949530125 0.004261987283825874 -0.001543705933727324 -0.004664656240493059 -0.0022622898686677217 0.001077361055649817 0.0025226837024092674 0.0018575158901512623 1.1558337064343505E-5 -0.003152421908453107 2.90856696665287E-4 0.003819394623860717 0.0014779720222577453 0.003532454837113619
salary 0.003508914029225707 -0.0026077611837536097 0.0016785369953140616 8.934704965213314E-6 -0.0030496742110699415 -8.092434145510197E-4 8.647462818771601E-4 0.0021153753623366356 0.0023631697986274958 -0.004006659612059593 -0.004474688787013292 -0.003877144306898117 0.0020227765198796988 -0.004299735650420189 7.817869773134589E-4 -0.0025665753055363894 0.00220606941729784 0.0025343564338982105 0.004715990740805864 -0.0025903391651809216 -0.0016846057260408998 0.003142207395285368 0.0016295391833409667 2.524380979593843E-4 5.402937531471252E-4 -0.0022239983081817627 4.2065352317877114E-4 -0.004908333998173475 -0.0018879465060308576 5.249089444987476E-4 -0.003574243513867259 1.3861978368368E-4 -4.0461335447616875E-4 -0.002741029020398855 -5.175030091777444E-4 -0.0024128672666847706 -0.0023187485057860613 -0.002497322391718626 8.921813569031656E-4 -0.002950875787064433 0.003985192161053419 -0.0026279320009052753 -0.0015822838759049773 0.002062230370938778 -0.0027657344471663237 -0.0030704354867339134 -0.0020895767956972122 0.004974689334630966 0.0013702096184715629 0.001175781711935997 0.004634039010852575 -0.0026613594964146614 0.0046946024522185326 0.003456039121374488 -0.001984422095119953 -0.004206972662359476 8.02769442088902E-4 -0.0034620577935129404 0.0029916686471551657 0.0029601221904158592 0.00410589762032032 -9.55879339016974E-4 -0.003042736556380987 0.0040414296090602875 -0.0032508077565580606 -0.0010264227166771889 9.315725765191019E-4 -0.004505510441958904 0.004663022700697184 -1.2578889436554164E-4 0.002340166363865137 0.001201849663630128 0.0031056562438607216 0.0031341894064098597 8.399906801059842E-4 0.0012117187725380063 -0.0037200520746409893 -0.001113888225518167 -0.003608023514971137 0.004071456380188465 6.383958389051259E-4 8.959894767031074E-4 -0.0010652003111317754 0.004005058202892542 -0.002122709294781089 0.0025472943671047688 -0.0015200055204331875 -0.0022241754923015833 0.0022766373585909605 0.004895082674920559 0.0025397271383553743 0.0036009554751217365 0.002378500299528241 -0.003545961109921336 0.004633454605937004 0.0014995862729847431 -4.1483325185254216E-4 0.004094583913683891 0.004874600097537041 0.004481323529034853
dem -0.001011113403365016 0.0026301194448024035 -0.0021834985818713903 0.0016341032460331917 -0.004665945190936327 -0.002600419567897916 -0.004224379081279039 0.004978613927960396 -0.0046900417655706406 -0.004321695771068335 -0.0013713594526052475 -0.004469885490834713 -0.001404611044563353 0.003427498508244753 -6.751820910722017E-4 0.0038296415004879236 -0.0030596640426665545 0.0034674741327762604 0.002554891165345907 -0.002043678192421794 -1.980755914701149E-4 0.0010245516896247864 -2.9181261197663844E-4 0.004136653617024422 -3.530778340063989E-4 -0.0011799285421147943 -1.8125851056538522E-4 0.0022338407579809427 0.0015760856913402677 -0.0014781591016799212 -5.811229930259287E-4 0.0029122489504516125 0.001795722171664238 0.002631670795381069 -9.071820531971753E-4 0.0033634593710303307 -0.004136980511248112 0.002626758301630616 0.0016846137586981058 -8.579340646974742E-5 0.002116127172484994 -8.49116695462726E-5 0.001514277420938015 0.004346514120697975 -0.0022293508518487215 0.0017466339049860835 0.00465436652302742 1.579840900376439E-4 -0.002201046794652939 0.00236809765920043 -0.0019411861430853605 -0.0013191571924835443 -0.004932817071676254 8.321469649672508E-4 0.0011622428428381681 -0.0045527624897658825 0.0019077886827290058 6.668797577731311E-4 0.0023921881802380085 0.0019060857594013214 0.0037479784805327654 0.0014671009266749024 0.003055831417441368 0.004360402002930641 -0.002578181680291891 6.553495768457651E-4 0.0017314391443505883 -0.003105578012764454 -0.0020286892540752888 0.004052015952765942 -0.00220205239020288 0.001256729825399816 0.0010331888915970922 6.83484657201916E-4 -0.0028317084070295095 0.002825824311003089 8.481076802127063E-4 -0.0010740973521023989 0.001154047786258161 0.00497874990105629 0.00367088639177382 0.001086415839381516 -0.004191638436168432 -0.004906751681119204 -0.0032172168139368296 -0.003923079930245876 -0.0028012346010655165 -0.0029617254622280598 0.002516745822504163 0.004779407754540443 0.004209962673485279 -7.771734381094575E-4 -0.0016750374343246222 -0.0010184564162045717 2.8078616014681756E-4 -8.161277510225773E-4 0.004594690632075071 0.002932892646640539 0.003596464404836297 0.004938644822686911
asylum -0.00181487703230232 -0.0025921715423464775 0.0030730862636119127 -0.004131130408495665 -0.0038868847768753767 -0.004118091892451048 0.0038820516783744097 0.003479692852124572 -0.004571752157062292 -0.002595416735857725 0.004355057142674923 0.002740742638707161 0.001909805228933692 -0.0031450996175408363 -0.0025368209462612867 -0.001943685463629663 0.004747389815747738 -3.126245574094355E-4 0.0010416997829452157 -8.119382982840762E-5 -0.004409771878272295 0.0014996831305325031 -0.001101048314012587 -0.003998325206339359 -0.0012379357358440757 -0.0024124104529619217 0.003478818107396364 0.0028561775106936693 0.0016836269060149789 0.001808732864446938 -0.003388552460819483 4.090131842531264E-4 0.003336274065077305 -0.0014318811008706689 0.00434074318036437 0.004446557257324457 -0.0035327316727489233 0.004489969927817583 -0.003747839480638504 -0.0018499026773497462 0.00476720230653882 0.002273156773298979 4.5244116336107254E-4 -9.614925947971642E-4 -0.004521963652223349 0.0037871140521019697 0.0022573121823370457 -0.004931919742375612 -1.627517631277442E-4 0.0034023327752947807 -0.0037719046231359243 -0.002039428101852536 9.084108169190586E-4 0.0029258043505251408 0.0015558861196041107 -0.0015832670032978058 -0.002804310992360115 1.0559574729995802E-4 0.001531866262666881 -0.004843289032578468 -0.001271934830583632 6.53766852337867E-4 -3.2688109786249697E-4 -7.905216189101338E-4 0.004117046482861042 -0.0020643314346671104 -2.2632245963905007E-4 1.4291558181867003E-4 -0.0017278736922889948 0.002455847803503275 6.472206441685557E-4 0.004570255987346172 -0.0020800938364118338 -0.0025916299782693386 0.001085513038560748 -0.004816235508769751 -0.003802200546488166 -0.0026816928293555975 -0.003392453771084547 0.0039254454895854 0.0016271350905299187 8.157101692631841E-4 -0.0050237104296684265 -1.565424317959696E-4 0.0020746723748743534 0.004346443340182304 -0.0016272076172754169 0.0023155412636697292 -3.136763407383114E-4 3.1488860258832574E-5 -0.0010038348846137524 0.0035363382194191217 -0.0033376659266650677 1.3569162547355518E-5 0.0010100661311298609 -0.0018226149259135127 0.002701382152736187 0.0036305261310189962 0.0019188986625522375 -0.0028665983118116856
building 0.0015207587275654078 -0.002081633312627673 -0.0025140049401670694 0.0016560120275244117 -0.001849296735599637 -0.004478325601667166 -0.0020861122757196426 -6.153336726129055E-4 0.003987785894423723 0.004400073084980249 -0.0016444969223812222 0.0021343447733670473 0.001980079570785165 -9.388235630467534E-4 -0.0035105301067233086 0.0043482729233801365 0.003945627715438604 5.615048576146364E-4 -0.0018740490777418017 -4.800233291462064E-4 -0.0013642089907079935 0.003583795391023159 8.068319875746965E-4 0.003360765753313899 0.0011973172659054399 -0.00215141661465168 -0.0036178412847220898 0.002541102236136794 0.0019488309044390917 6.038061692379415E-4 -0.003690654644742608 2.9748643282800913E-4 0.0047314707189798355 -0.002498965710401535 0.0035791725385934114 -0.001388253178447485 0.0045240046456456184 0.004891601391136646 0.003021725220605731 -0.00307148857973516 0.0037644661497324705 0.0019279569387435913 5.655044806189835E-4 0.0022762157022953033 0.004081748425960541 8.213939727284014E-4 5.310915876179934E-4 -9.988145029637963E-5 -0.0025172955356538296 -0.0019326899200677872 -0.002463374752551317 -0.0014249335508793592 0.0011292353738099337 -0.0014768606051802635 0.0016447246307507157 0.001965208910405636 0.0027847366873174906 -0.0021012434735894203 -0.004626139998435974 0.002237791894003749 -0.004314142279326916 0.003871884196996689 0.004786684177815914 -4.223364812787622E-4 8.509446051903069E-4 -5.344098317436874E-4 -0.001314533525146544 0.0026523692067712545 -0.0029809498228132725 0.0012033890234306455 0.001390739344060421 -0.0037603506352752447 -8.910734322853386E-5 -2.4185395886888728E-5 -0.002974257105961442 0.003430358599871397 -0.002744740340858698 0.004699204582720995 0.003262778976932168 -0.0031174425967037678 0.0022063888609409332 0.0046858335845172405 0.002196196001023054 7.285319734364748E-4 7.62567447964102E-4 4.850986588280648E-4 0.002005313290283084 -0.0036292909644544125 -0.0020844493992626667 0.001686301315203309 3.0402097036130726E-4 -0.0039442903362214565 0.0015774748753756285 0.0049260463565588 -0.003000554395839572 0.0010273855878040195 -0.0018216788303107023 -0.0038724371697753668 0.0032019440550357103 -0.0029819312039762735
these 0.0035022629890590906 2.079396799672395E-4 0.0015521844616159797 0.0012609785189852118 -0.0012168330140411854 0.0010442172642797232 -0.0026793149299919605 0.0015358994714915752 -0.004045982379466295 5.209270748309791E-4 -0.004387928172945976 0.0018587693339213729 -0.004361091181635857 -8.976795361377299E-4 -0.0013059430057182908 0.004144552629441023 8.236985304392874E-4 0.004240067675709724 -0.004112210124731064 -0.001614654902368784 -0.0032953182235360146 -0.0026934207417070866 -0.0023805024102330208 -0.0026343895588070154 0.004957369528710842 8.921487024053931E-4 -0.0034931288100779057 0.002289887284860015 -0.003309039631858468 0.0044975923374295235 -0.00122437858954072 8.5376703646034E-4 -7.798951119184494E-4 0.003149708965793252 -0.002713579684495926 -0.004137256182730198 0.0012984370114281774 0.003961712121963501 0.0018355681095272303 -0.001556281466037035 0.002622610190883279 -0.004590315744280815 0.0029275650158524513 0.003497062250971794 -0.0021498289424926043 -0.003598797833546996 0.003181610954925418 -1.2352102203294635E-4 0.0015913243405520916 -0.002283666515722871 0.0011251703836023808 -0.0038391263224184513 -0.0037919252645224333 8.572395890951157E-4 0.004683027975261211 7.252756040543318E-4 -0.0021998644806444645 0.003948230762034655 0.0011302728671580553 0.004832122009247541 -0.0037143477238714695 -7.928877021186054E-4 -0.004771081265062094 -0.0020370210986584425 0.004005929920822382 0.004671360366046429 -0.002693115035071969 0.002417542738839984 0.004021969623863697 -6.671625887975097E-4 -4.593671110342257E-5 -0.003728708950802684 -9.79345291852951E-4 -0.0010450052795931697 -7.19189818482846E-4 -0.0045981984585523605 -0.0017596783582121134 0.003079175017774105 0.001304113189689815 0.004412433598190546 -0.00259551708586514 -8.469139575026929E-4 0.0033543414901942015 -0.003515062155202031 4.910473362542689E-4 8.121513528749347E-4 0.003036281792446971 -0.0020831518340855837 -0.001850042026489973 0.0035775373689830303 0.001644815318286419 -0.003160339780151844 8.280285401269794E-4 0.004685586784034967 -8.706347434781492E-4 -0.0035628341138362885 0.0035258429124951363 0.0024706434924155474 -0.0012760440586134791 -0.0015143094351515174
twins -0.002392420545220375 -0.0014789624838158488 -3.990542027167976E-4 -0.003702881745994091 0.003622631309553981 0.0016784881008788943 -0.002460956573486328 0.0019012849079445004 0.002174906898289919 -0.0038259460125118494 0.001300707459449768 0.0024253507144749165 -0.0025959268677979708 -0.001140258857049048 0.004427819512784481 0.00394479651004076 -0.003521903185173869 -0.004383056424558163 0.0027204297948628664 -0.0010354751721024513 0.0023536179214715958 0.0030428438913077116 -0.002210603328421712 0.002287553623318672 0.0012956107966601849 0.00490889698266983 0.0014385344693437219 -0.0030326731503009796 0.003818127326667309 0.002042957581579685 -5.254240822978318E-4 -6.762351840734482E-4 0.0012839622795581818 -0.0022651555482298136 1.7163343727588654E-4 0.002605216111987829 0.0036928143817931414 0.002251543803140521 0.0038622869178652763 6.023066816851497E-4 -0.0037892847321927547 -6.099463207647204E-4 0.004691298585385084 -0.0021237884648144245 -0.001002521370537579 2.588534844107926E-4 -0.0017374770250171423 0.0023219611030071974 -0.0013133377069607377 -0.004043003544211388 0.0032677752897143364 0.004403972066938877 8.480653050355613E-4 0.004974260460585356 0.0017659430159255862 0.0013829248491674662 0.0030147770885378122 -0.0020543579012155533 4.009692929685116E-6 0.0021156377624720335 -0.004148032050579786 0.003682046430185437 -0.003347348654642701 -0.00490884855389595 0.0011688241502270103 -0.002345452317968011 0.001190943643450737 -0.003914882428944111 0.0010228994069620967 -3.8078936631791294E-4 -2.4649014812894166E-4 -7.483226945623755E-4 -0.0023376154713332653 0.0039304508827626705 -0.004448083229362965 0.0013690600171685219 -0.002817756263539195 3.3155884011648595E-4 0.0012197273317724466 -2.9821985663147643E-5 0.0028554240707308054 0.0014576519606634974 -0.004608396906405687 -0.0017410536529496312 -0.0026861587539315224 -0.0028138747438788414 0.0035484570544213057 -0.003057099413126707 7.464924710802734E-4 -0.004885160364210606 -2.099927223753184E-5 -0.004601918160915375 -0.0018800452817231417 0.0020083088893443346 0.002495075576007366 -0.0016944835660979152 0.002111386274918914 0.0026928293518722057 0.003326643258333206 0.0045088957995176315
grasshoppers 0.004322194028645754 0.00218764110468328 0.004223607946187258 -0.002682396676391363 -0.0020263204351067543 -0.0013365588383749127 -0.004502355586737394 -7.156176143325865E-4 0.0023960804101079702 0.004685699939727783 0.0028202913235872984 -0.00474027544260025 -1.036347821354866E-4 -0.001304169651120901 0.0034895865246653557 0.00323903514072299 -0.0025784962344914675 -0.0020166232716292143 0.0034784155432134867 -4.413686983752996E-4 0.002721796976402402 -0.004473747219890356 -0.00226068333722651 0.0010102329542860389 -0.0046428535133600235 -0.0014211537782102823 -0.0016297564143314958 0.004929158370941877 -8.362897206097841E-4 0.0012855507666245103 -0.0028579055797308683 0.0012173961149528623 -7.646564044989645E-4 -0.001532280002720654 -0.004633412696421146 0.004745311103761196 -0.002702506259083748 -0.0013422187184914947 -0.001699000014923513 9.016062249429524E-4 -0.0013938017655164003 0.0034610051661729813 -0.003077816218137741 -0.0019028530223295093 -0.003964453935623169 -0.0010245529701933265 -0.0038260507863014936 0.0037387770134955645 0.002544590039178729 0.0015645554522052407 -0.001541872974485159 0.003254185663536191 0.0018814424984157085 0.004315264523029327 -0.0020780651830136776 4.5597919961437583E-4 0.003159648273140192 0.0011206212220713496 1.2896856060251594E-4 -0.004769463557749987 0.004415004514157772 -0.0010129781439900398 0.0027954999823123217 0.0010077266488224268 -0.003119730157777667 -0.001720500411465764 0.003573569469153881 -0.003175575751811266 0.0015566354850307107 0.002597563900053501 0.002568907802924514 -1.923876698128879E-5 -1.7366564134135842E-4 0.004584118723869324 0.0016291675856336951 0.003838492790237069 -0.00197971030138433 -0.003200225066393614 0.004218867514282465 -0.004716795403510332 -0.0032873982563614845 0.00453871488571167 0.0022453865967690945 -0.001281786011531949 6.567889358848333E-4 -0.004342634696513414 -3.4740875707939267E-4 -0.002278883010149002 -0.0031579097267240286 -0.0018624392105266452 0.003573562251403928 0.0037079667672514915 -0.003530201967805624 -0.0020971468184143305 0.001663971459493041 0.004541541449725628 0.0029022847302258015 -0.004588516894727945 0.0017335005104541779 0.0044689299538731575
finds -0.0028000534512102604 -0.001599408802576363 -0.003146096831187606 0.0015065675834193826 0.0032849612180143595 0.003539098659530282 -0.0047730146907269955 9.544531349092722E-4 -0.0012128236703574657 0.0036574106197804213 -2.5815836852416396E-4 -6.240352522581816E-4 -0.004046530928462744 0.001379310037009418 -0.0010313921375200152 -4.889321280643344E-4 0.002778607187792659 -0.0034045435022562742 1.0875731095438823E-4 -0.003688804805278778 -2.332167496206239E-4 0.0012608228716999292 -0.004526039119809866 -0.004920042119920254 5.789294955320656E-4 3.421432920731604E-4 -0.003552851267158985 -0.0015154528664425015 0.0013963538222014904 0.0017131366766989231 4.689459456130862E-4 -0.0027602624613791704 9.964848140953109E-5 0.003379768691956997 4.3659628136083484E-4 -0.003802834777161479 -0.004410960711538792 0.003127370961010456 -8.025032584555447E-4 -0.00292577245272696 -0.004902295768260956 1.1190025543328375E-4 -0.0029908870346844196 -0.0013330694055184722 -0.0011420323280617595 9.881596779450774E-4 -0.0016111945733428001 -0.0010855940636247396 -0.0011138648260384798 2.2570746659766883E-4 -0.001483622589148581 0.0022686528973281384 -0.004855622071772814 -0.004694303963333368 -0.0013593879994004965 0.003862094134092331 0.0018604887882247567 9.059875155799091E-4 0.0024004799779504538 -4.837541200686246E-4 0.0033333629835397005 -0.0013155172346159816 0.0033823037520051003 0.004093733616173267 -7.841127808205783E-4 -4.2107608169317245E-4 -0.003636325243860483 0.001181473839096725 6.885092006996274E-4 -0.0037530309055000544 -0.0012394589139148593 -0.0018357933731749654 0.0029292376711964607 3.2081358949653804E-4 0.002928329398855567 -3.1123042572289705E-4 -0.0023218400310724974 0.002278650412335992 7.787075010128319E-4 -7.934455061331391E-4 0.004353859927505255 -0.0013238061219453812 -0.003852400230243802 0.002218297217041254 -0.003173559671267867 -0.004466654732823372 -0.0038569513708353043 8.380722138099372E-4 -0.001272409106604755 7.145171985030174E-4 0.003822196274995804 -0.0021095031406730413 -4.954401520080864E-4 -2.1015705715399235E-4 0.004990362096577883 -4.0383951272815466E-4 0.004478910472244024 -7.120197406038642E-4 -0.002066464629024267 4.059314087498933E-4
would -0.004839782603085041 -0.0014728670939803123 -0.0032243733294308186 -9.641391225159168E-4 -0.003726731054484844 -0.0020973002538084984 0.0012766955187544227 0.004065746907144785 0.0031434991396963596 -0.0016585687408223748 0.0029152475763112307 0.004689136520028114 -0.0035439501516520977 2.0653569663409144E-5 -0.0023024354595690966 -4.436101153260097E-5 -8.663576445542276E-4 -9.071524837054312E-4 0.0028400386217981577 -9.352834895253181E-4 0.0023394848685711622 -1.4437582285609096E-4 0.003933602944016457 0.0021580797620117664 -0.0020840801298618317 0.004540754947811365 -0.002426859689876437 -0.004168820567429066 -0.001017330796457827 0.0011909141903743148 0.004752247128635645 -0.0017193818930536509 -0.001699252286925912 -0.0021395911462605 -4.2787884012795985E-4 0.004416066687554121 0.002671358408406377 0.003862172830849886 -0.004989698063582182 0.0026135717052966356 0.005028562620282173 -0.003555865725502372 0.0032243221066892147 -0.0044053709134459496 -8.426998392678797E-4 -0.004782162141054869 -0.0021266494877636433 0.0035339007154107094 -0.0030420792754739523 0.0021401504054665565 0.0034523173235356808 -0.0028685019351541996 0.00469472398981452 -0.0026491431053727865 -0.0013864819193258882 0.004911861848086119 -0.0028079859912395477 -0.0020549066830426455 5.281925550661981E-4 -9.057106217369437E-4 -0.0022808867506682873 -4.786788485944271E-4 0.004170780070126057 0.002998604206368327 -0.0018453274387866259 -0.0011865750420838594 0.003855976741760969 0.0017249396769329906 0.0024664767552167177 0.00248641986399889 0.001796201104298234 0.002717514056712389 -0.0016795292031019926 -0.002778329886496067 6.110301474109292E-4 0.003635901492089033 -0.00530991330742836 -0.003324218327179551 -0.0015192669816315174 0.005173687357455492 -0.004154797177761793 -0.0054406533017754555 -7.300719153136015E-4 -0.0022607820574194193 0.0024778670631349087 -0.0018200757913291454 2.551005454733968E-4 -0.001901828683912754 0.003860392840579152 -0.002431302797049284 -1.1865459964610636E-4 0.004112369380891323 -0.001726652728393674 0.004563904367387295 -0.003784999717026949 -0.0035564464051276445 -5.900041433051229E-4 -0.001018923707306385 0.0036018516402691603 -0.002441626973450184
pick 0.004229996353387833 1.8569472013041377E-4 0.0016045431839302182 -0.0035362541675567627 0.0028536468744277954 -0.0026582779828459024 3.486520436126739E-4 0.004421156831085682 -0.0011775249149650335 0.0042874738574028015 -0.0048863994888961315 0.0016168287256732583 -0.002851164899766445 0.0017804618692025542 -0.004606927279382944 -0.0012917735148221254 0.004970746114850044 0.003929282538592815 0.002254239981994033 -0.0022097735200077295 0.0021545651834458113 0.0040180860087275505 0.0021768328733742237 0.0049612857401371 0.0025395036209374666 -0.0020298168528825045 -0.0046228370629251 -0.004422685597091913 -5.691794794984162E-4 0.004472239408642054 -0.0016048983670771122 0.00427007582038641 -0.002981661818921566 -8.514785440638661E-4 0.004410733934491873 -0.0032099324744194746 0.002246543299406767 0.0014072589110583067 0.0017112878849729896 -0.0016192385228350759 -6.055926205590367E-4 5.239250021986663E-4 -0.002464624121785164 -0.00185742462053895 6.95470196660608E-4 2.8068156098015606E-4 -0.0027489960193634033 0.0028454710263758898 -5.143954767845571E-4 -9.275695774704218E-4 0.001998694846406579 0.002923633437603712 -3.191903233528137E-4 -0.0027030513156205416 2.3419156786985695E-4 0.003665011841803789 0.0020941784605383873 2.4023653531912714E-4 -0.0028546585235744715 -0.0019439721945673227 -0.0018184141954407096 -0.003848062362521887 -0.004077386111021042 -0.0036730675492435694 2.450807951390743E-4 -0.004918910562992096 -4.650747578125447E-4 0.0017223512986674905 0.004816953092813492 -0.0028044285718351603 -0.004128328058868647 -0.004194885026663542 0.003590385429561138 -0.002032011514529586 0.0013449951075017452 1.047026744345203E-4 -0.0021068830974400043 5.07591525092721E-4 0.004431014880537987 -0.004605568014085293 0.0020176765974611044 -0.0018534691771492362 0.0038041684310883284 0.0035596159286797047 -0.0023602014407515526 -0.0019909534603357315 9.384034783579409E-4 -0.004073010291904211 0.00131225713994354 -0.00397305004298687 0.0019691435154527426 -0.0029648623894900084 0.0030292507726699114 -0.002245318377390504 -0.004423731006681919 0.0032234392128884792 -4.786744248121977E-4 0.0044695716351270676 -0.0029209330677986145 0.00281805032864213
mueller 0.0036403564736247063 0.0018217192264273763 0.0032234571408480406 0.002996648196130991 -0.0019018288003280759 -7.153056212700903E-4 -0.0037849918007850647 -0.004095455631613731 -0.0014811865985393524 -0.0021489919163286686 9.544809581711888E-4 -0.0040752780623734 -0.001773526193574071 0.0028921840712428093 -0.0031090532429516315 0.004013238474726677 1.1539104161784053E-4 -0.002874745288863778 0.0026481824461370707 0.0016874303109943867 0.004051978699862957 -0.00218408415094018 -1.0259254486300051E-4 -0.0029404580127447844 0.004088957328349352 -0.003169445553794503 -0.0014078528620302677 -0.0018452148651704192 -0.0019004651112481952 -0.003670419566333294 0.0028490961994975805 0.0015104556223377585 0.0027027034666389227 -0.006800541654229164 0.004689873196184635 -0.0025250727776437998 -0.0025803048629313707 -0.0017467361176386476 0.003445251379162073 -2.5033243582583964E-4 -0.0012707323767244816 0.0015553359407931566 0.003979669883847237 0.0041587273590266705 -0.004254729952663183 -0.003119078930467367 -7.690705824643373E-4 0.0010060861241072416 0.005696568638086319 -0.0019526903051882982 0.0018533514812588692 0.0022463626228272915 -9.719770168885589E-4 -2.4525824119336903E-4 0.001183312269859016 -0.001895432942546904 5.712743732146919E-4 -0.001754105556756258 0.0045648724772036076 0.0031278892420232296 -0.0012906251940876245 0.0016929024131968617 0.004507948644459248 0.00204265583306551 -0.0035250228829681873 0.002654668176546693 -0.005739631596952677 0.0020889751613140106 -0.0036120121367275715 -3.3187505323439837E-4 0.0014236015267670155 -0.004147042520344257 -0.0018048417987301946 0.0018500217702239752 -4.7163033741526306E-4 -0.0012108131777495146 -7.468784460797906E-4 0.0032507069408893585 0.0017065396532416344 3.3461523707956076E-4 0.0018308613216504455 -0.00601890217512846 -0.0045603555627167225 0.004410410299897194 8.64109955728054E-4 6.434415699914098E-4 0.005045067984610796 -0.003649194026365876 -0.003402217524126172 9.550394024699926E-4 -0.004897450562566519 -2.496336128388066E-5 0.0028593200258910656 0.0032496752683073282 0.0027105880435556173 -0.0035765126813203096 7.359110750257969E-4 0.005179660860449076 -0.004322447348386049 0.002318371320143342
prison 4.450370033737272E-4 0.003907500300556421 0.0037560127675533295 0.003167531220242381 -0.0014658229192718863 -0.0044888644479215145 0.0012261694064363837 -2.9027951313764788E-5 0.00415487727150321 0.0011189496144652367 -0.001085057738237083 -0.003415097715333104 0.0015526576898992062 0.004621361847966909 0.0011312781134620309 -0.0017201699083670974 -0.0038845008239150047 -0.004233053885400295 0.0042459480464458466 0.003099459456279874 -2.216054272139445E-4 6.797693204134703E-4 0.0035946513526141644 0.004059366416186094 -0.0014290541876107454 -0.004769507329910994 0.0032796734012663364 0.0037350603379309177 -0.0010173119371756911 3.0800874810665846E-4 -0.0018357635708525777 0.001175483106635511 -0.0017789636040106416 -0.0011454871855676174 3.849127679131925E-4 -0.00120978441555053 2.0098316599614918E-4 -0.0018264607060700655 0.0036088270135223866 -0.0013577589998021722 0.0020837290212512016 -4.994164337404072E-4 -0.003906165948137641 4.983387188985944E-4 0.002909582108259201 -0.004276136867702007 0.001363170798867941 -0.0030723114032298326 -0.004588174633681774 0.002602631226181984 -0.0023783680517226458 0.004888765513896942 -0.00490310275927186 -0.0032755343709141016 -0.002368385437875986 -0.0016051108250394464 -0.0033726454712450504 0.0034162781666964293 8.621359593234956E-4 -0.002871480770409107 0.002408398315310478 0.0036311272997409105 0.002626194152981043 3.4587172558531165E-4 0.003977609798312187 -0.0011089302133768797 0.0023086515720933676 -0.004927982110530138 4.6221542288549244E-4 -0.003778941696509719 0.0018546207575127482 -0.0013224533759057522 -5.912236520089209E-4 -0.0035501308739185333 0.004835617262870073 -5.928248283453286E-4 0.001293529523536563 -0.0017902004765346646 -0.0025180387310683727 -7.821694598533213E-4 -0.003128597280010581 -0.0012270633596926928 -0.003241199068725109 0.0029042076785117388 0.003271481953561306 0.002735608723014593 -6.257037166506052E-4 0.0017344364896416664 -1.2000518472632393E-4 -0.002531237667426467 -3.5816317540593445E-4 0.0010977443307638168 0.002814685693010688 -3.8534938357770443E-4 0.002814194653183222 -0.00222127721644938 -0.004937559831887484 1.1410043225623667E-4 -0.004181819502264261 -0.003860853146761656
fortnite 6.277181673794985E-4 -0.004947673995047808 3.321428084746003E-4 -0.0049380529671907425 -0.002623847685754299 0.0024363831616938114 -0.0017347927205264568 -0.003275417722761631 -0.002256095642223954 0.0021678477060049772 -0.0027397405356168747 0.004619873594492674 0.0032450321596115828 -9.685287950560451E-4 -0.004583918955177069 0.0023893744219094515 0.00331261963583529 0.0038956603966653347 -0.003212100826203823 -0.001515996758826077 0.0038738774601370096 0.0024315835908055305 0.002669843379408121 6.066889618523419E-4 -0.0010329518700018525 -0.0019401374738663435 0.004200919531285763 -0.003961939364671707 -6.230715080164373E-4 0.0025565673131495714 -0.0036534867249429226 9.869079804047942E-4 8.196088310796767E-5 0.0017304240027442575 -0.0029824585653841496 0.003390723140910268 -0.004203015938401222 -0.004079233855009079 -0.004499477334320545 -5.155960097908974E-4 0.002035805955529213 -0.0026871049776673317 0.0032023524399846792 0.00477402051910758 0.0034515259321779013 0.0031160542275756598 0.001209712354466319 0.0028771350625902414 0.002985083730891347 6.546481163240969E-4 0.003641942050307989 0.0031176924239844084 -6.124203791841865E-4 0.0011047882726415992 0.004716436844319105 6.816246605012566E-5 0.004928228445351124 0.0028473425190895796 0.0034622661769390106 -0.0017668588552623987 2.3341320047620684E-4 -9.426710312254727E-4 -0.0027884652372449636 5.503497086465359E-4 0.00368326622992754 0.003407671581953764 0.003003570716828108 -0.004159843549132347 -5.019766467739828E-5 -7.510047289542854E-4 -0.0021949773654341698 -0.004678673110902309 -0.0045188115909695625 -0.0028826207853853703 -6.186636746861041E-4 4.952486488036811E-4 0.004372086375951767 3.1733166542835534E-4 -0.004427430219948292 0.0031935388687998056 -0.002961748046800494 0.003982427064329386 -0.0020472505129873753 0.0024987240321934223 -0.0016217114171013236 0.0021343184635043144 1.8797176380758174E-5 6.186889368109405E-4 -0.005028285086154938 0.0032244110479950905 0.0019959392957389355 -0.0039040257688611746 -2.5775731774047017E-4 -0.0014170374488458037 0.004629052244126797 -3.3076011459343135E-4 -0.0018542548641562462 5.496106459759176E-4 0.002889669733121991 0.002938578836619854
you -0.0029533272609114647 7.225082954391837E-4 0.0023419600911438465 0.0014896473148837686 0.002073214389383793 -1.9619001250248402E-4 8.563645533286035E-4 5.897761438973248E-4 0.004328061360865831 0.0030556912533938885 9.599808254279196E-5 4.1357145528309047E-4 -0.004725372884422541 -9.402413852512836E-4 -0.0012363326968625188 -0.0018737654900178313 -6.751221371814609E-4 0.003714507445693016 -4.994278424419463E-4 4.7410489059984684E-4 -0.003979099914431572 -0.004938493017107248 0.0028730209451168776 -0.003846832551062107 0.003855309449136257 -0.002610679715871811 -0.004397328477352858 -0.0026533862110227346 -0.002827706281095743 3.3556309062987566E-4 -0.0012989011593163013 -0.0017049005255103111 0.004504517186433077 0.0016694710357114673 8.963931468315423E-4 0.004631546325981617 0.004395098891109228 0.005438689142465591 0.0014447378925979137 0.0018886544276028872 -0.0027168693486601114 -0.0015800083056092262 0.0018146832007914782 0.0026778841856867075 -0.0052401782013475895 0.0038127072621136904 -0.004917091690003872 0.0036022423300892115 0.0038420858327299356 0.0022076331079006195 -0.0034896100405603647 -0.003270002780482173 8.546032477170229E-4 0.0011783534428104758 0.0015217824839055538 5.755664315074682E-4 -0.002016957150772214 3.136887971777469E-4 0.001194229000248015 -0.0031406632624566555 2.1113913680892438E-4 0.0038442574441432953 -0.004834333900362253 0.0031470232643187046 -8.249775855802E-4 -0.004040178377181292 -0.005609030835330486 0.0012475603725761175 0.0014630777295678854 0.0018073500832542777 -0.0011638907017186284 0.003860530210658908 -0.0017123138532042503 0.004861137364059687 -0.001851450651884079 7.723822491243482E-4 2.1862522407900542E-4 0.001352801569737494 -0.003917265683412552 -0.00308044021949172 -4.980816738680005E-4 6.255680345930159E-4 0.005049868952482939 -0.0028423164039850235 -0.0037222104147076607 -0.0032407050020992756 0.0025981729850172997 -0.0038771070539951324 -0.004583911504596472 -0.005837519187480211 -0.0010371811222285032 -9.583747014403343E-4 -0.003034962108358741 -0.002463090233504772 -7.717967964708805E-4 0.0014211601810529828 0.0030883143190294504 -8.177735726349056E-4 0.0011076725786551833 -0.0039046660531312227
wins -0.0046395775862038136 0.0024643370416015387 -0.0018593432614579797 -0.002322525018826127 -0.0032915151678025723 0.001893116976134479 -0.0012661274522542953 0.0028845674823969603 0.001538847922347486 0.001059609348885715 -0.0014490014873445034 0.002248520962893963 -9.892437374219298E-4 -0.003117595100775361 -0.002212443156167865 0.0026497289072722197 0.003553225891664624 3.521420294418931E-4 0.002438472816720605 0.004172652494162321 0.0032152701169252396 -0.004550049547106028 0.0029553351923823357 -0.0034926608204841614 -0.00491883372887969 -4.82333533000201E-4 0.003674820763990283 -0.003725804388523102 -0.0027338035870343447 0.004147280473262072 0.004126733168959618 0.003716335166245699 0.0022986202966421843 0.003936401102691889 0.0033151106908917427 0.004200537223368883 1.0899515473283827E-4 -0.00476917764171958 0.0029036588966846466 -8.877061191014946E-4 -0.003847582032904029 -0.0039532664231956005 0.002654898911714554 -5.432884208858013E-4 -0.003681451315060258 7.759534491924569E-5 -0.001298417104408145 -0.004705607891082764 0.0015103641198948026 0.0025820357259362936 -6.920650484971702E-4 0.0024558512959629297 -0.0024510801304131746 -0.0037880088202655315 -5.465323338285089E-4 -3.8337885052897036E-4 -0.0029911301098763943 2.955104282591492E-4 -3.042713215108961E-4 0.001637579407542944 -0.0038662590086460114 -0.0018487513298168778 -0.0046173627488315105 -5.725258379243314E-4 0.0019298159750178456 0.0028189048171043396 -0.002421710407361388 -0.00305921770632267 -0.004938399884849787 -0.004740329459309578 0.0021543139591813087 0.0018799962708726525 4.2906886665150523E-4 -6.126394146122038E-4 -0.0032563339918851852 7.79429217800498E-4 -6.37063174508512E-4 -0.004651556722819805 0.004599099513143301 -6.756633520126343E-4 -0.0029078747611492872 0.0019717488903552294 -0.0032963803969323635 0.0019534165039658546 5.67280629184097E-4 -0.002898084232583642 -0.00205500447191298 0.003681094851344824 -9.873810922726989E-4 0.0023857096675783396 -0.004438804928213358 0.0018495141994208097 0.0020524184219539165 -0.003791969735175371 0.0021928315982222557 -0.0012232022127136588 0.0036660218611359596 2.928136382251978E-4 0.0012399645056575537 -0.0027714127209037542
amazons 0.001443761051632464 -0.004330555442720652 0.004136679694056511 -0.002015931997448206 -0.0037548255641013384 -0.004161371383816004 0.004652594681829214 0.001668640412390232 -0.0010563003597781062 0.004491416737437248 -0.001033509848639369 0.0030953832902014256 0.00310015631839633 -0.004386698827147484 -5.030979518778622E-4 -0.00239569297991693 0.0033009808976203203 -0.004203858785331249 5.675276042893529E-4 -0.004820226691663265 0.0012576404260471463 7.016946328803897E-4 0.004206401761621237 0.004593919031322002 0.002919730031862855 -2.1874115918762982E-4 -0.0019525556126609445 -0.0012007983168587089 -0.003798985155299306 2.3580035485792905E-4 0.0013835665304213762 0.0036775812041014433 -0.004447776824235916 -8.567824843339622E-4 -0.004806178621947765 0.004051784984767437 -4.8348831478506327E-4 0.005187543574720621 -0.004157575778663158 -0.004203321412205696 0.0018797796219587326 -0.005009067244827747 0.0021267978008836508 0.0010775757255032659 0.0010867835953831673 -0.0030551375821232796 -1.9043139764107764E-4 0.004194588866084814 0.0048979236744344234 0.003370914375409484 9.871136862784624E-4 -0.0026566300075501204 0.0021197639871388674 -9.235661709681153E-4 -0.002474239794537425 8.44564288854599E-4 0.0010120769729837775 0.004588915500789881 0.0023954424541443586 0.002100592479109764 0.0012717896606773138 -0.00408240407705307 -0.004542969167232513 0.0038919253274798393 -0.004691836424171925 -0.0030355353374034166 0.0019148513674736023 -0.0025519472546875477 -0.003428512020036578 3.627547121141106E-4 1.733854878693819E-4 0.003147838870063424 0.0038070441223680973 -0.0033920789137482643 0.0021873838268220425 0.0012444170424714684 0.0029266246128827333 0.004765366669744253 1.8342498515266925E-4 0.003806730732321739 0.0011524470755830407 -9.048557258211076E-4 -0.001500721205957234 -3.1673567718826234E-4 -0.004373632837086916 -0.005434334743767977 0.001742141554132104 0.004356023855507374 -0.0042523909360170364 -0.002386226784437895 0.0034335970412939787 5.922897253185511E-4 0.0014098924584686756 6.756863440386951E-4 0.0010753439273685217 0.0021136936265975237 7.034020964056253E-4 -0.003998556174337864 -0.004931710660457611 -4.666518361773342E-4
agreement 8.256295695900917E-4 -0.0011059491662308574 0.0029131362680345774 4.6136436867527664E-4 -2.6871959562413394E-5 0.00278837070800364 -0.001342238625511527 -0.003997942432761192 4.4979387894272804E-4 -0.002653509611263871 -0.0031270335894078016 3.5309442318975925E-4 0.004871629178524017 0.004272616468369961 7.177062798291445E-4 0.0035135287325829268 -9.69865417573601E-4 -0.004708849359303713 0.001777611905708909 -0.0023127675522118807 -0.002327297581359744 0.0020106162410229445 0.0038570405449718237 -0.0027058625128120184 4.2207445949316025E-4 -0.0017906532157212496 -5.347449332475662E-4 0.0018033444648608565 -0.004903863649815321 0.0028735147789120674 -6.30505324807018E-4 0.0037388873752206564 0.0030964610632508993 -7.460075430572033E-4 4.3409853242337704E-4 -0.0034009316004812717 0.0032580397091805935 -0.0011931137414649129 -0.0019984161481261253 0.0024358320515602827 -0.004395485855638981 -0.0014137349789962173 -0.0021121855825185776 -0.002450856612995267 -0.0037323450669646263 0.0031771166250109673 -0.004809987265616655 -0.004844301845878363 -3.691153833642602E-4 -3.45918902894482E-4 -0.003825969761237502 0.003648805432021618 0.00366010470315814 0.0015128793893381953 -0.002606792841106653 -0.002929496578872204 -0.003555683884769678 -0.0016503480728715658 6.385800079442561E-4 0.0018957112915813923 0.002164094941690564 -0.003429556032642722 -0.00478172954171896 -0.0020572321955114603 0.002690667286515236 -0.002011155243963003 -0.0038218253757804632 0.0028963384684175253 -0.002498162677511573 -0.0020124835427850485 -5.540228448808193E-4 0.0045524053275585175 -5.370205035433173E-4 -6.086393841542304E-4 -0.0032059126533567905 0.004116067197173834 0.001258245436474681 0.004373852163553238 6.70220993924886E-4 -0.003902203170582652 0.0038440243806689978 0.004052223637700081 -0.004541981499642134 0.003731123637408018 -0.0031727454625070095 -0.002307354239746928 0.003331216750666499 -0.004762700293213129 -0.002647454384714365 -0.00412855064496398 0.002121312078088522 -0.0034845878835767508 -0.0038490716833621264 -0.00195412733592093 -0.0018776949727907777 0.00507773645222187 0.0013569773873314261 -0.00229443097487092 -0.00497959041967988 4.243887960910797E-4
$ -0.004325387068092823 -0.003158018458634615 4.870754200965166E-4 -0.004603548441082239 0.0021533221006393433 7.296963012777269E-4 -0.004151633474975824 3.799883706960827E-4 7.46908423025161E-4 0.001404504175297916 -0.005174044985324144 0.004786107689142227 0.002114786533638835 0.0017117285169661045 0.0032275954727083445 -6.251154700294137E-4 0.0048624430783092976 4.546240670606494E-4 0.0016770242946222425 0.002595458412542939 -0.002834901213645935 6.532160332426429E-4 4.586425784509629E-4 0.0022235368378460407 -0.0012139996979385614 -0.004069789312779903 -0.002573717851191759 -0.0016671025659888983 0.0014094432117417455 0.001749756163917482 -0.0015729472506791353 8.578033884987235E-5 -0.0018005229067057371 -0.004458901472389698 -0.0017868189606815577 -0.00366230309009552 0.004481319338083267 0.0013237007660791278 -6.160009070299566E-4 -2.2330164938466623E-5 9.205096866935492E-4 -0.005992889869958162 0.0016536051407456398 -0.0022901282645761967 -0.0025712072383612394 -0.0018312903121113777 0.003552046837285161 3.235038020648062E-4 0.00381969241425395 -0.001958622597157955 0.002619899809360504 0.002451126929372549 0.0025610746815800667 -0.004458875861018896 -0.004541500471532345 0.004666144028306007 0.003893208922818303 -0.004106869455426931 -5.306930397637188E-4 0.0022600397933274508 -0.004313642159104347 0.004390337970107794 0.0016031225677579641 -0.002090854337438941 0.0025976444594562054 0.0012195801828056574 -0.0025086940731853247 -0.004038957878947258 -2.590521762613207E-4 -0.003492911346256733 0.0019717796240001917 0.0055343094281852245 -0.004671814385801554 0.0016939932247623801 0.004311875440180302 -0.002376316813752055 -0.0053803990595042706 -0.0022566637489944696 0.001966114854440093 0.004176907707005739 -6.359887775033712E-4 -0.003035607049241662 0.002480421680957079 -0.003314321395009756 -0.0014604105381295085 -0.005587158724665642 -0.004282582085579634 -0.001733285840600729 -0.005038841627538204 -0.004808488301932812 -0.004751842003315687 -0.002456452464684844 0.004108468536287546 -5.298274336382747E-4 -8.602284942753613E-4 -6.801138515584171E-4 0.005004103761166334 0.0039173332042992115 -0.002730195876210928 -0.002282168250530958
going -7.919246563687921E-4 -0.004067735746502876 0.0024978185538202524 -0.001592379529029131 0.0013453424908220768 -2.102761500282213E-4 0.004388323985040188 2.961804857477546E-4 0.0012457759585231543 -0.004780456889420748 -5.649078520946205E-4 -0.004498069640249014 -0.004671528469771147 -0.004588576033711433 6.7954882979393E-4 -0.0037704443093389273 -0.0018108667572960258 0.003262343816459179 -0.0045885792933404446 0.0038721978198736906 -0.0010444902582094073 0.003705617506057024 0.0013646507868543267 0.0029475484043359756 0.0041239820420742035 0.004857946652919054 0.0029353066347539425 0.004783515818417072 -0.0020877269562333822 -0.00282512279227376 2.501155249774456E-4 -0.0029415858443826437 -3.0607692315243185E-4 -0.0038934131152927876 -0.002998574636876583 0.001587590086273849 0.0011991808423772454 0.00484072370454669 8.234428241848946E-4 -0.0027585262432694435 -0.0020938366651535034 -0.002160274190828204 -0.0015343647683039308 0.0042432635091245174 -0.0029998007230460644 0.004434640519320965 0.002717747585847974 0.00385680072940886 -0.0020948564633727074 8.690772810950875E-4 0.004762866999953985 -0.0016990191070362926 0.0022130690049380064 -0.00222651194781065 0.003655974054709077 -0.002783280797302723 0.0025319878477603197 -0.004623223561793566 0.00138908124063164 -0.005275899078696966 -0.003923160955309868 -3.294333291705698E-4 -0.0013973233290016651 -0.001363063813187182 -0.0030183540657162666 -0.0020563150756061077 -0.003760238876566291 0.0038964939303696156 -0.0017733656568452716 -0.001026500714942813 -0.00241292011924088 -0.0036938830744475126 -0.004659554455429316 1.6567243437748402E-4 0.0038209843914955854 0.004111006855964661 -0.004220945760607719 0.004843469709157944 -0.0010595102794468403 -0.003986077848821878 0.005078626796603203 5.973983206786215E-4 3.376016684342176E-5 0.004158233292400837 -0.004273097030818462 0.002223425079137087 0.002900506602600217 0.0020678003784269094 0.0017928089946508408 0.003942578565329313 0.0027372336480766535 0.004604907240718603 0.003903082339093089 -0.001166529138572514 0.0016515975585207343 -0.0017741216579452157 -0.002693774877116084 0.001266711624339223 -0.0011736407177522779 0.004181197378784418
% -8.910438045859337E-4 -0.0032113236375153065 -0.0036844518035650253 -0.004701471421867609 0.0033552602399140596 0.0046029603108763695 -6.738189258612692E-4 0.003260734723880887 -0.004466002341359854 0.002406048122793436 0.0020827259868383408 0.0012156019220128655 -0.003220615442842245 0.005154937505722046 0.00377413397654891 -0.003440446685999632 0.003368114586919546 -0.0046861665323376656 -0.004591955803334713 7.903579971753061E-4 0.004740515258163214 0.0024268317501991987 -0.0011152590159326792 -0.0033397874794900417 -0.0030213489662855864 0.0028590059373527765 8.903619018383324E-4 -0.002413866575807333 0.0029016206972301006 -0.0033423658460378647 0.0014697195729240775 0.0012538834707811475 0.0020751000847667456 -0.004346479196101427 -8.345869136974216E-4 -0.0013936749892309308 -0.0017544211586937308 -0.004188894759863615 0.0024196093436330557 -0.002545503666624427 0.004207408055663109 -8.188302163034678E-4 -7.745596813037992E-4 -0.0035955135244876146 3.8545989082194865E-4 -0.0014076224761083722 0.001140306587330997 0.0019405626226216555 0.0032921002712100744 -2.0535712246783078E-4 -0.0034308135509490967 -0.0041831666603684425 0.0020342436619102955 -0.0020571784116327763 0.003444909816607833 -3.902111202478409E-4 0.0018358828965574503 -0.001346290111541748 0.004690478555858135 -5.9793106629513204E-5 0.002231648890301585 -2.862178080249578E-4 0.004229718819260597 0.0027788730803877115 -0.0012312487233430147 -0.004056310746818781 0.0041231270879507065 -0.004012716468423605 -1.9745316240005195E-4 -0.002052198862656951 9.663792297942564E-5 2.3094593780115247E-4 3.917052235919982E-4 4.1387922829017043E-4 0.0025874520651996136 6.009760545566678E-4 -0.0025673832278698683 0.0026917096693068743 0.003840590361505747 0.0015112371183931828 -0.0016268016770482063 -9.16169083211571E-4 8.560564601793885E-4 -0.002263723872601986 -0.0041099353693425655 0.004197748377919197 0.0019562928937375546 -0.0016657544765621424 -0.0026511461474001408 -0.0036879025865346193 0.0014767659595236182 4.793883999809623E-4 0.005053422413766384 0.0017762720817700028 -0.003670907812193036 0.004023225512355566 -0.0039846571162343025 0.0029396030586212873 -0.0043283626437187195 0.001089506782591343
& -0.0036305796820670366 -0.004946163389831781 -0.003154400270432234 -0.0026451298035681248 0.0013659985270351171 -0.004434620961546898 -0.0017745770746842027 0.0017375884344801307 0.003543638624250889 -0.002628589514642954 -0.0032324735075235367 0.004431615117937326 -0.0021521092858165503 -0.00412060646340251 -0.002869214164093137 -0.0032979652751237154 -0.0012184299994260073 0.0018878431292250752 -0.0017674709670245647 -0.0028430160600692034 1.199123144033365E-4 -0.004468870814889669 9.993384592235088E-4 -0.0040542264468967915 -0.0036631913390010595 -6.0719606699422E-4 0.003668830730021 0.001966410083696246 0.0019427634542807937 -0.0028031356632709503 0.003359157359227538 -0.0030202195048332214 0.0033525757025927305 -0.005016007460653782 -4.7011347487568855E-4 7.876081508584321E-4 0.004157929681241512 -7.312764064408839E-4 0.004343350417912006 0.002076324075460434 0.004450987558811903 -0.0034162255469709635 0.001955433515831828 -0.001873506000265479 2.447837614454329E-4 4.844925715588033E-4 7.147689466364682E-4 0.0018216778989881277 0.0011746261734515429 3.1997347832657397E-4 0.004537507891654968 -0.004556446336209774 8.16896790638566E-4 0.004087309818714857 -0.004203371237963438 9.622988000046462E-5 -0.0032603968866169453 0.0020132497884333134 -0.0023533953353762627 -0.0024490554351359606 3.211483417544514E-4 0.0026548258028924465 9.557649027556181E-4 -0.0036543074529618025 -6.12549192737788E-5 -0.0027960585430264473 0.001673780963756144 -0.0032318055164068937 0.004213045351207256 -0.004479344002902508 1.3986699923407286E-4 0.0016965609975159168 -5.030105239711702E-4 6.812679348513484E-4 0.004695102106779814 -1.1140145943500102E-4 0.0026976875960826874 -1.238728000316769E-4 -0.0029103015549480915 0.002442397642880678 -0.0029019799549132586 -0.005046282894909382 0.004720356781035662 0.002170948311686516 -0.0010142908431589603 0.0018575818976387382 -0.00274286069907248 -7.3441700078547E-4 -0.0028975713066756725 -0.0039829290471971035 0.0028189464937895536 -0.0021348970476537943 0.0026364298537373543 -0.0017326214583590627 -0.005053559318184853 -0.0016342242015525699 0.004459892865270376 -0.004192689899355173 -0.001556827686727047 -2.2686520242132246E-4
festival 0.0024882694706320763 0.001783942338079214 -0.0019978387281298637 -8.952832431532443E-4 0.0013415038120001554 -0.003003666875883937 0.004780032206326723 -2.409025328233838E-4 -0.004256059881299734 -0.0020862959790974855 0.0022785260807722807 -0.0019558570347726345 -0.004619216546416283 -0.003689914708957076 0.0018463018350303173 0.0046119410544633865 1.5610313857905567E-4 -0.0011015823110938072 -0.0026157868560403585 -0.0025899505708366632 -0.0033170932438224554 -0.005435424856841564 0.00301410723477602 0.0028786121401935816 -0.0038084080442786217 -0.004178921226412058 -0.0019547443371266127 -0.0024211250711232424 0.003287843894213438 0.0016034356085583568 -7.825285429134965E-4 -2.299564512213692E-4 0.0019850924145430326 -0.0059311240911483765 -0.0023609711788594723 -0.005200196988880634 -0.001807219348847866 -0.0037899159360677004 -0.001493972260504961 -0.002815397921949625 0.003365578828379512 -0.003169225063174963 0.004312589764595032 0.004440967924892902 -9.518100414425135E-4 -0.003870923537760973 0.002194734523072839 -0.003997889347374439 0.002640738617628813 -0.004381877835839987 -0.0021342216059565544 -0.003189255017787218 -8.193685789592564E-4 -0.0020795695018023252 -0.0013459353940561414 7.773738470859826E-4 0.0042065721936523914 -0.0031478030141443014 0.004109552130103111 9.444206370972097E-4 4.0310254553332925E-4 0.0016053835861384869 6.501700263470411E-4 0.004450096748769283 0.0038113310001790524 -0.0017030230956152081 -0.0037700957618653774 0.004052121192216873 0.0010525243123993278 0.004550814628601074 -6.246900302357972E-4 -0.004128596745431423 3.516970609780401E-4 0.004573279060423374 -0.0025951003190129995 -0.0034963719081133604 0.0015456749824807048 -4.926262772642076E-4 0.004507521633058786 0.0037099700421094894 0.0020646858029067516 0.0024458258412778378 0.0029932046309113503 -0.0010552050080150366 -0.0015254809986799955 -0.0022251498885452747 -0.0026216108817607164 -0.0018081903690472245 -0.005308570805937052 -0.0029623848386108875 0.0045016552321612835 4.223174473736435E-4 0.0018210757989436388 -0.002764219418168068 -0.002135728020220995 -0.001697396393865347 5.194224650040269E-5 -0.002984045771881938 0.004207909572869539 -3.716401115525514E-4
loyal -0.0019840605091303587 -0.0031825562473386526 0.0030619609169662 0.0026895045302808285 0.0033237936440855265 0.004042255692183971 -8.64408677443862E-4 0.0045983679592609406 -8.318789768964052E-4 0.0017944141291081905 0.0046349032782018185 -0.0014179149875417352 -9.052856476046145E-4 1.2242594675626606E-4 0.00295257824473083 0.001945588504895568 -7.389960810542107E-4 -7.039952324703336E-4 -0.001064856187440455 3.5541149554774165E-4 0.002550323260948062 0.0031638124492019415 -0.004145416896790266 6.751929176971316E-4 0.0014683097833767533 -8.027764270082116E-4 0.0026702333707362413 0.0013694849330931902 0.00317082810215652 0.0026822942309081554 -4.410444526001811E-4 0.004877281840890646 0.0035572194028645754 0.002961074700579047 0.0037761887069791555 0.003509251866489649 -0.003629849059507251 8.970958879217505E-4 0.0031873409170657396 0.0038135661743581295 0.0031097435858100653 -0.003175528021529317 -0.004440410993993282 -0.004700524266809225 7.560937665402889E-4 3.2315991120412946E-4 0.003739982843399048 -0.003976580686867237 -0.0022537545301020145 0.004427761305123568 5.1418173825368285E-5 -7.227245368994772E-4 -2.619061851873994E-4 -0.0011110728373751044 0.0025245703291147947 -0.0012388677569106221 -0.0019283780129626393 0.0013161369133740664 -0.0025193816982209682 0.0043324436992406845 4.8152118688449264E-4 -0.0035589653998613358 0.004603671375662088 0.003595763584598899 -0.004371477756649256 -0.003262182930484414 -0.0031596911139786243 5.1393279136391357E-5 7.017371826805174E-4 -0.002136368304491043 -0.0036840434186160564 0.0028174372855573893 0.001272271852940321 1.8090686353389174E-4 0.004981871694326401 0.003628609236329794 -5.075649823993444E-4 6.599093321710825E-4 0.0024039598647505045 -0.0010412140982225537 0.001669477904215455 0.00337945856153965 -0.003094577230513096 5.5842159781605E-4 0.00228135846555233 -4.930352442897856E-4 0.0042283982038497925 -0.004088984802365303 -0.0015965542988851666 0.0010415379656478763 0.0048142364248633385 -4.0888538933359087E-4 -0.002069169422611594 0.004099664743989706 9.260187507607043E-4 -0.0011604010360315442 0.0023841303773224354 0.0050514149479568005 -0.002554407576099038 -0.003461341606453061
pool -0.0034558959305286407 0.002744349418208003 -0.0031954648438841105 0.003605833975598216 -0.002608479931950569 -0.004987334832549095 -3.308131417725235E-4 1.4877014109515585E-5 -6.738189840689301E-4 0.0042987409979105 -0.002021494787186384 -1.4478065713774413E-4 0.0020456162746995687 -0.0035233672242611647 0.004040874075144529 9.456812404096127E-4 -0.0023855790495872498 0.004835884086787701 -0.0024292657617479563 -0.0033155211713165045 -0.004341877531260252 -0.002219438087195158 0.004823838360607624 0.004504757933318615 -0.0037978575564920902 0.0027420739643275738 -0.0019461356569081545 0.0027738111093640327 -0.0032562336418777704 0.0019946035463362932 0.004218572285026312 -0.0014599893474951386 0.0033405593130737543 0.0018459099810570478 0.0036304504610598087 0.0010074201272800565 0.002348102629184723 8.949615294113755E-4 0.0030765619594603777 -2.7703444357030094E-4 -0.002450993051752448 0.004856097977608442 -0.0038864496164023876 0.002416786039248109 -0.0039718565531075 0.0025198226794600487 0.004526762291789055 0.001971379155293107 0.003879984375089407 -0.004907742142677307 -0.002189456019550562 3.1167350243777037E-4 0.0015468840720131993 -0.004532075021415949 0.0043850066140294075 -0.0010682146530598402 -0.003876955946907401 -0.0018131855176761746 0.004927430767565966 -0.0038868640549480915 0.0021255456376820803 -0.004063555505126715 -0.002189571736380458 8.760674973018467E-4 -0.003176972968503833 -8.254828571807593E-6 -0.002433968475088477 0.004887301474809647 -0.002345475135371089 8.448273874819279E-4 -0.0045546251349151134 0.0038113966584205627 0.002449682680889964 -0.002684377133846283 -0.002737337024882436 -0.003941887989640236 -3.9342252421192825E-4 0.00410213740542531 0.00417375797405839 -0.0032555863726884127 -0.004263186361640692 0.0016045075608417392 -1.6634658095426857E-6 -0.0028671156615018845 -0.0029476527124643326 -0.0016947916010394692 -0.0020098702516406775 -0.0014015557244420052 -0.003781604114919901 0.0017986863385885954 0.0020952322520315647 0.0025654032360762358 0.0017969658365473151 0.0020428807474672794 -9.29004920180887E-4 -2.4924022727645934E-4 0.004706444684416056 -0.0023339272011071444 -3.751168551389128E-4 0.003587646409869194
newport -0.005024036858230829 0.00501014431938529 9.300005040131509E-4 0.0015757603105157614 -0.00155459507368505 -0.0014270292595028877 0.0012004957534372807 0.0038191606290638447 -0.004189601633697748 0.0037896973080933094 -3.138428146485239E-4 -0.0028443324845284224 -0.002002368215471506 0.001298863091506064 -7.92022212408483E-4 -0.0013303968589752913 6.10192830208689E-4 0.0022479614708572626 0.0012955229030922055 -0.002498709363862872 0.003270207205787301 -0.00324552645906806 -0.0015503750182688236 0.0027005053125321865 -0.0023883346002548933 7.22262600902468E-4 -0.005347216501832008 -0.004700211342424154 -0.0032198564149439335 -0.0015371011104434729 -0.0022858227603137493 0.001974448561668396 0.002707323059439659 0.0013962718658149242 0.004572512116283178 -0.003310953266918659 -0.004295288119465113 -9.458191925659776E-4 -0.0042844065465033054 0.0014020439703017473 -0.0028727957978844643 0.0030726399272680283 -0.003723651170730591 -0.005014508962631226 0.0025700214318931103 -0.003671739948913455 -4.4132323819212615E-4 0.0013021918712183833 2.4538030265830457E-4 -8.647707873024046E-4 0.0029165183659642935 -1.8458142585586756E-4 -0.0037221491802483797 -0.0024632704444229603 0.0013729181373491883 0.0019788085483014584 0.002679237863048911 -0.003163144690915942 0.0022843473125249147 0.0020879481453448534 0.003984173759818077 -0.0019605772104114294 -0.002915817080065608 0.002036703983321786 -0.0026178599800914526 0.0029230359941720963 0.001040179282426834 -0.002761218696832657 0.0017733847489580512 -0.002366440137848258 -0.002030637115240097 0.0012560600880533457 -0.002080423291772604 5.330302519723773E-4 0.003206414869055152 0.003193420125171542 -0.0020834922324866056 0.0028187755960971117 0.0022944302763789892 0.004570163320749998 -0.0023869278375059366 0.0011285437503829598 0.0029916411731392145 -0.004358971957117319 -8.276286826003343E-5 0.0011684184428304434 -0.0025928679388016462 -0.003902070689946413 -0.005092857405543327 -0.003919702954590321 -5.163814057596028E-4 -0.0027168327942490578 0.0010351547971367836 -0.003939247224479914 -0.0032530820462852716 0.002369226422160864 0.003838049015030265 -0.004436212591826916 7.211600313894451E-4 4.6966702211648226E-4
bill -1.0809962259372696E-4 0.0023647802881896496 0.0037098980974406004 0.004310470074415207 -0.0023095470387488604 3.540768811944872E-4 0.002154157031327486 0.0018588983220979571 0.0036634590942412615 0.0021235926542431116 -0.003418597625568509 -0.0015818956308066845 0.004987531341612339 -3.3587610232643783E-4 0.0034359199926257133 -0.004283001180738211 0.0013032862916588783 0.004063249099999666 -0.0032176782842725515 0.0034434543922543526 0.001569934654980898 -0.002402150072157383 -0.0011433515464887023 -0.0026160485576838255 0.00442143389955163 -0.002353248419240117 0.0022722813300788403 -0.001647994271479547 0.003958456218242645 0.0033923042938113213 -0.0038889998104423285 0.001267315587028861 -0.0037090531550347805 -0.002248570555821061 0.0036381687968969345 3.629142011050135E-4 8.180061704479158E-4 -0.0024419636465609074 0.0013478564796969295 -0.004408887587487698 -0.003690456971526146 -0.004364130087196827 0.00195908872410655 -2.731928543653339E-4 0.004004805814474821 0.002499849069863558 5.977126420475543E-4 -0.003248475259169936 -0.0036777735222131014 0.004095526412129402 0.001223650062456727 -0.0025378805585205555 -0.001912259147502482 -0.0032499870285391808 -0.0021639263723045588 0.0032025231048464775 0.0033502259757369757 0.0027971286326646805 -6.500699673779309E-4 -0.0028380367439240217 -0.004264280665665865 -0.0035737757571041584 -0.003515820950269699 0.002300636377185583 4.701671714428812E-4 0.004404852632433176 0.004540153779089451 0.004119703080505133 0.003733407473191619 0.00283338176086545 0.004210186190903187 0.0020664604380726814 -0.0027488241903483868 0.001081183785572648 0.0037963828071951866 0.0033924321178346872 3.8166469312272966E-4 -1.9181286916136742E-4 -0.0023749354295432568 0.0027197387535125017 0.004430779721587896 3.8144149584695697E-4 -7.168127922341228E-4 -0.002243531635031104 0.0040293121710419655 -0.0014528993051499128 5.161907756701112E-4 -7.798275910317898E-4 -0.001613503904081881 0.002849154407158494 0.004908418748527765 0.0014182005543261766 -0.002455692971125245 -1.8307978461962193E-4 -0.0026993579231202602 -0.0025764689780771732 -4.6747922897338867E-4 -7.024627411738038E-4 0.002614382654428482 -5.878524825675413E-5
analysis 0.002654201816767454 -0.003314381232485175 0.0034451736137270927 0.001028108992613852 0.004810533951967955 -0.0014380557695403695 -0.0037602975498884916 -0.004387829918414354 -0.0029534264467656612 -7.91710801422596E-4 -0.004320888314396143 0.005039050243794918 1.0609399760141969E-4 -5.370916915126145E-4 0.004487313330173492 0.003581552067771554 0.0026578777469694614 0.004722012206912041 -4.473442822927609E-5 0.0027532412204891443 0.004678481724113226 -0.004435506649315357 0.003261743811890483 0.005135765764862299 0.004337331745773554 0.004347295965999365 7.339177536778152E-4 0.001226609107106924 0.004706200677901506 0.003599363612011075 0.003115915460512042 0.004770294763147831 -0.004552045837044716 0.003342819632962346 0.004083709325641394 0.001501183956861496 0.0033477016258984804 -0.0039836447685956955 -0.0016048792749643326 0.003545751329511404 -8.099981932900846E-4 0.0035548240412026644 0.0012917445274069905 -0.004904462024569511 0.0013091217260807753 0.004549198783934116 -0.001878275303170085 -0.002615574048832059 0.003759673796594143 -0.0014502316480502486 0.0020549839828163385 0.004451969638466835 -0.0015921249287202954 2.806650009006262E-4 0.00403929315507412 0.00323139363899827 0.0017212763195857406 -0.002266206778585911 0.003703433321788907 0.0034363907761871815 0.00108627718873322 0.004042577929794788 -0.002445246558636427 0.0050343978218734264 -0.003892483888193965 -9.726564167067409E-4 8.826745906844735E-4 0.0029900989029556513 -0.0012687032576650381 0.0012944535119459033 -0.001447392744012177 -0.003171668853610754 -0.0018687259871512651 -0.0038672375958412886 -0.0036326744593679905 0.0018473051022738218 5.510812043212354E-4 0.001497800461947918 -0.0017354993615299463 0.0035742102190852165 -8.782305521890521E-4 0.0034734357614070177 1.1290871043456718E-4 0.002894708653911948 3.67874454241246E-4 -0.003127210307866335 -0.004854037892073393 0.001796628930605948 -0.0024322287645190954 -0.0036316579207777977 0.003568398067727685 -0.00134695740416646 -0.004038266837596893 4.592463083099574E-4 8.869332377798855E-4 0.002260984154418111 -0.0017256146529689431 -8.508439641445875E-4 -3.086482174694538E-4 -0.002928361529484391
an 0.003095956752076745 -0.003700435860082507 0.0015172186540439725 0.0038854193408042192 0.006123622879385948 0.004340309649705887 -0.0023353903088718653 -1.7237788415513933E-4 -0.0024363945703953505 -0.005854621529579163 -9.584451327100396E-4 0.002275825710967183 0.0015422118594869971 -0.0024209918919950724 -0.0027140064630657434 -0.0019037921447306871 0.0024278508499264717 0.0010783894686028361 6.233130116015673E-4 6.514319102279842E-4 5.818278877995908E-4 9.489702642895281E-4 -0.001444567576982081 -0.0021831956692039967 -9.114129352383316E-4 0.0039611984975636005 -0.007066972553730011 0.0012142981868237257 -0.002241726266220212 4.736302071250975E-4 -0.0011068811872974038 -0.00300835189409554 0.005136334802955389 0.0024277002085000277 -0.0049528577364981174 0.004040025640279055 -0.0028503944631665945 -0.0015176833840087056 0.00244632875546813 0.0036425176076591015 -0.003444226225838065 -0.0011968521866947412 0.0033696258906275034 0.0028401040472090244 -5.331473657861352E-4 -4.8144246102310717E-4 0.0017138462280854583 1.0879107867367566E-4 0.006062165834009647 0.0015889900969341397 -3.267154679633677E-4 0.0031934943981468678 -0.0029131979681551456 0.002067555906251073 -0.002227508695796132 -1.6502890503033996E-4 0.001988266361877322 -0.0015178220346570015 0.004519464913755655 -0.0050826002843678 0.004554541315883398 0.003322170116007328 -1.6627946752123535E-4 0.006180951837450266 0.0012520996388047934 0.003010011510923505 -0.00311680743470788 0.003391503356397152 -0.0020758602768182755 0.001363320043310523 0.0022203605622053146 0.005027522798627615 -0.004465601872652769 0.003666127100586891 0.0056846775114536285 3.016779664903879E-4 -0.0025033988058567047 0.0038468874990940094 0.0038639651611447334 -0.0037845598999410868 -0.0031774418894201517 0.0014406723203137517 0.0013030468253418803 0.002161780372262001 0.00226236111484468 0.0010884973453357816 0.003567079547792673 0.0013778397114947438 -0.004377257078886032 0.0015385524602606893 0.0011995690874755383 -0.003889114363119006 -0.0025244473945349455 4.37173803220503E-5 0.003861719509586692 -0.0011577068362385035 -0.002978304633870721 0.005520692095160484 -0.0034108757972717285 -0.001217568526044488
authorities 0.003604006255045533 -0.002194124972447753 -0.002913410309702158 -0.002611547941341996 0.003349155420437455 0.003710848046466708 -0.004384774249047041 0.0020493422634899616 -0.0038414772134274244 -8.049014140851796E-4 -0.003636618610471487 -0.0015771319158375263 0.002841226290911436 8.766353130340576E-5 -0.00329005578532815 -0.0031754449009895325 8.517534006386995E-4 0.0022526895627379417 -9.392420761287212E-4 0.003233038354665041 -3.744762798305601E-4 -0.004414135590195656 0.004350491799414158 9.37527627684176E-4 0.0011543058790266514 0.0023038252256810665 -0.0024520359002053738 -0.004348848480731249 0.001759987324476242 -0.0012693142052739859 0.0028771343640983105 0.0022813635878264904 0.0051278299652040005 -0.002807134296745062 -0.0051754009909927845 9.754927014000714E-4 0.003178235376253724 -0.002180823590606451 -0.0016543336678296328 -0.0027654049918055534 0.004201938398182392 0.0020216170232743025 5.923520657233894E-4 0.0015835773665457964 0.003874774556607008 0.0018912493251264095 0.0046217474155128 0.004567460156977177 0.0022851780522614717 0.004686872474849224 0.0027247359976172447 0.0013184836134314537 0.0025059215258806944 0.004239398520439863 -0.0018257673364132643 0.004640331957489252 0.0033581876195967197 -0.004122688435018063 -0.0017686965875327587 1.053656596923247E-4 0.00306991976685822 0.004212485626339912 0.0039677368476986885 0.004205586854368448 0.004990553483366966 -0.004278060980141163 5.036418442614377E-4 -0.0011083396384492517 0.0034872854594141245 -0.0013208180898800492 0.003944679629057646 -0.0038108283188194036 -2.5936629390344024E-4 -0.001282018143683672 -0.0021585652139037848 -0.005335413850843906 -9.271288872696459E-4 -0.003905105171725154 0.0040177698247134686 0.0021712472662329674 0.0033997055143117905 -0.0035379682667553425 7.677507819607854E-4 0.0031957593746483326 6.457188283093274E-5 -0.0016036380548030138 1.4598398411180824E-4 -0.002485622651875019 -5.734427249990404E-4 0.0022685888689011335 -0.004916775971651077 0.0039286259561777115 0.0036300516221672297 -3.139162727165967E-4 0.00266789342276752 -5.867534200660884E-4 -0.003992301877588034 0.0021143481135368347 0.002706952625885606 -5.160780274309218E-4
former 0.00208496511913836 -0.0020956520456820726 6.458649877458811E-4 0.004938912577927113 0.001047475729137659 -0.0011034873314201832 0.004774528555572033 -0.0024611165281385183 4.3614074820652604E-4 -0.0011908827582374215 0.0023529210593551397 0.0038934708572924137 -0.0017365999519824982 0.003274390008300543 -0.0020962737035006285 5.369569407775998E-4 0.0038122341502457857 0.0010567940771579742 0.0016543789533898234 0.0012333049671724439 0.0017984971636906266 -0.001256498391740024 7.244062726385891E-4 0.002340783830732107 -6.771399639546871E-4 -0.0034372287336736917 2.9436941986205056E-6 0.0044187214225530624 7.707239128649235E-4 0.0036314220633357763 0.004361261613667011 -0.0034726134035736322 -0.0019024728098884225 8.087048190645874E-4 -0.0017954159993678331 8.265602518804371E-4 0.004669531714171171 0.002436070702970028 0.004600669257342815 4.731847729999572E-4 -1.604776771273464E-4 -0.001206556218676269 5.306846578605473E-4 -0.0050646355375647545 -0.003261796198785305 -0.003274239832535386 -0.004794036038219929 -0.002409420209005475 0.00529837841168046 0.0022770522627979517 0.004369398579001427 -0.004673872608691454 0.0016165263950824738 0.0045136576518416405 0.0022063241340219975 0.005094334948807955 6.707780994474888E-4 -0.004207819700241089 0.001709014642983675 0.0028731266502290964 0.003919266164302826 5.636900314129889E-4 0.003866570768877864 -0.001578143215738237 -0.001267125247977674 0.001963469199836254 -0.004994631744921207 -0.004660163074731827 4.526757402345538E-4 -9.389013866893947E-4 0.0012500460725277662 -7.333129178732634E-4 0.004357629921287298 -0.002741212723776698 0.002321496605873108 -0.0032424619421362877 3.4528609830886126E-5 0.0012504386249929667 -0.004376175347715616 -0.0035932622849941254 0.0019994275644421577 -0.0016958445776253939 0.0031505210790783167 0.001134849968366325 0.0025045317597687244 -0.005321742035448551 0.004027600400149822 1.7050768656190485E-4 -0.0016007848316803575 8.798523340374231E-4 -0.0014335914747789502 -0.0015546635258942842 -0.0014875896740704775 5.732185090892017E-4 0.0026764424983412027 -0.0029192424844950438 0.0010943406959995627 2.2839823213871568E-4 -0.003731108270585537 0.004714904353022575
warren -0.004599733278155327 0.003688966389745474 -0.004873053170740604 0.004923984874039888 -0.002384170424193144 -0.0018962272442877293 -0.0016945326933637261 -0.003448299365118146 0.004911765456199646 -0.002661817939952016 0.002068282337859273 0.0018477680860087276 0.00478391582146287 0.0022901734337210655 4.6964577632024884E-4 -0.0038067928981035948 -0.0037705509457737207 0.004364270716905594 -8.52102879434824E-4 0.004087698180228472 6.394258234649897E-4 5.758669431088492E-5 -0.004202430136501789 0.004124140366911888 -0.0010773473186418414 -0.0014287076191976666 -0.0022907466627657413 0.004878415260463953 -0.0032088791485875845 -0.002390804700553417 9.392778156325221E-4 -0.0036895107477903366 -0.004684516694396734 0.002294793725013733 -0.002069598063826561 5.858497461304069E-4 -6.593808648176491E-4 -0.00427634222432971 0.00410962849855423 -1.995301863644272E-4 0.0026973476633429527 -0.00247007654979825 -0.0021735636983066797 0.003823232604190707 0.004577180836349726 9.095968562178314E-5 0.0036040490958839655 -7.839896716177464E-4 -3.787831519730389E-4 -0.001627843244932592 0.0021588478703051805 -3.164614026900381E-4 0.0012131610419601202 -0.0011393862077966332 -0.0014594495296478271 0.0050384835340082645 0.004292003344744444 -0.0016230953624472022 0.001524551771581173 0.0016426871297881007 -9.701507515273988E-4 -0.004132353700697422 -0.0047974050976336 0.0032038765493780375 0.004480402916669846 0.001577090471982956 0.004159619566053152 -0.004623228218406439 -0.001157327787950635 -6.685408297926188E-4 -0.0028747636824846268 0.0018200237536802888 -0.0010922709479928017 0.0031095552258193493 0.004575041588395834 7.668851176276803E-4 0.0026481812819838524 -0.003491563955321908 8.816338377073407E-4 -0.0025315298698842525 -4.433472713571973E-5 -0.001426151255145669 -0.0028230566531419754 0.0031613954342901707 -0.002074729884043336 0.0033283140510320663 0.0012248533312231302 3.025334735866636E-4 0.004534663166850805 0.0022994300816208124 0.0030994487460702658 -0.001753897638991475 -0.0023128038737922907 -0.003826023545116186 0.00127986422739923 -0.001096839550882578 0.0029197533149272203 0.003805824788287282 -0.0028150472790002823 0.003421633504331112
airport -0.001911587780341506 0.0017324313521385193 0.004278513137251139 0.003000872675329447 0.00432363897562027 -0.002426411025226116 -0.001948677352629602 0.0037522921338677406 0.004208306781947613 -4.328052164055407E-4 -0.003122037509456277 -0.002158232731744647 0.0037713192868977785 0.0043451678939163685 -0.0016973852179944515 0.0014000175287947059 0.004012987483292818 -0.0021148044615983963 -0.004710397217422724 -0.004202592186629772 -5.438786465674639E-4 0.004343423526734114 -0.0032943040132522583 -0.0029504618141800165 -0.0012406401801854372 -0.0032112738117575645 0.0036034982185810804 0.004714945796877146 -0.0011860723607242107 -0.003949208650738001 -4.3702535913325846E-4 8.837849018163979E-4 -0.003551051951944828 -0.001652975333854556 -0.004314539022743702 5.278732714941725E-5 -7.321303710341454E-4 -0.00465480238199234 -0.002036429475992918 0.0031041852198541164 -0.0017886979039758444 0.0034828188363462687 4.072901501785964E-4 0.0016330075450241566 0.0012219320051372051 0.0019570940639823675 -0.002051224000751972 7.077921181917191E-4 -0.0026510346215218306 0.0022612614557147026 -0.0027390257455408573 0.0010118832578882575 -0.003096640342846513 -3.360129485372454E-4 -0.001969794277101755 0.004292808473110199 0.0020538808312267065 -0.002493586391210556 0.002634618431329727 -8.187596104107797E-4 -0.003318834351375699 1.1217004794161767E-4 0.0029758247546851635 -0.0029390486888587475 0.0014926582807675004 -0.005135112442076206 -6.807558238506317E-4 -9.56469913944602E-4 0.005203116685152054 -0.0010851367842406034 -2.1248763368930668E-4 0.004778196103870869 0.0034663965925574303 -1.1751292913686484E-4 0.003844198537990451 -1.2751259782817215E-4 9.435855899937451E-4 6.077380967326462E-4 0.004090688191354275 0.003403165377676487 -0.003434966318309307 -0.002463167766109109 -2.6611212524585426E-4 4.308566713007167E-5 0.0012764015700668097 4.6381575521081686E-4 -0.004446330014616251 -0.0017873168690130115 -0.003817840712144971 3.642617666628212E-4 5.654230481013656E-4 -0.0033707960974425077 -0.003610026091337204 -0.002601382089778781 0.004827063996344805 0.001992951612919569 -0.002484175143763423 -0.001565895276144147 -0.0022023527417331934 -7.681707502342761E-4
as -0.0010907285613939166 0.004833931569010019 -0.0023099512327462435 0.0031483867205679417 0.004043713677674532 -4.0605594404041767E-4 -0.002959608333185315 -0.005199852399528027 -7.692870567552745E-4 0.0035288056824356318 -0.0022700002882629633 -0.0021585384383797646 0.0019594798795878887 -0.0020557143725454807 -0.0038050783332437277 -0.0012679380597546697 6.89556123688817E-4 0.004405840300023556 6.490236264653504E-4 -0.003360165748745203 0.0022798199206590652 0.0040924944914877415 0.003947145771235228 -9.70086723100394E-4 6.75878138281405E-4 7.390002720057964E-4 -9.334470960311592E-4 0.0012354057980701327 0.0039201038889586926 -0.0037031450774520636 0.003726884489879012 0.004996864125132561 0.0052511729300022125 -0.0058749462477862835 0.004152584355324507 5.506597808562219E-4 -0.002098645083606243 -0.00396294891834259 0.0044995578937232494 0.0036829723976552486 1.6730251081753522E-4 0.003328101709485054 -2.951825808850117E-5 -9.586828527972102E-4 2.7279279311187565E-4 0.0046464428305625916 0.0039267996326088905 -0.0028472822159528732 -0.004115749150514603 -5.926376325078309E-4 0.002311641350388527 0.0038281416054815054 0.004227496683597565 9.897589916363358E-5 2.2194275516085327E-5 -0.0028669475577771664 0.00440835440531373 0.0023074441123753786 0.0017438223585486412 -0.0018316953210160136 -0.001783780287951231 -4.0071236435323954E-4 0.00269998237490654 -0.003993918653577566 -0.0023041488602757454 0.0040133618749678135 -0.0017594528617337346 0.001048618694767356 0.003947520162910223 7.897227769717574E-4 3.778018872253597E-4 -0.0012506481725722551 -0.005390300415456295 0.004932872485369444 -0.0030591769609600306 0.0012469016946852207 0.002746768994256854 5.756346508860588E-4 0.002287553623318672 0.0051503488793969154 0.004991373512893915 -1.4416486010304652E-5 0.0018933335086330771 -0.0027509850915521383 -8.174960385076702E-4 -0.003056669607758522 0.0049201021902263165 0.0026939138770103455 0.001458073384128511 -0.004040967207401991 -8.242935109592509E-6 0.0011472433106973767 0.002655134303495288 -0.001523396815173328 -0.001656619249843061 1.879385090433061E-4 9.408525074832141E-4 -0.0011728719109669328 -8.06138850748539E-4 -0.001477054669521749
charges 2.2573221940547228E-5 0.0023758583702147007 -7.09776533767581E-4 0.0016713319346308708 -0.004530958365648985 -0.004261454101651907 0.0015015717362985015 9.314662893302739E-4 2.8014183044433594E-4 0.0025404957123100758 0.002070570131763816 -7.719796267338097E-4 -8.803955861367285E-4 0.002911483170464635 -0.0016398237785324454 -4.7516427002847195E-4 -0.003992571961134672 0.0010747115593403578 0.004079781007021666 -0.0032980323303490877 -0.002347921719774604 0.0022392815444618464 -0.005013017449527979 0.0040660337544977665 0.0020148963667452335 -3.6876037484034896E-4 -0.0016572799067944288 -0.004094008821994066 0.0010314780520275235 0.003818726632744074 -0.004652009811252356 0.004154447000473738 0.002849089214578271 -0.0024134244304150343 -9.577941964380443E-4 -0.002933862851932645 0.004708513151854277 -3.8233192753978074E-4 0.0015984602505341172 7.963079260662198E-4 0.0035591134801506996 -0.0018009821651503444 0.003450704040005803 0.0021324518602341413 0.0014257509028539062 0.0017465188866481185 -0.003625886980444193 -0.002720477757975459 0.0025148687418550253 -0.003699476132169366 0.001019477960653603 1.9688527390826494E-4 -0.0027025972958654165 -2.005086571443826E-6 -0.004742361605167389 0.0019940054044127464 -0.0023220437578856945 -5.800414946861565E-4 0.0019255295628681779 -0.002958890749141574 0.0021208820398896933 -0.004707310348749161 -0.0027760725934058428 -8.403101819567382E-4 0.004877913743257523 -0.0011267674854025245 -6.236606277525425E-4 -1.4905496209394187E-4 8.010089513845742E-4 0.0022407856304198503 -0.002458834322169423 0.001499880338087678 -2.784753160085529E-4 -0.003597899107262492 -0.0033648950047791004 1.9274294027127326E-4 -3.162971406709403E-4 -5.336974863894284E-4 -0.0023080657701939344 0.00399365508928895 -0.001454713987186551 -0.0016493890434503555 -0.003314165398478508 -8.525064331479371E-4 -0.00430368073284626 -0.004012607503682375 0.0036165874917060137 -0.004475215915590525 -0.001880992902442813 -0.0023796330206096172 -4.940145299769938E-4 0.002717754803597927 0.001955309184268117 -6.695868796668947E-4 -0.001944565330632031 0.003602108918130398 -0.004478153306990862 -3.016591945197433E-4 0.0035954853519797325 0.001379838096909225
at -0.001263736980035901 0.0050940560176968575 -0.006715128663927317 0.0035890822764486074 0.0038889606948941946 6.321378168649971E-4 0.0026169056072831154 -0.005170031916350126 1.4452995674218982E-4 -0.005938745103776455 -0.0077454689890146255 -0.001706810318864882 -2.936965029221028E-4 0.006456359289586544 0.0014239588053897023 -0.0028370951768010855 0.002085829386487603 -8.07372503913939E-4 -0.0032682206947356462 8.533975342288613E-4 -0.0026688461657613516 -0.0014864389086142182 -0.0025902013294398785 4.8405819688923657E-4 0.004532693885266781 0.003968105651438236 -0.009473128244280815 2.940127160400152E-4 -0.0040147132240235806 0.005092370789498091 0.003204653039574623 0.006785839330404997 0.0032341305632144213 -0.008482127450406551 -1.2522851466201246E-4 -0.0015617372700944543 0.005732433404773474 -0.0028906012885272503 0.005162252578884363 0.0016676865052431822 3.0036212410777807E-4 -0.0029141611885279417 0.0014069932512938976 -0.005281917285174131 -0.002105926163494587 0.0019825941417366266 0.003201472805812955 0.0046650865115225315 0.006910186260938644 0.004822725895792246 0.0012273199390619993 -0.0023385912645608187 0.0041608670726418495 -0.004700104705989361 0.0025592015590518713 -4.655828815884888E-4 -0.005165730603039265 0.004644257482141256 0.004921863786876202 -0.0020830559078603983 -0.005073247943073511 0.003185079200193286 -0.005237286444753408 0.00571749871596694 -0.003978092223405838 -3.8434338057413697E-4 -0.006004271097481251 -0.0012874538078904152 0.0027764677070081234 -3.9477046811953187E-4 -0.002029753988608718 0.00523543544113636 0.002987626940011978 0.0032932439353317022 0.004057925660163164 -0.001777038211002946 -0.0015470694052055478 3.23678832501173E-4 -0.004391227383166552 5.624926998279989E-4 9.017637348733842E-4 7.32904183678329E-4 -0.00410475442185998 -7.34271015971899E-4 1.6432733900728635E-5 -0.0033315762411803007 0.003627185011282563 -0.006010191980749369 -0.0059675415977835655 -0.006413052324205637 -0.003174261189997196 0.0065529863350093365 0.009739764034748077 0.0023642221931368113 -0.004409837536513805 -0.004896780475974083 -7.843442290322855E-5 -0.0022528162226080894 0.0010814459528774023 0.0012178856413811445
protesters 0.0018298689974471927 0.003918072674423456 -0.004358589183539152 -0.003250691806897521 -0.003101201495155692 0.002835911000147462 -0.004728191532194614 0.0040175835601985455 0.0034649043809622526 0.0029415420722216368 -1.2127024092478678E-4 -9.991559199988842E-4 -3.74478695448488E-4 0.001350834616459906 -0.003085543168708682 -0.002779390662908554 0.0013648605672642589 -0.002721369732171297 3.97008188883774E-5 -0.0026782762724906206 0.004743550438433886 7.015294395387173E-4 0.004615879617631435 0.0018349061720073223 0.004323808941990137 0.002052733674645424 -0.0048193540424108505 -0.0021629470866173506 -3.8724218029528856E-5 0.0015346320578828454 -0.004944466054439545 0.0030651416163891554 0.001393018988892436 -0.004091120790690184 0.004931150935590267 0.004914270713925362 -0.003125246847048402 0.0019608179572969675 0.001532875932753086 -0.0019985984545201063 -0.004352591000497341 0.004126078449189663 0.002370196394622326 -0.0033191093243658543 0.004104109946638346 -0.0044182888232171535 -0.003836806630715728 0.005005339626222849 0.004173082299530506 0.004194837063550949 -0.002600478706881404 -0.0021299943327903748 -0.0034026289358735085 -0.003644270123913884 0.003468820359557867 -0.003911885898560286 -2.6046056882478297E-4 0.0017883405089378357 -0.003910169005393982 -0.0022411919198930264 9.138746536336839E-4 4.623721761163324E-4 -0.0037696463987231255 0.0025513293221592903 0.003601819509640336 9.459618595428765E-4 9.140767506323755E-4 -0.0019643865525722504 -0.001210469170473516 -0.0036966425832360983 -0.00220685382373631 -0.0047460575588047504 0.001319784321822226 0.004082994535565376 0.0036330479197204113 0.002977717202156782 0.002724889200180769 0.0030381043907254934 -0.003332977881655097 -0.0011859801597893238 -0.004909425508230925 -0.0037630093283951283 0.002060526981949806 -0.0015018958365544677 0.004099028185009956 0.002157290233299136 -0.0025298255495727062 -9.182643261738122E-4 -0.0023471724707633257 0.0036319156643003225 -0.00161637959536165 -0.0015926947817206383 0.0021801351103931665 -0.0026342172641307116 -0.0028141853399574757 0.0022476993035525084 -1.2274013715796173E-4 -0.001607475453056395 -0.002419118070974946 0.004912176169455051
unveils -0.004499787464737892 -0.004394377116113901 0.0015151251573115587 8.327509858645499E-4 0.003511664690449834 -0.0016861872281879187 -0.002389167668297887 -0.003504909109324217 -0.0014923388371244073 0.0015589429531246424 -0.003333252388983965 0.0017089109169319272 0.003152758115902543 -0.0038386385422199965 -0.0011775308521464467 -0.0035114751663058996 0.0024559120647609234 -0.0013560948427766562 0.003915150184184313 -1.2340889952611178E-5 -9.736719075590372E-4 -9.228303679265082E-4 -9.007644257508218E-4 0.0012620026245713234 0.004301657434552908 -0.002734568901360035 -0.004345574416220188 3.777352103497833E-4 -0.0046637775376439095 0.0022232942283153534 -5.121129215694964E-4 -0.0036106454208493233 0.0017879832303151488 0.001985986717045307 -6.071931566111743E-4 0.0023930256720632315 9.290220914408565E-4 -2.86954364128178E-5 0.00231943535618484 0.0035892752930521965 -0.0010044689988717437 -9.843353182077408E-4 0.0048014335334300995 2.760366187430918E-4 0.001633362495340407 -0.003347826888784766 0.004993018228560686 -5.145158502273262E-4 0.002363363280892372 0.0016100950306281447 0.0028824962209910154 -0.002050780924037099 -0.004803088493645191 3.8227339973673224E-4 0.0021094479598104954 -0.0012648497940972447 1.2963483459316194E-4 -1.1113553773611784E-4 -0.003116061445325613 -9.196779574267566E-4 0.0016466964734718204 8.641518070362508E-4 0.0029691054951399565 -0.00129184708930552 0.004384580533951521 -0.001808630651794374 -0.0017623264575377107 -0.002161333104595542 -0.004936758894473314 -8.496227092109621E-4 -0.00369620812125504 -0.0030352433677762747 -0.0029319575987756252 -0.001100284862332046 0.0047244178131222725 0.00499341543763876 -0.0012012054212391376 0.0033498466946184635 0.002111817477270961 0.003560073673725128 -0.0045667896047234535 0.0022958857007324696 -0.0012795230140909553 0.0020006101112812757 -0.0012788657331839204 -0.0021806922741234303 -0.003997281659394503 -0.004901120904833078 -0.005005074664950371 0.002711515873670578 3.809814224950969E-4 -0.0033357434440404177 -0.0033006134908646345 0.001750254537910223 -0.0037071818951517344 -0.0026400024071335793 0.0015770954778417945 0.0010435779113322496 -4.652375355362892E-5 -0.0035025037359446287
left 0.0038827380631119013 0.0011663465993478894 -7.35736801289022E-4 -0.001817930955439806 0.001822012010961771 0.0042023309506475925 -0.0023766716476529837 -0.00150377640966326 0.0011191341327503324 -0.004952538292855024 0.001880365307442844 -4.737097187899053E-4 -0.0024787404108792543 -0.002133325207978487 0.002176813082769513 -7.913465378805995E-4 0.0015943337930366397 -0.004339092876762152 0.0016124526737257838 -0.001507489592768252 -2.0911465981043875E-4 -0.003484545974060893 0.003962202928960323 0.0013261341955512762 5.6244753068313E-4 0.0033448110334575176 -5.083552678115666E-4 -0.002609607297927141 0.0014183699386194348 -0.003527667373418808 -4.173079796601087E-4 0.0045152343809604645 0.0019694536458700895 -0.0040918998420238495 -0.0014905715361237526 0.0038227844052016735 -0.00247011287137866 -0.003812800394371152 -0.003588649444282055 -0.003173496574163437 -0.0018760059028863907 -0.00160791480448097 -0.0038630415219813585 -0.00164559087716043 -0.0010174557100981474 0.004525930155068636 0.0020651209633797407 2.739046758506447E-4 -0.003026403021067381 -0.0030538677237927914 7.795103592798114E-4 -4.980628145858645E-4 0.0050934418104588985 0.0043558403849601746 0.0035444756504148245 0.003152064513415098 -0.0018162160413339734 0.003204603213816881 0.003645082237198949 8.737776661291718E-4 0.004017866216599941 0.005120031535625458 2.4890259373933077E-4 0.0031714949291199446 0.001684310962446034 9.09920665435493E-4 0.0029119772370904684 0.0021229481790214777 0.0015844968147575855 5.873748887097463E-5 0.0010637975065037608 -0.004704223480075598 0.0024152088444679976 -0.0034600424114614725 0.0014001093804836273 0.0031565839890390635 0.004225124605000019 -0.0013872855342924595 0.0017176296096295118 0.002815453102812171 -0.0032618725672364235 3.93896916648373E-5 -0.001058773254044354 5.289469263516366E-4 0.0010605115676298738 0.0045920065604150295 -3.8470112485811114E-5 0.002088182605803013 0.00281603098846972 0.001170085626654327 -9.770868346095085E-4 0.0030388589948415756 -0.002009836956858635 0.0031442451290786266 0.0040020109154284 -0.0011829807190224528 -0.002456829184666276 0.003932175692170858 -0.004313151352107525 -6.140426849015057E-4
