648 100 451
rant 0.0027628785464912653 -0.0014090236509218812 0.002463929122313857 0.003976838197559118 -0.0016049447003751993 -0.004224814474582672 4.382060724310577E-4 -0.004911039490252733 0.0017318474128842354 0.0023147601168602705 0.0017689861124381423 -0.0020547001622617245 0.001337967929430306 -0.0047490340657532215 -0.004431699402630329 -8.854572661221027E-4 -0.003122004447504878 3.1792213121661916E-5 -0.0019135985057801008 -0.0031802316661924124 -0.00282270391471684 -0.001986071467399597 0.0037305480800569057 5.425444105640054E-4 0.0037354575470089912 5.345527897588909E-4 0.004331833217293024 -9.610067354515195E-4 -6.124017527326941E-4 1.8696565530262887E-4 0.004930837545543909 0.0030364682897925377 -2.768169215414673E-4 -0.004101156257092953 -0.0044744256883859634 0.0013039601035416126 0.002387002110481262 0.001093566999770701 -0.004920904524624348 -0.0024523353204131126 -0.001303676050156355 0.0045230030082166195 -0.0019033324206247926 -0.0017775220330804586 -0.0019814767874777317 -0.00416148453950882 -3.3025522134266794E-4 -0.0016145899426192045 -0.00237061595544219 -0.0015871899668127298 0.0013893598224967718 -0.0017504276474937797 -0.0013347979402169585 -0.003394516184926033 0.0032150810584425926 -4.6817262773402035E-4 -0.003942691721022129 0.0020479841623455286 0.0030522176530212164 -0.0010045538656413555 -0.0026502113323658705 0.0017512704944238067 -0.0027733552269637585 0.00461192661896348 -0.002162226242944598 -0.004390699788928032 3.141893248539418E-4 -0.0017136253882199526 -7.438813918270171E-5 -0.001632030587643385 -0.0038737875875085592 -0.0016399681335315108 6.997304153628647E-4 -0.0018622898496687412 7.62011157348752E-4 9.786445880308747E-4 0.0011992845684289932 -0.004524470306932926 -6.838146946392953E-4 0.0035468698479235172 0.0025616611819714308 0.004641382023692131 0.0032224273309111595 0.0028221504762768745 -0.004018615465611219 0.002111585810780525 -0.004379853140562773 9.949386585503817E-4 -0.0019478402100503445 -0.0026072056498378515 0.004083686508238316 0.001482939114794135 -0.004356319550424814 0.0015894807875156403 -0.00344045995734632 0.004259966779500246 -0.003636016044765711 0.002273332327604294 -0.004011170007288456 -0.0015023528831079602
-yo 9.834392694756389E-4 0.004900786560028791 0.0019065114902332425 0.002826080657541752 -2.1412091155070812E-4 -0.004145241808146238 -0.0019252500496804714 -0.002283659065142274 0.002539511537179351 -0.0038215562235563993 2.627198991831392E-4 -2.2664979042019695E-4 -0.001448440132662654 0.0041654231026768684 -0.003177901729941368 0.002254544524475932 -8.268393576145172E-4 -0.00192543538287282 0.003428645431995392 -0.004554409999400377 0.003927720244973898 -0.004788105841726065 -0.0010649797040969133 0.0033574874978512526 0.0044113644398748875 0.0012087499490007758 -2.7594773564487696E-4 -0.00438363291323185 -0.003604126162827015 9.081825846806169E-4 -0.004373719450086355 -0.001367321819998324 0.002878173952922225 1.1885009007528424E-4 -0.003807568224146962 -0.0022354244720190763 -0.0018726062262430787 -0.003025125013664365 -4.924139939248562E-4 -4.314892285037786E-4 0.004335791803896427 -0.0038335954304784536 -0.0035429643467068672 0.003225146559998393 3.8657733239233494E-4 0.002979771699756384 0.0038226512260735035 -0.0010772804962471128 3.484700864646584E-4 0.0015342910774052143 0.0026798928156495094 -0.0019271670607849956 8.746705134399235E-4 0.003990868106484413 -0.004582911264151335 0.002041203435510397 0.003057605354115367 -8.915652288123965E-4 -0.0027336478233337402 8.550125057809055E-4 0.002662051934748888 -0.0010312427766621113 5.616427370114252E-5 0.00454582367092371 0.0024849618785083294 -9.98324598185718E-4 0.0018127376679331064 0.004855714272707701 0.004483796190470457 0.00485260272398591 -0.0037513868883252144 -0.0021036562975496054 0.003282639430835843 0.003648309502750635 0.0022040950134396553 -0.001931545208208263 0.0018303260440006852 -0.003444921923801303 0.004310068674385548 -0.004061666317284107 -0.0014142940053716302 -0.0030580719467252493 -0.002489225473254919 0.0021007079631090164 -9.215499740093946E-4 0.001628049765713513 0.0026233727112412453 0.001972772413864732 -0.004375961143523455 -0.004419517237693071 5.144791211932898E-4 -1.2942744069732726E-4 0.002869304269552231 9.156800806522369E-4 -0.004136312287300825 -2.407652500551194E-4 -0.002748263766989112 0.004407674539834261 0.00481940433382988 1.566573337186128E-4
year 0.004069977439939976 0.00235916581004858 0.0029419136699289083 -0.004165302962064743 -0.0026777286548167467 0.003273952752351761 0.001167476992122829 -0.0026462010573595762 -0.001435378915630281 -5.680652684532106E-4 -0.0011174875544384122 0.0017080040415748954 -0.0012073609977960587 0.0032275081612169743 0.0016677463427186012 -5.96138765104115E-4 0.003953598439693451 5.096257082186639E-4 0.0016284668818116188 -2.900770050473511E-4 -0.002422001911327243 0.00203302432782948 -0.003553148126229644 -1.8660357454791665E-4 -0.001036426518112421 -0.0033355436753481627 -0.004452336113899946 4.89590092911385E-5 0.0018583295168355107 0.0024044837336987257 0.0038626210298389196 0.0019001567270606756 -0.003972750622779131 -0.00220049312338233 0.0038793333806097507 0.0031465364154428244 5.324638332240283E-4 -0.0018174597062170506 0.0025990731082856655 0.002495028078556061 4.7497676860075444E-5 -5.720974295400083E-4 9.99639742076397E-4 -0.0013381130993366241 0.002653139643371105 0.0013509441632777452 -0.002547754906117916 8.587478660047054E-4 -4.884870140813291E-4 0.003429093863815069 -0.0030101377051323652 0.0026042365934699774 -0.0024471564684063196 -0.00280667538754642 0.002570433309301734 -0.0011703588534146547 -0.001312710577622056 0.00373349548317492 -9.438879205845296E-4 -0.0027495576068758965 0.001813602983020246 0.0033378941006958485 4.667729663196951E-4 -6.642778171226382E-4 -0.0024155329447239637 0.0038542107213288546 -0.003736589103937149 0.001857976894825697 0.0019327589543536305 -0.004698410164564848 0.0037180932704359293 -4.642464919015765E-4 0.0037257627118378878 -0.0011724827345460653 -0.00467049703001976 -0.003109267447143793 -0.003593041328713298 -0.0023338787723332644 0.004419798031449318 -0.002320915926247835 -7.210511103039607E-5 0.0036699336487799883 -0.002670030342414975 -0.0015267031267285347 0.002851521596312523 0.0014646579511463642 0.004365857224911451 -0.0045480853877961636 -0.003134448081254959 0.003107482800260186 4.8136652912944555E-4 0.002792038256302476 1.9186366989742965E-4 0.004978714510798454 0.002129162894561887 -0.0048810322768986225 -9.080006857402623E-4 -0.0033253845758736134 0.004366748966276646 2.8497414314188063E-4
shooting 0.0040023974142968655 -0.0022310863714665174 0.0036522315349429846 -0.002933995332568884 0.0014104143483564258 0.00508496630936861 0.0027630822733044624 -0.0017208807403221726 0.003048195969313383 -0.0035941284149885178 -0.001430876669473946 -6.33810181170702E-4 0.003131723031401634 0.0012750644236803055 0.0044340346939861774 -8.327189134433866E-4 -0.00478679733350873 -0.00446117902174592 -0.005222661420702934 9.677567868493497E-4 -0.002488756086677313 -0.0037023306358605623 0.0012882143491879106 -4.328301001805812E-4 0.0015276784542948008 -0.0018162541091442108 -0.00433734804391861 -0.0024588543456047773 0.004834952764213085 -0.0030568488873541355 0.0030240004416555166 0.001115446793846786 -0.004028459079563618 0.0018036796245723963 6.26619381364435E-4 -0.0011217690771445632 0.0013741902075707912 -0.0017725502839311957 0.004389207344502211 0.0011847128625959158 -0.002918552840128541 -0.0052796886302530766 3.8130610482767224E-4 -0.002189709572121501 0.0036968712229281664 0.002403732854872942 0.002436940325424075 -0.003875128226354718 0.002226363169029355 -0.004164407029747963 -7.252544746734202E-4 0.0011290545808151364 -0.0013917351607233286 -4.6167289838194847E-4 8.484575082547963E-4 0.00401926739141345 -9.615278395358473E-5 0.0010540190851315856 -0.0015499606961384416 -8.52854282129556E-5 0.0035393324214965105 0.002734803594648838 0.003185353707522154 4.7433344298042357E-4 1.7016484343912452E-4 -0.001853552763350308 -3.879526339005679E-4 -0.002435915870591998 0.004762718919664621 -0.00432909931987524 5.173342069610953E-4 -7.955003820825368E-5 -0.002450177213177085 0.001242900500074029 0.004158077295869589 -0.0013818551087751985 0.002668996574357152 0.003934738226234913 0.004156098701059818 -3.513985138852149E-4 0.004681338090449572 0.004553213249891996 -5.184788606129587E-4 2.913739299401641E-4 -0.004536226857453585 -4.644452128559351E-4 0.0012280482333153486 -0.0010718253906816244 7.838245364837348E-4 9.756319923326373E-4 0.003149349009618163 -0.0021577109582722187 0.005001300945878029 0.002700032899156213 0.0035534093622118235 0.004175254143774509 0.004090228583663702 0.0017690776148810983 0.004946925677359104 0.002500725444406271
boys -0.00164116476662457 -0.0048555973917245865 2.8401994495652616E-4 -0.004438046831637621 0.004509132355451584 -5.302274948917329E-4 -0.0027672487776726484 -0.003091653576120734 0.0014304813230410218 0.0021388421300798655 -4.504045646172017E-4 0.0038476146291941404 -0.003277392126619816 -0.0024448533076792955 0.003336802590638399 0.004684173036366701 4.7937041381374E-4 2.846018469426781E-4 -0.005299587268382311 0.0012923316098749638 0.004448908846825361 -0.004201783332973719 0.0010646635200828314 -0.0025537856854498386 0.003515382530167699 0.0016438810853287578 4.082311352249235E-5 -0.004052396398037672 0.002985369646921754 0.00407358119264245 -0.0028335549868643284 0.001958137145265937 3.9245764492079616E-4 -0.0038400664925575256 -0.003960238769650459 -0.0023328871466219425 -0.002162284217774868 -0.003296608105301857 0.002163082594051957 0.002629200927913189 -0.004238814115524292 -0.004754386376589537 0.0011194291291758418 -0.004127813503146172 -0.004834048915654421 -0.002512179082259536 -0.0035539581440389156 0.003185432404279709 7.926198886707425E-4 -0.0021091208327561617 8.698705933056772E-4 7.520089275203645E-4 -8.105392334982753E-4 -6.223656237125397E-4 -7.85710581112653E-4 5.09430596139282E-4 -0.0034435668494552374 -0.0035762579645961523 -0.003930060658603907 -6.894454127177596E-4 -0.001413853606209159 -2.4063294404186308E-4 0.004393444396555424 5.260896286927164E-4 0.0027603080961853266 0.0030102659948170185 0.003703613067045808 -4.365673230495304E-4 0.0018201980274170637 0.005068294703960419 -9.230557479895651E-4 -0.0035483466926962137 0.002863713074475527 5.813034367747605E-4 0.0038207576144486666 -5.631900276057422E-4 -0.0027939421124756336 0.00199524755589664 -6.550689577125013E-4 0.0029273589607328176 -8.780350617598742E-5 8.052484481595457E-4 -0.001421019434928894 -0.0037264751736074686 8.715494768694043E-4 -0.002152487635612488 0.00137863599229604 -0.0018870936473831534 7.393163978122175E-4 -0.0031417582649737597 6.096327560953796E-4 0.002819432644173503 -0.0015033762902021408 0.0035208305343985558 0.002851031720638275 -0.0015675381291657686 0.001439521787688136 0.0018069185316562653 -0.0027969898656010628 -3.6277674371376634E-4
texas 0.004247953183948994 0.003626117017120123 -0.001525845262221992 0.0026574903167784214 -0.003195683006197214 0.0029276537243276834 0.002475505694746971 5.932440399192274E-4 8.983145235106349E-4 -0.0017766507808119059 0.004130722489207983 0.0011292927665635943 2.2455920407082886E-4 -0.0023672813549637794 0.0029283929616212845 0.003004551399499178 -9.97351249679923E-4 -0.004441127646714449 6.646984547842294E-5 -0.002121339086443186 -0.002647713292390108 0.002585575683042407 0.0010059705236926675 5.84323366638273E-4 -7.749760989099741E-4 -0.004399685189127922 0.004366013687103987 0.0038736274000257254 3.875295806210488E-4 -0.002396591007709503 0.004426017869263887 -5.717695457860827E-4 -0.004384178202599287 -5.753175355494022E-4 -0.0017544308211654425 -0.001158805564045906 -0.0033208930399268866 0.004692459013313055 -0.0029358393512666225 -4.910885472781956E-4 -9.210248244926333E-4 3.844804014079273E-4 0.004495296161621809 -0.004975893534719944 -0.0026416517794132233 -0.00394517183303833 0.0038570102769881487 -9.127338998951018E-4 6.887245108373463E-4 0.0028568278066813946 -6.892997771501541E-4 0.0026134455110877752 0.004124598111957312 -0.004769258201122284 -0.0016041501658037305 0.003842789214104414 0.0038298419676721096 0.0038853168953210115 -0.003926420118659735 -0.001081217429600656 0.004571783356368542 -0.004108245484530926 -0.0036659380421042442 6.885741604492068E-4 0.0014158237027004361 -0.003819453762844205 0.003715903963893652 -0.003151522483676672 0.001965929288417101 -0.002450992353260517 -0.004674731753766537 0.0035094127524644136 0.004136829636991024 0.0031754530500620604 -0.0028509777039289474 -0.004666510969400406 -0.004431731998920441 -0.0020454099867492914 -0.0028030024841427803 0.0031734216026961803 0.002489715814590454 -0.0030489631462842226 -0.004430914297699928 1.5537945728283376E-4 0.0028015470597893 0.0010491656139492989 -1.9561081717256457E-4 0.0035279151052236557 0.0037634919863194227 -0.0011004040716215968 -0.001821820973418653 -0.0038337635342031717 -0.0028041519690304995 -0.004607734736055136 -0.0019516668980941176 -6.964586791582406E-4 -0.0036218345630913973 0.0024263758677989244 0.0014284681528806686 -0.0017341143684461713
your 0.002043697750195861 0.0021481600124388933 -0.0038137349765747786 -0.004722533747553825 0.0010540781076997519 -0.0022368193604052067 0.002114752307534218 9.000572608783841E-4 0.003503353102132678 -0.0014893764164298773 0.001993668731302023 -0.0014211890520527959 -0.001683377893641591 -3.8005103124305606E-4 -0.00140260043554008 -0.0028679489623755217 -0.0014626288320869207 8.373590535484254E-4 -0.0035899761132895947 -0.0046885632909834385 1.890485582407564E-4 4.243908915668726E-4 0.002758647780865431 0.0020610494539141655 0.0033606747165322304 9.053733665496111E-4 0.0030784772243350744 0.0035561686381697655 -0.0016712503274902701 0.0015886579640209675 8.490256732329726E-4 -0.002615891629830003 -0.001589073333889246 -0.001043380587361753 -0.0017521852860227227 -0.003417650470510125 0.003988605458289385 -0.0038474858738482 0.005071503110229969 0.0027997195720672607 -0.002550416626036167 9.964390192180872E-4 0.0030502628069370985 -0.0014220824232324958 -0.002657765056937933 -0.003939207177609205 0.0017386706313118339 -6.578920292668045E-4 0.003194888588041067 0.0017251715762540698 0.0018569453386589885 -7.495176396332681E-4 -4.79791167890653E-4 -6.096126744523644E-4 7.832863047951832E-5 -6.45601365249604E-4 0.003949649631977081 -0.004906016401946545 -0.0031999624334275723 -0.0031500898767262697 0.001758591621182859 -0.002319537801668048 -0.0036701569333672523 0.004033534787595272 -0.004293358419090509 -0.0030776504427194595 0.001825329614803195 0.003665266092866659 -0.00371556356549263 0.005296411458402872 0.0023160611744970083 0.0044266884215176105 -0.004455367103219032 9.479376021772623E-4 0.005064570810645819 -6.693186587654054E-4 0.0012672962620854378 0.004178962670266628 1.1824793182313442E-4 0.0021853914950042963 -0.004558195825666189 -0.005724017508327961 0.0010335776023566723 0.0034434152767062187 -1.513809256721288E-4 0.004238007590174675 -0.0036438480019569397 0.004257960245013237 -0.001567426254041493 -0.004655144643038511 -0.0022705388255417347 0.0011430333834141493 0.002579635474830866 0.0018450126517564058 1.901242467283737E-5 -0.0031496279407292604 3.1966291135177016E-4 0.0038629863411188126 0.001488671638071537 0.0035079526714980602
salary 0.003509357338771224 -0.0026084023993462324 0.0016796645941212773 4.530423666437855E-6 -0.00304998061619699 -8.110038470476866E-4 8.63617577124387E-4 0.002113400725647807 0.0023647674825042486 -0.004004753194749355 -0.004474523942917585 -0.0038784530479460955 0.00202025193721056 -0.004298564046621323 7.849671528674662E-4 -0.002567707095295191 0.002205098047852516 0.0025313720107078552 0.004716630093753338 -0.002591730561107397 -0.0016839578747749329 0.0031448069494217634 0.0016292792279273272 2.536675601731986E-4 5.384844844229519E-4 -0.0022237314842641354 4.2217742884531617E-4 -0.004908767528831959 -0.0018864506855607033 5.263882922008634E-4 -0.0035751808900386095 1.392606645822525E-4 -4.050495335832238E-4 -0.002740147989243269 -5.168976495042443E-4 -0.002413177164271474 -0.0023188285995274782 -0.002498131711035967 8.918731473386288E-4 -0.0029514722991734743 0.003984554670751095 -0.0026254067197442055 -0.0015818426618352532 0.002063347492367029 -0.0027657034806907177 -0.003071033162996173 -0.0020877982024103403 0.004974203184247017 0.0013695411616936326 0.0011736396700143814 0.004631114657968283 -0.002659047022461891 0.00469265365973115 0.003456515958532691 -0.0019848982337862253 -0.004208921454846859 8.039021631702781E-4 -0.0034620831720530987 0.0029897347558289766 0.002960505895316601 0.004106651525944471 -9.584651561453938E-4 -0.0030420604161918163 0.004040582105517387 -0.003249530913308263 -0.0010259865084663033 9.304398554377258E-4 -0.004505483899265528 0.004663132596760988 -1.2632219295483083E-4 0.0023395472671836615 0.0012018101988360286 0.003107211086899042 0.003132795449346304 8.393576717935503E-4 0.0012130914255976677 -0.0037192401941865683 -0.0011135375825688243 -0.003606631187722087 0.0040710256434977055 6.395447999238968E-4 8.973828516900539E-4 -0.0010646142764016986 0.0040070372633636 -0.0021212913561612368 0.0025470112450420856 -0.0015207692049443722 -0.0022236115764826536 0.002277182415127754 0.004896285478025675 0.0025384237524122 0.003600379917770624 0.00237598130479455 -0.003545359941199422 0.004634951241314411 0.0014996399404481053 -4.155336646363139E-4 0.004095111042261124 0.004874838516116142 0.004482563119381666
dem -0.0010252223582938313 0.0026188623160123825 -0.0021602362394332886 0.0016198123339563608 -0.004662793595343828 -0.002613391261547804 -0.004250156693160534 0.004955645184963942 -0.004682340659201145 -0.004309950862079859 -0.001385050592944026 -0.004489048384130001 -0.0014232296962291002 0.003474340308457613 -6.507803918793797E-4 0.0038168018218129873 -0.003059710143133998 0.003465420100837946 0.002540075220167637 -0.002054698532447219 -2.0062012481503189E-4 0.0010224469006061554 -2.8529134579002857E-4 0.004170131869614124 -3.401811409275979E-4 -0.0012147609377279878 -1.9303137378301471E-4 0.0022305070888251066 0.0015649701235815883 -0.0014450238086283207 -5.913471104577184E-4 0.0028997964691370726 0.001765183755196631 0.002616317244246602 -9.139059111475945E-4 0.0033533757086843252 -0.00414672214537859 0.0026247212663292885 0.0016792390961199999 -5.8443922171136364E-5 0.002107560634613037 -5.5277589126490057E-5 0.0015329333255067468 0.004321984481066465 -0.0022279846016317606 0.0017597194528207183 0.004654895979911089 1.9330148643348366E-4 -0.0022000125609338284 0.0023937432561069727 -0.0019296129466965795 -0.0013329056091606617 -0.004943584091961384 8.185725891962647E-4 0.0011744420044124126 -0.0045366003178060055 0.001932628103531897 6.681181839667261E-4 0.002383992774412036 0.0018947540083900094 0.0037284756544977427 0.0014623157912865281 0.0030670962296426296 0.004340668674558401 -0.0025729418266564608 6.535560823976994E-4 0.001706618582829833 -0.003077262779697776 -0.0020212256349623203 0.004027159418910742 -0.002195263048633933 0.0012793309288099408 9.990944527089596E-4 6.785825244151056E-4 -0.002814937150105834 0.0028500291518867016 8.074200013652444E-4 -0.0010527828708291054 0.0011568000772967935 0.004989284556359053 0.0036953920498490334 0.0010639348765835166 -0.004171029664576054 -0.004886134527623653 -0.0032092020846903324 -0.003922559320926666 -0.002818081760779023 -0.00293468264862895 0.002507798606529832 0.004762288648635149 0.004200570750981569 -7.684414740651846E-4 -0.0016868324019014835 -0.0010056330356746912 2.7710566064342856E-4 -8.064862340688705E-4 0.004591610748320818 0.0029752980917692184 0.0036018977407366037 0.004952252842485905
asylum -0.0018165319925174117 -0.002598814433440566 0.0030676021706312895 -0.00413497956469655 -0.003881218610331416 -0.004118472803384066 0.0038894126191735268 0.003476126817986369 -0.004567109979689121 -0.002592581557109952 0.004360066261142492 0.0027309334836900234 0.0019063117215409875 -0.0031524060759693384 -0.0025306649040430784 -0.001937234541401267 0.004749426618218422 -3.13495664158836E-4 0.001047751633450389 -7.900220225565135E-5 -0.00441339984536171 0.0015090706292539835 -0.0010977783240377903 -0.003995823208242655 -0.0012393337674438953 -0.002418691059574485 0.0034818705171346664 0.0028518554754555225 0.0016820008167997003 0.0018046452896669507 -0.0033918116241693497 4.0250568417832255E-4 0.003328590653836727 -0.0014229443622753024 0.0043458715081214905 0.004444553051143885 -0.0035281756427139044 0.004485662095248699 -0.0037544777151197195 -0.001846961327828467 0.00476487772539258 0.0022792271338403225 4.434625734575093E-4 -9.609468397684395E-4 -0.0045198313891887665 0.0037818334531039 0.0022600486408919096 -0.004939727019518614 -1.6224649152718484E-4 0.0033883859869092703 -0.0037800397258251905 -0.0020355843007564545 9.031062945723534E-4 0.0029195041861385107 0.0015520344022661448 -0.001589957159012556 -0.0028009323868900537 1.0625899449223652E-4 0.0015190904960036278 -0.0048440368846058846 -0.0012721135281026363 6.453016540035605E-4 -3.287798317614943E-4 -7.928659324534237E-4 0.00412208866328001 -0.0020621593575924635 -2.2914492001291364E-4 1.408453972544521E-4 -0.0017341549973934889 0.002456001006066799 6.402372382581234E-4 0.00456832442432642 -0.002071686554700136 -0.0025952160358428955 0.0010829470120370388 -0.00481834914535284 -0.003792060073465109 -0.00267600454390049 -0.003389339428395033 0.003921816125512123 0.00163082720246166 8.286063675768673E-4 -0.005025207065045834 -1.5092249668668956E-4 0.002077622339129448 0.004345873836427927 -0.0016273983055725694 0.0023213461972773075 -3.192417789250612E-4 2.79726846201811E-5 -0.0010070062708109617 0.0035325547214597464 -0.003350401995703578 1.3457787645165808E-5 0.0010171335889026523 -0.0018226157408207655 0.0027071209624409676 0.0036327936686575413 0.0019207687582820654 -0.0028616366907954216
building 0.0015123086050152779 -0.0020793925505131483 -0.002514009829610586 0.0016513803275302052 -0.0018285708501935005 -0.004460045602172613 -0.0020597788970917463 -6.137318559922278E-4 0.003992966376245022 0.00439395010471344 -0.0016548666171729565 0.002138635376468301 0.0019916663877665997 -9.374608634971082E-4 -0.0035234643146395683 0.004362134728580713 0.0039574564434587955 5.593866226263344E-4 -0.0018925268668681383 -4.638913960661739E-4 -0.0013766305055469275 0.003577489871531725 8.098187972791493E-4 0.003356916829943657 0.0012160444166511297 -0.002167041879147291 -0.003630400402471423 0.0025518781039863825 0.0019465821096673608 6.050632800906897E-4 -0.00369921769015491 3.06927744532004E-4 0.004724238533526659 -0.0025161118246614933 0.00357308448292315 -0.0013891729759052396 0.004534287843853235 0.004913127049803734 0.0030117486603558064 -0.0030689046252518892 0.003768455469980836 0.0019142720848321915 5.531400674954057E-4 0.0022634302731603384 0.004082728177309036 8.215907146222889E-4 5.380460643209517E-4 -8.854915358824655E-5 -0.002510666847229004 -0.0019392333924770355 -0.0024625486694276333 -0.001441944157704711 0.001131865312345326 -0.001486261491663754 0.001634085550904274 0.0019691085908561945 0.0027729752473533154 -0.002103203209117055 -0.00461875693872571 0.002234314102679491 -0.004312915727496147 0.0038933586329221725 0.004789712373167276 -4.182805132586509E-4 8.548862533643842E-4 -5.502860876731575E-4 -0.0013045402010902762 0.0026507354341447353 -0.002978682518005371 0.0012090635718777776 0.0014016557252034545 -0.00376242958009243 -9.49253881117329E-5 -2.6331603294238448E-5 -0.002968862187117338 0.003412015037611127 -0.002760212402790785 0.004694138653576374 0.0032661575824022293 -0.0031188169959932566 0.0021983920596539974 0.004670852329581976 0.002193776424974203 7.333407993428409E-4 7.505338289774954E-4 4.7671294305473566E-4 0.0020065479911863804 -0.003633193438872695 -0.0021014309022575617 0.0016757342964410782 3.1325698364526033E-4 -0.003941214643418789 0.0016042714705690742 0.004923076368868351 -0.0029904525727033615 0.0010224714642390609 -0.0018084244802594185 -0.0038676320109516382 0.003217866877093911 -0.0029942940454930067
these 0.0034730953630059958 1.8944076145999134E-4 0.0015387337189167738 0.0013054927112534642 -0.0012744207633659244 0.0010633396450430155 -0.002700465265661478 0.0016073327278718352 -0.004074969328939915 5.580561119131744E-4 -0.004375627264380455 0.0018820998957380652 -0.004336445592343807 -9.195780730806291E-4 -0.0013104794779792428 0.004172331653535366 8.083345019258559E-4 0.004244054667651653 -0.004093347117304802 -0.001593115390278399 -0.0033018183894455433 -0.0026653839740902185 -0.0023702553007751703 -0.0026180180720984936 0.004936091601848602 8.873781189322472E-4 -0.00345734809525311 0.002269395627081394 -0.0033346000127494335 0.00442649656906724 -0.001229521119967103 8.443237747997046E-4 -7.876514573581517E-4 0.0031812789384275675 -0.00271328235976398 -0.004098144825547934 0.001318843918852508 0.003984234761446714 0.0018337821820750833 -0.0015569254755973816 0.002631325041875243 -0.004562125075608492 0.0029348416719585657 0.003510091919451952 -0.002126312116160989 -0.0036312383599579334 0.0031752074137330055 -1.4726862718816847E-4 0.0015995076391845942 -0.002265575109049678 0.0011033023474738002 -0.003827683161944151 -0.003768459428101778 8.368967683054507E-4 0.004675740376114845 6.933227996341884E-4 -0.0022066442761570215 0.0038989619351923466 0.0010923012159764767 0.004828070290386677 -0.0037287650629878044 -7.968871504999697E-4 -0.004761816002428532 -0.0020412139128893614 0.004012826830148697 0.004660225939005613 -0.0026756359729915857 0.0024083496537059546 0.0040306332521140575 -7.101697265170515E-4 -2.9734368581557646E-5 -0.003717177314683795 -9.419841808266938E-4 -0.0010373593540862203 -7.511845324188471E-4 -0.004587645176798105 -0.0017450798768550158 0.0030702187214046717 0.0013014511205255985 0.00442270515486598 -0.002597729442641139 -8.774849120527506E-4 0.0033737109042704105 -0.003526281798258424 4.722392768599093E-4 8.071563788689673E-4 0.0030135647393763065 -0.0021151569671928883 -0.0018445509485900402 0.0035406562965363264 0.0016219919780269265 -0.003175170160830021 8.166805491782725E-4 0.004674828145653009 -8.708004606887698E-4 -0.0035982965491712093 0.0035077305510640144 0.0024674199521541595 -0.001286190701648593 -0.0015415691304951906
twins -0.0023931805044412613 -0.0014798515476286411 -4.118579381611198E-4 -0.00372044974938035 0.0036114314571022987 0.001667571603320539 -0.002472318010404706 0.001897564041428268 0.0021736796479672194 -0.0038260766305029392 0.001295111607760191 0.002431147964671254 -0.0026156872045248747 -0.0011358438059687614 0.004436853341758251 0.003937171306461096 -0.003530284622684121 -0.004387830849736929 0.00273490184918046 -0.0010463179787620902 0.0023516861256211996 0.0030562160536646843 -0.002222559880465269 0.002283957088366151 0.0013002230552956462 0.004908040631562471 0.001441005151718855 -0.0030295480974018574 0.003824385581538081 0.002066774759441614 -5.24930830579251E-4 -6.602795911021531E-4 0.0012844601878896356 -0.002267008414492011 1.6361501184292138E-4 0.002603307832032442 0.0036962060257792473 0.002243111142888665 0.0038637137040495872 5.954595399089158E-4 -0.0037857184652239084 -6.099595921114087E-4 0.004700600169599056 -0.0021292627789080143 -0.0010109955910593271 2.6228520437143743E-4 -0.0017344356747344136 0.002318775514140725 -0.0013159612426534295 -0.004042024724185467 0.003245476633310318 0.004415356554090977 8.414856274612248E-4 0.004969336092472076 0.0017665969207882881 0.0013942430960014462 0.003018018789589405 -0.0020500263199210167 6.098893209127709E-6 0.002119313692674041 -0.004142010118812323 0.003672025166451931 -0.0033495102543383837 -0.0049060797318816185 0.0011666120262816548 -0.0023397598415613174 0.001191787770949304 -0.0039123971946537495 0.0010370741365477443 -3.8307669456116855E-4 -2.44294322328642E-4 -7.494555320590734E-4 -0.002333151176571846 0.003921442199498415 -0.004442391451448202 0.0013762859161943197 -0.0028156570624560118 3.343033022247255E-4 0.0012298105284571648 -1.5609364709234796E-5 0.0028649144805967808 0.0014684295747429132 -0.004610860254615545 -0.0017340696649625897 -0.002681637415662408 -0.0028234762139618397 0.0035513201728463173 -0.0030631283298134804 7.432273123413324E-4 -0.004885943606495857 -3.328394814161584E-5 -0.00460059754550457 -0.0018786394502967596 0.0020104446448385715 0.002498635556548834 -0.0016968762502074242 0.0021181581541895866 0.0026958570815622807 0.0033234916627407074 0.004518880043178797
grasshoppers 0.004315103869885206 0.002187625039368868 0.004218584392219782 -0.002692929934710264 -0.002023810986429453 -0.0013394267298281193 -0.0045065670274198055 -7.230050978250802E-4 0.0023892640601843596 0.004688215907663107 0.0028052115812897682 -0.0047388020902872086 -1.1559818813111633E-4 -0.001313604530878365 0.003496758406981826 0.003237140830606222 -0.002586346585303545 -0.0020192409865558147 0.0034733775537461042 -4.2257216409780085E-4 0.0027301411610096693 -0.004459576681256294 -0.0022654500789940357 0.0010133987525478005 -0.004639869090169668 -0.0014146948233246803 -0.0016303089214488864 0.004924429580569267 -8.473330526612699E-4 0.0013007583329454064 -0.0028454847633838654 0.0012325990246608853 -7.606555009260774E-4 -0.0015392573550343513 -0.00462820241227746 0.004743051715195179 -0.002701852237805724 -0.0013479532208293676 -0.0017084575956687331 9.023332386277616E-4 -0.001388871343806386 0.003468373790383339 -0.0030962962191551924 -0.0019132699817419052 -0.00398681778460741 -0.001030846731737256 -0.003830638946965337 0.003734420984983444 0.0025393471587449312 0.0015590564580634236 -0.001551338704302907 0.003258460434153676 0.0018773458432406187 0.004318845923990011 -0.0020886040292680264 4.5868364395573735E-4 0.0031708378810435534 0.0011259132297709584 1.3269938062876463E-4 -0.004766477271914482 0.004417994059622288 -0.0010248529724776745 0.0028030371759086847 0.0010226672748103738 -0.0031256726942956448 -0.0017159493872895837 0.0035627074539661407 -0.0031567844562232494 0.0015574966091662645 0.002597008366137743 0.002548238728195429 -2.0517771190498024E-5 -1.636993110878393E-4 0.004576824605464935 0.001639068010263145 0.0038352333940565586 -0.0019863187335431576 -0.0031804777681827545 0.004236062988638878 -0.004705292638391256 -0.003272811183705926 0.004550667945295572 0.0022414487320929766 -0.001272825407795608 6.637129699811339E-4 -0.004342528525739908 -3.38954123435542E-4 -0.0022774951066821814 -0.0031589684076607227 -0.0018601225456222892 0.0035748642403632402 0.003696603234857321 -0.003532666014507413 -0.0020832924637943506 0.0016628567827865481 0.004546077456325293 0.00291363219730556 -0.004577909596264362 0.0017305572982877493 0.0044734724797308445
finds -0.002820646855980158 -0.0016060607740655541 -0.003147289389744401 0.0014999639242887497 0.0032984681893140078 0.0035056485794484615 -0.004781651776283979 9.219477651640773E-4 -0.0012216585455462337 0.003638923866674304 -2.7943862369284034E-4 -6.293928599916399E-4 -0.004066208377480507 0.0013732772786170244 -0.0010121917584910989 -5.116823595017195E-4 0.002766118850558996 -0.0034090031404048204 1.0202843986917287E-4 -0.00368984485976398 -2.264373324578628E-4 0.0012384894071146846 -0.004539256915450096 -0.0049108839593827724 5.970516940578818E-4 3.5805677180178463E-4 -0.0035651279613375664 -0.0015180300688371062 0.0013865194050595164 0.001742198714055121 4.7477593761868775E-4 -0.002750484040006995 1.0623956768540666E-4 0.003360072383657098 4.2949753697030246E-4 -0.003807841567322612 -0.004424051381647587 0.0031260489486157894 -7.858476019464433E-4 -0.0029365436639636755 -0.004895033780485392 1.2556978617794812E-4 -0.003014231100678444 -0.0013338364660739899 -0.0011559727136045694 9.85470018349588E-4 -0.0016060409834608436 -0.0010650783078745008 -0.001092982478439808 2.3340858751907945E-4 -0.001473771408200264 0.002253172220662236 -0.004863221198320389 -0.004702756647020578 -0.0013661932898685336 0.003859397256746888 0.001863597659394145 9.13523486815393E-4 0.0024146451614797115 -4.885959206148982E-4 0.003325636498630047 -0.0013149201404303312 0.0033771158196032047 0.004110909067094326 -8.063767454586923E-4 -4.331019299570471E-4 -0.0036427604500204325 0.0012018883135169744 7.087414851412177E-4 -0.0037344065494835377 -0.0012650712160393596 -0.0018184753134846687 0.002917724894359708 3.1632179161533713E-4 0.0029504515696316957 -3.1645954004488885E-4 -0.0023286102805286646 0.0022988654673099518 7.770305383019149E-4 -7.833483978174627E-4 0.004382440820336342 -0.0013204187853261828 -0.003837846452370286 0.002247545402497053 -0.0031669489108026028 -0.00449224142357707 -0.003842053934931755 8.362106746062636E-4 -0.0012778888922184706 7.125276606529951E-4 0.0038366508670151234 -0.00212304899469018 -4.5833864714950323E-4 -1.8141555483452976E-4 0.004983792081475258 -3.9882378769107163E-4 0.004489531274884939 -7.054622401483357E-4 -0.002068092580884695 4.238894325681031E-4
would -0.004848862066864967 -0.0014697506558150053 -0.0032095841597765684 -9.153519640676677E-4 -0.0037196187768131495 -0.0020631644874811172 0.0012896390398964286 0.004076455254107714 0.003138099331408739 -0.0016924802912399173 0.0029231186490505934 0.004709517117589712 -0.003462450811639428 3.744527930393815E-6 -0.0023518328089267015 -4.244369119987823E-5 -8.401009836234152E-4 -8.842790266498923E-4 0.002857653424143791 -8.710224064998329E-4 0.0023275292478501797 -2.206029457738623E-4 0.003957051783800125 0.0021647142712026834 -0.0020799797493964434 0.004517197143286467 -0.002421464305371046 -0.004169206600636244 -0.0010285504395142198 0.0011652647517621517 0.004750107880681753 -0.0017563133733347058 -0.0017179053975269198 -0.002121163299307227 -4.300121800042689E-4 0.004453268833458424 0.0026952563785016537 0.0039153085090219975 -0.005005319602787495 0.00260809063911438 0.005032212473452091 -0.003582269884645939 0.0032464046962559223 -0.0044054011814296246 -8.634999976493418E-4 -0.004792701452970505 -0.002164105884730816 0.003556085517629981 -0.0030368666630238295 0.0021538787987083197 0.0034926999360322952 -0.0029324712231755257 0.004694528877735138 -0.0026688622310757637 -0.001338386326096952 0.004921805113554001 -0.002842559013515711 -0.0020677559077739716 5.282165366224945E-4 -8.983846055343747E-4 -0.0022984498646110296 -4.217374953441322E-4 0.004140096716582775 0.0030153063125908375 -0.0018267264822497964 -0.0012081178138032556 0.003903633449226618 0.001749400864355266 0.0024481648579239845 0.0024784307461231947 0.0018033639062196016 0.002738834358751774 -0.001708694500848651 -0.0027550754602998495 6.018795538693666E-4 0.0035990027245134115 -0.005333796609193087 -0.00333587359637022 -0.0015356566291302443 0.005116471089422703 -0.004210875369608402 -0.005470177158713341 -7.201801054179668E-4 -0.002274312311783433 0.002483224729076028 -0.0017888429574668407 2.629624796099961E-4 -0.0018976483261212707 0.0038762667682021856 -0.0024563418701291084 -1.1011621245415881E-4 0.00407831184566021 -0.0017255443381145597 0.004556930623948574 -0.0037914649583399296 -0.0035602219868451357 -5.841554957441986E-4 -0.0010345627088099718 0.003594296285882592 -0.0024616438895463943
pick 0.004223994445055723 1.8623369396664202E-4 0.0016109732678160071 -0.0035151587799191475 0.0028517621103674173 -0.0026585080195218325 3.5751788527704775E-4 0.004420088604092598 -0.0011801208602264524 0.00428242702037096 -0.004886446055024862 0.001628316123969853 -0.0028259153477847576 0.0017773053841665387 -0.004621399566531181 -0.0012868314515799284 0.004983043298125267 0.003939646761864424 0.0022536669857800007 -0.0022154541220515966 0.0021566126961261034 0.0040057566948235035 0.0021718081552535295 0.004957703407853842 0.002548188203945756 -0.002028269460424781 -0.004624831024557352 -0.004418995231389999 -5.719196051359177E-4 0.004460699390619993 -0.0016043806681409478 0.004265659023076296 -0.0029805887024849653 -8.516223169863224E-4 0.0044127157889306545 -0.0032127269078046083 0.0022468511015176773 0.0014091545017436147 0.0017053209012374282 -0.0016209802124649286 -6.059902952983975E-4 5.227264482527971E-4 -0.002461313270032406 -0.0018551149405539036 6.96284812875092E-4 2.8632121393457055E-4 -0.002765916520729661 0.0028460354078561068 -5.127207259647548E-4 -9.125685319304466E-4 0.002013033488765359 0.002909683156758547 -3.1304091680794954E-4 -0.002696710405871272 2.4173186102416366E-4 0.003673001891002059 0.002094543306156993 2.4152942933142185E-4 -0.0028473997954279184 -0.0019428442465141416 -0.0018157199956476688 -0.0038383202627301216 -0.0040863193571567535 -0.0036680104676634073 2.410191809758544E-4 -0.0049281008541584015 -4.5934508671052754E-4 0.0017326266970485449 0.0048215147107839584 -0.002799196634441614 -0.004129474051296711 -0.004185792058706284 0.003583597019314766 -0.0020266619976609945 0.0013570277951657772 8.982105646282434E-5 -0.0021099806763231754 5.087354802526534E-4 0.004422614350914955 -0.004606385715305805 0.002011004136875272 -0.0018562836339697242 0.003807404078543186 0.0035619186237454414 -0.0023551764898002148 -0.001987675204873085 9.370784973725677E-4 -0.004076330456882715 0.0013071559369564056 -0.003985602408647537 0.001979693304747343 -0.002967918524518609 0.0030359195079654455 -0.00225247023627162 -0.00443171476945281 0.0032264578621834517 -4.698355623986572E-4 0.004473586566746235 -0.00291961501352489 0.0028208126313984394
mueller 0.0036734845489263535 0.0018248517299070954 0.0032706025522202253 0.00317879649810493 -0.001951377373188734 -6.122657796368003E-4 -0.0037563571240752935 -0.0040519325993955135 -0.001546490122564137 -0.0021991701796650887 0.0010389592498540878 -0.00406730966642499 -0.0016061118803918362 0.0028230147436261177 -0.00325397914275527 0.004027867689728737 1.7203687457367778E-4 -0.0027706464752554893 0.002660498023033142 0.0017184526659548283 0.00402058707550168 -0.0022554746828973293 -4.181604890618473E-5 -0.00301167368888855 0.004097722005099058 -0.00318677700124681 -0.0014233308611437678 -0.0018471285002306104 -0.0019451588159427047 -0.0038149526808410883 0.00290273898281157 0.0013809120282530785 0.002695212373510003 -0.006727057509124279 0.0047262972220778465 -0.002457086695358157 -0.002576243132352829 -0.001709395321086049 0.003464038483798504 -2.2197190264705569E-4 -0.0012656569015234709 0.0014918105443939567 0.004013528116047382 0.004200725816190243 -0.004220899194478989 -0.0031150414142757654 -7.969653233885765E-4 9.92665416561067E-4 0.005657789297401905 -0.0018616002053022385 0.0019416012801229954 0.0021378141827881336 -8.987262262962759E-4 -2.3341136693488806E-4 0.0012434730306267738 -0.0019068092806264758 5.136891850270331E-4 -0.0018010828644037247 0.0045645395293831825 0.0031060061883181334 -0.001291105174459517 0.0017886465648189187 0.004507317673414946 0.002016256097704172 -0.003518525743857026 0.002694247057661414 -0.005716622807085514 0.0020672460086643696 -0.003732099896296859 -3.8010053685866296E-4 0.0014686551876366138 -0.004136386327445507 -0.0018205667147412896 0.0019441962940618396 -5.040616961196065E-4 -0.0012557707959786057 -7.58335751015693E-4 0.0032262648455798626 0.0016439250903204083 2.783999661915004E-4 0.0017264330526813865 -0.006036895327270031 -0.004573280457407236 0.00432178471237421 7.964668911881745E-4 7.175438804551959E-4 0.004984003957360983 -0.003660698654130101 -0.0034318764228373766 9.205149835906923E-4 -0.0048554460518062115 -5.6220207625301555E-5 0.002836966887116432 0.003170698881149292 0.00268725142814219 -0.00363418972119689 7.277046679519117E-4 0.005151250399649143 -0.004298192914575338 0.0022699483670294285
prison 4.4481418444775045E-4 0.003907483071088791 0.003756118007004261 0.0031693335622549057 -0.0014632635284215212 -0.004487150348722935 0.001228479901328683 -2.9043545509921387E-5 0.004154871217906475 0.0011181224836036563 -0.0010856898734346032 -0.0034137447364628315 0.001555443974211812 0.004621228668838739 0.0011292967246845365 -0.0017189272912219167 -0.0038835357408970594 -0.004231876228004694 0.00424631591886282 0.0031023002229630947 -2.2215979697648436E-4 6.786384037695825E-4 0.003595049725845456 0.004060329403728247 -0.0014279581373557448 -0.004770738538354635 0.003279411932453513 0.0037347308825701475 -0.0010185523424297571 3.0649767722934484E-4 -0.0018360376125201583 0.0011741495691239834 -0.0017787842079997063 -0.0011456109350547194 3.8443997618742287E-4 -0.0012098322622478008 2.0118593238294125E-4 -0.001825453364290297 0.003608892671763897 -0.001357230474241078 0.0020850677974522114 -5.002713878639042E-4 -0.003907750826328993 4.975443007424474E-4 0.0029100137762725353 -0.004276561550796032 0.0013631631154567003 -0.0030723074451088905 -0.004587239120155573 0.0026025129482150078 -0.0023768043611198664 0.004887569695711136 -0.004902240354567766 -0.003275505732744932 -0.0023685861378908157 -0.0016042444622144103 -0.0033729246351867914 0.003416063729673624 8.620396256446838E-4 -0.002871327567845583 0.0024076486006379128 0.0036335005424916744 0.002626633970066905 3.4688698360696435E-4 0.003976838197559118 -0.0011086829472333193 0.002309083007276058 -0.004927794449031353 4.61902585811913E-4 -0.00377878756262362 0.0018548320513218641 -0.0013227660674601793 -5.920768599025905E-4 -0.0035499182995408773 0.004836741369217634 -5.942652933299541E-4 0.0012927207862958312 -0.0017900171224027872 -0.0025184238329529762 -7.821507169865072E-4 -0.003129853866994381 -0.0012273594038560987 -0.00324187777005136 0.002903199754655361 0.003270674729719758 0.0027350904420018196 -6.259417277760804E-4 0.0017347639659419656 -1.2138671445427462E-4 -0.0025326006580144167 -3.5713068791665137E-4 0.0010971083538606763 0.002816017484292388 -3.858238342218101E-4 0.002814593492075801 -0.0022216259967535734 -0.004935970529913902 1.1433410691097379E-4 -0.004181216936558485 -0.003861494828015566
fortnite 6.29117654170841E-4 -0.004944715648889542 3.320968826301396E-4 -0.004925747402012348 -0.0026235280092805624 0.002458001486957073 -0.0017271902179345489 -0.0032732526306062937 -0.002265137853100896 0.002167440252378583 -0.0027385337743908167 0.004629253409802914 0.0032615894451737404 -9.805387817323208E-4 -0.004599044099450111 0.002397872507572174 0.0033164257183670998 0.003908843733370304 -0.0032091226894408464 -0.0015019953716546297 0.0038685277104377747 0.0024207180831581354 0.002669173525646329 5.983143928460777E-4 -0.0010278972331434488 -0.0019451502012088895 0.004192390479147434 -0.003961178939789534 -6.320519605651498E-4 0.0025438466109335423 -0.0036556485574692488 9.757438092492521E-4 7.574836490675807E-5 0.001738215098157525 -0.002985191997140646 0.003391238860785961 -0.00419643335044384 -0.004072786308825016 -0.00449982937425375 -5.064781289547682E-4 0.0020331416744738817 -0.0026940172538161278 0.0031958131585270166 0.004775873385369778 0.0034545341040939093 0.0031127738766372204 0.0012018976267427206 0.0028717732056975365 0.00298718991689384 6.574305007234216E-4 0.0036553803365677595 0.0031028471421450377 -6.073152762837708E-4 0.0011021981481462717 0.004709551576524973 7.307449413929135E-5 0.004916409496217966 0.0028480871114879847 0.003464295994490385 -0.0017731084953993559 2.348532434552908E-4 -9.275376214645803E-4 -0.0027868589386343956 5.498815444298089E-4 0.003678980516269803 0.003411923535168171 0.003004338126629591 -0.0041548702865839005 -4.848492972087115E-5 -7.510498398914933E-4 -0.0021954954136162996 -0.004675691481679678 -0.0045218998566269875 -0.0028764738235622644 -6.122583872638643E-4 4.8670204705558717E-4 0.004362925887107849 3.172678698319942E-4 -0.004421812482178211 0.003184845205396414 -0.0029714531265199184 0.003976905252784491 -0.0020443142857402563 0.002487353514879942 -0.0016274842200800776 0.0021358549129217863 1.8667627955437638E-5 6.19980797637254E-4 -0.005036929622292519 0.0032133690547198057 0.002007717965170741 -0.003907180391252041 -2.5400135200470686E-4 -0.0014192466624081135 0.004630115814507008 -3.299177624285221E-4 -0.0018465610919520259 5.490093026310205E-4 0.002887642476707697 0.0029331122059375048
you -0.002951208036392927 7.577889482490718E-4 0.00235942960716784 0.0015845663147047162 0.0021198298782110214 -7.212736818473786E-5 8.409666479565203E-4 6.077562575228512E-4 0.004258779343217611 0.0029963129200041294 1.2049262295477092E-4 4.4439081102609634E-4 -0.004653582815080881 -9.296330972574651E-4 -0.0013011780101805925 -0.0018153232522308826 -7.093215826898813E-4 0.003800993086770177 -5.06410957314074E-4 5.473422352224588E-4 -0.004056078381836414 -0.005008073057979345 0.0028763404116034508 -0.003836890682578087 0.003912824206054211 -0.0026848837733268738 -0.004429985769093037 -0.002697231248021126 -0.002835663966834545 2.74518970400095E-4 -0.001326699391938746 -0.0018259199569001794 0.004450506530702114 0.0016522484365850687 8.700783364474773E-4 0.004622212145477533 0.004405767656862736 0.005434861872345209 0.0014843661338090897 0.0019464415963739157 -0.002682220656424761 -0.0015644535887986422 0.0017985060112550855 0.0026683940086513758 -0.005243527702987194 0.003759290324524045 -0.004923471249639988 0.0036252355203032494 0.003853783942759037 0.002236089436337352 -0.0034800858702510595 -0.0033423355780541897 8.386478875763714E-4 0.0012325439602136612 0.0015594842843711376 6.265750853344798E-4 -0.002033921191468835 2.6456546038389206E-4 0.0012023269664496183 -0.0031994569581001997 1.6212918853852898E-4 0.003911829087883234 -0.0048642950132489204 0.003185305977240205 -8.159876451827586E-4 -0.004057518672198057 -0.005538006778806448 0.0012565680081024766 0.0014418610371649265 0.001764663029462099 -0.0011369342682883143 0.003799556288868189 -0.0016922857612371445 0.004926322028040886 -0.0017856265185400844 7.601755787618458E-4 1.4342540816869587E-4 0.0013226396404206753 -0.003921230789273977 -0.0031084390357136726 -5.42226480320096E-4 5.626950296573341E-4 0.0050817192532122135 -0.0029265538323670626 -0.0037894295528531075 -0.003173134522512555 0.0026379975024610758 -0.0038444744423031807 -0.004615805111825466 -0.00590729434043169 -9.980935137718916E-4 -9.384287404827774E-4 -0.0029880180954933167 -0.00254398793913424 -7.740140426903963E-4 0.0013877864694222808 0.0031198153737932444 -7.117476197890937E-4 0.0010746545158326626 -0.003923411946743727
wins -0.004638577811419964 0.0024631039705127478 -0.0018583042547106743 -0.002334872493520379 -0.003288016654551029 0.0018812852213159204 -0.0012702479725703597 0.0028794140089303255 0.0015437245601788163 0.0010628948220983148 -0.0014602264855057001 0.0022502425126731396 -0.0010022297501564026 -0.003114293795078993 -0.0022030642721801996 0.002640276914462447 0.0035500950179994106 3.4179992508143187E-4 0.002436986193060875 0.004169757943600416 0.0032211870420724154 -0.004542728420346975 0.002952211070805788 -0.0034838488791137934 -0.004921193700283766 -4.7641864512115717E-4 0.003672782564535737 -0.003724468871951103 -0.002732727909460664 0.004160902928560972 0.00412502558901906 0.0037280507385730743 0.0023011513985693455 0.003931593149900436 0.0033176406286656857 0.0041953762993216515 1.094034596462734E-4 -0.004769125487655401 0.002900651888921857 -8.905326831154525E-4 -0.0038469908758997917 -0.003946224693208933 0.0026502537075430155 -5.39711385499686E-4 -0.0036886942107230425 8.020242239581421E-5 -0.0012956185964867473 -0.004702604375779629 0.001509509515017271 0.0025781127624213696 -6.929233204573393E-4 0.0024616182781755924 -0.002454981207847595 -0.003791168099269271 -5.531891947612166E-4 -3.851423389278352E-4 -0.0029813218861818314 3.004295576829463E-4 -3.051143721677363E-4 0.0016424546483904123 -0.0038640948478132486 -0.0018567056395113468 -0.004620286636054516 -5.727498210035264E-4 0.001930519356392324 0.002811446785926819 -0.0024293058086186647 -0.003059444949030876 -0.004931422881782055 -0.004739656113088131 0.0021458256524056196 0.0018799235112965107 4.2717138421721756E-4 -6.196978501975536E-4 -0.0032528850715607405 7.843810017220676E-4 -6.395207601599395E-4 -0.004646655172109604 0.004602879285812378 -6.69444736558944E-4 -0.0028997818008065224 0.0019776076078414917 -0.003295953618362546 0.0019624666310846806 5.697186570614576E-4 -0.0029027466662228107 -0.0020526363514363766 0.0036820736713707447 -9.85130900517106E-4 0.002390701789408922 -0.0044385334476828575 0.0018467161571606994 0.002051201881840825 -0.0037832320667803288 0.002193181309849024 -0.0012163741048425436 0.003668030258268118 2.971945214085281E-4 0.0012373257195577025 -0.002763942116871476
amazons 0.0014527086168527603 -0.004320692736655474 0.004132176283746958 -0.0019802856259047985 -0.0037465065252035856 -0.004118833225220442 0.004662339575588703 0.0016834449488669634 -0.0010542258387431502 0.0045036571100354195 -0.001016461756080389 0.003112826496362686 0.0031535918824374676 -0.004361668601632118 -5.319055635482073E-4 -0.0023697379510849714 0.0033000954426825047 -0.004178446251899004 5.506154848262668E-4 -0.0047880494967103004 0.0012239263160154223 6.760797114111483E-4 0.004204510245472193 0.004616668447852135 0.002922567306086421 -2.4743471294641495E-4 -0.0019739847630262375 -0.0012204047525301576 -0.003818274475634098 2.0135546219535172E-4 0.0013732794905081391 0.0036222697235643864 -0.004420893266797066 -8.740618359297514E-4 -0.00479781161993742 0.004069176036864519 -4.923088708892465E-4 0.0052365874871611595 -0.004147641360759735 -0.0041916570626199245 0.001904853037558496 -0.005041151307523251 0.002120038028806448 0.0011081876000389457 0.0010920099448412657 -0.0030774183105677366 -2.0259947632439435E-4 0.004194906447082758 0.0049220602959394455 0.0033631999976933002 0.0010181840043514967 -0.0026848965790122747 0.0021266057156026363 -8.961319690570235E-4 -0.002461253432556987 8.674963028170168E-4 0.001003520330414176 0.004571746569126844 0.002389817964285612 0.0020856508053839207 0.001246951287612319 -0.00401153601706028 -0.004554597195237875 0.00387390935793519 -0.004697125405073166 -0.003015955677255988 0.0019460403127595782 -0.0025540548376739025 -0.0034545345697551966 3.63515573553741E-4 1.7193815438076854E-4 0.0031566398683935404 0.003804030129685998 -0.0033804283011704683 0.002195797162130475 0.0012472403468564153 0.0029172352515161037 0.004751364700496197 1.6859351308085024E-4 0.003772726748138666 0.001107365358620882 -9.406247409060597E-4 -0.0015241396613419056 -3.4507105010561645E-4 -0.004409861285239458 -0.005419970955699682 0.0017434795154258609 0.004358130041509867 -0.004230491351336241 -0.0023629283532500267 0.0034611758310347795 5.8245740365237E-4 0.0014346865937113762 6.553291459567845E-4 0.0010787092614918947 0.002116059185937047 7.027197862043977E-4 -0.004008361138403416 -0.004916265606880188 -4.918734775856137E-4
agreement 8.359788917005062E-4 -0.0011242259060963988 0.0029001301154494286 4.6564696822315454E-4 -2.6430519938003272E-5 0.0027922033332288265 -0.001345324795693159 -0.004010065924376249 4.5202375622466207E-4 -0.002652908442541957 -0.003103438764810562 3.335415094625205E-4 0.004857402294874191 0.0042443787679076195 7.345984340645373E-4 0.0035293707624077797 -9.760879329405725E-4 -0.004703431855887175 0.0017925631254911423 -0.002297916216775775 -0.0023289648815989494 0.002022442640736699 0.003875682596117258 -0.0027029921766370535 4.1503619286231697E-4 -0.0018266794504597783 -5.28524920810014E-4 0.0017920384416356683 -0.004914210643619299 0.00286298431456089 -6.303588743321598E-4 0.003716822015121579 0.0030834923963993788 -7.253243820741773E-4 4.399638273753226E-4 -0.003395595820620656 0.0032641105353832245 -0.0012115768622606993 -0.00201242882758379 0.0024445068556815386 -0.00439729867503047 -0.001393209444358945 -0.002112099900841713 -0.0024443508591502905 -0.0037056514993309975 0.003165300702676177 -0.004805624019354582 -0.004859665874391794 -3.6312933661974967E-4 -3.762648848351091E-4 -0.0038555976934731007 0.0036520897410809994 0.0036607279907912016 0.0014900828246027231 -0.002629680559039116 -0.002939860336482525 -0.0035567507147789 -0.0016350121004506946 6.193320150487125E-4 0.001880601979792118 0.0021615950390696526 -0.003440845524892211 -0.004786032252013683 -0.002053323434665799 0.0027007197495549917 -0.0019970799330621958 -0.0038342990446835756 0.00289757177233696 -0.002493389416486025 -0.0020305742509663105 -5.6938809575513E-4 0.004545542411506176 -5.301683559082448E-4 -6.205560639500618E-4 -0.003221806837245822 0.004123426042497158 0.0012588732643052936 0.0043842988088727 6.667718407697976E-4 -0.003929188009351492 0.0038490004371851683 0.004076866433024406 -0.004536258988082409 0.003739672712981701 -0.003177931997925043 -0.002328629372641444 0.0033241002820432186 -0.0047455751337111 -0.002652241149917245 -0.004141736775636673 0.002088976325467229 -0.003510728245601058 -0.003888246836140752 -0.0019558388739824295 -0.001845488091930747 0.005088107194751501 0.0013559971703216434 -0.002277444116771221 -0.004972856491804123 4.3322183773852885E-4
$ -0.004182531498372555 -0.0031010706443339586 5.349905695766211E-4 -0.004418664146214724 0.002158598741516471 8.084286819212139E-4 -0.004027069080621004 3.823044244199991E-4 8.412644965574145E-4 0.0013857630547136068 -0.005131855141371489 0.004821024835109711 0.0022618244402110577 0.0016228494932875037 0.003079172456637025 -6.133990245871246E-4 0.0049649630673229694 6.34600524790585E-4 0.0017160773277282715 0.00264941668137908 -0.0028504934161901474 4.921337822452188E-4 6.058837752789259E-4 0.0020888508297502995 -0.0012848430778831244 -0.004201757255941629 -0.0025460231117904186 -0.0016259143594652414 0.0014501988189294934 0.001737090409733355 -0.0015522759640589356 -8.441254612989724E-5 -0.0017799444030970335 -0.004319421947002411 -0.001793553470633924 -0.003626688849180937 0.004357647150754929 0.001387324184179306 -5.942037678323686E-4 -5.4439162340713665E-5 9.583828505128622E-4 -0.006103175226598978 0.0017126664752140641 -0.0021976924035698175 -0.0023853564634919167 -0.001796811236999929 0.0034768942277878523 2.995590039063245E-4 0.003764067543670535 -0.001999853877350688 0.002777519403025508 0.00237032538279891 0.0025928979739546776 -0.00438113184645772 -0.0045105102472007275 0.004758200608193874 0.0038346529472619295 -0.004217085894197226 -4.981367965228856E-4 0.002331548137590289 -0.004328487440943718 0.004488909151405096 0.0016745086759328842 -0.0022164995316416025 0.002552145393565297 0.0013648816384375095 -0.0024040252901613712 -0.004172814078629017 -4.6342270798049867E-4 -0.0034905043430626392 0.0020493639167398214 0.005538647528737783 -0.0047785392962396145 0.0017766484525054693 0.00433989055454731 -0.0024244957603514194 -0.00537389749661088 -0.0023032124154269695 0.0019010895630344748 0.004093800205737352 -7.356372661888599E-4 -0.0030533235985785723 0.0023642785381525755 -0.003391845617443323 -0.0015351945767179132 -0.005398640874773264 -0.004221727140247822 -0.0015487746568396688 -0.005100497044622898 -0.0046804617159068584 -0.0046920874156057835 -0.0024883116129785776 0.004008222371339798 -5.877483054064214E-4 -8.716750307939947E-4 -6.81046221870929E-4 0.00497118104249239 0.0039056679233908653 -0.0026876244228333235 -0.002332328585907817
going -7.944650133140385E-4 -0.004059711936861277 0.0024889116175472736 -0.0015319479862228036 0.001350083271972835 -1.9436558068264276E-4 0.004427932668477297 3.0072490335442126E-4 0.0012139967875555158 -0.00479308282956481 -5.607562488876283E-4 -0.004518601112067699 -0.004641029518097639 -0.00458220299333334 6.454041576944292E-4 -0.0037354365922510624 -0.001799330348148942 0.0032477714121341705 -0.004583023022860289 0.003905859310179949 -0.0010563491377979517 0.0036866157315671444 0.001346019678749144 0.002931618830189109 0.004098521079868078 0.004869706928730011 0.0029252246022224426 0.004776547197252512 -0.0020872633904218674 -0.0028848371002823114 2.5113989249803126E-4 -0.0029604879673570395 -3.076660796068609E-4 -0.003898998722434044 -0.0029945308342576027 0.0015968739753589034 0.0011999806156381965 0.004841879941523075 8.486546576023102E-4 -0.0027439394034445286 -0.002104367595165968 -0.0021793933119624853 -0.0015272072050720453 0.004222594201564789 -0.002991492860019207 0.004435399081557989 0.0027321854140609503 0.003858729265630245 -0.002096620388329029 8.639995940029621E-4 0.004755277186632156 -0.0017370975110679865 0.002230860060080886 -0.002212905790656805 0.0036815833300352097 -0.0027977521531283855 0.0024997186847031116 -0.004626578651368618 0.0014116715174168348 -0.00528696458786726 -0.003947169054299593 -3.0394643545150757E-4 -0.0013646904844790697 -0.0013454740401357412 -0.003026841441169381 -0.002043862361460924 -0.003731209086254239 0.0039065247401595116 -0.0018040825380012393 -0.0010446198284626007 -0.002381055150181055 -0.0037166900001466274 -0.004668513312935829 1.97912217117846E-4 0.0038091132882982492 0.004068846348673105 -0.004224346950650215 0.004812035243958235 -0.0010561548406258225 -0.004034171346575022 0.005064907483756542 5.84237277507782E-4 2.2582094970857725E-5 0.004116849508136511 -0.004267264157533646 0.002243037335574627 0.0029239850118756294 0.0020554717630147934 0.0017917340155690908 0.003910102415829897 0.0027244335506111383 0.0046258592046797276 0.003920216113328934 -0.0011714721331372857 0.0016445107758045197 -0.0018155195284634829 -0.0026869429275393486 0.0012274299515411258 -0.0011640680022537708 0.004194145556539297
% -8.925410802476108E-4 -0.0032199679408222437 -0.0036664127837866545 -0.0046774898655712605 0.0033601669128984213 0.004632819909602404 -6.690779700875282E-4 0.003271071705967188 -0.0044850860722362995 0.002386191627010703 0.0021017887629568577 0.0012199319899082184 -0.003211795352399349 0.0051396857015788555 0.0037513128481805325 -0.0034204204566776752 0.0033678810577839613 -0.004684617277234793 -0.004584692884236574 8.346776594407856E-4 0.0047096856869757175 0.0024290238507092 -0.001098076580092311 -0.0033629932440817356 -0.003020176198333502 0.00284801097586751 8.941427804529667E-4 -0.0024298790376633406 0.002868932206183672 -0.0033653639256954193 0.0014797545736655593 0.0012258982751518488 0.0020743724890053272 -0.0043470184318721294 -8.363206870853901E-4 -0.0013689885381609201 -0.0017377129988744855 -0.004161669407039881 0.002407678635790944 -0.0025385713670402765 0.004189721308648586 -8.33177356980741E-4 -7.84573087003082E-4 -0.003609715960919857 3.9071039645932615E-4 -0.001429651863873005 0.001124797505326569 0.0019307293696328998 0.003280776087194681 -2.08854500669986E-4 -0.0034535813611000776 -0.004199176095426083 0.0020516500808298588 -0.0020704343914985657 0.0034551904536783695 -4.03113808715716E-4 0.0018068522913381457 -0.0013700276613235474 0.004699971526861191 -6.264925468713045E-5 0.0022159700747579336 -2.87781935185194E-4 0.0042371018789708614 0.0027873923536390066 -0.0012271356536075473 -0.004059140104800463 0.004141025710850954 -0.004025485832244158 -2.3740297183394432E-4 -0.0020559108816087246 1.0540192306507379E-4 2.1676301548723131E-4 4.0073334821499884E-4 4.0619922219775617E-4 0.0025807281490415335 5.809543654322624E-4 -0.002573060803115368 0.002678527729585767 0.0038302175235003233 0.001487377448938787 -0.001649319427087903 -9.207541588693857E-4 8.367551490664482E-4 -0.0022641229443252087 -0.0041302647441625595 0.004204961936920881 0.0019596568308770657 -0.001673578517511487 -0.0026585699524730444 -0.0036994435358792543 0.001474603544920683 4.735059628728777E-4 0.005057646427303553 0.0017477563815191388 -0.003655018052086234 0.003997827414423227 -0.00396448839455843 0.00294999941252172 -0.004321242216974497 0.0010780903976410627
& -0.003625290933996439 -0.004937890451401472 -0.003133825259283185 -0.0026316060684621334 0.0013781633460894227 -0.004409811459481716 -0.0017664139159023762 0.001732231699861586 0.003535460215061903 -0.002643193816766143 -0.003245200961828232 0.004436456132680178 -0.002139616757631302 -0.004109446424990892 -0.002888993127271533 -0.0032962283585220575 -0.0012160763144493103 0.0018914190586656332 -0.0017792033031582832 -0.0028458423912525177 1.3587417197413743E-4 -0.00449852179735899 9.905258193612099E-4 -0.004043726250529289 -0.0036486373282969 -6.008016644045711E-4 0.003654849948361516 0.0019683707505464554 0.0019312301883473992 -0.0028096723835915327 0.003363122697919607 -0.0030181645415723324 0.003359770867973566 -0.005042434204369783 -4.7127026482485235E-4 8.03382892627269E-4 0.004169266205281019 -7.116076885722578E-4 0.004348043352365494 0.0020784507505595684 0.004457781091332436 -0.0034387498162686825 0.0019423336489126086 -0.0018848892068490386 2.2460866603069007E-4 5.039574461989105E-4 7.105656550265849E-4 0.001842498779296875 0.0011859298683702946 3.3021008130162954E-4 0.004562377464026213 -0.004585815127938986 8.234989945776761E-4 0.0040922630578279495 -0.004189119208604097 1.120566957979463E-4 -0.003257250878959894 0.002028541872277856 -0.002339419675990939 -0.002456847345456481 3.231288865208626E-4 0.0026735039427876472 9.524844354018569E-4 -0.0036370009183883667 -5.9401398175396025E-5 -0.0028048676904290915 0.0016826997743919492 -0.003229995258152485 0.004244042094796896 -0.004462708719074726 1.4384750102180988E-4 0.0017017872305586934 -5.114175146445632E-4 6.969816167838871E-4 0.004708931315690279 -1.1625092884059995E-4 0.0026893599424511194 -1.1937591625610366E-4 -0.002924092346802354 0.0024387333542108536 -0.002915833378210664 -0.005066517274826765 0.004723851568996906 0.0021622690837830305 -0.0010256229434162378 0.0018531738314777613 -0.002746670041233301 -7.59114685934037E-4 -0.0029003843665122986 -0.004003975540399551 0.0028307049069553614 -0.0021316902711987495 0.002681576646864414 -0.0017309043323621154 -0.005069497041404247 -0.0016336285043507814 0.004453979432582855 -0.004198481794446707 -0.0015567686641588807 -2.3937731748446822E-4
festival 0.0024873872753232718 0.0017888895235955715 -0.0019985055550932884 -8.126230095513165E-4 0.0013031032867729664 -0.0029249461367726326 0.004799170885235071 -1.947843556990847E-4 -0.004256182815879583 -0.0020763252396136522 0.0023347358219325542 -0.001945454627275467 -0.0045313118025660515 -0.003720135660842061 0.0017669305671006441 0.004659552592784166 1.8435648235026747E-4 -0.0010415721917524934 -0.00259705213829875 -0.002549602650105953 -0.003364282427355647 -0.005454269703477621 0.003022856079041958 0.002837839536368847 -0.0038199392147362232 -0.00421243766322732 -0.0019386353669688106 -0.0024230012204498053 0.003269428387284279 0.00152126036118716 -7.828580564819276E-4 -2.99427512800321E-4 0.0019656051881611347 -0.00588212301954627 -0.0023584221489727497 -0.005160773638635874 -0.0018064210889860988 -0.0037871869280934334 -0.0014991487842053175 -0.0027986017521470785 0.0033545715268701315 -0.0032054814510047436 0.004349204245954752 0.004433505702763796 -8.925155852921307E-4 -0.003870242042466998 0.0021602842025458813 -0.0040230173617601395 0.0026287559885531664 -0.004347736015915871 -0.00212180451489985 -0.003236610209569335 -7.933838642202318E-4 -0.0020728546660393476 -0.0013126273406669497 7.795662386342883E-4 0.004179372452199459 -0.0031579299829900265 0.00410851975902915 9.312544716522098E-4 3.9540554280392826E-4 0.0016509280540049076 6.656122859567404E-4 0.0044290535151958466 0.0038047891575843096 -0.0016695457743480802 -0.003722521709278226 0.004049436654895544 0.0010032772552222013 0.004515213891863823 -5.761272623203695E-4 -0.004130715969949961 3.4990604035556316E-4 0.004606212023645639 -0.0026270593516528606 -0.0035277290735393763 0.0015556192956864834 -5.158994463272393E-4 0.004495823755860329 0.0036647648084908724 0.0019991069566458464 0.0024255451280623674 0.002967681037262082 -0.0011162604205310345 -0.0015619226032868028 -0.0021867603063583374 -0.002645579632371664 -0.001788244815543294 -0.005322788842022419 -0.0029895619954913855 0.004513173829764128 4.203688004054129E-4 0.0018133019329980016 -0.0028022783808410168 -0.0021402575075626373 -0.001718376181088388 5.4645199270453304E-5 -0.002997048432007432 0.0042269486002624035 -4.1695215622894466E-4
loyal -0.001994731603190303 -0.0031956688035279512 0.0031205988489091396 0.002704434096813202 0.003332294523715973 0.004055814351886511 -8.530888590030372E-4 0.004607915412634611 -8.589242934249341E-4 0.0017786371754482388 0.004652670118957758 -0.0013918251497671008 -8.55990860145539E-4 1.0879251203732565E-4 0.0029163372237235308 0.0019500904018059373 -7.004850194789469E-4 -6.805658922530711E-4 -0.0010754270479083061 3.6218532477505505E-4 0.0025568148121237755 0.003141936380416155 -0.0041719465516507626 6.778474780730903E-4 0.001507264212705195 -8.217524155043066E-4 0.0026510977186262608 0.0013795733684673905 0.003177793463692069 0.0026546823792159557 -4.544378607533872E-4 0.004860026761889458 0.003577323630452156 0.0029487486463040113 0.003796918550506234 0.0035124581772834063 -0.0035978734958916903 9.11800772882998E-4 0.0032042113598436117 0.0038027858827263117 0.003142087021842599 -0.0031678888481110334 -0.004433453548699617 -0.004726488143205643 7.427312666550279E-4 3.287654253654182E-4 0.0037043362390249968 -0.0039487965404987335 -0.002270244061946869 0.00448530213907361 1.0538757487665862E-4 -7.754703983664513E-4 -2.247128140879795E-4 -0.0011103941360488534 0.002512690844014287 -0.001223112689331174 -0.0019525287207216024 0.0013218967942520976 -0.0025224878918379545 0.004329912830144167 4.5743759255856276E-4 -0.003512958064675331 0.004576437175273895 0.0036409017629921436 -0.004383070860058069 -0.003301607444882393 -0.003175315447151661 9.491854143561795E-5 7.321384036913514E-4 -0.0021313733886927366 -0.0036911594215780497 0.002845117123797536 0.001264452119357884 2.148516068700701E-4 0.005031931214034557 0.0035933933686465025 -5.335183814167976E-4 6.670217262580991E-4 0.0023919465020298958 -0.0010478252079337835 0.0016605329001322389 0.0033501172438263893 -0.003061444265767932 5.576999974437058E-4 0.0022821149323135614 -5.312876892276108E-4 0.0042152064852416515 -0.004109050612896681 -0.0016004493227228522 0.0010197411756962538 0.004832097794860601 -4.016636230517179E-4 -0.002038648584857583 0.004084824118763208 9.275474585592747E-4 -0.001142935361713171 0.0023807259276509285 0.005095901899039745 -0.0025640642270445824 -0.0034631872549653053
pool -0.00345599465072155 0.002747299149632454 -0.0032043512910604477 0.003605489619076252 -0.0026046689599752426 -0.0049914466217160225 -3.3044134033843875E-4 2.4373539417865686E-5 -6.649410352110863E-4 0.004303373862057924 -0.0020206875633448362 -1.4459728845395148E-4 0.00203914032317698 -0.003522812156006694 0.004042869433760643 9.538204758428037E-4 -0.002382958307862282 0.004828399978578091 -0.0024342751130461693 -0.0033136133570224047 -0.004339342936873436 -0.00221825810149312 0.004826809279620647 0.004508851561695337 -0.0038018592167645693 0.0027469457127153873 -0.0019483738578855991 0.0027724935207515955 -0.0032616110984236 0.0019986077677458525 0.004220183938741684 -0.0014492216287180781 0.0033486858010292053 0.001841178396716714 0.0036301014479249716 0.0010022027418017387 0.0023495685309171677 8.864303235895932E-4 0.003083704737946391 -2.835940686054528E-4 -0.0024539276491850615 0.004858698695898056 -0.0038944538682699203 0.0024081615265458822 -0.003972974140197039 0.0025184531696140766 0.004527125973254442 0.0019747137557715178 0.0038806204684078693 -0.0048962486907839775 -0.0021885710302740335 3.1065012444742024E-4 0.0015387863386422396 -0.0045272791758179665 0.004387335851788521 -0.0010706036118790507 -0.0038768905214965343 -0.001809423789381981 0.004930380266159773 -0.003886450082063675 0.0021232329308986664 -0.004076555371284485 -0.002191554056480527 8.69220239110291E-4 -0.0031740092672407627 -1.4892955732648261E-5 -0.002435018541291356 0.004885098896920681 -0.002338977763429284 8.456783834844828E-4 -0.00455709733068943 0.0038125452119857073 0.0024511287920176983 -0.0026816062163561583 -0.0027405647560954094 -0.0039323465898633 -3.9235857548192143E-4 0.004107583314180374 0.004174004774540663 -0.003251768881455064 -0.004257277585566044 0.0016065214294940233 -7.041889602987794E-6 -0.00286814640276134 -0.0029501384124159813 -0.0016960918437689543 -0.0020104001741856337 -0.001402048161253333 -0.003777405945584178 0.0018012431683018804 0.0020920317620038986 0.0025701946578919888 0.00179458933416754 0.0020477091893553734 -9.291552123613656E-4 -2.441326796542853E-4 0.004702473059296608 -0.0023359216284006834 -3.793514333665371E-4 0.0035891702864319086
newport -0.005019827745854855 0.005010521970689297 9.251782903447747E-4 0.001602727104909718 -0.0015760556561872363 -0.001404977054335177 0.00119960552547127 0.0038330950774252415 -0.004193817265331745 0.0037894314154982567 -2.9489194275811315E-4 -0.0028377301059663296 -0.001975918421521783 0.0012837927788496017 -8.135685347951949E-4 -0.0013224162394180894 6.182838696986437E-4 0.002263868460431695 0.0013066749088466167 -0.0024881302379071712 0.0032526494469493628 -0.003256767988204956 -0.0015445660101249814 0.0026872511953115463 -0.002389111090451479 7.119672955013812E-4 -0.005338090471923351 -0.004700694233179092 -0.003228909568861127 -0.0015642783837392926 -0.002281561028212309 0.0019558300264179707 0.0027012755163013935 0.0014150998322293162 0.004570000804960728 -0.0032977175433188677 -0.004295594058930874 -9.473048849031329E-4 -0.004291527904570103 0.0014090584591031075 -0.0028751620557159185 0.003063314128667116 -0.0037120042834430933 -0.005013494286686182 0.0025897074956446886 -0.0036747066769748926 -4.5547395711764693E-4 0.0012893169187009335 2.3963378043845296E-4 -8.534705266356468E-4 0.002920654136687517 -2.0035592024214566E-4 -0.0037183610256761312 -0.002459495095536113 0.001382470945827663 0.0019763617310673 0.0026710915844887495 -0.003162556793540716 0.002286874921992421 0.0020837695337831974 0.003982329275459051 -0.0019500566413626075 -0.00291158864274621 0.002027893904596567 -0.0026247564237564802 0.0029351580888032913 0.0010549467988312244 -0.0027622992638498545 0.00175835273694247 -0.0023758469615131617 -0.0020201292354613543 0.001255397917702794 -0.0020777820609509945 5.415556370280683E-4 0.0031894685234874487 0.0031898529268801212 -0.0020754721481353045 0.0028154884930700064 0.0022964831441640854 0.00456040957942605 -0.002409101463854313 0.001127778203226626 0.00298600853420794 -0.004375445656478405 -9.267106361221522E-5 0.001187474699690938 -0.0026038605719804764 -0.003893920686095953 -0.005093048792332411 -0.003923761658370495 -5.085688317194581E-4 -0.002720469841733575 0.0010326068149879575 -0.003952610306441784 -0.0032529376912862062 0.0023618012201040983 0.003835786134004593 -0.004439431708306074 7.258552359417081E-4 4.5868230517953634E-4
bill -1.1946637823712081E-4 0.0023688492365181446 0.003688354743644595 0.004309101961553097 -0.002329646609723568 3.35075834300369E-4 0.002151181921362877 0.0018531918758526444 0.003662968287244439 0.0021324765402823687 -0.0034144497476518154 -0.0015884765889495611 0.004993871785700321 -3.478281432762742E-4 0.003455112688243389 -0.0043042683973908424 0.0013070536078885198 0.004059242084622383 -0.0031924834474921227 0.0034650734160095453 0.0015658520860597491 -0.00238361326046288 -0.0011328840628266335 -0.00262230122461915 0.004427141509950161 -0.0023422560188919306 0.002290109172463417 -0.0016277660615742207 0.00393429072573781 0.003369314828887582 -0.0038784854114055634 0.0012366353766992688 -0.0037234718911349773 -0.0022388817742466927 0.0036200759932398796 3.249238943681121E-4 8.05483665317297E-4 -0.0024510675575584173 0.001332225976511836 -0.004421374294906855 -0.003713093465194106 -0.0043403711169958115 0.0019831883255392313 -2.553940284997225E-4 0.004003660753369331 0.0024735110346227884 5.906472215428948E-4 -0.0032682865858078003 -0.0036782000679522753 0.004096443764865398 0.0012002980802208185 -0.002540292451158166 -0.0019237471278756857 -0.0032500543165951967 -0.0021602471824735403 0.0031690741889178753 0.003374453168362379 0.0027803757693618536 -6.417713011614978E-4 -0.0028411501552909613 -0.004268845077604055 -0.0035712551325559616 -0.003507311223074794 0.0022988670971244574 4.493657615967095E-4 0.004404002334922552 0.004544361960142851 0.004123814404010773 0.0036892793141305447 0.0028318646363914013 0.004220513626933098 0.0020522247068583965 -0.0027250677812844515 0.0010654813377186656 0.0037714862264692783 0.0033843684941530228 3.706591378431767E-4 -1.744044857332483E-4 -0.0023788923863321543 0.0027109922375530005 0.004402979742735624 3.9224541978910565E-4 -7.321795565076172E-4 -0.002242495073005557 0.0040270620957016945 -0.0014190393267199397 5.077155656181276E-4 -7.660913397558033E-4 -0.001605828176252544 0.002864306326955557 0.004897601902484894 0.0014041423564776778 -0.00246888748370111 -1.7465166456531733E-4 -0.002690491732209921 -0.0025951978750526905 -4.7353547415696084E-4 -7.327810162678361E-4 0.002637401456013322 -3.445088805165142E-5
analysis 0.0026459465734660625 -0.0033059536945074797 0.0034343511797487736 0.0010920800268650055 0.00481192022562027 -0.0013875088188797235 -0.003736585844308138 -0.004374762997031212 -0.0029758228920400143 -8.14304337836802E-4 -0.004320009145885706 0.005051799118518829 1.722927700029686E-4 -5.506533780135214E-4 0.004423696082085371 0.0036055552773177624 0.002676556818187237 0.0047678700648248196 -6.296111678238958E-5 0.0027816924266517162 0.004658305086195469 -0.004491698928177357 0.0032662125304341316 0.005116201471537352 0.0043642898090183735 0.0043387217447161674 7.024187361821532E-4 0.0012303129769861698 0.004683659411966801 0.003562446916475892 0.003124033100903034 0.0047537097707390785 -0.004550726618617773 0.0033315864857286215 0.00407164404168725 0.0015186781529337168 0.003350580343976617 -0.003958820831030607 -0.0015957965515553951 0.0035697564017027617 -8.042666595429182E-4 0.0035083149559795856 0.0012946126516908407 -0.004910710267722607 0.001313768676482141 0.004557196982204914 -0.0019082018407061696 -0.002604922978207469 0.003763900836929679 -0.0014192759990692139 0.0021046355832368135 0.004395504016429186 -0.0015569636598229408 2.786058175843209E-4 0.004052991978824139 0.0032598325051367283 0.0016842603217810392 -0.0022753465455025434 0.003735495964065194 0.00341393961571157 0.0010696683311834931 0.004103310406208038 -0.0024550175294280052 0.005037303548306227 -0.0039037896785885096 -9.712286991998553E-4 8.869103039614856E-4 0.00299641489982605 -0.0012625245144590735 0.0013124714605510235 -0.0014293781714513898 -0.003166387788951397 -0.0018919530557468534 -0.0038248966448009014 -0.003608511760830879 0.001821607816964388 5.220490274950862E-4 0.001484093489125371 -0.0017524247523397207 0.003550528548657894 -9.114131098613143E-4 0.003435293212532997 1.0295796528225765E-4 0.002850917400792241 3.3860886469483376E-4 -0.003118655178695917 -0.004843770992010832 0.0017900536768138409 -0.0024485536850988865 -0.0036568951327353716 0.0035940823145210743 -0.0013423766940832138 -0.003987696021795273 4.350035742390901E-4 8.761541685089469E-4 0.0022562809754163027 -0.0017161089926958084 -8.620682638138533E-4 -3.04097164189443E-4 -0.002952864859253168
an 0.003105480456724763 -0.00368267809972167 0.0015704972902312875 0.0040374454110860825 0.0061408826150000095 0.004479890689253807 -0.0022444603964686394 -1.4916452346369624E-4 -0.00252121826633811 -0.005894470028579235 -9.166599484160542E-4 0.0023130776826292276 0.0017345129745081067 -0.0024328597355633974 -0.002886009868234396 -0.0018052615923807025 0.0024780440144240856 0.0011768811382353306 5.908506573177874E-4 7.317562121897936E-4 5.395560874603689E-4 8.073308854363859E-4 -0.001465560868382454 -0.0022250167094171047 -8.642205502837896E-4 0.003948315512388945 -0.00706667872145772 0.001252301735803485 -0.0022895741276443005 3.117512969765812E-4 -0.0010918673360720277 -0.0030929159838706255 0.0051375809125602245 0.0024156607687473297 -0.004963861312717199 0.004117271862924099 -0.002835506107658148 -0.0013999852817505598 0.002501365263015032 0.0036781998351216316 -0.003412331221625209 -0.0012836366659030318 0.003340753959491849 0.0028148163110017776 -5.492111667990685E-4 -4.556610365398228E-4 0.0016621277900412679 1.4182973245624453E-4 0.006097414996474981 0.0016258808318525553 -2.2358786372933537E-4 0.0030536609701812267 -0.0028668309096246958 0.0020915286149829626 -0.0021667650435119867 -1.458699262002483E-4 0.001875747344456613 -0.0015101296594366431 0.0045671407133340836 -0.005170672666281462 0.004510353785008192 0.0034960403572767973 -1.6659301763866097E-4 0.006189900916069746 0.0012366968439891934 0.0030060596764087677 -0.003064732998609543 0.0033633571583777666 -0.0020375691819936037 0.001394586288370192 0.0023051328025758266 0.005044660996645689 -0.004497289191931486 0.003749664407223463 0.00571351358667016 2.365851541981101E-4 -0.0025368204805999994 0.00381613802164793 0.0038267713971436024 -0.0038702518213540316 -0.0033064652234315872 0.0013262234861031175 0.0013101022923365235 0.0020656657870858908 0.0021938388235867023 0.0010767665226012468 0.0034968180116266012 0.0013210277538746595 -0.004418523050844669 0.0014734228607267141 0.001267433981411159 -0.0038631209172308445 -0.002408183179795742 -5.0731141527649015E-5 0.0038478001952171326 -0.001205998589284718 -0.0029478836804628372 0.0054538254626095295 -0.0033770401496440172 -0.0013465872034430504
authorities 0.0036095583345741034 -0.002194509841501713 -0.0029122999403625727 -0.0025490757543593645 0.0033271468710154295 0.003751665586605668 -0.00436622928828001 0.0020727107767015696 -0.003862975863739848 -8.087797905318439E-4 -0.0036044223234057426 -0.0015651034191250801 0.0029026162810623646 6.512083928100765E-5 -0.0033521666191518307 -0.003144982270896435 8.6798524716869E-4 0.002291471464559436 -9.313622140325606E-4 0.003260590136051178 -3.9980944711714983E-4 -0.0044529433362185955 0.004353731870651245 9.069389780052006E-4 0.001165304216556251 0.0022835086565464735 -0.002457680879160762 -0.004356410354375839 0.0017380937933921814 -0.0013185781426727772 0.002878039376810193 0.0022430927492678165 0.005121945403516293 -0.0027861790731549263 -0.0051795379258692265 9.923371253535151E-4 0.0031720835249871016 -0.0021665117237716913 -0.0016514493618160486 -0.0027496833354234695 0.0042021628469228745 0.0019863001070916653 6.066037458367646E-4 0.0015731927705928683 0.0038985321298241615 0.0018909376813098788 0.00459774537011981 0.00456002913415432 0.0022944158408790827 0.004712405614554882 0.0027563783805817366 0.0012737184297293425 0.0025368405040353537 0.00424365047365427 -0.0018055590335279703 0.0046589863486588 0.0033306654077023268 -0.004129553679376841 -0.0017568430630490184 9.369401232106611E-5 0.0030591189861297607 0.004264134913682938 0.003971435595303774 0.0041981106624007225 0.004977329634130001 -0.004267875105142593 5.349186831153929E-4 -0.0011036056093871593 0.0034708306193351746 -0.0013239576946943998 0.003975581843405962 -0.003809937508776784 -2.7476504328660667E-4 -0.001250998699106276 -0.0021647948306053877 -0.005358567927032709 -9.227865375578403E-4 -0.003915852401405573 0.004000035114586353 0.002146858023479581 0.003361899871379137 -0.0035592427011579275 7.598155061714351E-4 0.0031575073953717947 3.329727769596502E-5 -0.0015890308422967792 1.4151108916848898E-4 -0.0024925621692091227 -5.908019957132638E-4 0.002250611549243331 -0.0048980191349983215 0.003933466970920563 0.003647045698016882 -3.414014936424792E-4 0.0026591429486870766 -6.040722946636379E-4 -0.003991995006799698 0.0020997989922761917 0.0027167070657014847 -5.483505665324628E-4
former 0.0020882287062704563 -0.002094953553751111 6.647298578172922E-4 0.004976266995072365 0.0010516452603042126 -0.001048264792189002 0.004802494775503874 -0.0024335479829460382 4.2528731864877045E-4 -0.00120426039211452 0.0023879047948867083 0.003901462536305189 -0.001679079607129097 0.003272727131843567 -0.0021655226591974497 5.598321440629661E-4 0.0038370436523109674 0.001096026157028973 0.0016597993671894073 0.001267545041628182 0.0017643949249759316 -0.0013049561530351639 7.347611244767904E-4 0.0023178132250905037 -6.305756978690624E-4 -0.0034473277628421783 1.58113307406893E-5 0.004414530470967293 7.389782113023102E-4 0.0035535902716219425 0.0043523055501282215 -0.003516116179525852 -0.0019041929626837373 8.4972899639979E-4 -0.001768851769156754 8.358358172699809E-4 0.004702208563685417 0.002479204908013344 0.0046351756900548935 5.046417936682701E-4 -1.3296712131705135E-4 -0.00121997797396034 5.10918500367552E-4 -0.005067499820142984 -0.0032833064906299114 -0.003271200228482485 -0.004827179480344057 -0.002410141984000802 0.0053018913604319096 0.0023126460146158934 0.004396825563162565 -0.004718727432191372 0.0016425731591880322 0.0045494334772229195 0.0022269452456384897 0.0050954669713974 6.363025750033557E-4 -0.004220749717205763 0.001695857965387404 0.002841225592419505 0.00388792110607028 6.281904061324894E-4 0.003844581311568618 -0.001569828949868679 -0.0012547220103442669 0.0019300732528790832 -0.0049926405772566795 -0.004639360122382641 4.528241988737136E-4 -9.350649197585881E-4 0.001266994047909975 -6.957207806408405E-4 0.00434181047603488 -0.0026924717240035534 0.0023341975174844265 -0.0032699666917324066 3.126527735730633E-5 0.0012515129055827856 -0.004380234517157078 -0.0036230827681720257 0.0019588579889386892 -0.0017211203230544925 0.0031749089248478413 0.001106059760786593 0.0024619661271572113 -0.00531055498868227 0.003998367581516504 1.4144511078484356E-4 -0.0016246929299086332 8.357581100426614E-4 -0.0014024913543835282 -0.0015335133066400886 -0.0014638949651271105 5.235968856140971E-4 0.002682802267372608 -0.0029123530257493258 0.0011000605300068855 2.1950023074168712E-4 -0.003713219426572323 0.004677958320826292
warren -0.004598984960466623 0.0036894388031214476 -0.004871409852057695 0.004926800727844238 -0.002385474741458893 -0.0018928567878901958 -0.0016934321029111743 -0.0034469515085220337 0.004910536576062441 -0.002662105020135641 0.002069951267912984 0.0018491526134312153 0.004788078833371401 0.002288977848365903 4.669360350817442E-4 -0.003805584739893675 -0.0037700736429542303 0.00436521926894784 -8.510587504133582E-4 0.004091679118573666 6.384675507433712E-4 5.573355156229809E-5 -0.004202364012598991 0.004123537801206112 -0.0010769935324788094 -0.001429867115803063 -0.0022899280302226543 0.004878154024481773 -0.0032102465629577637 -0.002393523696810007 9.386849706061184E-4 -0.00369338970631361 -0.004686379339545965 0.0022974489256739616 -0.0020691005047410727 5.869809538125992E-4 -6.591543788090348E-4 -0.0042754048481583595 0.004108232446014881 -1.9881747721228749E-4 0.0026971795596182346 -0.002470177598297596 -0.002173315966501832 0.003823808627203107 0.004578618798404932 8.966022869572043E-5 0.0036031536292284727 -7.843616185709834E-4 -3.783197025768459E-4 -0.0016269490588456392 0.002160416217520833 -3.1923584174364805E-4 0.0012131740804761648 -0.0011392997112125158 -0.001458959188312292 0.005037680268287659 0.004291103221476078 -0.001623687450774014 0.0015246556140482426 0.001641930197365582 -9.708572179079056E-4 -0.004129977896809578 -0.004796645604074001 0.003202947322279215 0.004479614086449146 0.0015785557916387916 0.0041610184125602245 -0.004622865933924913 -0.0011589188361540437 -6.698783836327493E-4 -0.00287318741902709 0.0018195586744695902 -0.001093155238777399 0.003110597375780344 0.0045743463560938835 7.657457026652992E-4 0.0026472078170627356 -0.0034911255352199078 8.817624184302986E-4 -0.002533943159505725 -4.675918535212986E-5 -0.0014263989869505167 -0.002823633374646306 0.003158844541758299 -0.0020760702900588512 0.0033305047545582056 0.0012238631024956703 3.0373394838534296E-4 0.004533969797194004 0.002297925064340234 0.003100841073319316 -0.0017549550393596292 -0.0023137687239795923 -0.00382744031958282 0.0012801251141354442 -0.0010975797194987535 0.0029200203716754913 0.003805262502282858 -0.0028138956986367702 0.0034194046165794134
airport -0.00189971795771271 0.0017287784721702337 0.0042676497250795364 0.0030572526156902313 0.004327055998146534 -0.00239869998767972 -0.0019385369960218668 0.0037613892927765846 0.004196758382022381 -4.3786808964796364E-4 -0.0030753486789762974 -0.0021581880282610655 0.0038168944884091616 0.004325793124735355 -0.0017315811710432172 0.001429541502147913 0.004019597079604864 -0.002106878673657775 -0.004712228197604418 -0.004190205596387386 -5.790254799649119E-4 0.004309440962970257 -0.003283796366304159 -0.0029958358500152826 -0.0012173309223726392 -0.003235087962821126 0.003616887144744396 0.004704668652266264 -0.0011956506641581655 -0.003996991086751223 -4.4521200470626354E-4 8.846251294016838E-4 -0.0035433529410511255 -0.0016263097058981657 -0.004324163310229778 8.310920384246856E-5 -7.545763510279357E-4 -0.004635429475456476 -0.0020392374135553837 0.003137656021863222 -0.0017813171725720167 0.0034446523059159517 4.0217582136392593E-4 0.0016071221325546503 0.0012497713323682547 0.00195006700232625 -0.00205835048109293 6.827322067692876E-4 -0.002657693810760975 0.0022556509356945753 -0.002725189784541726 9.785143192857504E-4 -0.003073104890063405 -3.2250615186057985E-4 -0.0019352620001882315 0.004318086430430412 0.002011003904044628 -0.002471593674272299 0.0026453854516148567 -8.312677964568138E-4 -0.0033274944871664047 1.604237622814253E-4 0.0029701401945203543 -0.002963942475616932 0.0014880172675475478 -0.005119630601257086 -6.730695604346693E-4 -9.734517661854625E-4 0.00518305879086256 -0.0010713712545111775 -1.8972072575706989E-4 0.004776790738105774 0.0034821489825844765 -9.031968511408195E-5 0.003823641687631607 -1.2944980699103326E-4 9.422741131857038E-4 5.775285535492003E-4 0.004078061319887638 0.003354238113388419 -0.0034584826789796352 -0.0024781792890280485 -2.8310075867921114E-4 3.183147055096924E-5 0.001262426027096808 4.656477249227464E-4 -0.004475883208215237 -0.001783697516657412 -0.0038579488173127174 3.668108256533742E-4 5.819720099680126E-4 -0.003359205322340131 -0.003606701036915183 -0.0026110203471034765 0.004844751209020615 0.0019710627384483814 -0.002495800144970417 -0.0015899821883067489 -0.0022032829001545906 -7.932601729407907E-4
as -0.0010963687673211098 0.0048581394366919994 -0.0023066510912030935 0.0032645580358803272 0.004038272425532341 -2.733568544499576E-4 -0.002951589412987232 -0.005149624310433865 -8.614307153038681E-4 0.003495038254186511 -0.00222317548468709 -0.0021059897262603045 0.0020486044231802225 -0.0020406122785061598 -0.0039102667942643166 -0.0012430158676579595 7.204117719084024E-4 0.00446624169126153 6.085648201406002E-4 -0.003297129413112998 0.002243002876639366 0.004018158186227083 0.003953261766582727 -0.0010087094269692898 7.514460012316704E-4 6.992005510255694E-4 -0.001014289096929133 0.001256273710168898 0.0039025007281452417 -0.003767553251236677 0.0037353909574449062 0.00493275374174118 0.005239015445113182 -0.005915320478379726 0.004132617264986038 5.615183617919683E-4 -0.0020863409154117107 -0.003920383285731077 0.004529949743300676 0.0037165589164942503 2.211900136899203E-4 0.003223583335056901 2.3514952772529796E-5 -0.0010011264821514487 2.624278131406754E-4 0.004619150422513485 0.003913160879164934 -0.002839636290445924 -0.004067591391503811 -5.346170510165393E-4 0.002387495944276452 0.003721939167007804 0.004310484975576401 7.338259456446394E-5 2.158846655220259E-5 -0.002807438839226961 0.004345972090959549 0.0022725597955286503 0.0017797625623643398 -0.0018845846643671393 -0.0018211507704108953 -2.624606422614306E-4 0.0027524970937520266 -0.003965507727116346 -0.0023424725513905287 0.004064568784087896 -0.0017715810099616647 0.001055676257237792 0.003939568065106869 7.696556858718395E-4 4.245699674356729E-4 -0.0012583178468048573 -0.0054322415962815285 0.004977018106728792 -0.0030354768969118595 0.001191738061606884 0.0026964712888002396 5.472488701343536E-4 0.002276635728776455 0.00507650151848793 0.004901634994894266 -1.0769035725388676E-4 0.0018693897873163223 -0.0028484731446951628 -8.979272097349167E-4 -0.003124433336779475 0.004898882005363703 0.002613593591377139 0.0014139005215838552 -0.004109646193683147 -7.285710125870537E-6 0.0012005367316305637 0.0027687496040016413 -0.0015431503998115659 -0.0016583730466663837 1.4764115621801466E-4 9.196698083542287E-4 -0.0011920412071049213 -7.861274643801153E-4 -0.001543023157864809
charges 1.4825844118604437E-5 0.002358911791816354 -7.057450711727142E-4 0.001707318238914013 -0.004528349731117487 -0.0042516025714576244 0.0015060451114550233 9.44505212828517E-4 2.712122513912618E-4 0.002533094258978963 0.002090259687975049 -7.800531457178295E-4 -8.596598054282367E-4 0.0029125104192644358 -0.0016472399001941085 -4.7400480252690613E-4 -0.003981504589319229 0.0010900316992774606 0.004083035979419947 -0.0032845037057995796 -0.00236190902069211 0.002238248009234667 -0.005005436483770609 0.004052313975989819 0.0020068257581442595 -3.815313975792378E-4 -0.001641702139750123 -0.004097449593245983 0.0010220141848549247 0.003776241559535265 -0.00465758889913559 0.004126325715333223 0.002852160017937422 -0.0024005372542887926 -9.668288403190672E-4 -0.002923070453107357 0.00471104821190238 -3.6770140286535025E-4 0.0016066659009084105 8.09431541711092E-4 0.0035615824162960052 -0.0017973303329199553 0.003451305441558361 0.0021361419931054115 0.0014267112128436565 0.0017460715025663376 -0.003625851823017001 -0.0027263439260423183 0.0025053818244487047 -0.003705365117639303 0.0010115914046764374 1.9142753444612026E-4 -0.0026941215619444847 1.3049619155935943E-5 -0.00473260460421443 0.0019859052263200283 -0.002338541904464364 -5.969926714897156E-4 0.0019241911359131336 -0.0029585554730147123 0.0021142037585377693 -0.004699088633060455 -0.0027662820648401976 -8.381966617889702E-4 0.004887104500085115 -0.0011278752936050296 -6.167052779346704E-4 -1.5878112753853202E-4 7.807881338521838E-4 0.0022297438699752092 -0.0024443313013762236 0.0015145983779802918 -2.6799028273671865E-4 -0.003589468775317073 -0.003365014214068651 1.9433637498877943E-4 -3.04058805340901E-4 -5.477804224938154E-4 -0.002319508232176304 0.003981856629252434 -0.0014770976267755032 -0.0016543589299544692 -0.003304852172732353 -8.617233252152801E-4 -0.004312034230679274 -0.004009651951491833 0.0036055806558579206 -0.00448394101113081 -0.0018828071188181639 -0.002394529292359948 -5.005928687751293E-4 0.0027228575199842453 0.0019518526969477534 -6.939785671420395E-4 -0.0019390471279621124 0.003587304148823023 -0.0044858637265861034 -3.163726651109755E-4 0.003596398513764143 0.0013724806485697627
at -0.0012908570934087038 0.004998737946152687 -0.006681845523416996 0.003979877568781376 0.003747762879356742 0.001056953682564199 0.0027355696074664593 -0.004953935742378235 -4.928899943479337E-5 -0.005900050513446331 -0.00750838965177536 -0.0016846321523189545 4.3116859160363674E-5 0.006220605690032244 0.001059793052263558 -0.00249485089443624 0.0021854937076568604 -5.453480989672244E-4 -0.003198223654180765 0.0011622869642451406 -0.0028705664444714785 -0.0016006965888664126 -0.002598169492557645 2.511825878173113E-4 0.00455818185582757 0.0038517722859978676 -0.009382244199514389 1.940488291438669E-4 -0.004153857938945293 0.004605311434715986 0.0031363978050649166 0.006526511162519455 0.0031591146253049374 -0.008278368040919304 -9.71783374552615E-5 -0.0012836536625400186 0.005824767518788576 -0.002768835285678506 0.0051677050068974495 0.0017883328255265951 3.1538179609924555E-4 -0.003101619193330407 0.0014874617336317897 -0.005439748056232929 -0.0018261364893987775 0.001842116005718708 0.003087882185354829 0.004470772109925747 0.006936788093298674 0.004926024936139584 0.001185969216749072 -0.0024848096072673798 0.004307582974433899 -0.004674884025007486 0.0026794711593538523 -5.143071175552905E-4 -0.005405372008681297 0.004511543083935976 0.004835864529013634 -0.0022334714885801077 -0.005146433133631945 0.0034734096843749285 -0.00516155268996954 0.005709297023713589 -0.00396860484033823 -2.9881668160669506E-4 -0.005900636315345764 -0.001217735349200666 0.002608588431030512 -4.888942348770797E-4 -0.0018500930164009333 0.005330417770892382 0.003007813123986125 0.0034643271937966347 0.0038826558738946915 -0.0019015498692169785 -0.0014692088589072227 1.759769074851647E-4 -0.004431034903973341 3.315229550935328E-4 6.893448298797011E-4 5.916389636695385E-4 -0.004092545714229345 -9.333105408586562E-4 -9.78566677076742E-5 -0.0033243014477193356 0.0034638470970094204 -0.006064858753234148 -0.006111508700996637 -0.0066945310682058334 -0.0031052816193550825 0.006555528845638037 0.009806103073060513 0.002144881058484316 -0.004339256789535284 -0.005149890668690205 -1.1322391219437122E-4 -0.0023775133304297924 0.0011262615444138646 9.55329043790698E-4
protesters 0.0018305251142010093 0.003920900635421276 -0.004360917489975691 -0.003216798882931471 -0.0031005919445306063 0.002859133528545499 -0.004716167226433754 0.004030189011245966 0.0034527492243796587 0.002931020688265562 -1.1572462972253561E-4 -9.920663433149457E-4 -3.4463449264876544E-4 0.0013409776147454977 -0.0031148570124059916 -0.0027660103514790535 0.0013723805313929915 -0.0027028429321944714 3.517440563882701E-5 -0.0026587401516735554 0.0047331745736300945 6.807930185459554E-4 0.004618501290678978 0.0018231370486319065 0.004331957083195448 0.0020465031266212463 -0.004825251642614603 -0.0021624797955155373 -5.067697566119023E-5 0.0015140463365241885 -0.004941548220813274 0.0030495524406433105 0.0013931207358837128 -0.004087695386260748 0.00492961285635829 0.0049207438714802265 -0.003123248927295208 0.0019704627338796854 0.0015346704749390483 -0.001988424453884363 -0.004346019122749567 0.004108337219804525 0.0023690219968557358 -0.0033225740771740675 0.0041114999912679195 -0.004416618496179581 -0.003850247710943222 0.005005493760108948 0.0041754781268537045 0.0042096152901649475 -0.002580709522590041 -0.0021510240621864796 -0.003384306328371167 -0.0036429637111723423 0.003473390359431505 -0.0039041952695697546 -2.7114374097436666E-4 0.001786079490557313 -0.0039014655631035566 -0.002249875571578741 9.064640616998076E-4 4.8707524547353387E-4 -0.003773237345740199 0.0025509572587907314 0.003594263456761837 9.484078036621213E-4 9.21836297493428E-4 -0.0019627343863248825 -0.0012173103168606758 -0.003696202067658305 -0.0022007084917277098 -0.004742847755551338 0.001311808591708541 0.004096713848412037 0.003636537818238139 0.0029675320256501436 0.0027205904480069876 0.0030338012147694826 -0.003340919967740774 -0.00119427137542516 -0.0049264985136687756 -0.0037749591283500195 0.0020561718847602606 -0.0015204311348497868 0.00408606743440032 0.0021619603503495455 -0.00253047002479434 -9.180816123262048E-4 -0.0023540635593235493 0.0036232585553079844 -0.0016067209653556347 -0.0015905422624200583 0.002193654887378216 -0.0026455202605575323 -0.0028216110076755285 0.002244331641122699 -1.2059195432811975E-4 -0.0016095025930553675 -0.0024156966246664524 0.004897574428468943
unveils -0.004495300352573395 -0.004406885243952274 0.00150314683560282 8.283229544758797E-4 0.003500383347272873 -0.0016961750807240605 -0.002375965705141425 -0.0035059216897934675 -0.0014870866434648633 0.001548212138004601 -0.0033394258935004473 0.0017152692889794707 0.0031569856218993664 -0.0038423589430749416 -0.0011672256514430046 -0.003513336880132556 0.0024577374570071697 -0.0013543289387598634 0.003913959488272667 6.4369569372502156E-6 -9.77307790890336E-4 -9.508213261142373E-4 -9.089799714274704E-4 0.0012822203570976853 0.004297689069062471 -0.0027281856164336205 -0.004347685724496841 3.6890924093313515E-4 -0.004683070816099644 0.0022572798188775778 -5.224734777584672E-4 -0.0036063487641513348 0.0017691805260255933 0.0020110479090362787 -6.033993558958173E-4 0.002403807360678911 9.475593687966466E-4 -1.9379522200324573E-5 0.0022925422526896 0.003605470061302185 -9.897865820676088E-4 -9.96301881968975E-4 0.004781445953994989 2.8097405447624624E-4 0.0016319785499945283 -0.0033502071164548397 0.004975255578756332 -5.040272953920066E-4 0.00236837868578732 0.001616330468095839 0.002881969790905714 -0.002071924274787307 -0.004816402681171894 3.9013128844089806E-4 0.002099909819662571 -0.0012428488116711378 1.432002172805369E-4 -1.055564425769262E-4 -0.0031221099197864532 -9.081637253984809E-4 0.0016642191912978888 8.524111472070217E-4 0.002962040016427636 -0.0012864848831668496 0.00439273240044713 -0.0018174545839428902 -0.001761304447427392 -0.0021532331593334675 -0.004929485265165567 -8.513805805705488E-4 -0.0037238437216728926 -0.003017222508788109 -0.00294504058547318 -0.0011087284656241536 0.004727516323328018 0.00499858008697629 -0.001217548968270421 0.0033533680252730846 0.002122558420524001 0.003564242972061038 -0.004559949040412903 0.0023033497855067253 -0.0012658436316996813 0.002010725438594818 -0.001270004315301776 -0.002159662079066038 -0.00399579294025898 -0.004913840908557177 -0.004999060183763504 0.0027104688342660666 3.7637099740095437E-4 -0.0033540118020027876 -0.0032949314918369055 0.0017542995046824217 -0.0037061881739646196 -0.0026341406628489494 0.001581709017045796 0.0010562893003225327 -5.230442911852151E-5 -0.003504239022731781
left 0.003884191857650876 0.0011637747520580888 -7.294744136743248E-4 -0.0017645921325311065 0.0018174474826082587 0.004246067721396685 -0.002355263102799654 -0.0014839430805295706 0.0011056133080273867 -0.004953458905220032 0.0019020943436771631 -4.7291279770433903E-4 -0.002445843303576112 -0.0021551931276917458 0.00213589402846992 -7.583147962577641E-4 0.00161056371871382 -0.004302639048546553 0.001604584977030754 -0.0014942068373784423 -2.3205747129395604E-4 -0.0035048690624535084 0.003970130812376738 0.001296838279813528 5.619791918434203E-4 0.0033328223507851362 -5.042684497311711E-4 -0.0026105919387191534 0.0014142049476504326 -0.0035675591789186 -4.117684729862958E-4 0.004489216022193432 0.0019669043831527233 -0.004087673034518957 -0.0014880893286317587 0.0038508987054228783 -0.002467978745698929 -0.0037964845541864634 -0.0035783052444458008 -0.003166815498843789 -0.0018829097971320152 -0.0016283030854538083 -0.003856509691104293 -0.001651114085689187 -9.99526004306972E-4 0.00453117536380887 0.0020461746025830507 2.7294494793750346E-4 -0.00302773155272007 -0.003035616595298052 7.966042612679303E-4 -5.173208191990852E-4 0.005105332937091589 0.004363066982477903 0.0035630781203508377 0.003161472035571933 -0.0018442330183461308 0.003203133586794138 0.00364879728294909 8.521738927811384E-4 0.004008529707789421 0.005166275426745415 2.4275496252812445E-4 0.003172724973410368 0.00167926459107548 9.140965412370861E-4 0.002925497479736805 0.0021191551350057125 0.0015834309160709381 6.562365160789341E-5 0.0010823761112987995 -0.0046995473094284534 0.002411954803392291 -0.003427751362323761 0.0013920135097578168 0.003151469398289919 0.0042266701348125935 -0.0013928109547123313 0.0017038962105289102 0.002788726007565856 -0.0032945808488875628 1.4572840882465243E-5 -0.0010744722094386816 5.062644486315548E-4 0.0010414484422653913 0.004599549807608128 -5.59054096811451E-5 0.0020920264068990946 0.0028020059689879417 0.0011622363235801458 -9.643626981414855E-4 0.003039744682610035 -0.001994999125599861 0.0031204598490148783 0.00400228938087821 -0.001196818659082055 -0.00245632859878242 0.00391627149656415 -0.004304453730583191 -6.343264831230044E-4
