bad -0.001181773142889142 0.002101307734847069 0.001533895148895681 0.00413465965539217 0.003582428442314267 -0.004633306059986353 -0.0031137496698647738 4.1976876673288643E-4 -0.002651445334777236 0.002571363467723131 7.12003035005182E-4 0.0020935803186148405 0.0015761196846142411 7.377052679657936E-4 -0.002483697608113289 0.0033177111763507128 -0.002147981198504567 -1.0026439122157171E-4 -0.0020579970441758633 6.42572354990989E-4 0.003531353548169136 -6.295639905147254E-4 0.002671320689842105 -0.0011611881200224161 -0.0018251464935019612 -0.0014105415903031826 -5.837726057507098E-4 0.004188962746411562 8.44003170641372E-6 -0.0023292945697903633 0.0015800781548023224 -0.0024810463655740023 -0.003114878898486495 -0.003853047965094447 -0.001966373762115836 -8.738634642213583E-4 0.0018241432262584567 -0.001633093343116343 -7.436216110363603E-4 -1.1310687841614708E-4 2.2770825307816267E-4 0.003745149588212371 -0.0049409461207687855 0.0049391454085707664 0.0012937082210555673 -0.0027981919702142477 -0.003535292111337185 -0.0020167408511042595 -0.0035731843672692776 -0.004237672779709101 0.004871004726737738 -0.0035788146778941154 0.002246689749881625 -0.0013448657700791955 -0.004198193084448576 -0.0031631519086658955 -0.004794962704181671 0.0038620480336248875 2.3771559062879533E-4 3.939754969906062E-5 -0.001608647988177836 0.00320375245064497 -0.0039513264782726765 0.004201802890747786 -0.0016710336785763502 8.649962255731225E-4 0.0021020332351326942 0.004048787988722324 0.002809561090543866 -0.0013960398500785232 -0.004273866303265095 0.002851920435205102 -0.002670508110895753 0.0010234678629785776 6.970285321585834E-4 -0.0029146720189601183 -0.00439386535435915 0.002036995254456997 0.0021775069180876017 -0.003099520690739155 -0.002356334589421749 8.341105422005057E-4 -0.0046384320594370365 -0.0010618942324072123 -0.0033730161376297474 -0.002458830364048481 0.0023760381154716015 0.002793138613924384 -0.001876727445051074 -0.002598927589133382 -0.004468479193747044 0.001336510293185711 0.004064981359988451 0.0012335676001384854 0.002422536024823785 0.0012264777906239033 0.00383749115280807 0.0010780893499031663 -0.002253954764455557 0.001436230493709445
thought 0.0031261718831956387 0.003410535166040063 0.0038265271577984095 -0.0030482609290629625 0.002411414170637727 -6.323361885733902E-4 -0.0012720194645226002 -0.005016653798520565 0.0036902856081724167 0.004758129362016916 -0.0012905617477372289 -0.004552273545414209 1.0312752419849858E-4 3.038489958271384E-4 -0.0019613527692854404 0.003385510528460145 0.0034848139621317387 -0.001888217288069427 0.003466714173555374 -0.003459677565842867 0.002717589261010289 0.004192489665001631 -0.004770523868501186 -0.0019374198745936155 0.003718429710716009 0.004842136986553669 0.0033791493624448776 6.363047286868095E-4 -0.001528999418951571 5.621181335300207E-4 0.0035550922621041536 -0.0011993523221462965 -0.004726918414235115 0.0026234907563775778 0.0025735259987413883 -0.002518715336918831 0.0018072655657306314 0.004250022582709789 0.004164557904005051 -0.001005503349006176 0.0017974271904677153 0.0027641598135232925 -7.660905830562115E-4 -9.449996869079769E-4 -0.004666728433221579 0.002650005742907524 0.0030728401616215706 0.003157280385494232 -0.003382615279406309 0.0010642772540450096 0.0018222042126581073 -0.003714919090270996 -0.004072944168001413 0.001917384099215269 0.0023496602661907673 -0.0015712511958554387 -0.0016030741389840841 0.004034131299704313 -0.0046553704887628555 -0.0020903812255710363 -0.002767065539956093 -0.003555894363671541 0.003901649499312043 -0.0011574404779821634 9.203305235132575E-4 0.003258513519540429 -0.0020065775606781244 -0.004751104861497879 -0.004165980964899063 0.004370103590190411 5.410619778558612E-4 -3.878559509757906E-4 -1.1453658225946128E-4 -0.0015081827295944095 0.0021825414150953293 5.270313704386353E-4 0.0024127219803631306 0.0021213432773947716 0.004705809522420168 -0.003613357897847891 0.0010402348125353456 0.004638277925550938 -7.748836651444435E-4 -0.003129610326141119 -0.0029887596610933542 -3.696761996252462E-5 -0.0037150736898183823 0.0030246449168771505 0.001877464703284204 1.4040448877494782E-4 -0.0011263409396633506 -0.0014862138777971268 0.003440764034166932 -0.004964768420904875 8.530541672371328E-4 -0.002020771848037839 -5.2354800573084503E-5 -0.0017013358883559704 2.142656740033999E-4 0.0018439292907714844
about -3.6802442627958953E-4 0.0047303163446486 -0.0018222052603960037 0.003645316231995821 0.002809136174619198 -0.001053772633895278 -0.003090795362368226 -0.004751270636916161 -5.024388083256781E-4 0.004023910965770483 -0.0013883983483538032 -0.0023276759311556816 0.002255511935800314 -0.0024342734832316637 -0.0035518272779881954 -0.0016428499948233366 9.634543675929308E-4 0.004579687025398016 0.0017901790561154485 -0.0033877394162118435 0.0021200799383223057 0.00471166567876935 0.0042335269972682 -9.169821278192103E-4 2.028836461249739E-4 6.827894248999655E-4 3.6819023080170155E-4 0.00155447400175035 0.0032982288394123316 -0.003809311892837286 0.004134317394345999 0.004182407166808844 0.004432944115251303 -0.004438767675310373 0.00448235310614109 9.787608869373798E-4 -0.002217280212789774 -0.004343051463365555 0.004047418013215065 0.0036215782165527344 -5.650492385029793E-4 0.004071779549121857 2.7349477750249207E-4 -7.472349097952247E-4 7.948780548758805E-4 0.004684684332460165 0.00400146609172225 -0.003240332007408142 -0.00459260493516922 -7.430171244777739E-4 0.0015236684121191502 0.0037320090923458338 0.003504278603941202 7.089290738804266E-5 4.991870373487473E-4 -0.0034746688324958086 0.004875578917562962 0.0025373061653226614 0.001184233115054667 -0.001719266059808433 -0.0012839294504374266 -0.0012687159469351172 0.0026995495427399874 -0.004587128292769194 -0.002580369124189019 0.004656814504414797 -8.869067532941699E-4 0.0010860523907467723 0.003129219403490424 5.087302997708321E-4 8.46090551931411E-4 -0.0013758729910477996 -0.005001216195523739 0.004714307375252247 -0.0041169351898133755 0.0018822383135557175 0.0034212772734463215 9.62878460995853E-4 0.002532332669943571 0.004896020516753197 0.004774817265570164 9.739032248035073E-4 0.0020997340325266123 -0.00330107263289392 -9.368431055918336E-4 -0.0021663738880306482 0.004313506651669741 0.0035621747374534607 0.0017332654679194093 -0.0035398786421865225 -7.184788410086185E-5 6.532336701638997E-4 0.001188427908346057 -0.002096832264214754 -0.001496426179073751 4.162630648352206E-4 8.231729152612388E-4 -0.001628116238862276 -5.88487193454057E-4 -0.0013350670924410224
ya -0.003613959765061736 -0.003299781819805503 0.0041151088662445545 0.00454477034509182 2.927723471657373E-5 -0.002508467063307762 0.002482975833117962 0.0032218992710113525 -0.0029394926968961954 -0.004317184444516897 3.691087185870856E-4 -7.392858387902379E-4 -9.699263027869165E-4 0.0020991377532482147 0.0031275111250579357 -0.0034345663152635098 0.0037610691506415606 0.004700140096247196 0.0011537149548530579 0.003533911658450961 0.0041408478282392025 -0.004868487827479839 -6.934088305570185E-4 0.004461405798792839 0.0041687972843647 2.2354697284754366E-4 0.004743109457194805 0.0021691247820854187 -0.0035134872887283564 -0.003130560275167227 -0.0027255062013864517 -4.4151980546303093E-4 0.002616472076624632 -3.879638097714633E-4 -0.0012804975267499685 -0.004136880859732628 -0.0033737882040441036 0.0011614568065851927 -0.002308306284248829 0.001890856772661209 0.002918835263699293 0.00400594063103199 8.923701825551689E-4 -0.002065676962956786 0.004530639387667179 0.003919539041817188 -0.003468346083536744 -0.0024426255840808153 0.0014065582072362304 -0.0036935023963451385 -0.004859858192503452 0.0027583043556660414 -5.694045103155077E-4 -0.0045991325750947 -0.0010414752177894115 4.861213674303144E-4 0.004018383100628853 0.0015301789389923215 -0.003954475279897451 0.0027882514987140894 -0.0012997285230085254 -0.0032973180059343576 0.004231385886669159 0.002345435321331024 -0.003388510551303625 -7.364939665421844E-4 -8.299587061628699E-4 0.003636835841462016 0.0014418195933103561 0.0030071197543293238 -0.002365265041589737 3.4901825711131096E-4 2.802344679366797E-4 0.0031741964630782604 0.0019976459443569183 -0.0022400522138923407 -3.5840371856465936E-4 -0.0024036415852606297 0.00236787972971797 0.004431063309311867 5.713727441616356E-4 -0.002170003019273281 -2.3957328812684864E-4 -0.002538137137889862 -0.0028752267826348543 -0.0018556751310825348 8.8023382704705E-4 -0.001276627415791154 0.0030340661760419607 -5.311107961460948E-4 0.0014621684094890952 -0.0011644625337794423 0.0020313900895416737 -0.0020066448487341404 -0.003961319103837013 0.004893103148788214 -0.004069927614182234 0.00487277889624238 -0.0010759897995740175 -0.0010267716133967042
whole -0.002407335676252842 4.174625428277068E-5 0.0033589773811399937 -0.0035993282217532396 -0.0011943827848881483 7.547340355813503E-4 -0.004924061242491007 0.00407273368909955 0.0032432281877845526 -5.782584194093943E-4 0.0029101830441504717 0.00417877035215497 -0.004581985995173454 0.0038249914068728685 0.004849901422858238 -0.00354389869607985 -0.0021000904962420464 -0.0043959347531199455 0.003468576818704605 0.0033088037744164467 0.004264498595148325 4.940695944242179E-4 -0.0017734772991389036 -0.00312457955442369 -0.0016556099290028214 0.0036745977122336626 -0.005018118768930435 -0.0012229382991790771 0.004768354818224907 2.597031998448074E-4 -0.0010684982407838106 -0.0027917034458369017 0.004915232304483652 6.835004896856844E-4 0.003578492207452655 -0.00254991976544261 0.0037951029371470213 0.0010628498857840896 -0.001740849926136434 3.3226748928427696E-4 0.0047441809438169 -0.0028729825280606747 -0.002468715189024806 9.035221301019192E-4 6.069385563023388E-4 3.556643205229193E-4 5.480546969920397E-4 8.073990466073155E-4 0.0029548483435064554 0.0046447208151221275 0.0012229360872879624 0.0011179166613146663 0.0046353465877473354 -0.0019601124804466963 0.0016686669550836086 -0.0028179644141346216 -0.0015445781173184514 -0.0031281320843845606 -0.002202507806941867 0.003539646975696087 -0.003430895507335663 -1.1539351544342935E-4 -0.0039762030355632305 -9.08962800167501E-4 -0.003987325821071863 -0.00261653121560812 0.0033990598749369383 0.004019810818135738 2.9421152430586517E-4 0.004062233492732048 -0.003617687616497278 9.93498251773417E-4 -0.0048374817706644535 0.004883650224655867 0.0025338942650705576 6.81148434523493E-4 0.003470295574516058 -1.5795588842593133E-4 0.004637829028069973 -7.039342308416963E-4 -8.592625381425023E-4 0.0036378332879394293 0.002734472742304206 0.002246112795546651 0.002473743399605155 0.004832727834582329 5.324799567461014E-4 -1.4289353566709906E-4 -7.217709789983928E-4 -7.523841923102736E-4 -0.003070620819926262 0.001295458059757948 -0.004000495653599501 0.003926881588995457 0.002346548018977046 0.0031761345453560352 -8.92778771230951E-5 0.0012775391805917025 -0.00485228281468153 -1.5837181126698852E-4
sick -0.0021591836120933294 0.003951790742576122 7.544608088210225E-4 -0.004745921585708857 0.0016082095680758357 -9.17170662432909E-4 0.0032551756594330072 0.0033680570777505636 -0.00390987005084753 -0.0043148682452738285 -0.0043463450856506824 3.9463199209421873E-4 -0.004050082992762327 -3.6323751555755734E-4 -0.0017380203353241086 -0.004266876261681318 -2.942533465102315E-4 -1.6083204536698759E-4 -0.0027759969234466553 -0.0010624720016494393 0.003714206162840128 9.680561488494277E-4 7.988552169990726E-6 0.004948402754962444 -0.0020557697862386703 0.002119202632457018 -6.410176865756512E-4 0.004988363943994045 0.0036169420927762985 -0.0036631973925977945 -0.002006873721256852 -0.0037791160866618156 -0.004626159090548754 -0.0017745279474183917 -0.004950498230755329 -0.002633590018376708 0.0017310278490185738 -3.14240314764902E-4 0.0025808510836213827 -0.003014027839526534 0.0029370340052992105 0.004932785406708717 0.0014772204449400306 0.0036106144543737173 0.0040026577189564705 -0.0018896885449066758 0.004770441446453333 0.0036070565693080425 -0.003825967665761709 -0.0016028238460421562 0.004396053031086922 -5.484911380335689E-4 -0.0032783765345811844 -0.003997357562184334 0.0028990181162953377 -3.3620119211263955E-4 0.0013345963088795543 0.0022078584879636765 -0.0023445850238204002 -2.851868703146465E-5 4.3413066305220127E-4 -0.004514928907155991 -0.002402639016509056 -0.004531046375632286 0.0013472441351041198 -0.003908299375325441 -5.223319167271256E-4 -0.001503444043919444 2.0066519937245175E-5 -0.002948862500488758 -0.0017581786960363388 0.004910031799226999 -0.0019151372835040092 0.002234894083812833 0.0015651124995201826 -0.00395307969301939 0.0014808460837230086 9.105674689635634E-4 -0.004004184622317553 0.0022339376155287027 0.0013741545844823122 -0.0028553965967148542 -9.249337017536163E-4 -0.0038425906095653772 6.36153039522469E-4 -0.0021610972471535206 0.003929112106561661 0.0033961045555770397 7.402807241305709E-4 0.001909717102535069 -0.0011075343936681747 0.0043778130784630775 0.0010203076526522636 -0.004605462774634361 0.002757708542048931 -0.002617373364046216 -1.9427266670390964E-4 -0.0019895152654498816 6.800842675147578E-5 8.609318756498396E-4
your 4.0875215199775994E-4 1.7296716396231204E-4 -0.0021291207522153854 0.0012519385199993849 0.00423811748623848 0.004967983812093735 -6.07301713898778E-4 -0.002367891138419509 3.562845231499523E-4 0.002912219613790512 0.0038837336469441652 -0.00160552142187953 -0.004194309469312429 0.0038837511092424393 -0.003898347495123744 0.004537147469818592 0.004791810642927885 0.001096908817999065 7.386802462860942E-4 -0.0044342633336782455 -0.001804567757062614 0.0024285076651722193 0.0042050560005009174 -0.002234510611742735 0.005012207664549351 -0.004563555587083101 0.003946079406887293 0.0028100230265408754 -2.8753606602549553E-4 -0.0017220618901774287 -0.003442916786298156 -5.323789664544165E-4 0.004613017197698355 0.004382257349789143 0.004752827808260918 0.004759354516863823 0.002014966681599617 0.004077930003404617 -0.0011698483722284436 0.004904983099550009 -0.0013612585607916117 -0.003425742732360959 -0.004068909212946892 -0.0016868880484253168 0.004076042678207159 -0.003227873705327511 -0.002438694005832076 8.555719396099448E-4 0.004048139788210392 5.718555185012519E-4 9.540330502204597E-4 0.003575617913156748 -0.0022892970591783524 -9.728214354254305E-4 0.0041051902808249 0.0030575578566640615 -0.0045600468292832375 0.0025401944294571877 -0.0011048091109842062 0.0024301097728312016 0.003212336916476488 -0.0036812247708439827 4.227379395160824E-4 -0.004035984165966511 0.0037219699006527662 0.0028748312033712864 -0.0028683743439614773 0.0017193591920658946 -2.2373237879946828E-4 -0.0020814461167901754 -0.0049226731061935425 -0.002040550811216235 0.0026183214504271746 0.004029055126011372 -0.004568204749375582 6.523485062643886E-4 0.002177765127271414 -3.6796415224671364E-4 -0.0023228174541145563 0.001194782555103302 -5.498927785083652E-4 -0.004340300802141428 -0.003987820353358984 0.0022505680099129677 -0.0034674915950745344 3.040903538931161E-4 0.002830700483173132 -0.002665213542059064 -0.0029322714544832706 0.0012078640284016728 0.0013363920152187347 -0.003992791753262281 -0.0010300016729161143 -0.003190282266587019 0.004631620831787586 -0.004952343180775642 0.0011287288507446647 -0.003543430007994175 0.0010542545933276415 7.22163706086576E-4
bit 7.408940582536161E-4 7.283560698851943E-4 0.0026912251487374306 6.169969565235078E-4 -0.003324504243209958 -1.8315116176381707E-4 -0.004900661297142506 -0.0048517147079110146 -0.001276911934837699 0.0010767249623313546 0.004692894406616688 -0.0015773058403283358 0.0016361266607418656 0.004317966755479574 -0.004870837554335594 0.004537592176347971 -0.002956854412332177 3.0939638963900506E-4 0.003362366696819663 -0.0020710653625428677 0.0024304063990712166 -0.0025329063646495342 -0.0028279556427150965 5.532453651539981E-4 0.0037507808301597834 -8.95648670848459E-4 0.00484404806047678 -2.3499957751482725E-4 -0.004744294099509716 -0.0018365231808274984 -0.00420413538813591 -7.854325813241303E-4 7.969073485583067E-4 -0.001388808712363243 -0.0030238137114793062 -7.576957577839494E-4 -0.0015268879942595959 0.0021260122302919626 -0.003954085987061262 -0.004455394111573696 0.0025849309749901295 -0.00198642211034894 -0.0019224161515012383 -0.002235650084912777 -0.00401323614642024 -0.004728376399725676 -0.004411468748003244 0.004349895287305117 8.839524816721678E-4 0.0032897719647735357 0.0036402938421815634 -0.0036985445767641068 -0.0038536726497113705 -0.0018462581792846322 0.004423759412020445 0.001438720035366714 0.00265339482575655 -0.00255702156573534 0.003004173981025815 -0.003068278543651104 -0.002930249320343137 -9.991336846724153E-4 6.878881686134264E-5 -0.0012591227423399687 -3.478649305179715E-4 0.0012514502741396427 0.0027505960315465927 2.939283731393516E-4 0.001894715242087841 -0.004081834573298693 -0.0047976551577448845 -0.0011218658182770014 0.0011420856462791562 0.0023391912691295147 0.001806826563552022 0.002405489794909954 0.005037128925323486 0.0022466976661235094 0.0039812782779335976 0.0027299148496240377 0.002732517197728157 5.0231849309057E-4 1.962378591997549E-4 0.003228640416637063 -0.0029042749665677547 1.1826000991277397E-4 -0.00491803465411067 -0.004658564925193787 -0.002824939088895917 9.697283385321498E-4 7.781112799420953E-4 0.002883437555283308 0.0010148369474336505 -0.001428969786502421 0.001959553686901927 -0.001812918926589191 0.003545103594660759 -0.0022808576468378305 -0.0013198056258261204 -0.0024567157961428165
when 0.0032784801442176104 -4.650558403227478E-4 -0.002953312126919627 0.004197112284600735 -0.0019237862434238195 0.0021683149971067905 0.0042910510674119 0.002608380513265729 0.003197634592652321 -0.0034943651407957077 2.7624695212580264E-4 0.0026416133623570204 5.714701255783439E-4 -0.002181046176701784 -0.0021484638564288616 0.003019345225766301 -5.712345009669662E-4 0.0018461784347891808 0.0029596243984997272 1.6136355407070369E-4 -0.0018673453014343977 -0.0017245195340365171 0.003580201417207718 0.003056713379919529 -0.0044304304756224155 -0.0013008809182792902 -0.004484390839934349 -7.370716193690896E-4 -0.002448514336720109 -5.993153899908066E-4 -0.004647912923246622 0.0014481415273621678 -0.0043265195563435555 -0.0046638804487884045 -0.002417923416942358 -0.002824924187734723 0.0010820216266438365 0.0018329811282455921 -9.080214658752084E-4 2.779231290332973E-4 -0.0012909021461382508 -0.0011408621212467551 1.1314719449728727E-4 -0.0018835270311683416 -0.0038728895597159863 9.699216752778739E-5 -0.0025390121154487133 -0.001791006070561707 0.005082018207758665 -0.003786106826737523 0.003950218204408884 -0.0017375904135406017 -0.004841932561248541 -0.0023391516879200935 -5.122581496834755E-4 -0.003468937473371625 -4.0694951894693077E-4 -0.004380493890494108 0.005090146325528622 -0.0027660904452204704 0.004555209539830685 1.33908586576581E-4 -1.128640869865194E-4 -2.2841068857815117E-4 0.0022272132337093353 0.0027265497483313084 0.001971374498680234 -1.0971052688546479E-6 0.003959950990974903 0.0025271768681705 -0.004710355307906866 0.004596147686243057 -0.003043998731300235 0.004505176562815905 0.003915420267730951 -7.8010925790295E-4 -0.004800036549568176 0.0017001881496980786 -1.1751882266253233E-4 -0.003246002597734332 -1.2506378698162735E-4 -0.004419088363647461 -0.004466376267373562 -0.004164404235780239 -0.003123779781162739 0.0019075132440775633 0.003743719542399049 7.630129694007337E-4 0.002921563806012273 0.0013254286022856832 0.002446192316710949 -0.0022184622939676046 0.004934667143970728 0.004582274239510298 -7.443049107678235E-4 0.003948519006371498 0.0021090139634907246 0.0025456324219703674 0.0036395590286701918 0.004177682567387819
soon 0.0029636200051754713 0.0015589838149026036 -0.0016156636411324143 -5.490054027177393E-4 2.751727879513055E-4 -0.0034919152967631817 0.004551325924694538 1.1289894609944895E-4 -0.004055284429341555 -0.0016418641898781061 0.0030288388952612877 -0.0020320157054811716 -0.004292633850127459 -0.004088182467967272 0.001965281553566456 0.004311645403504372 3.656506596598774E-4 -0.0011144459713250399 -0.0016845983918756247 -0.0026400124188512564 -0.0034589283168315887 -0.004853132646530867 0.003237397177144885 0.0028800873551517725 -0.00434209406375885 -0.004218062851577997 -6.684784311801195E-4 -0.0023431703448295593 0.0030272353906184435 0.001324556884355843 -5.415061023086309E-4 -7.971109007485211E-4 0.001498508034273982 -0.0047416677698493 -0.0020475403871387243 -0.004964966326951981 -0.001965127419680357 -0.004081178456544876 -0.0018258962081745267 -0.0029511847533285618 0.002861026441678405 -0.00264354539103806 0.004711399786174297 0.004850850906223059 -5.368930869735777E-4 -0.0039321044459939 0.0021865894086658955 -0.004450393375009298 0.0021270920988172293 -0.004444992169737816 -0.0025939762126654387 -0.0029992982745170593 -0.0012039501452818513 -0.001956990221515298 -8.945430745370686E-4 5.2522569603752345E-5 0.004667690489441156 -0.003217031480744481 0.0036035135854035616 0.001197171863168478 6.65189407300204E-4 8.809718419797719E-4 6.835088133811951E-4 0.0038576035294681787 0.0036178503651171923 -0.0014057757798582315 -0.0031677710358053446 0.003978409804403782 2.901005791500211E-4 0.004141866695135832 -4.0965137304738164E-4 -0.004304483998566866 8.865847485139966E-4 0.004395342897623777 -0.0034434085246175528 -0.003052840009331703 0.0021988218650221825 -3.2044362160377204E-4 0.004610324744135141 0.003582546254619956 0.001823084894567728 0.0033157148864120245 0.00297256070189178 -0.001175094279460609 -0.001500374055467546 -0.001377327018417418 -0.0030870013870298862 -0.0011157431872561574 -0.004961059894412756 -0.0024790281895548105 0.0045034512877464294 -5.795004835817963E-5 5.760900676250458E-4 -0.0031255537178367376 -0.001982622081413865 -0.0014803645899519324 -5.0348764489172027E-5 -0.0032975561916828156 0.004396560601890087 -2.744694647844881E-4
depressed 0.004414617549628019 0.003493189113214612 0.003961872775107622 -0.002966533415019512 -0.002487317891791463 -0.004938187543302774 -4.378067678771913E-4 0.002389316214248538 -0.003335468703880906 -0.002592935459688306 -0.001706405309960246 8.585221949033439E-4 -4.1018775664269924E-4 0.0026130739133805037 -7.525121909566224E-4 -4.5450092875398695E-4 -0.0014599062269553542 -0.003083065152168274 -7.426278898492455E-4 0.003556491108611226 1.8371114856563509E-4 0.0010734816314652562 -0.00455916253849864 -0.002956394338980317 -0.002938278252258897 -0.0014127659378573298 0.0031723736319690943 0.0013349916553124785 -0.0047694421373307705 -0.0025013131089508533 0.0040158117190003395 -0.004855652805417776 -9.509236551821232E-4 -3.6476063542068005E-4 -0.004386778920888901 0.001807898166589439 0.0030455635860562325 0.0047512478195130825 -0.0012961199972778559 0.0026023907121270895 0.0033856569789350033 -0.004800928756594658 0.0028599014040082693 0.0029470163863152266 -5.042949924245477E-4 -0.001713789883069694 5.660235183313489E-4 8.787485967332032E-6 0.0015940646408125758 -0.0025777926202863455 0.002382750390097499 -0.004707838408648968 -0.003471075091511011 0.0019759635906666517 -0.003453768789768219 0.0028830799274146557 0.003015014575794339 -0.002684246050193906 2.8041540645062923E-4 -6.656625191681087E-4 0.00327232270501554 0.0019529584096744657 0.0029486094135791063 -0.0026302053593099117 0.0037567850667983294 0.002089235931634903 0.004692926071584225 -2.9850206919945776E-4 0.001991055905818939 0.0030539087019860744 0.002497429260984063 -6.852425285615027E-4 0.004972313530743122 -0.0022985138930380344 -1.3651492190547287E-4 -2.813841274473816E-4 -0.004255221225321293 7.060760399326682E-4 -6.379784899763763E-4 0.0017806841060519218 0.0013014586875215173 -3.3023051219061017E-4 0.0037546935491263866 0.0019138891948387027 -0.00496884947642684 0.004440097138285637 -2.841096829797607E-5 -0.001062416355125606 -0.004925519693642855 0.002790219383314252 0.004778740927577019 0.004468853585422039 5.507054156623781E-4 -0.0031077454332262278 -0.0020499045494943857 0.001414614380337298 -0.0012246939586475492 -0.001386122778058052 0.0016283991280943155 0.0024763529654592276
hate 0.0011776641476899385 -0.003838171949610114 -0.0041470034047961235 -0.0041340370662510395 0.0023619758430868387 0.0010936050675809383 -2.5656208163127303E-4 -4.217264649923891E-4 -0.0015330121386796236 8.003009133972228E-4 -0.0027888359036296606 0.003387741046026349 -7.600816315971315E-4 -6.614162703044713E-4 6.741639808751643E-4 0.003961269278079271 5.200470914132893E-4 -0.003474910045042634 0.001053249929100275 -0.004408343695104122 0.003608609549701214 -0.002948024310171604 -7.500419742427766E-4 -0.004638902842998505 0.004781140014529228 0.0023497887887060642 -0.003789727808907628 -0.0012824335135519505 0.002334863180294633 -0.0013770457589998841 -0.0013766171177849174 8.427826687693596E-4 3.104850839008577E-5 -0.003615251975134015 -0.0028253255877643824 -0.0029881680384278297 -0.0020338366739451885 0.004301048349589109 0.0013950893189758062 -2.2046307276468724E-4 -0.0013828477822244167 -0.003791755996644497 0.003419211832806468 -0.005225085187703371 0.0031523131765425205 -0.002313335193321109 -1.4751766866538674E-4 0.0025106475222855806 -0.0036685483064502478 0.004305693786591291 -0.002979344455525279 -1.2360118853393942E-4 2.676680451259017E-4 -0.0032017657067626715 0.00186706124804914 0.0012658600462600589 0.0020909823942929506 0.003594231093302369 0.004548728000372648 0.002692020498216152 3.1674958881922066E-4 -0.004460012074559927 0.004185008350759745 -3.621587238740176E-4 -6.348542519845068E-4 0.002489645266905427 -0.0036945752799510956 -0.002340418053790927 0.004194268956780434 -7.672024657949805E-4 7.081804797053337E-4 -5.494114011526108E-4 -0.0021522229071706533 0.004968015011399984 0.0021831034682691097 0.002674102783203125 -0.003084707073867321 -0.0017745812656357884 0.0033136301208287477 -0.0034637125208973885 0.0010615800274536014 -0.0028542079962790012 -0.0015685663092881441 -0.003938240464776754 0.0017101764678955078 0.003638565307483077 0.0027812242042273283 0.003494040109217167 6.612363504245877E-4 -0.003115333616733551 -6.515307468362153E-4 -0.0018731832969933748 0.0025139818899333477 -5.22089481819421E-4 0.00280109909363091 0.001271640183404088 -6.039458676241338E-4 0.0046136039309203625 -0.0012123849010095 -0.0010947635164484382
asleep 0.0012826136080548167 -0.0016148432623595 -0.0046875798143446445 -0.0025730300694704056 -0.003629539394751191 -0.0047574774362146854 0.0012988605303689837 0.0016539698699489236 -5.314004374668002E-4 -0.0025735795497894287 6.964356871321797E-4 -0.004536826629191637 0.004282478243112564 -0.0036784254480153322 0.0032205558381974697 0.004570920951664448 9.840551065281034E-4 2.5205835117958486E-4 -0.001610252307727933 0.001998363761231303 0.004697103053331375 -0.001456381636671722 0.003064792836084962 -2.4033219960983843E-4 0.0037805503234267235 -0.002585726324468851 -0.0017609947826713324 0.0039372737519443035 0.004481818061321974 0.00362203735858202 -0.00191327219363302 -0.001082615228369832 9.233692544512451E-4 -0.004294449929147959 0.0033845386933535337 2.8991486760787666E-4 -2.8257170924916863E-4 -0.003138556843623519 0.002848335076123476 3.6761941737495363E-4 0.0035251821391284466 -0.0036812289617955685 -0.0029493658803403378 0.0015439550625160336 -0.0020921595860272646 -9.242412052117288E-4 0.004867187701165676 0.0037285243161022663 -0.0029906840063631535 -0.0013262630673125386 0.00463479058817029 0.0014080186374485493 -0.004732529632747173 -0.0037215673364698887 -0.0016030760016292334 -0.003180066356435418 0.0016276722308248281 0.0028869130183011293 -0.0020225641783326864 0.0019315549870952964 0.003386820200830698 6.145110237412155E-4 -1.647419121582061E-4 -0.004323869477957487 -0.0022435146383941174 0.0031864584889262915 -0.0043841395527124405 -0.0042630755342543125 0.003432944882661104 0.003391104517504573 0.0030185836367309093 0.004647456109523773 0.0029667532071471214 -0.002203055191785097 -0.0020093307830393314 0.0013503608061000705 0.001862700330093503 0.0015672489535063505 8.885707939043641E-4 -0.0026659471914172173 0.0033478012774139643 -0.0017329759430140257 0.001149864518083632 0.004784150514751673 0.004425532184541225 -3.7616147892549634E-4 -0.001004764810204506 0.0037441940512508154 -4.112942551728338E-4 -0.0021667201071977615 0.0020212691742926836 8.750553824938834E-4 0.0025460096076130867 0.0023826975375413895 -8.992210496217012E-4 -0.00443954486399889 -2.552955993451178E-4 0.0025679615791887045 -0.004537196364253759 0.0033184154890477657
if 0.004674640949815512 8.454251801595092E-4 5.720947519876063E-4 -7.684215670451522E-4 0.0016876929439604282 0.004085650201886892 -0.003295841161161661 -0.0017695107962936163 -0.004345012363046408 0.00500450748950243 -3.3663006615825E-4 0.002040715655311942 4.7269684728235006E-4 3.6056514363735914E-4 7.94463325291872E-4 -2.6830591377802193E-4 -0.0016425612848252058 -7.341497112065554E-4 -0.0010541942901909351 0.004475176800042391 -0.002099904464557767 0.0011496793013066053 -0.0015650041168555617 0.0013878019526600838 0.004233909770846367 -0.004178182687610388 -0.002821053843945265 -0.0024214303120970726 -0.002918940968811512 -0.003610593266785145 -0.001268989173695445 0.0010601369431242347 0.004186832811683416 -0.0036067781038582325 -0.0029679983854293823 0.0027671291027218103 0.0029211111832410097 -0.002139316638931632 -0.004619823768734932 7.203726563602686E-4 -0.004790470935404301 -6.776255322620273E-4 -0.0021058188285678625 0.004377145320177078 -0.0036907747853547335 0.004907163325697184 0.004314572084695101 -0.0018588793464004993 -0.002753542736172676 -0.004399913363158703 -0.004248338285833597 -0.0034679800737649202 0.0046608056873083115 -0.002300356049090624 5.385035765357316E-4 0.00465801078826189 0.002113731112331152 -0.0016413588309660554 6.719054654240608E-4 -0.0032299160957336426 0.0028041573241353035 0.0022754597011953592 -0.004585647955536842 -0.004209048580378294 8.914780919440091E-4 0.004329453222453594 0.004673622082918882 -0.003557720221579075 8.5216379375197E-6 2.595515070424881E-5 -8.803275413811207E-4 -0.0028747066389769316 0.0021517998538911343 0.0017718938179314137 1.1724467185558751E-4 3.0403200071305037E-4 0.002797807799652219 0.003702164627611637 -0.0017210972728207707 -0.002062072977423668 5.103027215227485E-4 -0.0014570584753528237 -0.0030149726662784815 6.33317104075104E-4 0.004210851155221462 1.956898922799155E-4 0.0014667349169030786 -1.3272992509882897E-4 0.003794522490352392 -0.0037751109339296818 -0.004366930108517408 0.0020365361124277115 -0.0020282315090298653 -0.0029089583549648523 -0.0033505489118397236 -0.0014477060176432133 -4.132203757762909E-4 0.004629023373126984 0.0019856353756040335 0.0037636267952620983
hey 0.004885138478130102 0.004392515402287245 0.0011421118397265673 -0.002465428551658988 -0.004840861540287733 0.004889537114650011 0.0017673922702670097 -4.3661551899276674E-4 -0.004669948946684599 -2.406231506029144E-4 0.0045856148935854435 -0.002437290269881487 0.005005288403481245 -0.00266989110969007 -0.003781989449635148 -0.0026049832813441753 -0.004747049883008003 1.9151739252265543E-4 0.004025970119982958 0.0036225987132638693 -0.0031415147241204977 0.0038342776242643595 0.004597843158990145 -3.9009732427075505E-4 0.003313702531158924 -0.002788710407912731 -0.00296197971329093 -0.0019355402328073978 -0.0035116588696837425 0.003477247431874275 0.0030969579238444567 -0.0034877981524914503 -0.0028676968067884445 -0.0038794793654233217 0.004910723306238651 0.0032902327366173267 0.0013144583208486438 0.0020503846462816 -0.0018361586844548583 0.004609361756592989 0.003966302145272493 -0.002395719289779663 0.004310608375817537 0.004103396087884903 -7.496619218727574E-5 0.0010889841942116618 -0.003084388328716159 0.0020857953932136297 -0.0031783785670995712 -0.0032709892839193344 -0.0027128257788717747 0.0030143947806209326 0.0015966370701789856 0.001136880717240274 -0.0020867621060460806 0.003965991549193859 -0.004616602323949337 0.0025701550766825676 -0.0045602102763950825 0.0032939801458269358 0.001375157036818564 0.004508951213210821 -0.003586458507925272 -0.004066805820912123 0.001305355690419674 -0.003983214497566223 -7.796898134984076E-4 1.8361503316555172E-4 0.0027887800242751837 -0.002193734748288989 -0.002381398342549801 -0.0020255858544260263 0.0015182776842266321 0.0022313734516501427 0.0014839100185781717 -0.0017265276983380318 -6.011372897773981E-4 -0.002576205413788557 0.004400454927235842 5.80654654186219E-4 -0.004979398101568222 0.004581969231367111 -0.004325641319155693 0.004295277409255505 -0.005015133414417505 0.001416207873262465 0.001085057039745152 -0.0017430103616788983 0.0024096702691167593 0.0025181618984788656 -0.0021842638961970806 1.1270899267401546E-4 0.004146764520555735 8.606076589785516E-4 0.003179411869496107 0.002219191286712885 0.003835221054032445 -0.0048649972304701805 0.0018670845311135054 -0.0013950777938589454
meeting -0.0039274245500564575 -5.068688769824803E-4 -0.004444642923772335 5.273156566545367E-4 -0.004872032441198826 0.002258689608424902 7.439018809236586E-4 0.004142417572438717 -0.0030935374088585377 -0.0049000573344528675 -0.004987445194274187 0.003651769831776619 -0.003754689823836088 0.002068297704681754 0.003957654815167189 0.004951946437358856 -0.003982197493314743 -0.00230375281535089 0.0048649609088897705 0.0022650347091257572 -0.0033195163123309612 0.004045729525387287 -0.001930489670485258 0.0013388218358159065 0.002877968130633235 0.0017731206025928259 -0.004002379719167948 0.0027827699668705463 0.0021622302010655403 -0.0031260373070836067 0.002611614530906081 3.4483999479562044E-4 -0.0019188090227544308 -0.001501179183833301 3.6759229260496795E-4 -0.0029784718062728643 -0.0013121316442266107 0.0017173385713249445 -6.424361490644515E-4 3.471901436569169E-5 -0.0031504626385867596 -0.001681446097791195 1.6764007159508765E-4 0.003808834357187152 1.6271474305540323E-4 -0.0015116912545636296 -0.001110896817408502 -0.004242129623889923 -0.002811155514791608 0.004541455768048763 0.0037299259565770626 -0.0020711144898086786 -0.004744502250105143 0.004507805220782757 -0.004818330518901348 -0.0037146559916436672 -0.0031672995537519455 -0.0036803893744945526 -0.0018384248251095414 0.0022379551082849503 8.737965254113078E-4 1.7209538782481104E-4 1.8314234330318868E-4 -6.334004574455321E-4 0.00463883625343442 1.4024951087776572E-4 3.755187790375203E-4 0.004406398627907038 -0.0010049599222838879 -0.001856939634308219 0.0027282119262963533 0.003354737302288413 -0.0028548624832183123 0.004888505674898624 -0.004042329732328653 -0.0043681031093001366 0.00445193937048316 -0.004933943971991539 0.001486286404542625 -0.004612294491380453 -0.0024701422080397606 0.002716132439672947 0.004232404287904501 0.0024086665362119675 -0.00280865840613842 -0.004846248310059309 -2.468210586812347E-4 4.732778179459274E-4 -0.004806432873010635 7.470048731192946E-4 -0.0026019325014203787 0.003406513947993517 -0.001367985620163381 -5.837169592268765E-4 0.0028287344612181187 8.807281847111881E-4 4.18766780057922E-4 0.001952835009433329 -6.758615490980446E-4 -0.003320093033835292
you -0.0013595945201814175 6.167947867652401E-5 0.004349770024418831 0.003948898054659367 -3.944280033465475E-4 -0.004224037751555443 -2.4828649475239217E-4 -0.003422402311116457 -2.7543259784579277E-4 -0.004366747103631496 -0.002356905024498701 9.095460991375148E-4 0.0015358970267698169 -7.594135240651667E-4 3.7112741847522557E-4 -0.0028129650745540857 0.0014829915016889572 2.999447169713676E-4 0.0023145461454987526 0.001899693626910448 -0.0013396397698670626 -0.0024880324490368366 -0.0012793450150638819 0.002716301241889596 0.002001694869250059 -0.0016783687751740217 -0.003917632158845663 0.005307190120220184 -0.0038462046068161726 0.003953420091420412 0.0023901755921542645 0.0011414418695494533 -5.225740096648224E-5 4.463785153347999E-4 -0.0018721020314842463 -9.313947521150112E-4 -7.74018990341574E-4 0.0018567750230431557 -0.0025557102635502815 -0.003157707629725337 -0.005019753705710173 5.5389862973243E-4 -0.0013997947098687291 -0.002168180886656046 8.294954313896596E-4 -0.0029976861551404 -0.005079951602965593 0.005305141676217318 0.0035322157200425863 0.0034444541670382023 -0.0013689830666407943 0.0017444054828956723 -0.004447587300091982 0.0035016806796193123 0.005190301686525345 0.002515001455321908 -0.0010613874765112996 0.004118321929126978 0.004595870617777109 -0.002627305220812559 0.0012634065933525562 0.0010855142027139664 -0.004857042338699102 0.004000290296971798 -0.0022324302699416876 -5.35292609129101E-4 0.002168190199881792 -0.003779725404456258 0.005700885318219662 0.005784210283309221 0.004054957069456577 -5.816380144096911E-4 0.0018060425063595176 1.404636277584359E-4 -0.0011770271230489016 0.004715703893452883 -0.005124950315803289 0.0034792448859661818 0.0012112456606701016 -0.0012765965657308698 -0.00536017632111907 0.002961992286145687 -8.006437565200031E-5 -0.003212525276467204 -0.0036236566957086325 -0.001475179917179048 -0.003457577433437109 0.0011176897678524256 -0.0020143790170550346 0.0011343570658937097 -0.0024823560379445553 -0.003022434888407588 -6.917536957189441E-4 4.0422880556434393E-4 0.0033758622594177723 0.0037450536619871855 1.6470540140289813E-4 -0.0036868222523480654 0.004078972619026899 0.0011721254559233785
they 0.004461187403649092 -0.0022938507609069347 0.003957824315875769 -0.0028292923234403133 7.730460492894053E-4 0.004747410304844379 0.0025686598382890224 -0.0014664388727396727 0.0032528024166822433 -0.0032489500008523464 -0.001022192882373929 -7.382461335510015E-4 0.0033138187136501074 0.0010621005203574896 0.004500493872910738 -0.0011903238482773304 -0.004466393496841192 -0.004605365451425314 -0.004718949552625418 9.196486207656562E-4 -0.002370259491726756 -0.003463787492364645 0.0014488386223092675 -2.820201334543526E-4 0.0010602425318211317 -0.0017716939328238368 -0.0035927584394812584 -0.002532921964302659 0.004843147471547127 -0.003338827518746257 0.003059875452890992 7.666247547604144E-4 -0.00412763049826026 0.0026574498042464256 9.165130904875696E-4 -0.001037257257848978 0.0011788601987063885 -0.0018753668991848826 0.004322542808949947 0.0012210262939333916 -0.0030824157875031233 -0.0049337116070091724 7.255624514073133E-4 -0.0017476178472861648 0.003928100690245628 0.002219491871073842 0.0022618838120251894 -0.0040420969016849995 0.0016674251528456807 -0.004129177890717983 -9.059198782779276E-4 0.0013959285570308566 -0.0016113977180793881 -2.7838299865834415E-4 0.0010152095928788185 0.003518551355227828 1.3796593702863902E-4 7.217206293717027E-4 -0.0019264628645032644 3.626486868597567E-4 0.003557785414159298 0.00217087147757411 0.003423511516302824 1.1419916700106114E-4 1.875889574876055E-4 -0.001682312460616231 -1.2713907926809043E-4 -0.002536722458899021 0.004222255665808916 -0.004678045399487019 6.963799241930246E-4 -1.4242847100831568E-4 -0.002270263386890292 0.0011260982137173414 0.00383235071785748 -0.0011328503023833036 0.0030652896966785192 0.0038670164067298174 0.004221161361783743 -1.9071878341492265E-4 0.004557022359222174 0.005021965131163597 -5.184526671655476E-4 3.129693795926869E-4 -0.004570594988763332 1.6446891822852194E-4 9.676265181042254E-4 -5.621328018605709E-4 0.0010394476121291518 0.0011973944492638111 0.0032122055999934673 -0.0023344545625150204 0.004327383358031511 0.0024878247641026974 0.00361762591637671 0.004171043634414673 0.003848144318908453 0.0016139900544658303 0.005010687280446291 0.002575528109446168
still 0.0019810302183032036 -0.0011846063425764441 0.0021492501255124807 -0.0038728166837245226 -0.0039579723961651325 -8.991434588097036E-4 0.0014139274135231972 0.0022465945221483707 0.002198545029386878 0.0016657186206430197 -3.37816629325971E-4 -0.0019500821363180876 -6.462503806687891E-4 0.0020292000845074654 -0.0045667001977562904 -0.0025789099745452404 -0.0014342600479722023 0.0016121919034048915 -0.0033894595690071583 -0.0037896933499723673 0.0019659274257719517 0.0029735222924500704 -0.0013216122752055526 -0.00264635868370533 -0.0020067133009433746 -0.003073650412261486 -0.003301820484921336 -8.86959423951339E-6 6.580483168363571E-4 -0.0030657912138849497 0.004990288522094488 -0.0039022224955260754 0.004244284704327583 0.0024223404470831156 0.004813655279576778 0.004612926859408617 0.0032119997777044773 -4.4704799074679613E-4 0.004359279293566942 -0.004088848829269409 0.002607460133731365 -0.004306882619857788 0.002397513249889016 0.00484549580141902 -0.0025582786183804274 0.0013574123149737716 -0.0036608527880162 -0.003974775783717632 1.1709704267559573E-5 -0.0029126645531505346 0.005073954816907644 -0.00467914342880249 4.714590613730252E-4 -0.0038859439082443714 0.0024368714075535536 -0.001394521095789969 0.0017552068457007408 3.4819342545233667E-4 -0.004763934761285782 -0.00414437847211957 0.0012405718443915248 -0.0014882816467434168 -0.0014657934661954641 -0.0010513656307011843 0.0029279214795678854 0.0012269832659512758 -0.0021835295483469963 0.0017704385099932551 -0.003089471720159054 0.0013897973112761974 -0.002046354115009308 0.0019290216732770205 -0.00414085341617465 -0.002781967632472515 0.00416874885559082 -0.0023307669907808304 0.003357997629791498 0.0029984810389578342 0.004845251329243183 -5.258960882201791E-4 -0.0019589427392929792 -0.0040537589229643345 0.003686319338157773 -0.0026966328732669353 -0.0035402763169258833 -0.0031565402168780565 0.001723894034512341 -0.0037395264953374863 -0.0013252391945570707 0.002289911499246955 -0.002418261021375656 -0.0010425631189718843 -0.004425652325153351 0.002462162869051099 -2.920740516856313E-4 0.0027188339736312628 -0.0028993047308176756 -0.0026245287153869867 0.0042718760669231415 9.079105220735073E-4
sure 0.001489868271164596 -0.0035531718749552965 -0.001673082704655826 -6.506587960757315E-4 -0.003732504788786173 -1.2479435827117413E-4 0.00202563195489347 -0.0021287358831614256 -0.0016711089992895722 -0.004193214699625969 -0.004252857994288206 -0.003013222012668848 -0.0026766604278236628 -0.002837580628693104 -0.0020553525537252426 8.28889082185924E-4 0.00301200314424932 0.004966412670910358 -0.0014071144396439195 -0.003211598377674818 0.004521623253822327 0.0044021387584507465 0.0011955425143241882 -0.0017772107385098934 9.287925786338747E-4 0.0035167348105460405 -0.0032053482718765736 0.0010930681601166725 -5.626047495752573E-4 0.0036256774328649044 -1.5162641648203135E-4 0.0012404780136421323 -1.2655247701331973E-4 -0.004524579271674156 -0.0029822138603776693 -0.0018846134189516306 0.0017326436936855316 0.003935636952519417 0.003838461823761463 0.0026535606011748314 -0.004331607837229967 -0.0033572299871593714 0.003159683896228671 -0.004931467119604349 -0.002604719717055559 0.004865690600126982 -0.001397346961311996 -0.0036092447116971016 -3.4685122955124825E-5 0.003281886223703623 -0.002680952660739422 0.003170303301885724 -0.0026118531823158264 -0.0014900933019816875 0.0038545578718185425 -0.0012427085312083364 -7.083398522809148E-4 -0.004390256945043802 -5.986666074022651E-4 -0.0015767317963764071 -8.833853644318879E-4 6.099302845541388E-5 0.003163106506690383 -8.310598786920309E-4 -0.0011996265966445208 -0.0030664359219372272 0.0030078694690018892 0.0017596472753211856 -0.0037623869720846415 -6.356986123137176E-4 -6.923209730302915E-5 5.68389892578125E-4 -0.002657876582816243 4.600207321345806E-4 0.004226328805088997 0.0016255781520158052 -0.0011402996024116874 -0.0010311065707355738 8.76637059263885E-4 -0.003804539330303669 0.0011990198399871588 0.0035248093772679567 -0.003279880853369832 0.0010990045266225934 0.0037689232267439365 0.0015660718781873584 -0.001907349331304431 0.004812704399228096 -0.0012436747783795 -0.001055672881193459 0.003722431370988488 -0.004696132615208626 5.047289305366576E-4 -0.0033033667132258415 -4.695504321716726E-4 0.0035426642280071974 -0.002874507335945964 -0.004644952714443207 -0.0035745855420827866 0.001721472479403019
im -0.004027782939374447 0.0037453104741871357 -0.004635482095181942 0.0022667942102998495 -2.967381733469665E-4 0.0036985434126108885 0.004643888212740421 -9.290467714890838E-4 -9.477667626924813E-4 0.004324336536228657 0.0020185639150440693 0.0034555327147245407 0.0011720890179276466 0.002317864215001464 -9.438578272238374E-4 0.003912805113941431 -0.0035979885142296553 -7.885743398219347E-4 0.002709156833589077 0.0010883817449212074 0.004117823205888271 -0.005400028545409441 0.003073803149163723 -0.004250997677445412 0.0014123076107352972 -0.0039114514365792274 -0.0026475212071090937 0.004420350771397352 0.0024272638838738203 -0.003919596783816814 0.002704526763409376 0.0015901891747489572 4.936428740620613E-4 -0.00235022627748549 -0.0034961658529937267 0.004540486726909876 0.003534168004989624 -0.0016749954083934426 0.003297488670796156 4.5567669440060854E-4 -0.005278472788631916 -0.0018406971357762814 0.0031056092120707035 -0.0010184472193941474 0.003057593246921897 0.0036252024583518505 -0.004541680216789246 0.004072690382599831 0.0018706900300458074 7.969973376020789E-5 0.0018799718236550689 0.0019064105581492186 -0.0014319937909021974 -0.0033740480430424213 0.004701300989836454 0.0051830061711370945 -0.0038681994192302227 -0.0011130638886243105 -1.0029779514297843E-4 0.0036329408176243305 -2.494433138053864E-4 0.002192484447732568 0.003011901630088687 0.003600479569286108 0.002548327436670661 -2.8763836598955095E-4 0.0017410634318366647 -0.0016566446283832192 -3.6913773510605097E-4 0.005104853771626949 0.005476888734847307 0.00287797162309289 -0.0035739538725465536 -7.34372646547854E-4 -0.0027819680981338024 0.0031881467439234257 0.0019875296857208014 -0.002225505653768778 2.59515451034531E-4 0.003367238212376833 -0.0017603193409740925 -0.0011995884124189615 -0.002050448441877961 6.927559152245522E-4 6.031006923876703E-4 -0.004434291739016771 4.91637852974236E-4 2.4262096849270165E-4 -8.739061304368079E-4 0.001714231912046671 -0.004040357191115618 0.0034510749392211437 0.004789330065250397 -0.003335507120937109 0.003938253037631512 0.0019178286893293262 0.0015755639178678393 -0.003599633229896426 0.0043326630257070065 0.0013658128445968032
going -0.003991058561950922 -9.360130061395466E-4 0.0024339763913303614 0.002200254937633872 8.23074544314295E-4 0.003527991473674774 0.0036063091829419136 0.0011084111174568534 0.0029479539953172207 -0.004575652070343494 -0.0040499442256987095 -0.0046037789434194565 -0.001819782075472176 -5.093996878713369E-4 -0.001398775726556778 0.0035769962705671787 -0.004657140001654625 -0.0028508384712040424 -0.004201272502541542 0.001608686288818717 -0.004349971190094948 -0.00457801716402173 0.003418167121708393 0.0018392325146123767 3.415471001062542E-4 -0.004835866391658783 -3.4927608794532716E-5 0.0019790970254689455 0.0014260103926062584 -0.004805241245776415 -0.004242501221597195 8.533277432434261E-4 0.004042542539536953 0.003523116698488593 0.0013308259658515453 0.0028142135124653578 -0.0014195170952007174 -0.0021195055451244116 -9.013469680212438E-4 -0.004661406856030226 0.0022853193804621696 0.004993918351829052 0.001018830225802958 -0.002240364206954837 0.004427962005138397 -0.003695989493280649 -0.0021924611646682024 0.002426405204460025 0.004310230724513531 0.004929887130856514 -4.630108014680445E-4 -0.0031147508416324854 -0.00293581560254097 -0.0025768959894776344 0.002787267789244652 -0.002763549331575632 -0.0021166678052395582 0.001682889647781849 -0.004775670822709799 7.900665514171124E-5 -0.003869470441713929 -3.444308531470597E-4 -0.004289953038096428 -0.00231094635091722 -0.0010257976828143 -0.004123031161725521 0.004655919037759304 -0.0035510710440576077 0.004597076680511236 0.0017538713291287422 -0.001108319847844541 -0.0025348044000566006 -0.0034218833316117525 -0.0037860239390283823 7.622363627888262E-4 -0.004991136956959963 2.816295891534537E-4 -0.0034040999598801136 3.671702143037692E-5 0.002547832205891609 0.0011429303558543324 -0.0021899437997490168 0.0033437423408031464 -0.001263235229998827 -1.6672094352543354E-4 -0.0031585553660988808 -0.0037072577979415655 -0.0031324834562838078 -0.001530632027424872 -4.678641853388399E-4 -0.004871104843914509 -2.888012968469411E-4 0.001713897567242384 -2.9505189741030335E-4 2.821585803758353E-4 -0.0029828129336237907 4.484527453314513E-4 1.4842119526292663E-5 0.0011741380440071225 9.186913957819343E-4
in 0.0037709178868681192 -0.002596599282696843 -9.523294866085052E-4 0.003584123682230711 0.004328226670622826 -0.004150452092289925 0.005086397286504507 0.0047889514826238155 -0.0027823320124298334 0.0016205745050683618 0.0014950366457924247 -0.003579662414267659 -0.0013012406416237354 0.004573629703372717 -0.0011561533901840448 0.0010910618584603071 7.112996536307037E-5 -0.00345403584651649 -0.003446373622864485 -0.002211518818512559 9.971362305805087E-4 0.002407230669632554 8.717774180695415E-4 0.002613904420286417 0.0033268777187913656 0.0030206216033548117 -0.0036076062824577093 -0.0017059888923540711 0.001778677455149591 -0.003374600550159812 -0.0024291991721838713 0.0043692695908248425 -2.6964605785906315E-4 -0.005317969247698784 -0.004882310051470995 -4.21438853663858E-5 -0.004130952060222626 -0.004708923399448395 5.002496181987226E-4 0.002813611878082156 0.004323541186749935 -0.002380871679633856 -0.0035513134207576513 -2.952039649244398E-4 -0.002460228046402335 -0.002858150750398636 -3.5627285251393914E-4 9.837465040618554E-5 0.0012054682010784745 -0.004803041461855173 0.005406996700912714 -0.003317205933853984 0.001591560780070722 0.0025294828228652477 0.004836219362914562 3.104131028521806E-4 -0.004213502164930105 2.828870783559978E-4 0.0014036372303962708 0.004322309512645006 0.0010411279508844018 0.002218872308731079 0.004282673820853233 0.0017621710430830717 -0.0011942475102841854 -2.991983783431351E-4 0.0036869929172098637 -0.0030449123587459326 -0.0015346839791163802 0.004101342987269163 -0.0023837084881961346 1.1031964095309377E-4 -4.560258093988523E-5 0.0046972911804914474 -7.386818178929389E-4 0.0014159452402964234 6.65346160531044E-4 0.002531936625018716 0.001548742176964879 0.002236162545159459 -2.1879903215449303E-4 0.001200915197841823 -0.0035118311643600464 -0.0025793074164539576 -0.004208017140626907 0.002827662043273449 4.4712561066262424E-4 0.002468515420332551 -0.001123399124480784 0.00311102787964046 9.277986246161163E-4 0.004585753194987774 0.005349575076252222 0.002268435899168253 -0.0010186166036874056 -0.0041500842198729515 0.004472691100090742 0.00295451027341187 0.0014665763592347503 0.004539719317108393
work -0.002499505179002881 -0.004726322367787361 5.102017312310636E-4 -0.0017564815934747458 -0.00320781790651381 0.004754086956381798 -0.0021462689619511366 0.004177168011665344 0.0018616653978824615 -0.001953735016286373 -0.002883534412831068 -0.001202994491904974 -0.0030986922793090343 6.719676894135773E-4 -9.730173042044044E-4 5.826358683407307E-4 3.113381389994174E-4 0.004077752586454153 0.00187863118480891 5.038767703808844E-4 -3.568912798073143E-4 0.004608248360455036 -0.00314728869125247 0.002953130751848221 2.2774352692067623E-4 6.031463854014874E-4 0.004367159679532051 0.0027618908789008856 -0.0035676632542163134 0.004098552744835615 0.003432204946875572 -0.0039969333447515965 0.0012471909867599607 -4.135821291129105E-5 -0.0034022016916424036 1.4271150575950742E-4 -0.0023823294322937727 -0.00221171323210001 0.002653529169037938 0.002191221807152033 0.0015000677667558193 0.002676426898688078 -0.0037360936403274536 -0.004448051564395428 -0.0014718086458742619 0.004440453834831715 0.0016396893188357353 0.0028017892036587 0.004803911317139864 0.0049802749417722225 0.003082458395510912 0.0036887412425130606 -0.002243987051770091 0.003577310359105468 0.0025107301771640778 -0.001951705664396286 -2.9919977532699704E-4 -0.002140660537406802 0.00268624909222126 4.34383429819718E-4 -0.002031543292105198 0.0029618695843964815 -0.0037161498330533504 7.709850324317813E-4 -0.0029772398993372917 -6.277803331613541E-4 -0.0019331284565851092 0.0012903378810733557 0.001013095024973154 -0.003592332126572728 9.021795121952891E-4 0.002660065656527877 -0.004939227364957333 -0.004331558011472225 -0.0031614918261766434 1.5039513527881354E-4 0.0038491697050631046 0.004036291036754847 0.0011325145605951548 0.0029148159082978964 0.0030284111853688955 -0.004516477696597576 0.0021443222649395466 0.002431940520182252 -0.0021257279440760612 -6.737702060490847E-4 0.003665205556899309 0.003711260622367263 -0.005010606721043587 0.0034215967170894146 -0.004486807622015476 1.6500554920639843E-5 -0.002926603192463517 2.8468488017097116E-4 4.927322152070701E-4 0.0034241739194840193 -0.001115551800467074 0.004174611996859312 -3.1220162054523826E-4 -5.793296149931848E-4
want 0.002390932058915496 -0.0021533449180424213 -0.0037162890657782555 0.0045792898163199425 0.0026585699524730444 -0.004244406707584858 -8.44504393171519E-4 0.004086670465767384 0.0034867047797888517 0.0031967347022145987 -0.004796522669494152 -0.004671734292060137 -1.518232747912407E-4 0.004030230455100536 6.33859308436513E-5 0.004258992616087198 -0.0015774096827954054 0.0022240430116653442 0.0014710614923387766 5.797892226837575E-4 0.00200496893376112 0.002886852715164423 -0.004298565909266472 1.962693058885634E-4 -5.500651313923299E-4 -5.340250791050494E-4 -3.4933711867779493E-4 0.0029403259977698326 0.0036094984970986843 6.229865830391645E-4 0.004244828596711159 -2.69267096882686E-4 9.849525522440672E-4 -0.002567693591117859 -0.0031244338024407625 0.0034010617528110743 0.004363853018730879 0.0034924556966871023 -0.001289228443056345 -0.004003356676548719 6.088489317335188E-4 -0.002123270183801651 -0.0043416921980679035 -0.00425075413659215 0.0016401896718889475 0.0033430082257837057 0.0015321463579311967 0.0012266619596630335 0.0026082464028149843 -0.0020794481970369816 0.001903820433653891 -0.0026267122011631727 4.78611997095868E-4 0.0031858503352850676 -0.0020755287259817123 0.004139220342040062 -0.004204717464745045 -0.0017480043461546302 -0.003280263626947999 0.002267510164529085 0.003255594288930297 0.0048825303092598915 4.3158201151527464E-4 0.0011524971341714263 -0.0045498874969780445 -4.5841102837584913E-4 0.0017240589950233698 -0.0017465668497607112 -0.004365786910057068 0.0033317492343485355 0.005285065621137619 -0.003996369894593954 0.0038991791661828756 -6.236238405108452E-4 0.0017293335404247046 0.0024598180316388607 -8.639003499411047E-4 -1.903626834973693E-4 -2.1858089894521981E-4 0.001372670754790306 -0.004101564176380634 -0.0041433414444327354 0.0017074808711186051 0.004563001450151205 0.0047473059967160225 -0.002992035588249564 0.003460424952208996 -0.004920476116240025 0.004216473549604416 -2.1928577916696668E-4 -0.0018543187761679292 3.861400473397225E-4 0.0013340084115043283 -0.005091901868581772 -0.0023937607184052467 0.0021533179096877575 0.0027799454983323812 3.624586679507047E-4 0.0028023570775985718 -0.004521597642451525
night -0.002228830009698868 0.0033465756569057703 -0.0041496544145047665 0.002292654709890485 -0.004535111133009195 0.004980191588401794 0.0015500878216698766 -0.001326415571384132 0.0024284471292048693 -0.0042829508893191814 0.004300951957702637 0.002619783394038677 0.0012344695860520005 -0.004342689178884029 -0.0034651095047593117 0.004312512464821339 -2.1902084699831903E-4 0.0031592133454978466 0.004921048413962126 0.0038186574820429087 0.004823868162930012 -0.0021063843742012978 -7.464888622052968E-4 -0.004155003000050783 0.002183907898142934 9.836131939664483E-4 2.3744755890220404E-4 0.0027618762105703354 -5.426196730695665E-4 0.002150292042642832 0.00261420919559896 0.0034732231870293617 -0.003346910933032632 -0.0018598545575514436 0.0017923665000125766 -0.004582141060382128 -0.0010333842365071177 0.004630713257938623 0.004046455025672913 0.00335742998868227 -0.0023276156280189753 -0.003605000441893935 -0.0012872612569481134 7.180482498370111E-4 -7.145822164602578E-4 -0.0033515726681798697 -1.9403018086450174E-5 1.0240694973617792E-4 0.004513081628829241 -0.002213350497186184 0.00382548407651484 -0.0031783871818333864 4.7288014320656657E-4 -2.1817494416609406E-4 -0.0034402713645249605 -0.0045693423599004745 -0.004605561029165983 0.0013441464398056269 -0.0019632356707006693 -0.004475232679396868 -0.004057656042277813 -0.0013249212643131614 0.0018443068256601691 0.0027499510906636715 -0.001937149092555046 -0.004682421684265137 -0.0021135432180017233 0.002060385188087821 -0.003164443885907531 -0.0028567707631736994 0.001039523514918983 0.0031308685429394245 -0.003417406463995576 -0.004219538997858763 -0.0016959416680037975 9.062000317499042E-4 -0.004682118538767099 -0.0013398290611803532 0.0028114900924265385 0.0011994963278993964 0.002140848897397518 -9.654444875195622E-4 0.0028781606815755367 0.0038448823615908623 -0.0034537045285105705 1.4467324035649654E-5 0.003000787692144513 0.004120608791708946 0.0014977543614804745 -0.004782760515809059 -0.002844631439074874 2.7875634259544313E-4 -3.1333629158325493E-4 1.68344791745767E-4 0.001858971081674099 4.0975454612635076E-4 0.002024826593697071 -3.2293793628923595E-4 0.004015755839645863 -0.004410908557474613
tomorrow -0.004853024613112211 8.049207972362638E-4 -0.0018090908415615559 7.895036251284182E-4 -0.004109510686248541 -0.004022810608148575 -4.3486186768859625E-4 0.0022310714703053236 0.004236459732055664 0.005020095966756344 0.004034248646348715 -0.0016752182273194194 0.004613641649484634 0.004246039316058159 0.0035196843091398478 -0.003517024451866746 -0.002118834527209401 -0.0037524309009313583 -7.538752834079787E-5 -0.004203022923320532 -9.305805433541536E-4 0.0017103012651205063 0.003970438148826361 0.003497574245557189 0.0025515228044241667 -0.004145249258726835 -0.00394264655187726 -5.283529753796756E-4 7.791547250235453E-5 0.0028714260552078485 -0.004560071974992752 0.004445021506398916 -0.004759049043059349 -0.0049079423770308495 -0.0025006993673741817 -0.002769987564533949 -0.0012855147942900658 0.002138488693162799 -0.0016235302900895476 0.0045744022354483604 -0.001975066028535366 -0.00153528549708426 -0.004852835088968277 -0.004849401768296957 -0.005092678591609001 -9.969555685529485E-5 3.1472972477786243E-4 0.004840696696192026 0.001366309355944395 -0.003122418187558651 -0.0046411193907260895 -0.0029392342548817396 0.0026667064521461725 0.0014830767177045345 0.001950318575836718 0.004824322182685137 -7.099309586919844E-4 0.002596750622615218 -7.000655750744045E-4 -0.0034371810033917427 8.501271950080991E-4 -0.0033387774601578712 -0.002988035324960947 -7.812257972545922E-4 -9.420011192560196E-4 -0.002195629756897688 -5.454406491480768E-4 0.0033820699900388718 -0.0024908233899623156 -0.0026919569354504347 -8.779822965152562E-4 0.0038147747982293367 8.96433659363538E-4 -0.0033794038463383913 5.964989395579323E-5 0.002240363974124193 -0.0037354014348238707 -0.0027036836836487055 0.004613250494003296 0.0016088166739791632 0.0036100817378610373 5.309936823323369E-4 0.0011072895722463727 0.00431855721399188 5.987596232444048E-4 0.0013433059211820364 0.001177039579488337 -0.002470552921295166 3.7530154804699123E-4 -7.418604800477624E-4 0.003859040094539523 -0.004196742549538612 0.005218150559812784 -8.954799704952165E-5 0.0037990009877830744 0.004033694509416819 0.0015691767912358046 -8.942741260398179E-5 -0.0010285276221111417 -0.002997691510245204
is 9.949528612196445E-4 -0.0025825321208685637 0.0029689690563827753 0.0010670723859220743 0.004228512290865183 0.004188061226159334 0.003027910366654396 0.003071020357310772 0.0028978672344237566 0.004114513285458088 -0.0025797400157898664 5.195770645514131E-4 -1.4696185826323926E-4 -0.004415996838361025 -0.004229199606925249 0.004884412512183189 0.0024095026310533285 0.004111515358090401 -0.004448066931217909 0.0010730769718065858 -0.003265886101871729 0.0039586531929671764 0.004793671891093254 -0.004657063167542219 4.978540237061679E-4 -0.0012495580594986677 9.243656531907618E-4 3.9890239713713527E-4 0.0034537927713245153 -0.001936819520778954 2.790187136270106E-4 0.0026841580402106047 0.0038224090822041035 -0.001738470047712326 8.210461819544435E-4 0.004435266368091106 -0.002653188304975629 0.001821256009861827 7.617527735419571E-4 -2.930586342699826E-4 0.002163859084248543 -0.004186709877103567 -0.004488969687372446 -0.0027287574484944344 -0.0015652250731363893 0.001860428019426763 -4.713338566944003E-4 -0.0019342692103236914 -0.00521017424762249 -0.005147372372448444 -8.369616698473692E-4 0.0019410225795581937 -5.272126873023808E-4 4.4845702359452844E-4 -0.0022410221863538027 0.004153416026383638 -0.004470294341444969 -0.0012139268219470978 -0.0014473490882664919 -0.0032328676898032427 0.0029874525498598814 0.002810634206980467 -4.508809361141175E-4 -0.004521862603724003 0.0013593460898846388 0.0031029474921524525 -0.004739588126540184 -0.0017112388741225004 -0.001172920921817422 0.0018024796154350042 0.0018066894263029099 -5.070550250820816E-4 0.004639138001948595 0.0027734367176890373 0.0010653582867234945 -0.004080795217305422 0.004208868369460106 -0.0040509351529181 0.003519239602610469 0.0021911240182816982 -0.001997570041567087 -0.0042758481577038765 -0.0030618140008300543 0.0037293967325240374 -9.471687371842563E-4 -0.003068591235205531 -3.5525154089555144E-4 0.004830804653465748 -0.0040759677067399025 1.4719760656589642E-5 0.0019991123117506504 0.001851250883191824 -6.117522134445608E-4 -0.001297079143114388 0.0034247676376253366 -0.003985455725342035 0.0029891214799135923 -6.449021166190505E-4 -0.0020664511248469353 -0.003909262828528881
it -0.002469296334311366 -1.6860765754245222E-4 -0.004830967169255018 0.004608625546097755 -0.0017899156082421541 -5.134557723067701E-4 0.0012244094396010041 -0.0027023321017622948 0.0020532633643597364 -0.0025038346648216248 -0.003073162166401744 -0.003837618278339505 0.004844923969358206 0.004751431755721569 3.4831659286282957E-4 -8.060898981057107E-4 -8.963789441622794E-4 8.67058988660574E-4 -0.004530046600848436 0.0029735881835222244 -0.0036844138521701097 -0.004668626934289932 0.0011480515822768211 0.004074993543326855 5.320355412550271E-4 -0.0035118330270051956 -0.004782403819262981 -0.0013055519666522741 -0.001217158162035048 1.5416493988595903E-4 2.72221805062145E-4 -0.00451660668477416 0.0032761618494987488 -0.004449096042662859 -0.004027617629617453 3.7838349817320704E-4 -0.001362569397315383 0.0017518317326903343 0.0019483916694298387 0.0013888732064515352 0.004763632547110319 -0.0015709749422967434 -0.0022103458177298307 0.001093028811737895 1.6581547242822126E-5 -0.0014440170489251614 0.0025083974469453096 0.003425160190090537 4.443743819138035E-5 -0.0036780883092433214 -0.0016595757333561778 -0.0034902524203062057 0.0020381840877234936 0.0012034188257530332 0.0025714233051985502 0.0020462682005017996 0.0036439551040530205 -0.0025623305700719357 0.0018087083008140326 -9.556355653330684E-4 0.0049582417123019695 0.0017365257954224944 -0.004486030898988247 0.003976285457611084 0.0036021757405251265 -0.0025209381710737944 0.0011615399271249771 -0.0038773491978645325 -0.003945416305214167 -0.002849034732207656 -0.0019765577744692564 -0.0031469296663999557 0.00330796604976058 -0.0021619973704218864 0.001970194512978196 0.002178607042878866 -0.0019974890165030956 -0.0036594104021787643 -0.004697792232036591 -0.003930610604584217 -0.0025665860157459974 0.002375953132286668 -0.004263442009687424 0.004591203294694424 -0.0017641769954934716 0.0011353472946211696 0.0024415289517492056 -6.99381111189723E-4 0.002730171661823988 0.004523749463260174 -4.5174462138675153E-4 -4.4554422493092716E-4 0.004973198752850294 -3.742686240002513E-4 0.004861108958721161 3.84751008823514E-4 0.00370279629714787 8.004627306945622E-4 -9.562723571434617E-4 0.0036864185240119696
being 0.004547541029751301 -0.0035934264305979013 -0.0018863927107304335 -0.0046888720244169235 5.647186189889908E-4 -6.85123261064291E-4 0.003267840249463916 -0.0026935022324323654 -0.0019104612292721868 -0.0033420377876609564 4.7782695037312806E-4 0.00343939452432096 0.001562750549055636 -0.0037863252218812704 0.003676996799185872 0.0019376353593543172 0.003830843837931752 -0.004454761743545532 0.003861173754557967 -1.9041392079088837E-4 0.004511850420385599 -0.0033569857478141785 -0.004517827648669481 0.004139903467148542 0.003655198961496353 -0.0028088376857340336 0.004855283070355654 -0.0029812725260853767 5.838798824697733E-4 2.9948633164167404E-4 0.0017812330042943358 -3.3104995964094996E-4 -0.0020059754606336355 0.003987742587924004 -0.003617997746914625 -0.0019364217296242714 9.848350891843438E-4 -1.254097296623513E-4 0.0021380805410444736 -0.0033028244506567717 -4.121261590626091E-4 -0.004574095364660025 -0.0012192900758236647 -0.0030564169865101576 0.0027031414210796356 5.721800262108445E-4 -0.004753130488097668 0.003884117351844907 6.275968626141548E-4 -0.0038590962067246437 -9.030082146637142E-4 -3.318830858916044E-4 -2.367034467170015E-4 -0.001187421614304185 0.004886950831860304 6.09218783210963E-4 -0.0025966588873416185 -0.002625798573717475 0.0014574689557775855 -0.004484901204705238 0.0011138641275465488 -0.0036558364517986774 -0.00295667233876884 0.004609387833625078 -9.325203136540949E-4 0.00461448123678565 0.004308714997023344 -0.00371463131159544 1.5221888315863907E-4 0.003043508855625987 0.002187638310715556 -8.749890839681029E-4 0.0028583400417119265 -0.0022639066446572542 -0.0010540296789258718 0.0011239040177315474 0.0020570310298353434 0.004902626853436232 -0.002012568525969982 0.004243107978254557 6.931470707058907E-4 0.0010045756353065372 -0.004458495881408453 -0.004349328111857176 0.003365924349054694 -0.003819323843345046 -0.002115140203386545 0.0036847356241196394 -0.004060226958245039 -9.897489799186587E-4 -4.44389006588608E-4 -0.003921960946172476 -4.5524476445280015E-4 -0.0038564421702176332 0.002514197025448084 -0.003371200291439891 0.004653678275644779 -0.0026175661478191614 0.0015267357230186462 -0.001847736886702478
am 0.004093928262591362 -0.0022364752367138863 -0.0024518498685210943 0.0013900052290409803 -0.0018026059260591865 -0.00190754106733948 -0.0015807863092049956 -7.860222831368446E-4 0.001529334462247789 0.0019079068442806602 0.00332121760584414 0.001955080544576049 0.0010844900971278548 -8.855836931616068E-4 -0.0041046664118766785 -0.004313564393669367 -0.0030254314187914133 -0.0029874593019485474 -0.003434942103922367 -0.004382293205708265 0.0010156186763197184 -2.7689081616699696E-4 0.0014298519818112254 -0.0032545572612434626 -0.00410982733592391 0.0023495107889175415 0.0027010110206902027 -0.003151575569063425 0.0027266896795481443 0.003234611125662923 0.0012751244939863682 0.00299923587590456 -1.5738677757326514E-4 0.0038813110440969467 1.9396732386667281E-4 0.0037901424802839756 -0.0012924751499667764 -0.004910575225949287 -0.0035605865996330976 0.003257719101384282 -0.0011997618712484837 0.001651752507314086 -2.1569139789789915E-4 -0.0017184361349791288 -2.1747310529462993E-4 -0.0034842900931835175 -0.0015928195789456367 -0.004355249926447868 -0.0014596802648156881 -0.004166772123426199 -2.4058976850938052E-4 -0.001087052864022553 0.0012646953109651804 -8.304350776597857E-4 0.0020885190460830927 0.004920455627143383 6.311043398454785E-4 0.0036051650531589985 -0.0014098193496465683 -0.004026490729302168 0.004227694123983383 -0.0026974971406161785 -0.002513404004275799 -0.0024198810569941998 0.002452400280162692 0.002029490889981389 -0.001516792457550764 -0.002934105461463332 0.001568490988574922 -0.0034559136256575584 -0.0047161574475467205 0.0010192496702075005 0.0032409250270575285 0.002010722877457738 0.00401428434997797 0.0031840403098613024 -0.0044860742054879665 0.0016464293003082275 -0.001736789708957076 -6.2583974795416E-4 0.0023138828109949827 0.004228714853525162 -0.004094707313925028 0.002998674288392067 0.0010871898848563433 -0.003452639328315854 -0.005008231848478317 -0.0020306380465626717 0.0035064907278865576 -0.0030452311038970947 0.002543034264817834 -0.004242870956659317 -0.002926468849182129 0.0035027291160076857 -0.0033791884779930115 4.862654022872448E-4 0.0013546791160479188 0.0022566949483007193 0.0014547026949003339 -0.004776367451995611
- 1.456124591641128E-4 0.004041337873786688 -0.0037079027388244867 -0.0012733465991914272 -2.7865939773619175E-4 -0.004821597132831812 0.002313004806637764 -0.003266729647293687 0.002514519961550832 -6.330940523184836E-4 0.003223925130441785 0.0025985015090554953 -0.0031674024648964405 0.0034766450989991426 0.004818189423531294 -4.181053664069623E-4 -0.0013701340649276972 0.004267225041985512 -0.003536372212693095 -0.004526670556515455 0.002648416208103299 0.003224196145310998 -0.0021333200857043266 0.005121082533150911 -0.0038371023256331682 -0.0010491778375580907 6.082137115299702E-4 0.0031310548074543476 -0.0010574262123554945 4.6383735025301576E-4 0.0027833341155201197 0.003389255376532674 0.001225567888468504 -0.002392736729234457 -0.0037502124905586243 -4.6840377035550773E-4 -0.003988876473158598 -0.001291950698941946 -0.004046835470944643 -0.0037929194513708353 -0.00275531061924994 0.0038686098996549845 0.004414932802319527 -0.004497959278523922 0.0016059527406468987 -0.002439152915030718 4.8551440704613924E-4 0.005026254337280989 0.0034810651559382677 -0.003913916647434235 0.0022949655540287495 0.004624697845429182 7.523952517658472E-4 0.0043822042644023895 0.0014171559596434236 -0.004370053298771381 0.003929384518414736 0.003958976827561855 0.004856136627495289 1.6338098794221878E-4 0.0038294054102152586 -0.004772702232003212 0.0019581622909754515 0.0010561057133600116 -0.0031699873507022858 0.004399319179356098 -4.58999966213014E-6 0.0022001771721988916 -0.0014321301132440567 -5.811333539895713E-4 0.0025860462337732315 -0.002100627636536956 7.246709428727627E-4 -0.0017869315342977643 -0.004312335047870874 7.450417033396661E-4 -0.004511873237788677 0.0010651954216882586 0.003838719567283988 0.0021074002142995596 -0.0027590643148869276 4.2848385055549443E-4 0.001269275089725852 -0.0036409255117177963 0.0025131485890597105 0.0022323334123939276 0.0029474999755620956 0.004776413552463055 0.0027347973082214594 0.0034534847363829613 0.0035697498824447393 0.0035323770716786385 -0.0041694073006510735 0.0013705602614209056 -0.003111610421910882 -0.002594931982457638 -0.0037184397224336863 6.56295451335609E-4 -1.2579423491843045E-4 -0.004712381400167942
an -0.001881515490822494 0.002773196902126074 2.7027117903344333E-4 -0.0021207761019468307 -5.627172067761421E-4 -0.0026168448384851217 0.005046517122536898 9.371254709549248E-4 -0.0019551520235836506 0.004352475516498089 -0.0017110786866396666 -0.0015220760833472013 -0.003064085729420185 0.0030841322150081396 -0.0022020067553967237 -0.00393698550760746 0.0033376705832779408 0.00460848119109869 -4.5897706877440214E-4 1.8864597950596362E-4 0.00357543071731925 7.939478964544833E-4 0.00446787616237998 -0.001718883402645588 0.0048483810387551785 -0.0035814177244901657 -0.001051009981893003 -0.0015342512633651495 0.003950205631554127 6.810814957134426E-4 -0.0036615990102291107 -0.003110266523435712 -0.0010243704309687018 0.0012873989762738347 -0.004571196623146534 0.0014673796249553561 0.002529697259888053 -6.031168140907539E-6 -3.7673732731491327E-4 -0.002805352443829179 -0.003708731150254607 -7.124953554011881E-4 0.004673981107771397 0.002733134664595127 -1.2347196752671152E-4 6.568958051502705E-4 0.0035105592105537653 -0.0012575287837535143 0.0010807339567691088 0.00247200857847929 0.003216196782886982 -0.004381486214697361 0.0043082693591713905 0.0033931450452655554 -0.004893258213996887 0.004458235576748848 0.0015221093781292439 -0.001602457370609045 -0.004351187497377396 1.9033125136047602E-4 -0.0017890268936753273 -0.0015272320015355945 0.0024893907830119133 8.57894410728477E-5 0.001519330544397235 -0.0024739205837249756 0.0031129191629588604 -0.002916865749284625 -0.0018691960722208023 -0.0022999446373432875 2.4501510779373348E-5 0.00495537556707859 -0.0030799389351159334 0.0016223754500970244 -0.0020866089034825563 -0.002473406260833144 -0.004256206098943949 -0.004490917548537254 0.003097227308899164 0.00450959661975503 -0.003015848807990551 -0.00306146964430809 -0.0018377124797552824 0.0016080127097666264 4.48038917966187E-4 0.0038036161568015814 2.499853144399822E-4 -0.001352299703285098 -0.003261913312599063 -0.0040909950621426105 1.2020598660456017E-4 0.004444099497050047 0.0022606707643717527 -0.002734000328928232 -0.0022626675199717283 -0.002548039425164461 -0.0021457537077367306 -0.0018663713708519936 0.003172403434291482 0.0025686940643936396
as 3.5916134947910905E-4 -2.4998222943395376E-4 0.004881083499640226 1.763084001140669E-4 0.0038466162513941526 -0.002703634090721607 -0.002686645369976759 0.0027113542892038822 3.1127705005928874E-4 -0.001674448256380856 9.902974124997854E-4 -0.0045613800175487995 -0.003850721986964345 0.004493925254791975 0.0018015464302152395 -0.002462063217535615 0.00180027075111866 0.004762314260005951 -0.0014651791425421834 0.0018887653714045882 7.033208385109901E-5 -0.0023645369801670313 0.0029338356107473373 0.0015446441248059273 -9.734921623021364E-4 1.1742984497686848E-4 0.0025325261522084475 2.4998816661536694E-4 -0.003336412599310279 -5.115225212648511E-5 -0.0019501977367326617 4.84997290186584E-4 1.2672285083681345E-4 -0.004957620054483414 -3.073630796279758E-4 0.0033795442432165146 -0.0022596893832087517 0.002905032131820917 0.004448554012924433 0.004786132834851742 -0.0029390878044068813 0.002785053802654147 0.0025672204792499542 0.002131581772118807 0.004810817539691925 0.0011972786160185933 0.0031545599922537804 0.002296488033607602 -4.15807735407725E-4 0.004034887067973614 0.0012099718442186713 0.00237506371922791 -1.5304303815355524E-5 -0.004624078515917063 0.0020457948558032513 -0.004208652302622795 -0.0020318327005952597 0.0038092834874987602 0.003205392509698868 -0.0019377110293135047 -0.0020334890577942133 -0.002756131114438176 -5.644733755616471E-5 0.0013854927383363247 -0.0025093951262533665 -0.0017522190464660525 -8.833416504785419E-4 0.004857033956795931 -0.003898095106706023 0.004373500123620033 0.0029524785932153463 -2.756300673354417E-4 5.934811197221279E-4 0.003688634606078267 0.0026849417481571436 0.00338960369117558 -0.002309192670509219 -0.0010267702164128423 0.0016091959550976753 -0.004953235853463411 0.004472706466913223 -0.0028198990039527416 0.0031638648360967636 0.0010710092028602958 0.0026095141656696796 4.0655338671058416E-4 0.0016702432185411453 0.004556124564260244 -0.004651372786611319 -0.0036077711265534163 0.0025829176884144545 0.003557936754077673 0.003169531235471368 -0.0012975014979019761 -0.0015935745323076844 -0.002221849048510194 -0.004408610984683037 0.0014349989360198379 -0.003906182013452053 -9.879966964945197E-4
at 0.0014920341782271862 6.417802069336176E-4 -0.00103873445186764 0.004334254190325737 2.6162146241404116E-4 -0.0017115985974669456 0.004157301504164934 -0.0018523928010836244 0.0031281737610697746 7.963325479067862E-4 0.0036441832780838013 -1.7717441369313747E-4 0.0020783506333827972 -0.0028214144986122847 0.0011121558491140604 0.0024473536759614944 5.759931518696249E-4 8.483035344397649E-5 4.7751134843565524E-4 0.0012351891491562128 -0.0035504617262631655 -0.0027572319377213717 -6.881928420625627E-4 0.0019383550388738513 -0.0013822182081639767 -0.0017671831883490086 0.004543355666100979 -0.0029452224262058735 -0.0019804826006293297 2.9442677623592317E-4 8.712554117664695E-4 0.0045182607136666775 0.0030564889311790466 0.0029649268835783005 4.3751654447987676E-4 -0.003949059173464775 -0.0034769221674650908 -0.003911642357707024 -0.004141517449170351 0.002259408123791218 -9.22463892493397E-4 4.677464603446424E-4 -0.004214188549667597 0.004906959366053343 5.164266985957511E-5 -3.489182563498616E-4 -0.0020165506284683943 0.004223345313221216 0.0025257328525185585 0.003814824391156435 0.003364052390679717 6.077013495087158E-6 -0.0017926779109984636 0.004844149108976126 -8.28813121188432E-4 3.8227750337682664E-4 0.0020260969176888466 0.004768386483192444 0.0036648001987487078 -0.0015976051799952984 -0.0021308385767042637 -0.0017906961729750037 5.173363606445491E-4 0.0035987149458378553 -0.004293350502848625 -0.005003289319574833 0.003901965683326125 -0.0032841397915035486 5.677314475178719E-4 0.004511143080890179 -0.0010829813545569777 4.771578242070973E-4 -0.0014007703866809607 0.0017822457011789083 -1.9667274318635464E-4 0.0030552209354937077 -0.0035121149849146605 -0.0030712494626641273 -0.0038830218836665154 0.0015478888526558876 -0.002078549936413765 0.004758735187351704 0.003579061245545745 0.003680828493088484 -8.158574019034859E-6 3.8949973531998694E-4 -5.620107986032963E-4 -3.8658000994473696E-4 5.49757038243115E-4 0.001018797280266881 -0.003747090231627226 -0.002090675989165902 0.0022936926688998938 -5.545388557948172E-4 4.86611359519884E-4 0.0048344796523451805 0.002446744590997696 -0.0013445256045088172 -0.004542468581348658 0.0013315249234437943
phone -0.004525941796600819 -0.004337535705417395 0.0014413995668292046 7.916532922536135E-4 0.003737900173291564 -0.0016934486338868737 -0.0023376992903649807 -0.003608523868024349 -0.001544967177323997 0.0013220403343439102 -0.003500738414004445 0.0016329081263393164 0.00291998777538538 -0.003867329563945532 -0.0010073712328448892 -0.0034811319783329964 0.0024131829850375652 -0.0011945178266614676 0.0038238046690821648 3.4972279536304995E-5 -9.741489193402231E-4 -0.001040895702317357 -9.06926637981087E-4 0.0012824258301407099 0.004356012679636478 -0.0027568114455789328 -0.004536465276032686 3.042136086151004E-4 -0.004616833757609129 0.0022902756463736296 -5.449539166875184E-4 -0.003534981282427907 0.0018115568673238158 0.0017790836282074451 -5.472993361763656E-4 0.002452404471114278 0.001138166175223887 -1.1222451576031744E-4 0.0023458076175302267 0.0037260979879647493 -0.0010439696488901973 -0.0010198862291872501 0.0046675181947648525 2.618084254208952E-4 0.0015661873621866107 -0.003220838727429509 0.004942119121551514 -4.3311528861522675E-4 0.0025827547069638968 0.0016106723342090845 0.0030225387308746576 -0.0019835862331092358 -0.004830326419323683 2.544705057516694E-4 0.00197802297770977 -0.0011014315532520413 4.096523116459139E-5 -1.5277868442353792E-5 -0.0030571024399250746 -0.0011432418832555413 0.0014302131021395326 9.260288788937032E-4 0.002815078943967819 -0.0011054744245484471 0.004457587841898203 -0.0017862297827377915 -0.0018605529330670834 -0.002081081969663501 -0.004780383314937353 -7.861677440814674E-4 -0.0038927318528294563 -0.0030784455593675375 -0.003128865035250783 -0.001081793219782412 0.004754199646413326 0.004961845930665731 -0.001323101227171719 0.003456547623500228 0.0021392269991338253 0.003599112620577216 -0.00443703169003129 0.0023341255728155375 -0.001257101772353053 0.0019366041524335742 -0.0012439184356480837 -0.00223529152572155 -0.0037368726916611195 -0.0049188449047505856 -0.004986274521797895 0.0027220463380217552 3.165002563036978E-4 -0.003268809523433447 -0.0032196608372032642 0.0018726491834968328 -0.003800378879532218 -0.0026389164850115776 0.0014817825285717845 0.0012136072618886828 -1.7556402599439025E-4 -0.003495468758046627
even -0.003996030427515507 -0.0014152879593893886 -0.0034207573626190424 0.0013565096305683255 5.177262355573475E-4 0.003139105159789324 0.0026608570478856564 0.0028911272529512644 -0.0018116876017302275 0.003188891801983118 -9.411768987774849E-4 -0.004023638088256121 8.405981498071924E-5 -0.0022775193210691214 0.0037916614674031734 0.0025255270302295685 0.0011295715812593699 -9.894064714899287E-5 -4.0678249206393957E-4 0.004637041594833136 -0.001602953183464706 0.0016499768244102597 0.001345918863080442 -0.001284588361158967 -9.453886304982007E-4 -0.002214527688920498 -0.004875154700130224 -0.0022897468879818916 -2.9894805629737675E-4 -0.002694087801501155 -8.178608259186149E-4 0.0011461115209385753 0.0034774458035826683 -0.002035104902461171 -0.0034353467635810375 0.004144223406910896 -0.002218818524852395 0.004526325035840273 -0.0013755797408521175 -0.0016435013385489583 -0.0030646866653114557 -0.0016962061636149883 -0.002747809514403343 -0.002188538433983922 -0.0017250969540327787 -0.004722312092781067 -0.0047110579907894135 0.002271759556606412 0.002645468106493354 0.002105591120198369 0.002586902119219303 -0.002870262833312154 0.0019800688605755568 -2.493962529115379E-4 -0.0028125103563070297 -4.1541425161994994E-4 0.003482838161289692 0.00434199720621109 0.0033092040102928877 0.0024659433402121067 0.004706747829914093 0.002748281927779317 2.902552660088986E-4 0.004028842784464359 -0.004061790648847818 -0.004906092304736376 3.333440326969139E-5 -9.015803225338459E-4 0.0013781660236418247 -0.0031623337417840958 -9.899012511596084E-4 -0.0030285639222711325 0.002288236515596509 0.004563153255730867 0.0038119812961667776 -0.0023198886774480343 0.0026073979679495096 0.0032766128424555063 0.00400953833013773 -0.0033243598882108927 -0.003658703528344631 -0.003541230922564864 -0.005002373363822699 0.0028869740199297667 -7.403873023577034E-4 -0.0035748202353715897 8.238090667873621E-4 0.0022679241374135017 -0.0031050043180584908 -1.1068111780332401E-4 0.004800532013177872 9.280279628001153E-4 -6.907280767336488E-4 -0.004563077352941036 0.00469179917126894 -0.004100567661225796 0.004067490808665752 -0.004086294211447239 -0.001759293139912188 0.0024595095310360193
broadband 0.004165247082710266 -0.003811280243098736 0.004595948848873377 0.0022547286935150623 0.0026889280416071415 -0.002693646354600787 -7.386399665847421E-4 -0.002618752419948578 0.002270081778988242 -6.206866237334907E-4 -0.004238743335008621 6.836747052147985E-4 -0.002975206123664975 -0.0030143556650727987 -0.0014121292624622583 -0.0032712712418287992 0.0016389861702919006 0.0020429943688213825 0.001707845483906567 0.001779251149855554 0.0028940869960933924 0.003626059042289853 -0.0029988004826009274 -0.003386520780622959 -0.003749606665223837 0.004141584038734436 -0.003901757299900055 0.003963778726756573 -0.0025156503543257713 0.0023465154226869345 0.0014147955225780606 0.004897503647953272 -0.0018550551030784845 0.004605515860021114 -0.004302533343434334 -0.0037638021167367697 -0.0010234153596684337 0.0037202935200184584 0.0014629908837378025 5.200126324780285E-4 -0.0012144680367782712 0.0013097913470119238 -0.002072117291390896 0.005039979703724384 -0.002722768811509013 0.0035830687265843153 -0.001928037265315652 0.004577896557748318 0.0036019068211317062 -7.020820048637688E-4 0.0039480808191001415 0.002094035502523184 0.0013099469942972064 -4.482596996240318E-4 0.004459143150597811 0.0018113520927727222 -0.0014513279311358929 -0.0015094467671588063 -0.0024660960771143436 0.0036216045264154673 -9.334301576018333E-4 0.004767074715346098 -0.0014510850887745619 -0.0013212411431595683 0.0038919043727219105 -0.0012149474350735545 -0.002458294155076146 0.0021498347632586956 7.699140696786344E-4 7.830852409824729E-4 -0.0019389220979064703 -4.229032201692462E-4 -0.0020442784298211336 -0.0027785429265350103 0.0026565995067358017 -1.9558798521757126E-4 -0.0019164273981004953 0.003778113517910242 9.899348951876163E-4 -0.0036607966758310795 0.0013204311253502965 5.380588700063527E-4 9.487459319643676E-4 -0.003759820247069001 0.0022662277333438396 5.995154497213662E-4 0.0035798633471131325 -0.0014391918666660786 -0.002119941171258688 -0.004845768678933382 -0.0035941957030445337 0.003098749788478017 1.6208583838306367E-4 -0.0034200558438897133 0.0034812495578080416 -0.004731319844722748 -0.001114271697588265 0.004112990107387304 -0.0036427041050046682 8.54307843837887E-4
didnt 0.0036638660822063684 -0.0019176427740603685 0.0015652497531846166 -0.0019856011494994164 -0.001629304839298129 -0.0013582076644524932 -0.0014009055448696017 -0.001977331005036831 0.003646302502602339 0.0015672050649300218 -0.0032149581238627434 -0.002010845812037587 -0.0014762833015993237 0.0038841350469738245 0.0027736637275666 -0.003513415576890111 -0.0032532461918890476 -0.004212473053485155 0.0024665629025548697 1.4679899322800338E-4 0.0031429834198206663 -0.004817422479391098 0.003954355604946613 -0.004548797383904457 0.0020120490808039904 0.0029327317606657743 0.002697909250855446 -9.881121513899416E-5 -0.003799672704190016 0.004979046061635017 9.94388246908784E-4 0.0011532484786584973 0.003735980950295925 0.0012467117048799992 0.0013550700386986136 9.483114117756486E-4 0.004353102296590805 -5.6893179134931415E-5 -7.023663056315854E-5 0.002873313846066594 0.0022539086639881134 -0.004905945621430874 -0.004599283915013075 -0.0031327486503869295 -0.0041588954627513885 -0.0013333202805370092 0.0032235151156783104 0.0012979010352864861 0.00196850229986012 -0.0014688785886391997 -0.001253595924936235 5.119220586493611E-4 -0.0011944627622142434 -1.0226279846392572E-4 -0.0035040404181927443 -6.598561885766685E-4 0.0032074565533548594 -1.2746723950840533E-4 -2.2426372743211687E-4 0.004605476278811693 0.003912757616490126 -0.0029702321626245975 0.0011597495758906007 0.0019205870339646935 -9.951383108273149E-4 0.0020047593861818314 0.0023566295858472586 -0.0032431832514703274 0.003339627990499139 0.002364101354032755 0.0029269675724208355 -3.8321252213791013E-4 0.0046370020136237144 0.0037508076056838036 -0.0013212506892159581 0.004823354072868824 -6.796760717406869E-4 -0.004854915197938681 -0.004785596393048763 -0.004778766073286533 -0.0038274694234132767 0.0030619886238127947 6.782853160984814E-4 2.7794382185675204E-4 3.303739649709314E-4 0.004119011107832193 -0.0037514797877520323 1.3568901340477169E-4 0.004307911265641451 -0.0015311735915020108 0.004710818640887737 3.10316972900182E-4 -0.0015680788783356547 7.521466468460858E-4 0.0012116795405745506 -0.001945539959706366 -0.004060262814164162 -0.004326482303440571 0.002079428406432271 -0.004308553412556648
much 0.0019713658839464188 5.788109847344458E-4 -0.003239239100366831 3.5946673597209156E-4 0.002484650118276477 0.0020934734493494034 0.0028939784970134497 0.00350947305560112 -5.53359161131084E-4 0.002538587199524045 -0.002547977725043893 -4.6258719521574676E-5 6.022036541253328E-4 -4.387238877825439E-4 -0.0017262226901948452 0.0013781855814158916 0.00359230674803257 -0.0028661806136369705 -0.004099726211279631 0.001048922655172646 -0.0038845259696245193 0.0014586832839995623 0.004591843578964472 -0.0016733490629121661 0.0028745008166879416 -0.0035621270071715117 -0.003740207990631461 -0.002213516738265753 2.504547592252493E-4 0.0016227668384090066 0.0014605034375563264 9.18516016099602E-4 -0.002067774999886751 0.0014776113675907254 8.93637363333255E-4 0.0036907244939357042 0.003276617033407092 -0.002322774613276124 0.0015097403666004539 -0.0032876101322472095 -0.00219649076461792 -2.8046368970535696E-4 -0.0010003522038459778 -0.003613686189055443 9.312560723628849E-5 7.801667088642716E-4 -0.004651059862226248 0.001744628301821649 -1.4921762340236455E-4 0.0043060616590082645 0.0011054649949073792 -0.0042388406582176685 -0.004205359611660242 0.0025234129279851913 -0.003910005558282137 0.002177015645429492 -0.0027164858765900135 -0.0030667297542095184 -4.022722423542291E-4 0.0027849660255014896 -0.003579049836844206 -0.004731153603643179 -0.004361169412732124 -0.0024042825680226088 -8.159446879290044E-4 -9.769971948117018E-4 0.0030572020914405584 2.7449047775007784E-4 0.0016319584101438522 0.001158568193204701 0.004391852300614119 -0.003418679814785719 -0.004786729346960783 -0.0028365247417241335 -0.0027425021398812532 -9.788352763280272E-4 -5.417827633209527E-4 2.5597872445359826E-4 -0.0012260029325261712 -9.953419212251902E-4 5.255193100310862E-4 0.0014671500539407134 0.0010526145342737436 -0.0033770485315471888 -0.004974748939275742 9.421902941539884E-4 0.004180976655334234 -0.002991614630445838 0.001040177303366363 -0.004704397637397051 -0.0013676442904397845 0.00209927000105381 0.004038610029965639 -0.00197995756752789 0.002853330224752426 -6.305773858912289E-4 -0.004448679741472006 0.003639092668890953 0.0018626677338033915 -0.004884487949311733
leslie -4.329349030740559E-4 -0.004200555384159088 0.002707537030801177 -0.001486903871409595 8.580132853239775E-4 -5.111004575155675E-4 0.004239605739712715 4.6945345820859075E-4 0.0013699735281988978 -0.0045997644774615765 -2.468800521455705E-4 -0.0045738485641777515 -0.004342225845903158 -0.0046019344590604305 5.691647529602051E-4 -0.003974000923335552 -0.0015402723802253604 0.0031602145172655582 -0.004223284311592579 0.003938573878258467 -9.235694888047874E-4 0.003730455646291375 0.0012632192810997367 0.0030756646301597357 0.0038273739628493786 0.005016871262341738 0.003415651386603713 0.004804519470781088 -0.002198479836806655 -0.002920401282608509 3.9741568616591394E-4 -0.003245971631258726 -5.31621917616576E-4 -0.0033277065958827734 -0.002849771175533533 0.0016920989146456122 0.001094590756110847 0.0049027795903384686 8.573098457418382E-4 -0.00272573996335268 -0.002262677066028118 -0.0018968938384205103 -0.0011605097679421306 0.004619983024895191 -0.002843487774953246 0.004303282126784325 0.002836712868884206 0.003735584206879139 -0.002330061513930559 8.806588011793792E-4 0.004575970117002726 -0.0015981303295120597 0.0020383514929562807 -0.002011590637266636 0.003988189157098532 -0.0031350490171462297 0.002834223909303546 -0.00469538290053606 0.0012026230106130242 -0.005176507402211428 -0.0038710690569132566 -3.467193164397031E-4 -0.0014759838813915849 -0.0014891130849719048 -0.0030396352522075176 -0.0018453621305525303 -0.0034406965132802725 0.00390217499807477 -0.002063598483800888 -0.0012634409358724952 -0.0021533037070184946 -0.003518248675391078 -0.004542541224509478 1.5608425201207865E-6 0.0036363713443279266 0.004442395642399788 -0.004154563415795565 0.004987339023500681 -9.893015958368778E-4 -0.003995364066213369 0.004807326011359692 9.581797057762742E-4 5.867498111911118E-5 0.004125961102545261 -0.0041930461302399635 0.002540436340495944 0.002438813680782914 0.002343236468732357 0.0020137992687523365 0.0041488166898489 0.002766561694443226 0.0044374046847224236 0.003421492874622345 -0.001259896089322865 0.0017280979081988335 -0.0017621149308979511 -0.0027750986628234386 9.638012852519751E-4 -0.0011444727424532175 0.0045171757228672504
thats 0.0033585866913199425 3.220199723728001E-4 8.792665903456509E-4 0.0015509702498093247 -0.003309100167825818 0.0026278861332684755 -0.0030642778147011995 -0.003906522877514362 -0.0016538716154173017 -5.541283171623945E-4 0.002224633703008294 0.0025324963498860598 -0.0030636771116405725 -0.004532796796411276 0.004778433125466108 -0.0011182421585544944 0.0033533070236444473 -0.0024785108398646116 -0.0028652935288846493 -0.004972272086888552 0.003517125267535448 -0.0015534406993538141 -0.0032840492203831673 -6.92048401106149E-4 -0.00366346281953156 4.3481483589857817E-4 -4.3336793896742165E-4 0.0030907064210623503 0.00328983087092638 -0.003118510590866208 0.002813186263665557 -0.004695496521890163 -0.003550691530108452 -0.0031483967322856188 8.753719157539308E-4 -0.002718535717576742 -0.0032094265334308147 -0.003278203774243593 0.004461259581148624 3.464399778749794E-4 -0.0051033347845077515 8.178599528037012E-4 -0.00249570538289845 -0.0025561063084751368 2.1268569980747998E-4 0.003075134241953492 0.004149897024035454 -0.002326452871784568 0.0027644680812954903 -4.599135718308389E-4 -8.805111865513027E-4 -8.815973997116089E-4 -7.355856942012906E-4 -0.0012402880238369107 -0.004568140953779221 0.003959841560572386 -0.003693025792017579 0.002389320405200124 0.0034545972011983395 -0.0019474824657663703 -0.0010008277604356408 -0.0035119887907058 -0.004419728647917509 0.004310887772589922 -0.0035458907950669527 0.003931339364498854 -0.0035742265172302723 -0.003900785930454731 -0.0032329291570931673 0.004315488040447235 0.0046160100027918816 -0.004639543127268553 -0.001302250544540584 0.0021707138512283564 -0.0034958806354552507 0.0036102840676903725 0.0027914626989513636 5.771591095253825E-4 -0.004853676073253155 0.0010916994651779532 -0.001570252818055451 -0.004386422224342823 -0.0033842106349766254 -5.622062017209828E-4 -0.003412725171074271 0.0031147473491728306 -0.003376131411641836 -3.364900767337531E-4 3.0227573006413877E-4 0.004388283472508192 0.0016526732360944152 0.002518812660127878 0.004070410970598459 -0.001104045775718987 -0.002673299051821232 -0.002954287687316537 -0.004218325484544039 0.003895317204296589 4.919929197058082E-4 -0.0035177734680473804
love -0.00298984139226377 0.0015670940047129989 -0.002031893702223897 -0.0036725099198520184 0.001659223809838295 -0.004564429167658091 0.004532229155302048 -2.4085532641038299E-4 0.004568437580019236 -0.004549612291157246 -5.3619773098034784E-5 -0.003191163996234536 -0.0015869118506088853 9.492575190961361E-4 0.0034886335488408804 -0.0011139841517433524 -0.003546449588611722 0.0014714638236910105 9.365412406623363E-4 4.431801207829267E-4 -0.004078008700162172 -0.0037152173463255167 0.00272676651366055 -2.5367620401084423E-4 -0.0014986199093982577 8.572948863729835E-4 0.003252873197197914 9.595600422471762E-4 9.160590125247836E-4 0.0021178615279495716 0.0034615935292094946 -0.003821064718067646 -0.0024923167657107115 -0.0012496148701757193 -0.002758490154519677 -0.004108894150704145 0.0011036182986572385 -8.240022580139339E-4 0.003975261002779007 0.004684457555413246 0.002074894029647112 -0.0040596467442810535 -0.003975613974034786 -0.003401225432753563 -0.004387023858726025 9.100667084567249E-4 0.0031070925761014223 -2.496763481758535E-4 0.004232171457260847 -0.004638230428099632 0.0018254268215969205 -0.0044924733228981495 0.0018457762198522687 0.004723541904240847 -0.003828756045550108 -0.002604759531095624 -0.0023497536312788725 0.0022860390599817038 0.0037291289772838354 -0.0026499005034565926 1.3780195149593055E-4 9.474647231400013E-4 -0.0041928840801119804 -0.004469134844839573 0.004623754881322384 -0.002040380146354437 0.0028177204076200724 0.0031591353472322226 -0.004065460991114378 0.0013246169546619058 3.446983464527875E-4 -0.002798427827656269 -0.0041258446872234344 0.0032084775157272816 3.7539363256655633E-4 0.0034560225903987885 -9.130369289778173E-4 -0.002735522575676441 0.002487856661900878 -0.0041067530401051044 0.0033923943992704153 -0.0024867872707545757 -6.277621141634881E-4 -0.004059137776494026 -2.4507023044861853E-4 2.926519373431802E-4 0.001961246831342578 0.0018844972364604473 -0.0032433136366307735 0.0037198951467871666 -6.872036610729992E-4 0.002563201356679201 0.0019420497119426727 0.0022973765153437853 -0.0035521085374057293 0.002021176042035222 -0.0022146422415971756 0.002771717729046941 -7.584700360894203E-4 -0.00444437051191926
be 9.030732908286154E-4 0.004835819359868765 -0.0013344764010980725 0.004024655092507601 -0.002873780205845833 0.0023424304090440273 -0.0018810504116117954 -4.531793820206076E-4 0.0032437550835311413 0.0026352358981966972 -0.00415437575429678 -0.004192179534584284 -0.0026105563156306744 -1.6324604803230613E-4 -0.003023252822458744 0.0028988169506192207 0.004019629210233688 8.23257549200207E-4 0.003550497815012932 -0.0010846751974895597 0.003002965124323964 -0.003995508886873722 -0.001734785153530538 -0.004729654639959335 -0.0013524501118808985 0.0012472597882151604 -0.004136329982429743 0.00185362808406353 -0.0031116879545152187 -0.0030383842531591654 -0.004427746403962374 5.319495685398579E-4 0.004151752218604088 0.0035223127342760563 0.004833635408431292 0.001356066670268774 0.003954779356718063 -0.00424548564478755 0.0046728444285690784 7.581886020489037E-4 0.002394947223365307 -0.0020976094529032707 -0.004546512849628925 -0.0047043003141880035 2.980104472953826E-4 0.0014569142367690802 0.0011102196294814348 -8.008029544726014E-5 0.004592566750943661 -0.0034708038438111544 -0.0015273350290954113 4.6136262244544923E-4 0.003203865373507142 0.0016791645903140306 0.0022454215213656425 -0.0026225626934319735 -0.0023737316951155663 -0.002557884668931365 -0.0013715262757614255 -0.004910946823656559 -0.004740375559777021 0.0027327986899763346 -0.0021102786995470524 0.005166524555534124 -0.002843503374606371 0.0018808060558512807 0.0033096771221607924 -0.002140193711966276 0.0016000793548300862 0.00224867626093328 -0.0027450546622276306 0.0017547255847603083 0.0026799365878105164 0.00146364641841501 0.0015580920735374093 0.0015600332990288734 0.0017066820291802287 0.002755702007561922 -0.0036495968233793974 -0.005014823749661446 4.2911441414617E-4 6.687633576802909E-4 -0.0023546935990452766 -0.0019388478249311447 -8.780271746218204E-4 0.003842939855530858 0.003091100137680769 -7.635890506207943E-4 -0.0016931617865338922 -0.00186686881352216 0.004241670481860638 -0.003948026802390814 -0.002576373750343919 0.004816587548702955 3.4015075652860105E-4 7.885125232860446E-4 8.449538145214319E-4 -0.0014627178898081183 -0.003608164144679904 0.004735826980322599
lol 0.0041971332393586636 -7.234811200760305E-4 -9.623278747312725E-4 -0.003085966454818845 3.694086626637727E-4 -8.257322479039431E-4 -4.4696900295093656E-4 5.943357245996594E-4 0.0033602756448090076 2.090573834720999E-4 -0.004257767461240292 -0.0044543929398059845 0.003019417868927121 -0.0012907600030303001 -0.0011741521302610636 -4.6691004536114633E-4 0.0041714743711054325 -0.0015337802469730377 -0.002649738686159253 0.0011701445328071713 0.0025866255164146423 9.715865598991513E-5 0.0043978504836559296 0.003985412418842316 -0.0014656248968094587 -0.002522464143112302 -0.004977306351065636 -0.002532128943130374 0.0014900787500664592 -0.004525627940893173 -9.682172094471753E-4 0.0023387158289551735 0.002472132910043001 -0.002552876714617014 0.003429279662668705 -0.0048544928431510925 -0.0018485283944755793 -8.989741327241063E-4 -0.0025401560124009848 -0.003909226506948471 0.0037329155020415783 -0.0044758012518286705 6.293946644291282E-4 -3.1072134152054787E-4 -0.004817062523216009 0.0022427907679229975 0.004395086783915758 -0.003553620306774974 3.0450598569586873E-4 -0.0022677367087453604 -0.004640500992536545 0.0024864980950951576 0.004922705702483654 -0.0032153362408280373 -0.0031070690602064133 0.0016980711370706558 -0.0025193809997290373 -0.0030940778087824583 -0.0015864686574786901 -0.002861659275367856 -0.001504457788541913 0.0017590296920388937 -7.006377563811839E-4 0.0029755267314612865 0.0037704871501773596 -0.004018614999949932 -0.0030649681575596333 -0.003497103927657008 0.0037984075024724007 -0.004627362359315157 -5.529058398678899E-4 0.0012658594641834497 -0.0019432144472375512 -0.004184257704764605 0.002995289396494627 9.827056201174855E-4 -0.0013397351140156388 0.003657098626717925 0.0031801434233784676 0.002467436483129859 4.8069164040498435E-4 -0.0034851820673793554 -0.0039134519174695015 -6.772536289645359E-5 -0.0012588155223056674 0.001948970602825284 6.249541766010225E-4 -0.004954168107360601 -0.002530462807044387 0.004962401930242777 -0.002296644961461425 0.0024809117894619703 -0.004973269533365965 -0.0017078430391848087 -0.0022969923447817564 -6.737788207828999E-4 -0.004270606208592653 -0.0022987874690443277 0.002953482558950782 0.003151350887492299
