46 100 25
love -0.0010992165189236403 4.6257415669970214E-4 0.004152063280344009 0.0037770834751427174 -9.743256377987564E-4 -0.004144235514104366 -0.0011086317244917154 -0.0032204212620854378 -4.5918847899883986E-4 -0.00413633743301034 -0.0019671276677399874 0.0010468648979440331 0.001390182296745479 -0.0015584280481562018 9.438127744942904E-4 -0.002825832227244973 0.0012365794973447919 7.2568777250126E-4 0.0027880107518285513 0.002185126766562462 -0.0019144013058394194 -0.001351905521005392 -9.686094126664102E-4 0.0018926021875813603 0.0021039468701928854 -0.0021651494316756725 -0.0038046392146497965 0.004756815265864134 -0.00362118287011981 0.0037996747996658087 0.0022009420208632946 9.455234394408762E-4 4.008460382465273E-4 0.0010162178659811616 -0.0017145067686215043 -0.0013580622617155313 -0.0013136479537934065 0.0014558371622115374 -0.003146954346448183 -0.003377349814400077 -0.004420364275574684 3.6549853393808007E-4 -0.001518168719485402 -0.0017885379493236542 0.00106786098331213 -0.003229757770895958 -0.004885450471192598 0.004630805924534798 0.002784527838230133 0.00312503962777555 -0.0017538083484396338 0.0018160127801820636 -0.004435469396412373 0.0032750903628766537 0.004723879974335432 0.0019912435673177242 -5.585643230006099E-4 0.0030415139626711607 0.004293282516300678 -0.001637436100281775 0.0014219328295439482 -3.2726049539633095E-4 -0.003948886413127184 0.0029305636417120695 -0.0025086081586778164 -1.35949972900562E-4 0.0018651775317266583 -0.0037079290486872196 0.0047488645650446415 0.004692248534411192 0.0027281607035547495 -7.255935342982411E-4 0.0019581574015319347 -1.6359935398213565E-4 -0.0017250332748517394 0.004320417530834675 -0.004140911623835564 0.003061967669054866 0.0016488229157403111 -9.733979823067784E-4 -0.004690010100603104 0.0030019935220479965 4.1345300269313157E-4 -0.002576418686658144 -0.00359179824590683 -5.718033062294126E-4 -0.002585900016129017 0.0011018175864592195 -0.002235537162050605 0.0016957545885816216 -0.002245936542749405 -0.0038700662553310394 -0.0017912611365318298 6.011681398376822E-4 0.003175531979650259 0.00308326561935246 2.0196325203869492E-4 -0.0034345753956586123 0.0036158107686787844 8.271255064755678E-4
but 0.0015137729933485389 0.004611508920788765 -0.005027509294450283 0.004520719405263662 -5.457506631501019E-4 -0.0013981234515085816 0.0010306970216333866 -0.0032451713923364878 0.0015741303795948625 -0.0035686108749359846 -0.004716644063591957 -0.0019111986039206386 0.0016949665732681751 0.0042672897689044476 0.001621504663489759 -0.004472806584089994 0.0036799153313040733 -4.276248218957335E-4 6.919177249073982E-4 8.872159523889422E-4 -0.0021513632964342833 5.780905485153198E-4 -0.0013988518621772528 8.195791160687804E-4 0.002619206439703703 0.0037912107072770596 -0.004016594495624304 5.029158783145249E-4 -0.004958071280270815 0.003365436801686883 0.004272471647709608 0.004144216887652874 0.002297322964295745 -0.0032462426461279392 0.0017957972595468163 -6.671660812571645E-4 0.004978203680366278 -0.004282733891159296 0.00414379732683301 0.0011874268529936671 -0.0012820056872442365 -5.3587113507092E-4 0.003116230946034193 -0.0026931175962090492 -6.881007575429976E-4 9.32774564716965E-4 0.002300064545124769 0.0029908346477895975 0.0037604141980409622 0.004716029390692711 -5.696620210073888E-4 -0.0012585658114403486 0.00284374738112092 -0.004157287534326315 0.0045315264724195 -0.004032225348055363 -0.0034216437488794327 0.0036229807883501053 0.002872201381251216 -3.3655809238553047E-4 -0.00437172083184123 -1.3645569561049342E-4 -0.004914398305118084 0.003609650069847703 -0.004619701765477657 7.906918181106448E-4 -0.0037707495503127575 -0.001097277388907969 -7.194681675173342E-4 -0.0020489103626459837 -0.0012528870720416307 0.004885671194642782 0.004409432411193848 0.0023026145063340664 7.654190994799137E-4 -7.587170694023371E-5 0.0013574155746027827 8.489929023198783E-4 -0.0039865304715931416 6.767400191165507E-4 -2.1133103291504085E-4 0.0043071843683719635 -0.0036584611516445875 -8.930823532864451E-4 -4.014823934994638E-5 2.5263632414862514E-4 0.0017055823700502515 -0.00276141962967813 -0.004173158202320337 -0.0047119008377194405 -0.0029834071174263954 0.004406807478517294 0.0044539314694702625 0.0010009306715801358 -0.003830753732472658 -0.004544502589851618 -5.552290240302682E-4 -0.003579323412850499 0.0016299023991450667 0.001674922532401979
no 0.0030998988077044487 -4.5468914322555065E-4 0.0029319259338080883 0.0020987738389521837 0.0017643878236413002 -0.00402104901149869 -0.003727806033566594 -0.001474064658395946 -0.003091630293056369 -0.0019753742963075638 0.0012130371760576963 -0.004152672830969095 0.0028374644462019205 -6.38827623333782E-4 7.385224453173578E-4 -0.004475961439311504 -0.0034006284549832344 -0.003126247553154826 2.60669068666175E-4 0.001082448405213654 0.0023057800717651844 -0.003927292302250862 0.0019230626057833433 0.0014746314845979214 0.0012252790620550513 -0.002111119218170643 -0.002393204253166914 0.0033262865617871284 -0.004600520245730877 -0.005020780488848686 0.004720563534647226 0.0011427957797423005 0.004365463275462389 0.0016991812735795975 -0.0013655464863404632 -0.0026923862751573324 -0.0038418439216911793 -0.0010475442977622151 0.0026155856903642416 7.610383909195662E-4 -6.096386932767928E-4 1.680983550613746E-4 -0.004295498598366976 -6.234665052033961E-4 -0.004457421135157347 -0.003912965767085552 -0.0016054639127105474 -0.001706484705209732 -0.0021341731771826744 0.001984195550903678 0.0038596750237047672 -0.0030280419159680605 0.002698799129575491 -0.0026588584296405315 0.003356254193931818 4.536640190053731E-4 -0.0011322315549477935 -8.523546857759356E-4 -8.663004846312106E-4 -0.003974972292780876 -0.002111515263095498 0.0011658184230327606 0.004513858817517757 6.859241402707994E-4 8.741471101529896E-4 0.0039754039607942104 -0.004263359121978283 0.0022224595304578543 0.003454189747571945 0.003167191054672003 -0.004114136099815369 0.0014348754193633795 -4.20865835621953E-5 -0.0024796894285827875 3.887301136273891E-4 -0.0022280572447925806 0.0015391630586236715 -0.0011220771120861173 0.0019958727061748505 0.0036918746773153543 -0.0018298515351489186 0.00463456567376852 0.003237661672756076 -0.004450091160833836 0.004760414361953735 2.977559925056994E-4 -7.762979948893189E-4 3.9805209962651134E-4 -0.004740310832858086 0.00379108265042305 -4.368552181404084E-4 -9.766757721081376E-4 0.001287881750613451 -7.068082340992987E-4 0.004120774567127228 -0.0011790497228503227 0.00167975970543921 -0.004299285355955362 0.0038982827682048082 7.752294186502695E-4
big -4.082105297129601E-4 0.004859375301748514 -0.0018020083662122488 0.0036570001393556595 0.0027388958260416985 -9.749352466315031E-4 -0.0032356041483581066 -0.004767958074808121 -5.355880130082369E-4 0.003954555373638868 -0.0013699551345780492 -0.002286771545186639 0.0021874920930713415 -0.0027089014183729887 -0.0033461167477071285 -0.0016862365882843733 8.66992340888828E-4 0.004766516387462616 0.0018054837128147483 -0.003330003935843706 0.0019110372522845864 0.004821759182959795 0.004390249028801918 -0.0010434987489134073 1.3777788262814283E-4 4.822363844141364E-4 5.766380345448852E-4 0.0015015596291050315 0.003466413589194417 -0.0037905878853052855 0.0040403394959867 0.004159478936344385 0.004547158721834421 -0.004181702621281147 0.004435421898961067 8.485487778671086E-4 -0.0023440865334123373 -0.004510974511504173 0.0038294410333037376 0.003645575139671564 -3.8720897282473743E-4 0.003979533910751343 2.520254347473383E-4 -5.802310188300908E-4 8.214539848268032E-4 0.004747609607875347 0.0037793468218296766 -0.0033720785286277533 -0.00482499785721302 -7.79396970756352E-4 0.0014219237491488457 0.0039042625576257706 0.003602325916290283 5.9799283917527646E-5 4.2794126784428954E-4 -0.003599715419113636 0.0048997350968420506 0.00235015619546175 0.0011074475478380919 -0.001522853272035718 -0.0012701129307970405 -0.0016206292202696204 0.0029316763393580914 -0.0047617326490581036 -0.002619372680783272 0.004649927373975515 -0.001084978342987597 0.0010171447647735476 0.002887928858399391 2.770196588244289E-4 4.498233611229807E-4 -0.0014329510740935802 -0.004894789308309555 0.004497660789638758 -0.00424715131521225 0.0018430170603096485 0.0035637642722576857 7.064700475893915E-4 0.002532708691433072 0.004989252891391516 0.004918931983411312 0.0012634036829695106 0.002173251938074827 -0.003029259154573083 -9.235799079760909E-4 -0.001974749378859997 0.0044363997876644135 0.003549038665369153 0.0018581940094009042 -0.003356227418407798 6.953100091777742E-5 3.110480320174247E-4 9.241081424988806E-4 -0.0020862973760813475 -0.0015140778850764036 3.608659899327904E-4 9.349536267109215E-4 -0.0015909546054899693 -5.51374745555222E-4 -0.0015413172077387571
obama 0.0037739325780421495 0.002111750189214945 -0.004050265997648239 -0.004023035056889057 0.002746436046436429 -0.0035523464903235435 8.80245235748589E-4 0.001191381481476128 -0.0032660223077982664 0.003756175981834531 0.0040301913395524025 0.0022052822168916464 0.002951790113002062 -2.7688019326888025E-4 -0.003147014882415533 -0.0021507900673896074 0.0021262243390083313 -7.733422098681331E-4 0.002798233414068818 -8.97188379894942E-4 -6.05679873842746E-4 -0.0042467680759727955 4.5658049202756956E-5 -0.0012191568966954947 0.002929004840552807 -1.4490711328107864E-4 -0.003916178829967976 -0.004266135860234499 -5.403356626629829E-4 0.0024255486205220222 -0.003541022539138794 0.004763706121593714 -0.00438197935000062 0.004781641066074371 0.0014110530028119683 -0.0012711044400930405 0.0019084381638094783 -0.003999591805040836 0.0021572490222752094 0.001959709683433175 0.0021380039397627115 -0.0013215758372098207 -0.0035114875063300133 1.259747805306688E-4 9.206768590956926E-4 -0.0014983507571741939 -0.0021077205892652273 0.002153365407139063 0.001824621227569878 -3.3196230651810765E-4 -0.003002065932378173 0.003911762032657862 -0.001748385839164257 -0.0014782827347517014 4.1209603659808636E-4 0.003452328033745289 -0.0012533239787444472 -2.4672073777765036E-4 -0.004686640575528145 0.0033419940154999495 -0.0011322239879518747 0.0019142639357596636 -0.004588776268064976 -0.0010712862713262439 0.0025176398921757936 -0.004647348076105118 0.0033270171843469143 0.0014721181942149997 7.18386028893292E-4 0.0015261920634657145 0.0034835715778172016 -0.0028219386003911495 0.0025911731645464897 0.002401069039478898 5.774495075456798E-4 -0.0038171145133674145 0.00236403476446867 7.598591619171202E-4 0.0022531619761139154 -0.004361771512776613 -3.0573474941775203E-4 0.0034699442330747843 0.002800201065838337 -0.003463808912783861 7.615431095473468E-4 0.004252542741596699 0.002947624074295163 -4.927060581394471E-5 -0.0037020978052169085 -0.0021680688951164484 9.649071143940091E-4 0.0027358336374163628 0.0018940409645438194 0.0014672878896817565 0.002255038358271122 0.0043135350570082664 -0.0026450122240930796 0.003714795457199216 -0.003872966393828392 0.0034401623997837305
about -0.003437378443777561 -0.0032612569630146027 0.0010276796529069543 -0.004114508628845215 3.685690462589264E-4 6.660483632003888E-5 -0.004228372126817703 8.712720591574907E-4 9.579992620274425E-4 0.0023265304043889046 -0.004112711641937494 0.004687437321990728 0.0025411664973944426 8.066418813541532E-4 0.0037476166617125273 -0.0012769188033416867 0.004981126170605421 8.79904197063297E-4 0.003343048971146345 0.0027368369046598673 -0.002781977178528905 0.0018877562833949924 5.236066645011306E-4 0.0016987628769129515 -0.002124808495864272 -0.0039327810518443584 -3.320799733046442E-4 -0.0016487461980432272 0.001267292071133852 0.0014576687244698405 -0.001022864249534905 -0.0012020627036690712 -0.0023979106917977333 -0.002101246966049075 -0.00105810328386724 -0.0033729663118720055 0.004313696175813675 7.83950905315578E-4 -0.0013650883920490742 -7.639828254468739E-4 3.452940727584064E-4 -0.004887285642325878 0.002044441644102335 -0.0015641830395907164 -0.0018121555913239717 -0.0014666445786133409 0.003682835027575493 -7.045039092190564E-4 0.0029200983699411154 -0.002006766851991415 0.0016171385068446398 0.0023959509562700987 0.002091722097247839 -0.004089410416781902 -0.0038613418582826853 0.003542561549693346 0.004965248052030802 -0.004403529688715935 -0.0012516435235738754 0.00286875874735415 -0.003656881395727396 0.002882731379941106 0.0022532236762344837 -0.0030717540066689253 0.002031296258792281 0.0019057606114074588 -0.0011846760753542185 -0.004074341617524624 -0.0018237553304061294 -0.0043940069153904915 0.0022228595335036516 0.004599880427122116 -0.003909229300916195 8.681394974701107E-4 0.0028817662969231606 -0.002174349268898368 -0.004103846848011017 -0.0018180172191932797 0.002333142329007387 0.004065526649355888 -9.254184551537037E-4 -0.00173118244856596 0.002538846107199788 -0.0033972347155213356 -0.0014521845150738955 -0.0037208683788776398 -0.0044312854297459126 -9.640537900850177E-4 -0.004391344729810953 -0.00395913515239954 -0.004778399597853422 -0.0038226793985813856 0.0019569885917007923 -0.0010556732304394245 -6.043934845365584E-4 -4.654467629734427E-4 0.004711097106337547 0.0033588428050279617 -0.0022035345900803804 -0.0022304945159703493
lol 0.003446845803409815 -0.002231842139735818 -0.0010030466364696622 -0.0022593196481466293 0.004986071027815342 -0.003575599752366543 0.002860776614397764 -0.004841367248445749 0.0017922933911904693 -6.350874900817871E-4 -0.0010507419938221574 0.0028389650397002697 0.0032722868490964174 6.83170510455966E-4 -0.002774338936433196 -1.1525864101713523E-4 -0.0014926932053640485 0.001896601403132081 -9.956250141840428E-5 -0.0011130848433822393 0.003970957826822996 0.003472172422334552 0.0035855374298989773 6.095266435295343E-4 5.482306005433202E-4 0.002126425039023161 0.003980654291808605 -0.004555055405944586 0.002368145389482379 -0.0029912579338997602 0.002074623480439186 -3.285978455096483E-4 -0.0027634664438664913 -9.524367051199079E-4 0.0035634234081953764 -3.3049139892682433E-4 0.005001493263989687 9.483585599809885E-4 -0.0010356532875448465 0.0037371478974819183 -0.0024928483180701733 0.0037351639475673437 -8.990968490252271E-5 0.005001025274395943 0.0016873618587851524 0.0014690227108076215 -0.0015983427874743938 -0.003184371395036578 0.00472472608089447 -0.003451197873800993 -0.004192178137600422 0.0036530746147036552 0.001641531358473003 0.0015714092878624797 -0.0035100949462503195 -0.003509951289743185 -0.0015448761405423284 -4.68595651909709E-4 0.003991948906332254 -0.002144372323527932 -0.0029629264026880264 -0.0026638652198016644 -0.0031071335542947054 0.004024687223136425 -1.9199063535779715E-4 -0.001621078234165907 -0.0015790259931236506 -0.003871169174090028 -0.004263223148882389 0.0038063577376306057 -0.0038079016376286745 0.004253070335835218 0.0034345427993685007 -0.003667134093120694 -0.004129223059862852 -0.0010394310811534524 -0.0032577032689005136 -0.002348593669012189 -0.003936049062758684 0.0033311203587800264 -8.397718775086105E-4 0.0016119321808218956 0.0013798912987113 -0.003096082480624318 -0.0020562156569212675 -0.0013587087159976363 0.002535292413085699 -0.003489244496449828 0.004426138941198587 -0.004296200815588236 0.0026277671568095684 -0.003825492225587368 0.0016430687392130494 0.0036277344916015863 -0.0027973514515906572 -9.667755803093314E-4 -0.001427830895408988 -0.0028337035328149796 0.0031848358921706676 0.0030703148804605007
for 0.0015359268290922046 8.170108194462955E-4 -9.205354144796729E-4 0.0045326887629926205 1.6377617430407554E-4 -0.001737851882353425 0.00415071751922369 -0.0018839736003428698 0.003313950030133128 8.529110345989466E-4 0.003742652479559183 -2.5274662766605616E-4 0.002055847318843007 -0.002980122808367014 0.0012428776826709509 0.0024807362351566553 4.80115064419806E-4 1.4681795437354594E-4 4.4940575025975704E-4 0.0012822302524000406 -0.003516983240842819 -0.0027548049110919237 -5.642223404720426E-4 0.001914991531521082 -0.0015455624088644981 -0.0018632684368640184 0.004768471699208021 -0.0029664933681488037 -0.0018872872460633516 1.394950522808358E-4 8.17606458440423E-4 0.004521062597632408 0.0032314234413206577 0.003207800444215536 4.1810760740190744E-4 -0.003972400911152363 -0.0036360661033540964 -0.0040021250024437904 -0.0040987818501889706 0.0023479657247662544 -8.241544710472226E-4 4.131642053835094E-4 -0.0043215579353272915 0.0049683088436722755 -1.1553317017387599E-4 -2.8222656692378223E-4 -0.0020549308974295855 0.004237965680658817 0.0023559927940368652 0.003761329920962453 0.003354045795276761 1.4659191947430372E-4 -0.0017473358893767 0.004957106430083513 -7.074196473695338E-4 3.0510927899740636E-4 0.0021164752542972565 0.004525383003056049 0.0036078444682061672 -0.00157582713291049 -0.002145027043297887 -0.0020614382810890675 5.663097836077213E-4 0.003423131536692381 -0.0042951712384819984 -0.004980865400284529 0.0037839962169528008 -0.003339762333780527 3.249756118748337E-4 0.004316559061408043 -0.0013190412428230047 5.890523898415267E-4 -0.0013860237086191773 0.0017167807091027498 -2.1623940847348422E-4 0.0031205988489091396 -0.0033443053252995014 -0.0032097736839205027 -0.003810170106589794 0.0016282189171761274 -0.0020232554525136948 0.00501060439273715 0.0037043390329927206 0.003874002955853939 7.853849092498422E-5 5.198388244025409E-4 -4.149259184487164E-4 -3.684484981931746E-4 5.927854217588902E-4 0.0011593650560826063 -0.0038038697093725204 -0.0023138115648180246 0.0021154223941266537 -7.716512191109359E-4 4.801205650437623E-4 0.004756118170917034 0.0025154645554721355 -0.0013515802565962076 -0.0045713442377746105 0.001130577176809311
best -5.457100342027843E-4 0.0027946250047534704 -2.979899581987411E-4 5.960534326732159E-4 -0.0023298391606658697 0.003430397482588887 -0.0022707111202180386 -0.001381650217808783 -0.002529841149225831 -0.0039924997836351395 -6.556801381520927E-4 -0.0012297820067033172 0.003893180750310421 -3.2953041954897344E-4 0.0020446490962058306 -0.004138091113418341 -0.003068870399147272 0.0017089181346818805 -0.0030278731137514114 0.00355920591391623 -0.0029019953217357397 0.003343987977132201 0.004267719108611345 0.0014917555963620543 -0.004650725517421961 -0.0037596551701426506 0.004377753473818302 0.0030514663085341454 0.004934107884764671 0.003369161393493414 0.0024181262124329805 -0.0025670805480331182 6.376530509442091E-4 0.0028679422102868557 -0.0019128614803776145 0.002908135764300823 -0.0035176523961126804 -0.002815894316881895 -0.0018159049795940518 -0.0026637320406734943 1.1218029976589605E-4 -0.0011721045011654496 0.0040687071159482 5.09871868416667E-4 0.0038825473748147488 0.0045955730602145195 -0.002404815750196576 0.0032824992667883635 2.9990365146659315E-4 -0.0017008549766615033 -8.739909972064197E-4 1.9491615239530802E-4 -0.00319810607470572 0.0015156922163441777 0.0011819201754406095 0.002106352709233761 0.0045196861028671265 -0.0023184949532151222 -0.005023113451898098 0.0030170013196766376 7.840513717383146E-6 -0.0022641723044216633 -0.0025298180989921093 0.0013182370457798243 -0.0014206181513145566 0.0033279636409133673 -2.490389160811901E-4 0.0027179487515240908 -0.0013484457740560174 0.0034430986270308495 0.003982755355536938 -0.0017313993303105235 -0.004496231209486723 0.003802610095590353 -0.0015727586578577757 0.001454290933907032 4.0070718387141824E-4 0.003942806739360094 0.0027443505823612213 -0.004954653792083263 0.004224088508635759 0.00236662314273417 -0.0030347956344485283 0.001642215414904058 -0.004068313166499138 1.6524580132681876E-4 0.002344053238630295 0.0033131653908640146 8.15931532997638E-4 0.001467017806135118 0.004846910014748573 -0.0019310833886265755 -0.002725012367591262 -0.003157144645228982 0.0022478620521724224 -0.004910528659820557 -0.0025387934874743223 0.0024079589638859034 0.004383991006761789 0.0017592101357877254
had -5.4486896260641515E-5 0.004199921619147062 -0.003786893794313073 -0.0011423263931646943 -2.7033142396248877E-4 -0.0045843180269002914 0.002389795146882534 -0.003306321334093809 0.002480293856933713 -5.46615628991276E-4 0.003035516245290637 0.002819051733240485 -0.00306069478392601 0.003205700544640422 0.004591258708387613 -2.12025290238671E-4 -0.0015692654997110367 0.004185524769127369 -0.0034261560067534447 -0.004464376717805862 0.0024879430420696735 0.003115710336714983 -0.0018090135417878628 0.0049161785282194614 -0.0035692895762622356 -0.0011732978746294975 7.002789643593132E-4 0.0030964447651058435 -0.0010440831538289785 5.66153263207525E-4 0.0026389057748019695 0.0034483633935451508 0.001343540963716805 -0.002544251037761569 -0.0035863835364580154 -6.195183959789574E-4 -0.0037813750095665455 -0.0012815685477107763 -0.004210909828543663 -0.0037940070033073425 -0.0023811894934624434 0.0037165689282119274 0.004062229301780462 -0.004706922918558121 0.0013747259508818388 -0.002465250436216593 2.0145229063928127E-4 0.004948541056364775 0.003188620787113905 -0.003918221686035395 0.0023457736242562532 0.004184370394796133 6.662871455773711E-4 0.004213649779558182 0.0012924993643537164 -0.0042205010540783405 0.0038764532655477524 0.003699356457218528 0.004732875619083643 4.496116889640689E-4 0.003952601924538612 -0.004830887541174889 0.002086889697238803 8.185800979845226E-4 -0.0031221231911331415 0.004024074412882328 -8.248977974290028E-5 0.002239507157355547 -0.0014578757109120488 -3.7058282759971917E-4 0.0023311390541493893 -0.001989288255572319 8.790600695647299E-4 -0.0016586770070716739 -0.0042515648528933525 2.9823777731508017E-4 -0.004317113664001226 7.577048963867128E-4 0.003811029950156808 0.0020133969374001026 -0.0025096905883401632 4.640007682610303E-4 0.001431184820830822 -0.003364495700225234 0.002424777951091528 0.0022561054211109877 0.00315496395342052 0.0044169663451612 0.002658015349879861 0.003314530709758401 0.0035976548679172993 0.0032934260088950396 -0.0038839250337332487 0.0010878879111260176 -0.00296280300244689 -0.0027176968287676573 -0.003477370599284768 6.400662823580205E-4 -1.1304263352940325E-5 -0.0046293423511087894
correspondents -0.0012152642011642456 -7.577133364975452E-4 -0.004998623859137297 -0.0048646507784724236 -0.0029328097589313984 9.349837200716138E-4 -0.0022049841936677694 -0.0012910562800243497 0.003992116078734398 0.004697553347796202 0.0023791533894836903 -0.0036468645557761192 0.002919716527685523 -0.004190622363239527 -0.001711711403913796 0.0031208714935928583 -0.0029351927805691957 -0.0019733821973204613 0.003306207712739706 -0.001371109625324607 0.004283562768250704 0.003654306987300515 -0.002600934123620391 -0.0032088235020637512 -0.003423709888011217 0.0035889281425625086 0.0018704116810113192 -0.004909812938421965 0.002372495364397764 -3.6851284676231444E-4 -0.0012452451046556234 0.0011310647241771221 -0.004075647331774235 0.0043302373960614204 -3.684234688989818E-4 4.702038422692567E-4 6.817698158556595E-5 0.0035465224646031857 0.0018337552901357412 -0.004814289044588804 -0.004876005928963423 0.003973140846937895 0.0026998529210686684 0.0029509393498301506 -0.003963107708841562 0.004870608448982239 0.004846119787544012 0.0032928946893662214 0.0027172360569238663 0.003330031642690301 -6.006069015711546E-4 -0.004124306607991457 0.004515599459409714 -0.003198979189619422 -0.0032623738516122103 -0.004149596206843853 0.0023422667291015387 -6.335387588478625E-4 -0.0019300305284559727 -0.004263455513864756 -6.945658242329955E-4 7.838710444048047E-4 -0.0031280936673283577 -0.005043297540396452 -0.001619605696760118 -0.0023251560050994158 0.004997038282454014 -0.0032922469545155764 0.004105434753000736 -0.0011866523418575525 6.04393775574863E-4 4.0532753337174654E-4 0.004427958279848099 2.5606085546314716E-4 0.0030611983966082335 -0.0049761696718633175 1.630304177524522E-4 -0.003916105255484581 -0.0013401481555774808 0.0033000209368765354 0.002039539162069559 -0.0036501495633274317 -0.00420510396361351 -0.0010523049859330058 0.0015978337032720447 0.0016917915781959891 0.004793057683855295 0.0030664431396871805 -0.002015412785112858 0.004182468634098768 0.004353814292699099 0.0025746175087988377 -0.004327673930674791 -0.0021287621930241585 -0.004694168455898762 0.0021504941396415234 1.8387704039923847E-4 0.0035365023650228977 -0.0022256614174693823 -5.559351411648095E-4
beast -5.042810225859284E-4 0.002247918164357543 -0.0019228796008974314 -0.0021136808209121227 0.0021307803690433502 -8.953410433605313E-4 -0.0020641109440475702 0.004382569808512926 -0.004231397062540054 -0.003047478385269642 -0.0034706750884652138 6.649303832091391E-4 -0.004385804757475853 8.844328112900257E-4 -0.0034814646933227777 0.0031276934314519167 -0.003591835033148527 0.00313119450584054 -0.0011810041032731533 6.741323159076273E-4 -0.00398863572627306 -0.0033834115602076054 0.002153027104213834 -0.004530745558440685 -0.003946502227336168 -0.0010278784902766347 -5.892279441468418E-4 -0.002580766100436449 -0.0026116902008652687 0.0032601673156023026 -0.0022913492284715176 0.0011129060294479132 -0.0031847278587520123 -9.161157067865133E-4 0.0015459525166079402 -0.00494792778044939 -4.889686242677271E-4 0.0028940699994564056 6.842678994871676E-4 0.0036507565528154373 -0.0023345022927969694 -0.0011840139050036669 0.002877594903111458 -0.0016356906853616238 -9.840219281613827E-4 -0.002182835480198264 -2.05203949008137E-4 -5.000425735488534E-4 -0.004912779666483402 1.7442918033339083E-4 0.00400787778198719 -7.92328966781497E-4 -0.0017764887306839228 0.00418273638933897 0.0012961783213540912 0.003509168280288577 -0.004410475958138704 0.001028421800583601 4.7150670434348285E-4 -6.060877931304276E-4 2.710073604248464E-4 0.00391882611438632 -5.698106251657009E-4 -0.0022639459930360317 0.0024897258263081312 -8.883900009095669E-4 -0.002436347771435976 2.6477157371118665E-4 -0.0048338486813008785 0.004838660359382629 -0.004571843892335892 0.003289806889370084 -0.002212274819612503 0.0031034231651574373 -0.0047368211671710014 -0.0019207258010283113 -0.0017222089227288961 -0.0028865663334727287 -0.0027815946377813816 0.0021993364207446575 0.0017873647157102823 0.0038639139384031296 5.018573720008135E-4 5.890250904485583E-4 2.895988873206079E-4 0.003280501812696457 1.347150100627914E-5 -0.0037818262353539467 -4.1010614950209856E-4 0.004145544953644276 -0.0031716376543045044 0.003584815189242363 0.0028854564297944307 0.004699787590652704 -0.0013817003928124905 -0.00302288425154984 -0.004561217967420816 -0.003507885616272688 -0.003567852545529604 0.004927728325128555
house 2.424255944788456E-5 -0.0012410166673362255 8.704436477273703E-4 0.0016885543009266257 0.00476823840290308 -0.00396028533577919 0.00221524597145617 -0.004915513098239899 0.0017500844551250339 0.0021264380775392056 8.670953684486449E-4 0.004781344905495644 0.0017483944538980722 -0.001370102516375482 -0.0014575828099623322 -0.0014257495058700442 0.0010028653778135777 -0.0029238276183605194 -0.0015476730186492205 0.0026040305383503437 -0.001822010613977909 -0.0036318458151072264 1.5255282050929964E-4 0.002838412532582879 -0.002681440208107233 0.0023779436014592648 0.003140847897157073 0.002568646101281047 0.001224579056724906 0.003077051369473338 -0.0021909617353230715 -5.155836697667837E-4 0.0030053516384214163 -2.789915888570249E-4 0.0019902586936950684 0.004783546552062035 0.0021829961333423853 0.0047592888586223125 -0.0022844376508146524 -0.0013312386581674218 0.001015642425045371 0.0022386449854820967 0.0039060390554368496 -0.002440217649564147 -1.6323123418260366E-5 -0.00269333366304636 -0.0020919321104884148 0.004243603907525539 -0.004470452666282654 -0.004533018916845322 0.002917896956205368 -0.002886731643229723 -0.0034185033291578293 -0.001037808135151863 0.003749010618776083 -0.003526140470057726 -0.0011613781098276377 -0.0042563872411847115 -8.345965179614723E-4 0.0037591399159282446 0.0018960414454340935 5.2353760111145675E-5 -0.004402552265673876 -0.004342836327850819 0.004286069888621569 0.0012935377890244126 -6.828276091255248E-4 -0.0036024258006364107 -4.1911096195690334E-4 -0.004827416501939297 -0.004674025811254978 0.0023835538886487484 -0.001306887250393629 0.003580269170925021 7.223392021842301E-4 -0.0014778198674321175 -0.003564639948308468 -0.003777999198064208 -0.0012518235016614199 -5.851871101185679E-4 0.0016929913545027375 0.0011279020691290498 -0.003008293453603983 -0.004916728474199772 0.0014583485899493098 7.007766398601234E-4 -0.00208080536685884 -0.001397305284626782 -0.0017101587727665901 0.0017126566963270307 0.004635910037904978 -0.004631590563803911 -0.004875664133578539 -0.002776853274554014 0.0031476097647100687 -0.002511201426386833 -0.0013645729050040245 -0.0033463032450526953 0.0012145695509389043 0.0016097987536340952
good -0.0047953384928405285 8.872647304087877E-4 -0.001888249651528895 7.965394761413336E-4 -0.004181043244898319 -0.004024243913590908 -5.975508829578757E-4 0.002215104177594185 0.0042641181498765945 0.004944486543536186 0.004115855786949396 -0.001726530259475112 0.004613055381923914 0.004187832120805979 0.00369507004506886 -0.0036535353865474463 -0.002148962579667568 -0.003637877758592367 -4.133311813347973E-5 -0.004228610545396805 -0.0010435135336592793 0.0017666431376710534 0.003949635196477175 0.0034195086918771267 0.0025001789908856153 -0.004233775194734335 -0.004014249425381422 -5.714825238101184E-4 7.189734606072307E-5 0.002892852295190096 -0.004578794352710247 0.004392796196043491 -0.004658397752791643 -0.004791442304849625 -0.0025118677876889706 -0.002794788219034672 -0.0013459539040923119 0.0021039603743702173 -0.0016419230960309505 0.004597691353410482 -0.0019586291164159775 -0.0015536268474534154 -0.004792293068021536 -0.0047233616933226585 -0.004981634672731161 -8.027147850953043E-5 2.8549376293085515E-4 0.004747304134070873 0.0013015724252909422 -0.0031342238653451204 -0.004794335924088955 -0.002811862388625741 0.002752934815362096 0.0014597527915611863 0.0019583567045629025 0.004737928044050932 -6.906266207806766E-4 0.0025221973191946745 -6.997690070420504E-4 -0.0033943213056772947 8.181172306649387E-4 -0.0035252212546765804 -0.003027178579941392 -8.028473239392042E-4 -8.757078903727233E-4 -0.0021213532891124487 -6.775411311537027E-4 0.003343473421409726 -0.0025982537772506475 -0.002838919870555401 -0.0010415514698252082 0.0037374915555119514 9.996460285037756E-4 -0.003469033632427454 -9.879109711619094E-6 0.0023352722637355328 -0.0036493849474936724 -0.0027786754071712494 0.0044979252852499485 0.0015902260784059763 0.0036203747149556875 6.528960075229406E-4 0.0011196776758879423 0.004416999872773886 6.425451138056815E-4 0.001404089154675603 0.0013295693788677454 -0.00250147539190948 4.500335198827088E-4 -6.123758503235877E-4 0.003875343594700098 -0.004284827969968319 0.005035735666751862 1.6676963241479825E-6 0.0037530206609517336 0.004117547068744898 0.0015306175919249654 -9.350400068797171E-5 -0.0011452992912381887 -0.003052367130294442
out -0.004354279022663832 -0.0018431111238896847 -0.0034102352801710367 -0.002764868550002575 0.0021805057767778635 -0.0035569213796406984 -3.008865751326084E-4 -3.13353753881529E-4 0.001858741044998169 -3.642035007942468E-4 -8.648116490803659E-4 0.001586020807735622 0.002838696585968137 0.0028718295507133007 -0.0033470937050879 -0.0019296718528494239 -0.002902661683037877 -0.0018577540758997202 0.002862717257812619 -3.134094295091927E-4 -0.0011045276187360287 -7.137756911106408E-4 -0.004072410985827446 3.619072667788714E-4 2.055575023405254E-4 0.0037288314197212458 -0.0022897515445947647 0.0020168572664260864 -0.0034622251987457275 0.002244270406663418 0.004766510333865881 -0.0015355286886915565 0.004547509364783764 0.0015000422718003392 -0.0010173997143283486 -0.0026776299346238375 0.0017612597439438105 0.0024013477377593517 -0.0012097232975065708 -0.0035341999027878046 0.0020190721843391657 0.003086706856265664 -0.001725326175801456 0.004206594545394182 1.7216474225278944E-4 0.0010610016761347651 -0.0021239446941763163 -0.0017883507534861565 0.0010344987967982888 -0.0035614825319498777 -7.54056207370013E-4 -0.004665355198085308 0.003959569614380598 -0.0035685463808476925 -0.003829407971352339 -7.334816618822515E-4 0.004272101446986198 -9.621526696719229E-4 -3.795968077611178E-4 0.0024343798868358135 0.003425505943596363 -0.0029011282604187727 -0.004854688886553049 6.258983630686998E-4 -0.003807656466960907 -0.0031217937357723713 -0.0031641069799661636 -0.0019353475654497743 1.4869669394101948E-4 0.004223525524139404 0.0015090632950887084 -0.0034333104267716408 -0.002940085018053651 0.0026098128873854876 -0.003325236029922962 -0.003389701247215271 -0.004044932313263416 -0.0015735706547275186 -0.0021995757706463337 -0.002278426894918084 -0.0035615619271993637 -0.004225368611514568 9.490186930634081E-4 -0.001324436510913074 0.002082044491544366 -0.0014451848110184073 -0.004457131493836641 -0.0030858858954161406 0.0025955012533813715 -0.002646558452397585 -0.002804482588544488 0.0011604101164266467 0.0025441504549235106 -0.0013793980469927192 0.0038688750937581062 -0.004950313363224268 -0.003459503408521414 4.0118195465765893E-4 0.0013584212865680456 0.0034206996206194162
that -0.0021508566569536924 -0.002895423909649253 -0.004254299681633711 -2.871647011488676E-4 -0.002734186127781868 0.0047594397328794 -7.179377134889364E-4 0.0010365165071561933 2.7146856882609427E-4 -0.004876217804849148 0.0032776964362710714 -0.00376882404088974 0.004148783162236214 0.0016032288549467921 -0.003666392993181944 -0.0032050281297415495 8.894922793842852E-4 0.002655311021953821 -0.004765759687870741 -0.0017984530422836542 -0.003022323828190565 0.004691439680755138 -0.003619046416133642 -0.0032886345870792866 0.004512794781476259 0.0011428706347942352 -0.002649294212460518 0.00403604656457901 0.0036810042802244425 -0.0030930684879422188 0.0020627721678465605 0.0010423532221466303 -0.004086160100996494 -0.0013914562296122313 -0.001974893966689706 -7.409074460156262E-4 1.9532098667696118E-4 0.0023921772371977568 -7.25813559256494E-4 0.0027409575413912535 0.004937965422868729 0.004457076545804739 -0.0013489749981090426 -0.0032983978744596243 0.0034014596603810787 -4.838806053157896E-4 0.004485397133976221 0.0011903237318620086 -0.0026577753014862537 0.0035936024505645037 -0.004752898123115301 -4.980016383342445E-4 -0.0011720738839358091 -0.0029859261121600866 -0.0026682971511036158 -0.003942263312637806 -0.004220024682581425 -0.004182835109531879 -0.0030634975992143154 -0.0022376151755452156 0.0039080227725207806 8.170448709279299E-4 0.0038762541953474283 -3.2578464015387E-4 0.00189322663936764 -0.003905537072569132 -0.0032071296591311693 -0.0017086382722482085 0.001456463010981679 5.635566776618361E-4 0.0024567393120378256 0.0015846507158130407 0.004452290013432503 0.003463849425315857 -0.004064973443746567 -0.0033632616978138685 0.00229540653526783 -0.0034210369922220707 0.003834146074950695 -0.0010799220763146877 -0.0018299657385796309 0.001087108044885099 -9.528343070996925E-5 -0.0034316310193389654 -9.636335889808834E-4 -0.0047919549979269505 0.003974527586251497 -0.0033693474251776934 -0.004031134303659201 -0.00406521325930953 -0.0012878990964964032 0.00415683863684535 0.00502417329698801 -3.194223972968757E-4 0.0027987819630652666 -0.0038759042508900166 -0.0012718548532575369 0.0035613018553704023 0.0017834088066592813 -0.0021311319433152676
not -0.0039212401024997234 0.0038426790852099657 -0.00467331986874342 0.002317225793376565 -4.542713286355138E-4 0.003955405205488205 0.004275693092495203 -7.903096848167479E-4 -0.0010078790364786983 0.004304730799049139 0.0020618014968931675 0.003437298582866788 9.216808248311281E-4 0.0018450432689860463 -5.994640523567796E-4 0.003883728524670005 -0.003704592352733016 -5.360124632716179E-4 0.0025989932473748922 0.00141932163387537 0.0037847047206014395 -0.004924342501908541 0.00332716666162014 -0.004677861928939819 0.0013710600323975086 -0.004224772099405527 -0.0025501453783363104 0.0041826097294688225 0.0025972442235797644 -0.0039090258069336414 0.0025664737913757563 0.001402431633323431 7.767367060296237E-4 -0.002102498896420002 -0.0034227464348077774 0.004569560289382935 0.003398886416107416 -0.0017354667652398348 0.0030707193072885275 4.2582550668157637E-4 -0.004917730111628771 -0.0018895259127020836 0.0030312484595924616 -7.690275670029223E-4 0.0030315539333969355 0.003536408068612218 -0.004448853898793459 0.003621026873588562 0.0014298950554803014 -2.4862922145985067E-4 0.001571855740621686 0.00194695801474154 -0.0013455994194373488 -0.0035900373477488756 0.004414045717567205 0.004842111840844154 -0.0038286324124783278 -0.0016265674494206905 -2.647179353516549E-4 0.004137367941439152 -1.3421672338154167E-4 0.001598236383870244 0.003510491456836462 0.0031156474724411964 0.0025816066190600395 7.71128834458068E-5 0.0014355015009641647 -0.0017386972904205322 -0.0010384973138570786 0.004490955732762814 0.00487950723618269 0.002810729667544365 -0.003437761915847659 -0.0010389793897047639 -0.0031565448734909296 0.0030244223307818174 0.002453424734994769 -0.0026340405456721783 3.1416851561516523E-4 0.0034199657384306192 -0.001331688603386283 -0.0010651744669303298 -0.0020034583285450935 0.0011187660275027156 5.338382907211781E-4 -0.004125793464481831 0.0010078231571242213 1.8330346210859716E-4 -8.826922858133912E-4 0.0019268107134848833 -0.003803457599133253 0.0029465227853506804 0.004426825325936079 -0.0032726407516747713 0.003882325952872634 0.0014521037228405476 0.0016832273686304688 -0.0034786825999617577 0.004140992183238268 0.001185112283565104
and 0.004438627045601606 0.001224974635988474 0.001675444538705051 -0.004859841428697109 0.003665410913527012 0.0034986946266144514 -0.003239196725189686 -4.071056318935007E-4 -0.004403683356940746 -0.0030548912473022938 -0.004601233173161745 0.0022631892934441566 0.0035391757264733315 -7.159692468121648E-4 0.002679251367226243 -0.004647291265428066 0.002480192808434367 0.003745084861293435 -0.0022938952315598726 -0.004199816379696131 -0.0015344044659286737 -0.0033231580164283514 -0.0031363987363874912 -0.001181787927635014 0.00488309608772397 -8.138093980960548E-4 -0.004943004343658686 0.0040713087655603886 0.0023356194142252207 0.004358105361461639 0.0020843702368438244 0.0021396405063569546 0.004276301711797714 -0.003510198323056102 -0.0016108928248286247 -0.004265849012881517 -0.0035124183632433414 1.8097294378094375E-4 0.0018627367680892348 -0.0028817427810281515 0.0022578593343496323 -3.926507488358766E-4 0.002396651543676853 0.0035351167898625135 -0.001507103443145752 0.00441084336489439 -3.4770232741720974E-4 -0.0011156192049384117 0.004162703175097704 -0.0021492871455848217 5.011538160033524E-4 -0.0026755579747259617 0.0024838484823703766 -0.0035559532698243856 -0.0032749802339822054 0.003546598833054304 -7.855597650632262E-4 -4.1556943324394524E-4 0.002271187026053667 0.003547854255884886 0.002575780963525176 4.7122625983320177E-4 0.0038005083333700895 0.004851826932281256 -9.353646310046315E-4 0.0011490534525364637 -0.002558570122346282 -0.003342851996421814 0.00394338509067893 0.004813932813704014 0.0011973081855103374 -0.003687287913635373 0.001092962920665741 -0.0037595664616674185 0.004911670461297035 -0.004845734685659409 -5.460417596623302E-4 -0.004174121655523777 -0.0021216850727796555 0.002152124885469675 0.004758384544402361 -0.0023260004818439484 0.002053716918453574 0.0028604178223758936 -0.0045313285663723946 -0.0038434043526649475 0.00208495557308197 -0.0034389803186059 -5.909522296860814E-4 0.0020360187627375126 0.003496528137475252 -9.77147719822824E-4 0.001549323438666761 0.003661472350358963 -0.004368119407445192 0.0012401625281199813 0.0038778954185545444 -0.0019270958146080375 -0.0029475619085133076 0.0036622928455471992
of -0.002544970251619816 5.806306144222617E-4 0.002388437045738101 0.0020845155231654644 0.0012586599914357066 -0.0010904542868956923 7.729556527920067E-4 0.001310020568780601 0.004523060750216246 0.0033937208354473114 5.208465154282749E-4 3.524665953591466E-4 -0.0045555527321994305 -0.0018016431713476777 -4.5906644663773477E-4 -0.0022403199691325426 -4.3578376062214375E-4 0.003837320487946272 5.424552364274859E-4 6.20046688709408E-4 -0.004067352041602135 -0.004292342811822891 0.0030753002502024174 -0.0036421664990484715 0.0029688728973269463 -0.002285529160872102 -0.002808687509968877 -0.0030614600982517004 -0.0030494877137243748 -2.973241498693824E-4 -0.0013154082698747516 -0.0024801280815154314 0.004271733574569225 0.0028058800380676985 0.001676058629527688 0.004867789335548878 0.004039613530039787 0.004700620658695698 8.923480054363608E-4 0.0016584061086177826 -0.0032082204706966877 -0.0011008679866790771 0.002150601940229535 0.0030929092317819595 -0.004948664456605911 0.003351666498929262 -0.004724153783172369 0.0030530833173543215 0.003408443881198764 0.0018696313491091132 -0.004048151895403862 -0.0026765293441712856 3.69745452189818E-4 0.0013943735975772142 0.0019639942329376936 -5.110728088766336E-4 -0.001481029437854886 8.962118590716273E-5 0.001139179803431034 -0.0026396578177809715 6.328196468530223E-5 0.0027022326830774546 -0.004778823349624872 0.0024981272872537374 -8.56122060213238E-4 -0.0036364642437547445 -0.004740092903375626 0.0010036610765382648 2.922187850344926E-4 0.0012723371619358659 -0.0010813991539180279 0.002974843140691519 -8.166696643456817E-4 0.004721957258880138 -0.002980927936732769 0.0015495942207053304 0.0010659523541107774 0.00152506900485605 -0.004059287719428539 -0.0030635823495686054 -7.203445420600474E-4 0.0019060785416513681 0.004984626080840826 -0.0028781723231077194 -0.0036002201959490776 -0.0018100019078701735 0.0025212739128619432 -0.00321128498762846 -0.004017009865492582 -0.004972902592271566 -8.81174230016768E-4 -0.001729042618535459 -0.004613975062966347 -0.0025661177933216095 -8.118525147438049E-4 0.0013735133688896894 0.002774007385596633 -0.0013885198859497905 0.0010556482011452317 -0.00380404619500041
me 0.00293446215800941 -0.0031004606280475855 -0.004424868617206812 -0.0050209094770252705 0.0015396892558783293 -3.6151413223706186E-4 0.004353940952569246 -0.004309043753892183 0.0016547797713428736 -0.003713834099471569 0.0015694837784394622 -0.004562543239444494 0.0022413674741983414 0.0016301859868690372 -0.0024762176908552647 1.1528700997587293E-4 0.0023981891572475433 0.003001856617629528 -4.4259795686230063E-4 2.891173353418708E-4 -0.002109305700287223 -0.0037120580673217773 -0.0011166565818712115 -0.004969303961843252 0.002288532443344593 -0.004165560007095337 -0.004013668280094862 -0.0034932128619402647 0.004098883830010891 -0.0032958299852907658 -3.9366818964481354E-4 0.003513503586873412 0.003170865587890148 1.0387769725639373E-4 0.0033337061759084463 -0.0017489170422777534 -6.014514365233481E-4 4.707243060693145E-4 0.0039043400902301073 0.003673776052892208 0.004858910571783781 -0.002198426751419902 0.0015033897943794727 0.004897639155387878 0.0030914403032511473 -0.0028849851805716753 -1.3558937644120306E-4 -0.004812007769942284 -7.622409611940384E-4 0.004325730726122856 0.00370608689263463 -7.363875629380345E-4 0.004236212000250816 0.004649837967008352 -0.004449306987226009 -0.0012229548301547766 0.0010598818771541119 0.0010281734867021441 -0.0014544168952852488 -0.0015631550922989845 -3.889986837748438E-4 0.0012957846047356725 -7.696746615692973E-4 -0.0019551189616322517 6.412706570699811E-4 0.004907715134322643 -0.004831033758819103 -5.894204368814826E-4 0.0032329848036170006 8.969655027613044E-5 -0.004215736407786608 0.003921850118786097 0.0019202635157853365 0.0036932218354195356 0.0021608928218483925 0.003109851386398077 -0.003566583152860403 -0.0010744204046204686 -0.0028844312764704227 0.002448844024911523 9.73458169028163E-4 -0.004085371736437082 3.928697697119787E-5 -0.004037295468151569 -0.0013330699875950813 0.003745372174307704 -0.0029634954407811165 -3.6645878572016954E-4 -0.0042916275560855865 5.110562779009342E-4 0.003613006556406617 8.870197925716639E-4 0.004112625028938055 0.0015009603230282664 -0.002752371598035097 0.0029619531705975533 -0.0028185807168483734 0.004352174699306488 0.002282933797687292 0.004113213159143925
have 0.0026229871436953545 -0.004201892763376236 0.0037952375132590532 -6.821834831498563E-4 0.0021524967160075903 6.052699245628901E-5 -0.0027899546548724174 -6.583546637557447E-4 0.0027709640562534332 5.45026152394712E-4 -9.449647041037679E-4 -0.0038753733970224857 0.0013534841127693653 -0.0017038867808878422 -0.0030883806757628918 0.0016093362355604768 0.0032390460837632418 -9.466366027481854E-4 -0.004737670533359051 0.00404690345749259 -0.0037520560435950756 0.003183196298778057 -0.004452612716704607 0.003957361448556185 0.0012355518992990255 0.004685279447585344 -0.0030344908591359854 -0.003295299131423235 0.0023655102122575045 0.004213873762637377 0.002003986621275544 -0.002007437404245138 -0.0013972558081150055 0.0022784590255469084 0.0013477160828188062 0.001054868451319635 -0.0021038944832980633 -0.0015225911047309637 0.002693471033126116 -0.004034299403429031 -0.002843437483534217 0.00434813043102622 0.0028662108816206455 0.0034896901343017817 -0.002676948206499219 -0.0035100807435810566 0.00308638671413064 0.003928693011403084 -0.0015226887771859765 -0.003069742815569043 -0.004548396449536085 -2.049841859843582E-4 -0.004571704193949699 -0.0010298084234818816 -0.001231068861670792 0.0039101867005229 -8.262211340479553E-4 0.0019245026633143425 -3.5328121157363057E-4 -0.00435312744230032 -0.0017508398741483688 6.060931482352316E-4 0.002207397250458598 0.002098550321534276 0.0030735733453184366 0.0020366720855236053 0.004903223365545273 -8.150619105435908E-4 0.004928793292492628 -0.0034219908993691206 -0.0014531597262248397 -0.0021880590356886387 -0.004656171891838312 0.0024221520870923996 -8.503972785547376E-4 0.004387666471302509 0.0011845475528389215 0.0023575471714138985 -3.435044491197914E-4 0.0014063171111047268 -0.0019543359521776438 -0.0042364103719592094 -0.0026941068936139345 -4.8377722851000726E-4 0.0016558915376663208 0.0012736505595967174 -0.004759281873703003 0.0021448733750730753 -0.0044029769487679005 -0.004756237380206585 -0.0016640068497508764 0.0032062740065157413 -0.0037321371491998434 0.0023568724282085896 3.8593888166360557E-4 0.004486395977437496 0.0034584503155201674 0.0027532188687473536 -1.7213560931850225E-4 0.0015476802363991737
kindle -0.0025343052111566067 -3.1024275813251734E-5 -0.004829465411603451 0.004454749170690775 -0.0020052259787917137 -5.160612054169178E-4 8.528344333171844E-4 -0.002610215451568365 0.0019095907919108868 -0.0027897979598492384 -0.0030926119070500135 -0.0039855316281318665 0.004640681203454733 0.0047381664626300335 5.769574781879783E-4 -9.170058183372021E-4 -0.0010013480205088854 0.0010539654176682234 -0.004453768488019705 0.003111060941591859 -0.003872425528243184 -0.004383091349154711 0.0011346574174240232 0.004041458014398813 5.572076770476997E-4 -0.0038857636973261833 -0.004841500893235207 -0.001379952416755259 -0.001127666444517672 -1.2784526916220784E-5 1.6126950504258275E-4 -0.0047040642239153385 0.0033951939549297094 -0.004408328328281641 -0.004081433173269033 2.7459702687337995E-4 -0.0015964909689500928 0.0016451666597276926 0.0018710370641201735 0.0013773302780464292 0.0049105314537882805 -0.0016140436055138707 -0.0021385936997830868 0.0012768616434186697 2.3381927167065442E-4 -0.0014234877889975905 0.0025376451667398214 0.0030239850748330355 -3.452981181908399E-4 -0.0038025262765586376 -0.001923652016557753 -0.003229813650250435 0.0021900422871112823 0.0011847146088257432 0.0024909195490181446 0.0019530795980244875 0.003807562403380871 -0.0027165422216057777 0.0017150487983599305 -7.238558027893305E-4 0.00489799166098237 0.0013512094737961888 -0.004246288910508156 0.003987339325249195 0.003709344193339348 -0.002331293188035488 0.0010200445540249348 -0.003806805470958352 -0.004093079827725887 -0.0031907297670841217 -0.002408361993730068 -0.0033978091087192297 0.003447510302066803 -0.0023912645410746336 0.001833706279285252 0.002358066849410534 -0.0019227920565754175 -0.00376715580932796 -0.004786729346960783 -0.004071534611284733 -0.0024261134676635265 0.0025204350240528584 -0.004338242579251528 0.00461618322879076 -0.0017105324659496546 0.0012427327455952764 0.0026963194832205772 -6.837387336418033E-4 0.002914791228249669 0.004743811208754778 -3.442158631514758E-4 -8.353107259608805E-4 0.0047540306113660336 -1.0635214857757092E-4 0.0048538921400904655 2.789233694784343E-4 0.003569620894268155 8.605040493421257E-4 -0.0012287835124880075 0.003732364159077406
just 0.0019197306828573346 -0.0012386728776618838 0.0021700961515307426 -0.003900380339473486 -0.004027950577437878 -7.130380254238844E-4 0.0012918687425553799 0.0024390581529587507 0.002156527480110526 0.0017869852017611265 -2.750555577222258E-4 -0.0019376031123101711 -6.448576459661126E-4 0.0018108898075297475 -0.004464989062398672 -0.0024260920472443104 -0.0016026566736400127 0.0016803941689431667 -0.003298722906038165 -0.0036461190320551395 0.0017968970350921154 0.0032215353567153215 -0.001188680180348456 -0.002795215928927064 -0.002090832684189081 -0.003215667326003313 -0.003095409367233515 -1.3211708574090153E-4 8.567690965719521E-4 -0.0032288602087646723 0.0048722694627940655 -0.003972001373767853 0.004350344650447369 0.00258186599239707 0.004897885490208864 0.004578844644129276 0.0031341821886599064 -5.635269335471094E-4 0.0042012641206383705 -0.0040814741514623165 0.0027863190043717623 -0.004357224330306053 0.0022838127333670855 0.004949699621647596 -0.0025921843480318785 0.0013970123836770654 -0.003730829805135727 -0.004224508069455624 -2.4747647694312036E-4 -0.00300305662676692 0.004927470814436674 -0.004633355885744095 5.148547934368253E-4 -0.0038832100108265877 0.0022525996901094913 -0.001563583267852664 0.0018019299022853374 1.2932595564052463E-4 -0.004942030645906925 -0.0038964131381362677 0.0013303126906976104 -0.0018177555175498128 -0.0011245589703321457 -0.0013377657160162926 0.002900228835642338 0.0012493245303630829 -0.002246097195893526 0.0017527942545711994 -0.003377222456037998 0.0010723082814365625 -0.002294971141964197 0.0018556626746430993 -0.004027664195746183 -0.0028791760560125113 0.003888727631419897 -0.0024632508866488934 0.003664465853944421 0.0028011889662593603 0.004909565206617117 -4.451828426681459E-4 -0.001810313668102026 -0.0039877695962786674 0.003796445205807686 -0.002509690122678876 -0.0034955607261508703 -0.0029664679896086454 0.0017842138186097145 -0.0039285169914364815 -0.0012691154843196273 0.0023867457639425993 -0.0022841435857117176 -0.001295157358981669 -0.004676215350627899 0.002415484981611371 -3.094209241680801E-4 0.0025384321343153715 -0.0028069401159882545 -0.0026179561391472816 0.00432562967762351 6.700788508169353E-4
lebron -0.002619085367769003 -0.001407006406225264 -0.0011468847515061498 0.0035859665367752314 0.002979765646159649 2.2581183293368667E-4 -0.0043296306394040585 -0.0011421421077102423 -4.667355678975582E-4 -9.802834829315543E-4 0.0032619100529700518 -0.001029269420541823 -4.182835982646793E-4 0.003283599391579628 3.127693780697882E-4 0.0026286684442311525 -8.501160191372037E-4 -0.003331749001517892 -0.003082612995058298 9.022619342431426E-4 -0.003906304016709328 -0.001263014622963965 3.425432660151273E-4 0.004458082374185324 -0.002006685361266136 -0.0049979970790445805 0.002574215643107891 -0.0026284134946763515 0.003427212592214346 -0.0018124772468581796 -0.004502392373979092 -0.0023037809878587723 -0.0030110501684248447 -9.527560323476791E-4 0.002206726698204875 0.004950640723109245 3.9296206523431465E-5 0.0016537318006157875 0.003091418882831931 0.004453970585018396 -0.0020217644050717354 -0.00263069081120193 0.00456401240080595 0.0038302813190966845 0.0047318050637841225 -2.0521250553429127E-4 0.0028616487979888916 0.0025252201594412327 0.004491969011723995 6.66067935526371E-4 0.00445284228771925 -5.818807403557003E-4 -9.864186868071556E-4 -0.00242162705399096 0.0025487656239420176 -0.0016913224244490266 -0.00418890081346035 0.004113317932933569 -6.583284121006727E-4 -0.004061275627464056 -0.004848230164498091 0.004652994219213724 -2.0112755009904504E-4 -0.0027419652324169874 0.001470154500566423 0.004246589262038469 0.001119172666221857 -0.0023599951528012753 0.0046580471098423 8.184931939467788E-4 0.003196603851392865 -0.0010691265342757106 -0.0043056621216237545 0.0013016409939154983 -0.0029200632125139236 0.0028165713883936405 0.004302733577787876 -0.002762283431366086 -0.004806771874427795 -0.004659048747271299 0.0016257057432085276 -0.0033919906709343195 -0.001185741974040866 -0.004524347838014364 6.398657569661736E-4 -0.003567699808627367 -0.002670111833140254 0.003081605536863208 0.0031735103111714125 0.002287540351971984 0.0021540599409490824 0.004491457715630531 -1.9441737094894052E-4 0.0025630381423979998 0.003647932317107916 0.004220630042254925 -0.00311336200684309 5.401851376518607E-4 -0.0012698920909315348 -9.064864716492593E-4
a -0.00427161855623126 0.001210843096487224 -0.0044801742769777775 -0.0032473846804350615 0.0024486726615577936 0.0018280831864103675 0.004335017409175634 -0.004946546629071236 -0.0034710844047367573 -0.002329797251150012 -0.0037299590185284615 0.0024312715977430344 2.3036979837343097E-4 -0.003961069975048304 -0.004372256807982922 -3.979980247095227E-4 0.0028723222203552723 0.0025581619702279568 -0.0042694672010838985 0.001760416547767818 8.309289696626365E-4 -0.0030892437789589167 -4.842566850129515E-4 -0.0014690342359244823 0.0049470230005681515 -5.53466787096113E-4 -1.2609593977686018E-4 -0.0012743911938741803 -0.003916970454156399 0.003569241613149643 3.721612738445401E-4 0.0032324851490557194 -0.004475324414670467 -0.003769800066947937 0.004899210296571255 0.0014251715037971735 0.004907341208308935 -2.725306258071214E-4 -0.004501820541918278 -0.001190869021229446 9.400116396136582E-4 -0.0019067913526669145 -0.004763239528983831 -3.393731894902885E-4 0.0020286045037209988 0.0011724948417395353 -0.0020998860709369183 0.0038214894011616707 -0.0013990766601637006 0.003841857658699155 0.004625596106052399 -0.0019086129032075405 4.3424442992545664E-4 -0.004286562092602253 -5.843708640895784E-4 2.170045190723613E-4 -4.8545762547291815E-4 0.002542875474318862 3.6037666723132133E-4 -0.004293958190828562 -2.1278159692883492E-4 0.004417404066771269 -3.1903019407764077E-4 0.004094372037798166 -0.001862726523540914 -0.004988695494830608 -8.026882424019277E-4 0.004095711745321751 0.003744247369468212 0.0012040232541039586 -0.003978890832513571 0.0011701873736456037 -0.004438483621925116 -0.0018971767276525497 0.0013766593765467405 -0.004245794843882322 -0.0044161477126181126 0.003518123412504792 -5.866235587745905E-4 -7.666722522117198E-4 0.002676237840205431 0.001758862636052072 -0.0023070736788213253 0.002474020002409816 0.0038092979229986668 6.698452052660286E-4 0.0018174846190959215 0.004021327942609787 -0.00308816391043365 -0.0020252414979040623 0.003558305324986577 -0.0021929580252617598 0.004555013030767441 0.003743323963135481 0.0028630041051656008 0.0029780955519527197 6.172247813083231E-4 0.0018159820465371013 0.003511817194521427 -0.0010726633481681347
new 0.0019268520409241319 0.002043244196102023 -0.0038093256298452616 -0.004478199873119593 2.385024563409388E-4 -0.002727933693677187 0.0021022430155426264 0.0012780935503542423 0.0036719245836138725 -0.0012953316327184439 0.0022289741318672895 -0.0017417138442397118 -0.0017503558192402124 -0.0011030571768060327 -9.195023449137807E-4 -0.0030224279034882784 -0.00180361932143569 0.0011692941188812256 -0.0026941231917589903 -0.004668530076742172 7.435023144353181E-5 9.814612567424774E-4 0.0029481728561222553 0.0017796268220990896 0.002910175360739231 8.369255810976028E-4 0.0041748653165996075 0.003448977367952466 -0.0017696113791316748 0.0013457279419526458 8.028903394006193E-4 -0.0028800966683775187 -0.0018438621191307902 -2.787353587336838E-4 -0.00147233996540308 -0.0033613303676247597 0.00395570881664753 -0.004387382883578539 0.004770441446453333 0.0026975159998983145 -0.002835421124473214 0.0012131743133068085 0.0031899448949843645 -0.001141943852417171 -0.002259558532387018 -0.004052756819874048 0.0018861598800867796 -0.0011766572715714574 0.0027996727731078863 0.001721518929116428 0.0013505632523447275 -3.4442104515619576E-4 -6.545769865624607E-4 -4.9160688649863E-4 3.3053665538318455E-4 -0.0012686054687947035 0.004248602315783501 -0.0048007480800151825 -0.0035060890950262547 -0.00314623792655766 0.0018451452488079667 -0.0030606999062001705 -0.00369798275642097 0.0036150398664176464 -0.004648921545594931 -0.0029805314261466265 0.002340974984690547 0.003568911924958229 -0.004442929290235043 0.004930803086608648 0.0022378505673259497 0.004116212949156761 -0.0037166732363402843 8.99268954526633E-4 0.0043923091143369675 -3.0893960501998663E-4 0.0019114154856652021 0.004261416383087635 1.1916295625269413E-4 0.0021749052684754133 -0.004580680280923843 -0.004868004005402327 7.584905833937228E-4 0.0036532890517264605 1.1607498890953138E-4 0.004840951878577471 -0.0035301537718623877 0.004838715773075819 -0.0012835098896175623 -0.003999937791377306 -0.0021593000274151564 7.805560599081218E-4 0.0017430350417271256 0.0017340165795758367 7.476870086975396E-5 -0.002995758317410946 3.3287476981058717E-4 0.0035620545968413353 0.001624222146347165 0.003661392955109477
im 0.002371878130361438 -0.004180292598903179 0.0031108350958675146 0.001309726620092988 -0.0023099281825125217 -0.0018909501377493143 -0.0028770931530743837 0.001644169446080923 0.004201415926218033 -0.0025339710991829634 0.0012245143298059702 -8.585236500948668E-4 -3.322292832308449E-5 0.001037859357893467 5.901415715925395E-4 6.100708851590753E-4 7.765463669784367E-4 -0.0038280989974737167 -0.0024917107075452805 0.0032507083378732204 0.0034852607641369104 -0.003444637404754758 -0.004322269465774298 0.004675639793276787 0.0036263838410377502 -0.002568009542301297 0.001987763913348317 0.0033287247642874718 0.0021639170590788126 -0.0016815512208268046 8.706933003850281E-4 -7.499965140596032E-4 0.0011508449679240584 -8.210551459342241E-4 0.004163076169788837 0.0038068091962486506 0.0016465712105855346 -0.0016108957352116704 0.004156225360929966 0.0010348173091188073 -0.001387107651680708 -0.004813011735677719 0.004404173232614994 -0.004896888975054026 -0.0039369575679302216 3.5445205867290497E-4 -7.987618446350098E-4 -5.838951619807631E-5 -0.002591710537672043 0.0029764999635517597 -0.0035456749610602856 -0.0024741091765463352 0.0024755848571658134 0.0024808612652122974 -0.0014558419352397323 -6.163659854792058E-4 0.0017484963173046708 0.00239068572409451 0.0023560153786092997 1.9138885545544326E-4 -0.002929310081526637 0.0014720672043040395 2.457164810039103E-4 0.0036944986786693335 0.0037268935702741146 -0.004465986974537373 0.0015408274484798312 0.004227725323289633 -0.002480945782735944 0.0034472758416086435 -9.937048889696598E-5 0.001935113687068224 -0.0012039514258503914 0.0028681063558906317 -0.0020035174675285816 -0.00239752558991313 -8.290461846627295E-4 -0.0019394446862861514 -0.002697317162528634 -0.0035362644121050835 0.0027716876938939095 -7.542723324149847E-4 7.586564752273262E-4 -8.578250417485833E-4 0.0047341035678982735 0.0014442368410527706 1.9920586055377498E-5 6.019215215928853E-4 0.001697614206932485 -0.0020921160466969013 -0.002619053702801466 0.0013799616135656834 0.004941863939166069 -4.6516957809217274E-4 0.003742428030818701 0.001977587351575494 -0.0016218473901972175 -0.0039935847744345665 0.0022040987387299538 0.0037236674688756466
last 0.002825956093147397 0.0021833113860338926 -4.835168074350804E-4 0.0033032004721462727 -9.718841756694019E-4 0.002826636889949441 -0.004199806600809097 0.0014376566978171468 0.0013094838941469789 -0.003807459957897663 -0.002529963618144393 -0.002059555146843195 -8.437249925918877E-4 0.0014177841367200017 -0.0014156325487419963 -0.0014268592931330204 0.001466069952584803 -0.004023039247840643 0.004181207623332739 -0.00458472641184926 -0.002691178349778056 -0.0023426234256476164 0.0032689999788999557 0.004346905276179314 0.004192762076854706 4.2881560511887074E-4 0.003995197359472513 -0.0046256668865680695 0.004597639665007591 -7.654684595763683E-4 9.442181908525527E-4 0.004976775497198105 -0.0049376399256289005 -4.758410213980824E-4 -6.46665139356628E-5 0.0030181207694113255 -0.001131996512413025 -0.0036439707037061453 -7.592741749249399E-4 -7.826176006346941E-4 4.4917373452335596E-4 -0.0022041122429072857 3.9840780664235353E-4 -0.0010255544912070036 5.048773600719869E-4 7.970519363880157E-4 0.004050760064274073 0.004109543282538652 -8.174826507456601E-4 4.4141997932456434E-4 0.0022651604376733303 0.004002311732620001 -0.00131326075643301 -0.0010514914756640792 -0.0034852628596127033 -1.0034571459982544E-5 0.0029116279911249876 0.0021378069650381804 0.0034017337020486593 5.593211390078068E-4 8.02487600594759E-4 8.430892485193908E-4 -0.0035241362638771534 -0.003546856576576829 4.4502230593934655E-4 3.266299027018249E-4 -0.0016926630632951856 -0.002754510147497058 0.004727736581116915 -0.0016349375946447253 0.0025660546962171793 2.6829956914298236E-4 3.6030865157954395E-4 0.0038064876571297646 -2.2033549612388015E-4 1.9389484805287793E-5 0.001499617239460349 0.0037570325657725334 0.004703124053776264 -0.0016221081605181098 9.944435441866517E-4 0.0020963845308870077 0.0011075484799221158 0.0020379929337650537 0.0010849002283066511 -2.5104894302785397E-4 -0.0027578447479754686 -0.0015504006296396255 -0.0010291369399055839 0.0019012960838153958 0.003130048979073763 0.003970804624259472 -0.004762967582792044 -0.0014806983526796103 -0.0011033598566427827 0.004207548685371876 0.0030657832976430655 -0.0034205627162009478 0.0022990775760263205 0.002247875789180398
in 0.0013603222323581576 -4.6054573613218963E-4 0.0034046731889247894 -9.94153437204659E-4 -0.00498217111453414 -0.0044188667088747025 -0.002774175489321351 -0.004049399867653847 0.0024415955413132906 0.0018042788142338395 0.0048849317245185375 0.004427014850080013 0.0034327383618801832 0.0013897333992645144 -0.004405856132507324 -3.427307528909296E-4 8.370942668989301E-4 -0.0011585497995838523 -0.004709702916443348 0.003911925945430994 8.803037344478071E-4 -0.002396885072812438 -0.0010052028810605407 0.0017333657015115023 0.004138151183724403 -0.0015087565407156944 -0.00419799005612731 -7.637342205271125E-4 0.0018730772426351905 -0.0024239898193627596 0.0014523596037179232 -0.001188667374663055 0.0019224584102630615 0.004129942040890455 -4.4906209222972393E-4 -0.0035750025417655706 -0.002740877214819193 3.256155760027468E-4 -0.004178142175078392 0.004747678991407156 0.0016673174686729908 0.004002964589744806 -0.001603606971912086 0.0011723673669621348 -0.0048849983140826225 -0.0013023788342252374 -0.0029685276094824076 0.004835570231080055 -0.001090247998945415 0.002630027011036873 8.585489704273641E-4 -0.003541563870385289 -0.0028789036441594362 -8.719215838937089E-5 -0.002158861607313156 -0.0034984424710273743 0.002274360042065382 0.0024443964939564466 -0.0019805573392659426 0.0033213449642062187 -3.8414658047258854E-4 0.0025127180851995945 -0.0027385414578020573 -0.0018964606570079923 -0.0036346139386296272 -0.002927455585449934 0.001127598574385047 0.004381221253424883 0.0033265110105276108 -0.0029470946174114943 -2.572284938651137E-5 0.004749480169266462 -0.0037973325233906507 -0.0047912984155118465 0.004988877568393946 -0.004490549210458994 -0.0031992900185287 0.003988937009125948 0.0037130697164684534 -0.003248413559049368 8.995073148980737E-4 0.0030915341340005398 0.00441913865506649 0.0037188336718827486 0.0036381548270583153 -0.0036882951389998198 -6.181428907439113E-4 0.0029547971207648516 0.0021440081764012575 -0.004675761330872774 -0.0027226447127759457 -0.002402067417278886 0.0022509160917252302 0.0016971421428024769 0.0013184294803068042 0.0044444953091442585 0.0014142896980047226 0.004561091307550669 -0.002703526522964239 0.004315757658332586
nike 0.0037518001627177 0.0033065020106732845 0.002762705087661743 -0.00294243055395782 7.413842831738293E-5 -5.701073678210378E-4 0.0023698548320680857 -0.00299462559632957 0.004510356113314629 5.860186065547168E-4 0.004724190104752779 0.0010598781518638134 -0.0031657058279961348 -0.0036379159428179264 0.002556894440203905 0.0020362911745905876 5.094510270282626E-4 -0.0020184358581900597 0.003816335229203105 -0.001433727564290166 0.00419944804161787 -6.603764486499131E-4 0.0016155936755239964 -0.004313979763537645 0.004246928263455629 -0.0020553588401526213 -0.00396143551915884 -0.0038760476745665073 -0.0047112684696912766 -0.0025639557279646397 0.0018394030630588531 -0.00495553482323885 -0.003005104837939143 3.039473667740822E-4 0.0036411925684660673 0.0024937032721936703 -0.0010791233507916331 0.0012343184789642692 0.001470995950512588 0.0017971001798287034 -0.003983025439083576 0.0017159110866487026 -0.002784518990665674 -0.004511350300163031 0.004045708104968071 -0.004938868340104818 0.003936197608709335 0.0015418832190334797 -4.5374728506430984E-4 -0.003981622401624918 0.002514802385121584 -0.0011289037065580487 -0.0035318515729159117 0.0014893802581354976 -9.660806972533464E-4 0.004603308625519276 0.002030012896284461 -0.0036176922731101513 0.0023402038495987654 -0.003648090409114957 -3.698372165672481E-4 -0.003889931133016944 -0.0020875385962426662 -0.004844218492507935 0.0026290244422852993 0.0021435366943478584 0.0019161136588081717 8.108106558211148E-4 0.003441791282966733 -0.003520861966535449 0.0028580024372786283 0.004288865253329277 -0.0019566945265978575 0.004182475619018078 0.004388159140944481 -0.003777875564992428 -0.004055228549987078 0.004053471144288778 1.8404048751108348E-4 -0.003946688957512379 0.0013525390531867743 -0.0017581048887223005 -5.954648950137198E-4 0.001343310927040875 0.0036108193453401327 -0.003856389783322811 0.00432850094512105 0.003040395677089691 -0.0036190294194966555 -7.416099542751908E-4 -0.0039017456583678722 -0.004471201915293932 -0.003922219853848219 0.003154429607093334 -0.002450531115755439 7.768665673211217E-4 -0.001402562134899199 -5.100634298287332E-4 -0.002280909102410078 0.0026958819944411516
want 0.00460333377122879 0.0022256250958889723 0.003384027862921357 0.004214832559227943 -0.002649222034960985 0.0033856905065476894 -4.707642656285316E-4 -0.001114677987061441 -0.0037639501970261335 -0.0026127996388822794 -0.001270091044716537 0.003063285257667303 -0.0013591571478173137 -0.0014958195388317108 -0.004013987723737955 0.002673307666555047 0.0018792960327118635 -0.004362358245998621 -0.0034143158700317144 0.0026746601797640324 0.0036437357775866985 -0.0029885140247642994 0.004036457743495703 -0.00453610485419631 0.0014539341209456325 3.856871335301548E-4 0.0048954542726278305 -0.00469979690387845 0.0038755193818360567 0.0031312729697674513 -5.4066880693426356E-5 0.004621168132871389 -0.004628154914826155 0.0021300851367413998 1.2509376392699778E-4 -0.00370574276894331 -0.00303168804384768 0.0032404232770204544 0.001414993777871132 -0.004756735637784004 5.6102016242221E-4 -0.003742597997188568 0.004427517298609018 2.0716621656902134E-4 -0.0037440063897520304 8.916213409975171E-4 0.0039682756178081036 0.004409391433000565 0.0014832977904006839 5.358818452805281E-4 -6.136850570328534E-4 0.0010465510422363877 0.002632495714351535 -0.0032413271255791187 0.0031437063589692116 0.002841973677277565 0.001705162227153778 -0.004129193257540464 0.0032592862844467163 -9.829618502408266E-4 0.0038706804625689983 0.00376801285892725 8.151399670168757E-4 0.004855399020016193 -0.001049740007147193 8.470201282761991E-4 0.001716536469757557 0.00484186876565218 -0.0029739553574472666 2.7279750793240964E-4 1.259529817616567E-4 -0.0015481236623600125 -0.002864839741960168 -0.002601634245365858 0.003099097404628992 0.002239723689854145 -0.0010243267752230167 0.004106147680431604 0.004742596298456192 -0.0042748283594846725 -0.003740135347470641 -0.001228095730766654 -0.0029911273159086704 -0.0028667296282947063 -0.004066318739205599 -0.00452596228569746 0.0015521327732130885 -0.004056262783706188 0.0038530826568603516 -0.0019798357971012592 -0.0037622437812387943 -0.0030006361193954945 0.0019093349110335112 0.002042240696027875 2.722660719882697E-4 -0.003840625286102295 0.0018929269863292575 0.004833800718188286 0.001761753112077713 -0.0018290256848558784
night -3.1529649277217686E-4 0.0019586924463510513 -0.003500377293676138 -7.032989524304867E-4 -0.0020847374107688665 0.0015942471800372005 -9.958475129678845E-4 0.0013981049414724112 -0.004775869660079479 0.002102350816130638 -0.0023486940190196037 0.004849489778280258 0.0028103019576519728 -0.0023843690287321806 0.004921774845570326 0.004206703044474125 -0.0015621291240677238 0.0032431245781481266 4.680142446886748E-4 -4.1134157800115645E-4 0.0022576397750526667 -0.0037561729550361633 0.0027819194365292788 0.0016923139337450266 2.475845976732671E-4 2.9532500775530934E-4 -0.00420842319726944 0.002605430781841278 0.002922485815361142 -0.0013330774381756783 -0.004560407716780901 -0.0011955243535339832 -0.0030681572388857603 -0.0022938381880521774 -6.605084054172039E-4 0.002826056443154812 -0.0015614088624715805 -0.004670734051615 0.003292762441560626 6.084421183913946E-4 0.00397120974957943 -4.109939036425203E-4 -0.0044357143342494965 -0.002620548941195011 -0.0019626719877123833 -8.88848677277565E-4 -3.378070250619203E-4 0.0021581712644547224 0.0035770286340266466 4.446805905899964E-5 -0.0016373340040445328 -0.002776751294732094 -0.0025283631402999163 -0.001352291670627892 0.004532111808657646 0.001949304947629571 -0.0036119099240750074 0.0016671374905854464 -0.003403998911380768 -0.004969605710357428 -2.9985446599312127E-4 0.0036250133998692036 -0.002084215171635151 5.800474318675697E-4 -5.776961916126311E-4 -0.00397535040974617 -0.0036811120808124542 -4.886903334408998E-4 0.004897166043519974 0.0025532611180096865 -0.004643009509891272 2.1412374917417765E-4 0.003211881499737501 0.004513205494731665 0.0032235439866781235 -0.0027001178823411465 -0.001237156568095088 -0.0019356762059032917 0.0015043263556435704 -4.949977737851441E-4 0.0017463169060647488 -0.003328160149976611 0.002223737072199583 -0.0031712104100733995 3.2205230672843754E-4 -5.763571243733168E-4 -0.004831235855817795 0.0028144398238509893 -0.0028174901381134987 -0.003255021758377552 -7.709350029472262E-6 -0.004307342227548361 -0.0035894925240427256 -0.0013136110501363873 -8.923564455471933E-4 0.003099416382610798 -0.004614630714058876 -0.001482101739384234 -0.004493603017181158 0.0041522616520524025
this 0.004331777337938547 -0.002487662248313427 -0.0010782036697492003 0.003562268801033497 0.003974543418735266 -0.004357780795544386 0.00457505788654089 0.0049176509492099285 -0.0028197357896715403 0.0015602260828018188 0.0017512793419882655 -0.0038222731091082096 -0.0013796393759548664 0.00421228026971221 -7.116954657249153E-4 7.466552197001874E-4 1.2680944928433746E-4 -0.0033674018923193216 -0.0030754597391933203 -0.0022408701479434967 7.318076677620411E-4 0.002693033777177334 9.160184999927878E-4 0.002089876215904951 0.0032066083513200283 0.0030485012102872133 -0.0037646032869815826 -0.0020197362173348665 0.0019030540715903044 -0.003217715071514249 -0.0025917659513652325 0.004407200030982494 -4.077294943272136E-5 -0.004831989295780659 -0.004936972167342901 -2.103353472193703E-4 -0.004509002435952425 -0.0048730699345469475 3.5742789623327553E-4 0.0027881679125130177 0.00457970704883337 -0.0025593687314540148 -0.0034337101969867945 5.949718979536556E-5 -0.0021994546987116337 -0.002919754246249795 -1.3093043526168913E-4 -2.3464765399694443E-4 9.183114743791521E-4 -0.0049637844786047935 0.005004418082535267 -0.002980204299092293 0.0018654336454346776 0.0024603225756436586 0.004617018159478903 9.78226016741246E-5 -0.004047342576086521 -2.252893609693274E-4 0.001458047772757709 0.0046339454129338264 9.001412545330822E-4 0.0016772594535723329 0.004374687094241381 0.0013341306475922465 -0.00111347995698452 -4.582038673106581E-5 0.003313610330224037 -0.0032621135469526052 -0.0019824975170195103 0.0035529739689081907 -0.0029778494499623775 -3.42987768817693E-5 1.5254765457939357E-4 0.004483285825699568 -8.03510716650635E-4 0.0016505257226526737 0.0010349530493840575 0.0022954409942030907 0.0015844607260078192 0.002391069894656539 -1.3728145859204233E-4 0.0014139277627691627 -0.003456076607108116 -0.0020596375688910484 -0.004194146953523159 0.003332620020955801 6.913117249496281E-4 0.0025238096714019775 -0.0010311510413885117 0.003640189068391919 9.947000071406364E-4 0.0043206955306231976 0.004641238134354353 0.0025766324251890182 -0.0012483614264056087 -0.004106857348233461 0.004334203898906708 0.0029360728804022074 0.001067985431291163 0.004547008313238621
was -0.003908711485564709 0.0020686108618974686 -0.0026215610560029745 -0.0033754578325897455 7.103477255441248E-4 -0.003089088248088956 -9.536800789646804E-4 -0.004554602317512035 0.0010566296987235546 8.115926175378263E-4 -0.003040690440684557 2.693093556445092E-4 -4.2961203143931925E-4 1.3117522757966071E-4 -9.59567551035434E-4 -7.720536086708307E-4 -0.004593185614794493 0.0011137265246361494 0.0030291927978396416 -0.0032584103755652905 0.001400832668878138 0.0030865792650729418 -0.0021057843696326017 -0.003483585547655821 -3.3883415744639933E-4 0.00435870885848999 0.00454257195815444 -0.003648383542895317 0.004426035098731518 0.0034789368510246277 0.00172144896350801 -0.0012780699180439115 -0.0022392983082681894 -4.43979020928964E-4 -0.0021694577299058437 6.723030237480998E-4 2.1151364489924163E-4 -0.0018343119882047176 0.004342139232903719 0.0020247185602784157 0.0014428809517994523 -0.003252886701375246 0.0019639863166958094 -3.6631515831686556E-4 0.004634317010641098 0.0010940354550257325 0.001776847057044506 -9.333521593362093E-4 -6.714515038765967E-4 0.004561536014080048 -0.0011260734172537923 -0.0010653467616066337 -0.0014930898323655128 -4.936064360663295E-4 -0.0022337634582072496 0.004603623412549496 0.003625095821917057 9.024902828969061E-4 -0.004696006886661053 -0.004513659980148077 -0.004036901984363794 0.0032643398735672235 0.0045260535553097725 0.003044411074370146 -0.0035317775327712297 1.5148194506764412E-4 -0.0013569624861702323 0.004928489215672016 -0.003263655584305525 -1.315541594522074E-4 0.004392276983708143 0.003063962794840336 0.0031214277260005474 -0.0015745008131489158 0.0021182477939873934 -0.002032954478636384 -0.0037379120476543903 -0.004204878117889166 0.0027646927628666162 0.0030431959312409163 -0.0028840829618275166 0.0021854834631085396 -1.5679965144954622E-4 -5.929681938141584E-4 0.004261560272425413 6.235683104023337E-4 -0.001416216604411602 -0.0034138085320591927 -0.004923731554299593 2.977076801471412E-4 -0.004716644994914532 0.002884360495954752 -3.6293378798291087E-4 0.003190811024978757 8.044044952839613E-4 -0.0014212368987500668 -0.0020669838413596153 0.002692548092454672 -6.218517664819956E-4 0.001690155710093677
i -0.001607296522706747 -0.003247740911319852 -0.0037026400677859783 -0.0018773319898173213 0.003078381298109889 0.0031702143605798483 -0.0023850270081311464 -0.0012013147352263331 -0.0035118847154080868 -0.004350269213318825 0.0015090445522218943 7.024743827059865E-4 -0.00432793702930212 0.0015165309887379408 0.0033408787567168474 0.00364105636253953 -0.002786345547065139 -3.951313265133649E-4 -0.002751318272203207 0.0027505187317728996 0.001566600170917809 0.0029013212770223618 -0.002856096252799034 0.0047032092697918415 0.0019709656480699778 -0.001111235935240984 -0.003030163701623678 -0.0019349433714523911 -0.0017610961804166436 -0.0022948007099330425 0.0015924505423754454 -0.0027697524055838585 8.805451216176152E-4 -0.004710084293037653 7.650131592527032E-4 0.002351136179640889 0.004718656186014414 -0.004467570222914219 -0.004278018604964018 0.004065512213855982 -0.004053988493978977 0.0036354754120111465 -0.0010092239826917648 6.72576017677784E-4 -0.0050937398336827755 -0.002501485636457801 -0.004707136657088995 -0.004491101019084454 0.003185019828379154 -0.0043503171764314175 -0.0024786198046058416 0.004914885386824608 8.424431434832513E-4 0.001792111899703741 -0.0034939004108309746 4.1872303700074553E-4 -6.930066738277674E-4 0.0041486723348498344 -1.2682576198130846E-4 -0.0048022186383605 6.336838123388588E-4 7.284106686711311E-4 -0.0032442056108266115 0.005003261845558882 0.002569781616330147 0.003956252709031105 0.003384047420695424 0.00398082984611392 0.004133871290832758 -0.0030894498340785503 0.003027621889486909 -0.0013811992248520255 -9.328759624622762E-4 -9.50129353441298E-4 -0.004154786001890898 -9.473336394876242E-4 -0.0045889876782894135 0.004606443457305431 0.0021512415260076523 -0.0046292743645608425 0.0011379632633179426 -0.002965557388961315 0.0021278567146509886 -2.884824061766267E-4 0.0015924469335004687 -0.0036477327812463045 0.002275752602145076 -0.0024991678074002266 0.002997791161760688 -0.004109466448426247 -0.0023916801437735558 -0.0015456393593922257 -5.517936660908163E-4 0.0023836405016481876 0.0013360441662371159 -0.0018945916090160608 -0.003233455354347825 9.783371351659298E-4 -0.002725802129134536 0.0031954841688275337
its -0.002911657327786088 -0.004340628162026405 0.003399983048439026 -0.0032398721668869257 0.0021618970204144716 0.003441869979724288 -0.004717872478067875 -4.746670601889491E-4 -0.003559880657121539 -0.0022800101432949305 0.0029485805425792933 -0.0010042975191026926 -0.0017536510713398457 -0.0036043599247932434 9.986332152038813E-4 -0.0017045496497303247 -0.0018087135395035148 -0.0016844301717355847 -1.3877908349968493E-4 0.002834226004779339 -0.0036347126588225365 -2.8950598789379E-4 1.6240723198279738E-4 8.303618960781023E-5 1.0269526683259755E-4 -0.004863772541284561 0.004718438256531954 -0.0017506249714642763 -0.003186387475579977 -0.0022670715115964413 -0.0015001611318439245 0.0018579254392534494 0.004149006679654121 -0.002517967252060771 -0.003466732567176223 0.0031113666482269764 0.0026635106187313795 0.0026883326936513186 0.004834892228245735 0.0012291108723729849 0.00413140095770359 0.0022549210116267204 -0.003964603412896395 7.13908055331558E-4 -0.001847183215431869 -0.003707574913278222 -0.0020300508476793766 0.004233209416270256 -0.004951421171426773 0.0013512626755982637 -0.003571299836039543 -0.0031311458442360163 0.0013275821693241596 0.004157989751547575 -0.003958320710808039 -0.0018810302717611194 -0.002586758229881525 0.0018750751623883843 0.00338629144243896 0.0038215776439756155 -0.001965971663594246 -0.0038215918466448784 -0.001656339387409389 0.0013123145326972008 0.0038153815548866987 -0.004418073687702417 -0.001993164885789156 0.0043616946786642075 -0.0010399935999885201 -0.004886460956186056 -0.0022679800167679787 -0.0010090295691043139 0.003610980464145541 0.004549921955913305 -0.0015964135527610779 0.004571027588099241 0.0032429115381091833 0.004267010372132063 -8.010109886527061E-4 9.478718275204301E-4 0.00415336387231946 -0.004262739792466164 0.001162671367637813 4.3988614925183356E-4 -0.0039853802882134914 -7.575649651698768E-4 -0.003972344100475311 -0.0016375866252928972 0.004942809231579304 0.004287087824195623 -0.0047780489549040794 0.0034060401376336813 0.0016692933859303594 0.004401326645165682 -0.00136741588357836 0.0026461309753358364 -0.0037717835512012243 0.0014735253062099218 -0.0019869976677000523 -1.567847648402676E-4
is 0.0019021949265152216 0.00411031162366271 0.0047767991200089455 0.0011968255275860429 6.173598230816424E-4 -1.9013104611076415E-4 0.0025447667576372623 -0.0012752567417919636 -0.002584761707112193 -5.175883998163044E-4 -0.00402486277744174 -0.0025134894531220198 -2.4313460744451731E-4 0.005164300557225943 0.0019639607053250074 -1.89697282621637E-4 -0.0013248290633782744 -0.004325978457927704 -2.4584002676419914E-4 -0.003708808682858944 0.0036234769504517317 -0.00450463080778718 1.7796595057006925E-4 0.0033556988928467035 -0.00252651353366673 0.002009205985814333 0.0028867097571492195 0.0023655788972973824 0.0017788286786526442 0.0024075699038803577 -0.0024115005508065224 0.003246739972382784 -0.0020498239900916815 0.0024992981925606728 -1.6929149569477886E-4 0.0023806132376194 0.003032670821994543 0.004262218251824379 0.0022734119556844234 0.003554342547431588 0.0035170656628906727 0.001838397467508912 -0.004484598990529776 0.0022445404902100563 -0.0044774506241083145 0.003177840728312731 0.0013203028356656432 0.003222030121833086 0.0022545703686773777 -0.00304596615023911 0.0039727394469082355 0.0035396667663007975 -7.505681714974344E-4 0.002876919461414218 0.003548164153471589 -6.487694336101413E-4 -0.0023741440381854773 -0.004608971998095512 -0.0015815933002159 -0.004793795291334391 -0.0028198971413075924 0.002395561896264553 -0.004665233660489321 -2.4188094539567828E-4 0.0037135027814656496 -0.004813710693269968 -0.004695133306086063 -0.00423961877822876 0.0023784006480127573 0.0020164090674370527 -5.854855990037322E-4 0.003689270932227373 -0.0036899184342473745 -9.331318142358214E-5 0.002883895533159375 0.004714447073638439 -0.0017738370224833488 -0.0033847796730697155 9.316322393715382E-4 -8.841115050017834E-4 0.003181756939738989 -0.00468356441706419 0.004588522482663393 0.002073022536933422 -0.00246015889570117 -0.0031709896866232157 -0.001510039553977549 -1.4291565457824618E-4 0.001673394814133644 -0.002663105959072709 -0.0013731587678194046 0.0034781105350703 0.0037760338746011257 -0.004552289377897978 -0.0023640680592507124 -0.001556172501295805 -0.001983011607080698 -0.001635852619074285 6.17271798546426E-5 -0.001999339321628213
it -0.0048420727252960205 0.0014414424076676369 -0.0012386380694806576 0.004916265141218901 0.0019941008649766445 0.0017841772641986609 -0.001254767063073814 -0.004320905078202486 0.0012443738523870707 -0.002124754711985588 -3.6236149026080966E-4 0.0018342671683058143 6.209842395037413E-4 0.0029251237865537405 -0.0021619084291160107 -7.385750068351626E-4 -0.004335447680205107 0.004361734725534916 -0.0043596625328063965 -0.0012108833761885762 1.562691613798961E-4 0.003654538420960307 0.0017559303669258952 -0.0024715159088373184 0.0017731667030602694 0.0015580750769004226 0.0023479056544601917 0.0020291032269597054 -4.093589377589524E-4 -0.002911254297941923 -0.004039995837956667 -0.0033154261764138937 -0.002604765584692359 0.004816186148673296 -3.5151763586327434E-4 -0.0015624951338395476 0.0013299462152644992 -0.004920060746371746 0.0025817726273089647 0.0037302952259778976 0.0024132661055773497 -0.0015368328895419836 0.0027930319774895906 -0.0014114765217527747 -0.005023799370974302 0.004114336334168911 -0.004256751388311386 0.0032036134507507086 2.96496698865667E-4 0.0036299789790064096 -0.0032965978607535362 0.001797377597540617 -0.003657365683466196 -0.0022050663828849792 0.00130330806132406 0.0029380915220826864 -0.004861068911850452 0.0018326068529859185 0.0018608501413837075 -0.00109499238897115 -0.0029470499139279127 2.4309338186867535E-4 -0.005022092256695032 -1.647444732952863E-4 0.0014906725846230984 -0.002618608996272087 -0.004524353891611099 6.905809859745204E-4 0.0031129990238696337 -0.004716777708381414 -0.0032581270206719637 0.004559455905109644 -0.0013349429937079549 2.3629872885067016E-4 -5.203598993830383E-4 -0.00112436362542212 -0.0016070283018052578 -4.298943094909191E-4 2.9750855173915625E-4 -5.090573686175048E-4 -2.36870109802112E-5 0.004768111277371645 -0.0022244176361709833 0.001642350573092699 0.002676347503438592 -0.0038751058746129274 0.0036574751138687134 -0.004468743689358234 0.002973109483718872 -9.86881204880774E-4 -0.0010424196952953935 -0.0021596949081867933 -0.0033493260852992535 -0.003157071303576231 -0.0011524662841111422 0.004992308095097542 0.004934215452522039 0.0038898529019206762 0.001890899264253676 -0.003001599572598934
my -0.0047766403295099735 0.0020823017694056034 -0.0016630841419100761 0.003920034039765596 -0.002338244579732418 -0.0031818889547139406 0.0017482350813224912 -0.001117741223424673 -0.003947176970541477 0.003185498295351863 -0.004308074247092009 0.002940100384876132 0.0011445187265053391 -1.0038202162832022E-4 -0.0026761330664157867 -9.823251275520306E-6 0.0019347239285707474 0.0033501421567052603 0.0019239649409428239 -0.004330748692154884 -0.002609655261039734 0.004899907391518354 0.0029636151157319546 0.0032311473041772842 0.00284419022500515 -0.001718592830002308 0.0022015520371496677 0.0030222025234252214 2.4622457567602396E-4 0.003382299095392227 -0.0015469533391296864 -5.422671092674136E-4 0.004032669588923454 -0.004012778401374817 -0.0032925624400377274 0.0015475801192224026 -5.693329148925841E-5 -0.004151121247559786 -0.0039828806184232235 -0.0033009699545800686 -0.0012141675688326359 3.950205573346466E-4 0.0013856765581294894 -0.001125773531384766 -0.002766431774944067 -0.003829472465440631 6.151644047349691E-4 -0.003719317028298974 -0.001004815916530788 -3.276000788901001E-4 0.0030444373842328787 -0.0028499991167336702 -0.003522111801430583 -0.002402073238044977 -0.004541631322354078 0.0036156647838652134 -0.004785760771483183 0.0016468733083456755 0.0036410402972251177 0.004181340336799622 0.0029703734908252954 0.0014889261219650507 0.0014102907152846456 4.5414824853651226E-4 3.042427415493876E-4 0.0035117745865136385 -0.004648956004530191 0.0018092799000442028 8.425087435171008E-4 0.002311103977262974 -0.004345746710896492 -0.001674115308560431 0.0017051129834726453 -0.004605327267199755 0.004259164445102215 0.003967437893152237 0.0014495366485789418 -0.0047592055052518845 -0.00427789893001318 -0.0015513439429923892 0.0035764770582318306 -0.003582117846235633 7.938239141367376E-4 7.181183318607509E-4 -0.0015577329322695732 0.002332181204110384 -3.775780205614865E-4 0.0021560396999120712 -0.0025874583516269922 0.0016274885274469852 0.004024304449558258 4.4693867675960064E-4 0.001876228372566402 1.349223603028804E-4 0.004162447992712259 0.003895758418366313 0.003496180521324277 0.003658943809568882 -0.004829310812056065 0.001555955852381885
dinner 0.0038663193117827177 -0.004051511641591787 0.0020724544301629066 -0.0026244777254760265 -0.002784516429528594 0.002716576447710395 -0.0010982466628775 0.002420485019683838 -1.9028258975595236E-4 -3.53359297150746E-4 -0.003692306810989976 -0.004541849717497826 -7.155914208851755E-4 0.0029107448644936085 -0.0020170474890619516 -0.003382839960977435 0.0033800480887293816 0.0032378132455050945 0.001611012383364141 -0.0045231725089251995 8.528039907105267E-4 -0.003081591334193945 -0.0035734628327190876 -0.0020868133287876844 8.296190062537789E-4 0.004708316642791033 0.0012335132341831923 -8.274691645056009E-4 0.00396248884499073 0.003630677005276084 -9.858815465122461E-4 1.1902719415957108E-4 0.003136636456474662 -6.899491418153048E-4 -0.0036134289111942053 -0.003978651482611895 -0.0021527011413127184 0.0016472766874358058 -0.0018723966786637902 0.003960560541599989 0.0015099603915587068 4.002261266577989E-4 0.002042165258899331 0.002916180994361639 9.969824459403753E-4 0.002330299001187086 -0.004887833725661039 -0.0016408020164817572 -0.001163697917945683 -6.0168287018314E-4 -3.8922668318264186E-4 0.004872619640082121 -3.179539635311812E-4 0.004291186574846506 -2.1312404714990407E-4 0.0014881654642522335 -0.0041358270682394505 0.0023812938015908003 0.0025515935849398375 -8.558353874832392E-4 0.00211083865724504 0.002152428962290287 -0.0033450282644480467 -4.958770587109029E-4 0.002497977577149868 -0.004691636189818382 0.0012311342870816588 0.0049057225696742535 -0.0016058633336797357 0.003449444193392992 -0.004759191069751978 0.001831847708672285 0.0031136206816881895 0.004100196994841099 0.0041203731670975685 0.0034673651680350304 0.004709442611783743 0.003743342822417617 -2.7717783814296126E-4 0.0018078675493597984 -0.001390426536090672 1.2443725427147E-4 0.003948340192437172 0.004321175627410412 0.0016837255097925663 -0.0027571215759962797 -0.0021226974204182625 -0.003401563037186861 0.004312284290790558 -0.0020183625165373087 6.513922708109021E-4 0.0035365568473935127 6.0544211919477675E-6 0.0026217338163405657 -0.0025579824578016996 0.0037239401135593653 7.53996311686933E-4 -0.0029006055556237698 0.0014499843819066882 -0.002915439195930958
an -0.0034298247192054987 -0.0031757729593664408 0.003779043909162283 0.002174660563468933 -0.003540400415658951 0.001556555973365903 -0.001002698321826756 -6.889949436299503E-4 0.001339481445029378 0.0019447755767032504 0.00204355176538229 -0.0012459619902074337 -0.004085962660610676 -0.0018830829067155719 -0.0028063799254596233 0.002758545335382223 0.00374062592163682 -0.004847959149628878 0.004168660845607519 -3.7896388676017523E-4 0.0033738981001079082 0.0011896744836121798 3.1380559084936976E-4 0.004794543609023094 -0.004677854012697935 -0.004183090291917324 -4.758678551297635E-5 0.00432332418859005 0.0029217833653092384 -0.0033525717444717884 0.0049804518930613995 0.0034024356864392757 -0.001339533133432269 4.1962784598581493E-4 -0.003671583253890276 -0.0044577158987522125 -0.0034347844775766134 -0.004648294299840927 0.001454089069738984 -0.001679335837252438 0.0037908435333520174 0.0024403834249824286 0.0035671161022037268 -0.0016999421641230583 0.004521525464951992 6.54740899335593E-4 -0.00412619486451149 -0.002891765907406807 -0.004299531225115061 -0.0031513357535004616 -0.0033399194944649935 -8.022346301004291E-4 0.004762429744005203 -0.0038872777950018644 6.271036108955741E-4 0.002952437847852707 0.0017923758132383227 -1.9060478371102363E-4 2.2271438501775265E-4 -0.002926912624388933 -0.0011604403844103217 0.0031862647738307714 0.004909551702439785 0.0016543290112167597 -0.0026454837061464787 -0.00442603649571538 0.0025028998497873545 0.004593478515744209 0.004585779272019863 -0.0021076707635074854 -0.0034180455841124058 -0.0024948962964117527 9.084655903279781E-4 -0.003358206246048212 0.0038423764053732157 -0.0049792006611824036 -0.0024519723374396563 -0.0012187602696940303 -0.0026006337720900774 0.004339277744293213 -5.686024087481201E-4 -0.0014662109315395355 3.544089267961681E-4 -0.0038298899307847023 2.5486128288321197E-4 -0.003964073956012726 -0.0039007028099149466 -0.0038093586917966604 0.003252678783610463 7.656356319785118E-4 -0.004541247617453337 -0.004836882930248976 -0.002235908294096589 0.0025926860980689526 0.004032906144857407 -0.0014702777843922377 -0.004159435164183378 0.0042695957235991955 0.002352218609303236 0.0015455565880984068
the -0.003089677542448044 -0.0011221576714888215 0.0042604790069162846 -0.003392515005543828 0.0026183498557657003 0.004211819265037775 0.004201546311378479 0.0026797072496265173 9.431973448954523E-4 0.004754998255521059 7.419586763717234E-4 0.0023905958514660597 0.0025292092468589544 0.004389873240143061 -0.0041167340241372585 0.00454834895208478 -0.001546576851978898 -0.001944266608916223 -0.0014081011759117246 0.001399932079948485 0.004784512799233198 -0.002998488722369075 -0.0035731412936002016 0.004263695795089006 0.0010536244371905923 9.696318884380162E-4 -3.191086871083826E-4 0.004473756067454815 -0.0021029857452958822 -0.004833279177546501 0.0010953969322144985 0.0013402742333710194 0.0013578372308984399 -0.0040792496874928474 0.0018840826814994216 -1.3381089956965297E-4 4.933119635097682E-4 0.00319627090357244 0.0011458478402346373 -0.0027667214162647724 -6.310769240371883E-4 7.356666028499603E-4 -0.00500304251909256 -0.0023948282469063997 -0.004649303387850523 0.0038972815964370966 -5.718371248804033E-4 0.003994505386799574 0.003357813460752368 0.0018974021077156067 9.859803831204772E-4 -0.0032428998965770006 -7.298022392205894E-4 0.0025784631725400686 0.0014627345371991396 -1.7023185500875115E-4 8.615691913291812E-4 0.0025689094327390194 -0.0017865634290501475 9.614392183721066E-4 0.0019970086868852377 0.00303693488240242 3.075739732594229E-5 0.003219375852495432 -0.002612694399431348 -0.004620953928679228 0.004818190820515156 0.0019231990445405245 0.005196657497435808 0.004083815962076187 0.004501388408243656 -1.9177615467924625E-4 0.0013297849800437689 0.0024281071964651346 0.0013785887276753783 -0.004186656326055527 0.0028134784661233425 0.003070385428145528 -0.001260786666534841 0.001715080114081502 -0.001224317355081439 -0.0037034298293292522 5.404245457611978E-4 -0.0017728526145219803 4.828735254704952E-4 -0.0012279602233320475 -0.0030521946027874947 -0.00361874932423234 -0.002023753011599183 -0.003383476985618472 0.003953194245696068 0.0012088035000488162 0.0041839866898953915 -0.002222009003162384 -6.658112979494035E-4 -6.723689148202538E-4 0.004568912088871002 -0.0035947919823229313 0.001993732061237097 -0.004135964438319206
with 0.003831583773717284 0.0035861933138221502 0.0036575738340616226 0.004670743830502033 -0.0019100557547062635 0.004090087488293648 2.3490963212680072E-4 -0.0011474501807242632 0.004981662146747112 -0.0018602439668029547 0.003178121754899621 -0.002054744865745306 7.34589877538383E-4 -4.085631517227739E-4 -0.0037092266138643026 -0.0016515437746420503 -5.910940817557275E-4 -0.002709643915295601 -0.002709347987547517 -0.003979173023253679 0.001487996894866228 -0.004008385818451643 -4.5869898167438805E-4 0.0033167412038892508 -0.003982667811214924 -0.003008756088092923 -0.0016863307682797313 -0.004761480260640383 -0.003322164062410593 0.002088728826493025 -0.0032494785264134407 0.0019108242122456431 2.5932915741577744E-4 0.0014847622951492667 4.779206938110292E-4 0.003197944024577737 1.2029021308990195E-4 0.0025109718553721905 0.0035844503436237574 0.0028167974669486284 0.0024771983735263348 -0.0035265637561678886 0.004459277261048555 0.0027660061605274677 0.0028726642485708 0.0033537782728672028 -7.937300833873451E-4 -0.0016339414287358522 -0.004771080799400806 -0.00363182439468801 0.0040023550391197205 -0.004249620251357555 0.0035705426707863808 0.0028032008558511734 -3.749502939172089E-4 0.0036269845440983772 0.0044484492391347885 -2.5589182041585445E-4 -0.002091570757329464 0.0035468137357383966 -8.356735925190151E-4 -0.002916347701102495 0.001770052476786077 -0.003889372805133462 0.003893537214025855 0.0024923670571297407 0.00318007986061275 0.003916924819350243 0.0010415135184302926 7.789091614540666E-5 -0.001496147713623941 0.0029872674494981766 -0.0042661027982831 0.004535065032541752 0.003976636566221714 -6.797898095101118E-4 0.004265614319592714 7.592636393383145E-4 -3.881440497934818E-4 0.0027475382667034864 0.004591885022819042 0.0023057651706039906 0.003558787750080228 -9.722596150822937E-4 -1.4469731831923127E-4 0.001478428253903985 0.003946957178413868 -0.002624205080792308 -3.60495614586398E-4 -0.004692899063229561 1.7230249795829877E-5 0.0022013604175299406 0.004889082629233599 -0.0038913125172257423 -0.0047471122816205025 0.003521169302985072 -0.003056416055187583 0.004392234608530998 -7.861122721806169E-4 6.778445676900446E-4
there 0.002493112115189433 0.004863786045461893 -0.003221555845811963 0.004349670838564634 -0.003665723605081439 -0.004090449772775173 -0.0019085253588855267 -0.001389911980368197 -0.0018374400679022074 -6.607365212403238E-4 0.004576458130031824 0.002281111665070057 0.003051697975024581 0.004776611924171448 -0.0025100097991526127 0.004283662885427475 -0.0010643918067216873 -0.004650202114135027 0.001821979763917625 -0.003517905715852976 0.0048789954744279385 0.004313542507588863 -0.0038901851512491703 -0.0037005869671702385 0.0022978298366069794 0.0028785881586372852 -0.0027670536655932665 -9.3096710043028E-4 -0.0021184009965509176 0.003133436432108283 -0.004215563181787729 0.003923432435840368 -0.0019338208949193358 -0.0034731156192719936 1.0333828686270863E-4 -0.0017292564734816551 -0.00229631457477808 -1.2169021647423506E-4 -0.004703863058239222 -0.0017035206547006965 0.002763936063274741 -0.003925334196537733 0.003807083470746875 -0.003246449399739504 0.003080804133787751 0.0028697096277028322 0.001611436833627522 0.003890541149303317 -0.004798256792128086 -0.0017150656785815954 0.002606475492939353 -0.0023654208052903414 -0.0030796907376497984 -7.984786061570048E-4 -0.0012179932091385126 -1.8514777184464037E-4 0.0023166448809206486 -0.0027771852910518646 0.003580190008506179 0.003905358724296093 0.0018072990933433175 8.949406910687685E-4 -0.003393823280930519 -0.004489223938435316 0.0026862716767936945 -0.0017254537669941783 -0.004656010773032904 -0.0013497654581442475 0.0035898585338145494 0.00284079322591424 -5.394033505581319E-4 0.0043558417819440365 -0.003915994428098202 1.0299191490048543E-4 -0.004527943674474955 -0.0026805175002664328 2.2541773796547204E-4 -6.910962983965874E-4 7.650507614016533E-4 -6.304507260210812E-4 8.388696005567908E-4 -0.0045788707211613655 -6.203105440363288E-4 0.0018027297919616103 0.004439410753548145 0.0014423857210204005 -1.4217825082596391E-4 -0.004152941517531872 0.0033302530646324158 0.004954456817358732 0.001207600929774344 0.002226968063041568 0.0017734047723934054 -0.004481707699596882 -0.004478949587792158 0.003065715776756406 0.0028135101310908794 -0.004680754616856575 -0.0037823624443262815 0.001671056728810072
to 0.0017718990566208959 0.0032352369744330645 0.003611065214499831 -0.0041864244267344475 0.004296938888728619 -8.410337031818926E-4 -0.00252542644739151 -0.004360179416835308 0.004324345383793116 6.224624812602997E-4 -0.0027264407835900784 0.0028925270307809114 -0.0021291181910783052 0.004722472745925188 6.12691743299365E-4 -0.002828838536515832 -0.0022199691738933325 0.001698680454865098 -0.003284037346020341 0.001433597062714398 0.0035118628293275833 -0.002498401328921318 0.0018274076282978058 0.0038330871611833572 -0.003619927214458585 -0.0024258955381810665 -0.0042029558680951595 -0.0026177552063018084 0.0011300562182441354 0.003073144471272826 -0.002297579310834408 -0.0035787217784672976 4.915465251542628E-4 -0.004365577362477779 -0.00326979486271739 -0.002106394851580262 -0.0030863862484693527 0.002393727656453848 0.004483582451939583 -0.0045882114209234715 0.0011360659264028072 0.0031318257097154856 -0.002358181169256568 -2.4997052605613135E-5 -3.178151964675635E-4 -0.001856293180026114 -0.004351387266069651 0.004653198644518852 -0.0033406445290893316 -0.002571752993389964 -0.0026812516152858734 -0.002697915071621537 0.003401294117793441 -0.004976383876055479 0.0034275385551154613 -3.348464088048786E-4 -0.0022748219780623913 5.430896417237818E-4 6.889748328831047E-5 -1.4910552999936044E-4 -0.0031567090190947056 0.0010175819043070078 0.002613046206533909 0.0013812140095978975 0.0022607161663472652 -0.0020376662723720074 -0.0018545063212513924 0.003462935332208872 1.1815864854725078E-4 0.00491925748065114 -0.002949679736047983 -0.0048420727252960205 -1.230254420079291E-4 0.0036156000569462776 0.0034062424674630165 0.0015579938190057874 -0.004337694030255079 -2.6721839094534516E-4 -0.004414048977196217 -0.002666074549779296 -0.002062713261693716 -0.0018786616856232285 -0.00444265129044652 -0.004377114586532116 0.0019974447786808014 -0.0011618256103247404 0.003485472407191992 0.0036327489651739597 0.0025861479807645082 4.5439042150974274E-4 0.0030248111579567194 2.889811003115028E-4 0.0037541985511779785 -0.0027808966115117073 -0.0028413257095962763 0.00484886160120368 0.0032497358042746782 -0.0018544316990301013 -0.004941930994391441 -0.0010316253174096346
